{"learner":{"attributes":{"best_iteration":"5","best_score":"0.6850269089473068","scikit_learn":"{\"_estimator_type\": \"classifier\"}"},"feature_names":["predicted_total","prediction_std","market_line","model_market_gap","abs_model_market_gap","gap_per_sigma","num_books","base_p_over","base_edge_prob","high_tail_prob_9p5","low_tail_prob_7p5","hours_to_first_pitch","pinnacle_available","pinnacle_delta_consensus","pinnacle_delta_model","draftkings_available","draftkings_delta_consensus","draftkings_delta_model","fanduel_available","fanduel_delta_consensus","fanduel_delta_model","betmgm_available","betmgm_delta_consensus","betmgm_delta_model","caesars_available","caesars_delta_consensus","caesars_delta_model","market_line_std","market_line_range","books_above_consensus","books_below_consensus"],"feature_types":["float","float","float","float","float","float","int","float","float","float","float","float","float","float","float","float","float","float","float","float","float","float","float","float","float","float","float","float","float","float","float"],"gradient_booster":{"model":{"cats":{"enc":[],"feature_segments":[],"sorted_idx":[]},"gbtree_model_param":{"num_parallel_tree":"1","num_trees":"26"},"iteration_indptr":[0,1,2,3,4,5,6,7,8,9,10,11,12,13,14,15,16,17,18,19,20,21,22,23,24,25,26],"tree_info":[0,0,0,0,0,0,0,0,0,0,0,0,0,0,0,0,0,0,0,0,0,0,0,0,0,0],"trees":[{"base_weights":[3.5260913E-3,-5.584623E-1,8.37065E-1,-7.7177715E-1,-4.2400382E-2,4.0561524E-1,1.3745387E0,-1.0218089E0,-4.484709E-1,5.6195162E-2,-6.6346765E-1,7.039887E-1,-6.140259E-2,1.7630585E-1,1.4905556E0,-6.593878E-2,-4.260363E-2,-1.6327674E-2,-4.1351765E-2,-3.2929021E-3,2.6157355E-2,-3.947362E-2,2.1758672E-2,4.9784638E-2,2.9751629E-2,-1.5488959E-2,2.7039954E-2,-4.6680413E-2,2.1715371E-2,6.949835E-2,9.6433066E-2],"categories":[],"categories_nodes":[],"categories_segments":[],"categories_sizes":[],"default_left":[0,0,0,0,0,0,0,0,0,0,0,0,0,0,0,0,0,0,0,0,0,0,0,0,0,0,0,0,0,0,0],"id":0,"left_children":[1,3,5,7,9,11,13,15,17,19,21,23,25,27,29,-1,-1,-1,-1,-1,-1,-1,-1,-1,-1,-1,-1,-1,-1,-1,-1],"loss_changes":[4.0423447E3,5.6715015E2,8.0440454E2,2.935454E2,9.2645256E1,2.6926135E2,2.1411768E2,1.00865234E2,7.280087E1,7.4506775E1,2.9451828E1,3.5953857E1,1.131053E2,4.0495853E1,5.6088867E1,0E0,0E0,0E0,0E0,0E0,0E0,0E0,0E0,0E0,0E0,0E0,0E0,0E0,0E0,0E0,0E0],"parents":[2147483647,0,0,1,1,2,2,3,3,4,4,5,5,6,6,7,7,8,8,9,9,10,10,11,11,12,12,13,13,14,14],"right_children":[2,4,6,8,10,12,14,16,18,20,22,24,26,28,30,-1,-1,-1,-1,-1,-1,-1,-1,-1,-1,-1,-1,-1,-1,-1,-1],"split_conditions":[3.8195017E-1,5.3219163E-1,4.2387196E-1,3.5209525E-1,4.5699997E0,9E0,4.7153905E-1,3.338794E-1,8.685305E0,3.7351936E-1,5.906556E-1,8E0,4.108263E-1,4.3737203E-1,1.1002957E1,-6.593878E-2,-4.260363E-2,-1.6327674E-2,-4.1351765E-2,-3.2929021E-3,2.6157355E-2,-3.947362E-2,2.1758672E-2,4.9784638E-2,2.9751629E-2,-1.5488959E-2,2.7039954E-2,-4.6680413E-2,2.1715371E-2,6.949835E-2,9.6433066E-2],"split_indices":[9,7,9,9,1,2,7,9,0,9,7,2,9,9,0,0,0,0,0,0,0,0,0,0,0,0,0,0,0,0,0],"split_type":[0,0,0,0,0,0,0,0,0,0,0,0,0,0,0,0,0,0,0,0,0,0,0,0,0,0,0,0,0,0,0],"sum_hessian":[8.625275E3,5.1520684E3,3.4732065E3,3.6443103E3,1.5077582E3,1.9287832E3,1.5444233E3,2.0522473E3,1.592063E3,1.3024836E3,2.0527461E2,1.1765253E3,7.522579E2,1.3693288E2,1.4074905E3,7.410339E2,1.3112134E3,1.2074537E3,3.8460928E2,1.0336063E3,2.6887732E2,1.8482198E2,2.0452635E1,3.1502045E2,8.615049E2,5.3351447E2,2.1874342E2,2.4692814E1,1.1224007E2,1.1518325E3,2.5565793E2],"tree_param":{"num_deleted":"0","num_feature":"31","num_nodes":"31","size_leaf_vector":"1"}},{"base_weights":[5.9328397E-4,-5.3493774E-1,7.996571E-1,-2.7628207E-1,-9.729814E-1,3.8199314E-1,1.3079956E0,-9.219439E-2,-8.012048E-1,-4.8998058E-1,-1.1404467E0,6.670195E-1,-6.1074454E-2,9.764467E-2,1.4270462E0,6.188053E-3,-1.550006E-2,-2.364277E-2,-4.893772E-2,-2.1078287E-2,-5.999834E-2,-3.9275583E-2,-6.0267795E-2,4.7459695E-2,2.7866567E-2,5.7094186E-3,-3.661437E-2,-8.767443E-3,4.695498E-2,6.2020417E-2,8.152043E-2],"categories":[],"categories_nodes":[],"categories_segments":[],"categories_sizes":[],"default_left":[0,0,0,0,0,0,0,0,0,0,0,0,0,0,0,0,0,0,0,0,0,0,0,0,0,0,0,0,0,0,0],"id":1,"left_children":[1,3,5,7,9,11,13,15,17,19,21,23,25,27,29,-1,-1,-1,-1,-1,-1,-1,-1,-1,-1,-1,-1,-1,-1,-1,-1],"loss_changes":[3.7097124E3,5.8727966E2,7.372495E2,3.1531158E2,1.5432959E2,2.4175351E2,2.2535571E2,1.1398257E2,4.819464E1,2.2932816E1,3.0612183E1,3.4680115E1,8.855894E1,3.326557E1,4.9553955E1,0E0,0E0,0E0,0E0,0E0,0E0,0E0,0E0,0E0,0E0,0E0,0E0,0E0,0E0,0E0,0E0],"parents":[2147483647,0,0,1,1,2,2,3,3,4,4,5,5,6,6,7,7,8,8,9,9,10,10,11,11,12,12,13,13,14,14],"right_children":[2,4,6,8,10,12,14,16,18,20,22,24,26,28,30,-1,-1,-1,-1,-1,-1,-1,-1,-1,-1,-1,-1,-1,-1,-1,-1],"split_conditions":[3.8195017E-1,4.6052846E-1,4.2387196E-1,9E0,-1.9190525E-1,9E0,4.7153905E-1,4.4703102E-1,4.39309E-1,4.8706344E-1,4.6406606E-1,8E0,1E1,1.0574057E1,6.0770726E-1,6.188053E-3,-1.550006E-2,-2.364277E-2,-4.893772E-2,-2.1078287E-2,-5.999834E-2,-3.9275583E-2,-6.0267795E-2,4.7459695E-2,2.7866567E-2,5.7094186E-3,-3.661437E-2,-8.767443E-3,4.695498E-2,6.2020417E-2,8.152043E-2],"split_indices":[9,10,9,2,20,2,7,10,10,10,10,2,2,0,7,0,0,0,0,0,0,0,0,0,0,0,0,0,0,0,0],"split_type":[0,0,0,0,0,0,0,0,0,0,0,0,0,0,0,0,0,0,0,0,0,0,0,0,0,0,0,0,0,0,0],"sum_hessian":[8.664979E3,5.1882407E3,3.4767378E3,3.2643992E3,1.9238416E3,1.9107296E3,1.5660083E3,2.4188525E3,8.455467E2,4.9763007E2,1.4262115E3,1.1623973E3,7.483322E2,1.4071573E2,1.4252926E3,1.2145607E3,1.2042917E3,2.9971844E2,5.4582825E2,4.5705692E2,4.0573174E1,2.2502425E2,1.2011873E3,3.2057724E2,8.418201E2,5.9446985E2,1.5386238E2,1.0726217E2,3.3453564E1,7.511239E2,6.741687E2],"tree_param":{"num_deleted":"0","num_feature":"31","num_nodes":"31","size_leaf_vector":"1"}},{"base_weights":[-1.5345595E-2,-3.6839032E-1,1.1138899E0,-9.596025E-2,-9.106718E-1,1.231846E0,2.3564415E-1,-3.4772158E-1,2.661983E-1,-3.9031023E-1,-1.0496179E0,8.801802E-1,1.4188014E0,5.0574136E-1,-2.3316155E-1,-4.1966874E-2,-1.1922817E-2,-3.744227E-4,2.3425758E-2,-1.0524881E-2,-5.380682E-2,-6.276782E-2,-4.5269933E-2,4.798238E-2,2.306686E-2,4.532893E-2,7.457316E-2,1.991334E-3,4.9823035E-2,1.5974643E-2,-2.0901896E-2],"categories":[],"categories_nodes":[],"categories_segments":[],"categories_sizes":[],"default_left":[0,0,0,0,0,0,0,0,0,0,0,0,0,0,0,0,0,0,0,0,0,0,0,0,0,0,0,0,0,0,0],"id":2,"left_children":[1,3,5,7,9,11,13,15,17,19,21,23,25,27,29,-1,-1,-1,-1,-1,-1,-1,-1,-1,-1,-1,-1,-1,-1,-1,-1],"loss_changes":[3.440863E3,9.710516E2,2.1207715E2,3.9948874E2,1.578346E2,1.16144775E2,3.144873E1,1.3821735E2,9.9583855E1,5.6851646E1,4.8730957E1,1.9946991E1,4.070215E1,3.5614506E1,9.589336E0,0E0,0E0,0E0,0E0,0E0,0E0,0E0,0E0,0E0,0E0,0E0,0E0,0E0,0E0,0E0,0E0],"parents":[2147483647,0,0,1,1,2,2,3,3,4,4,5,5,6,6,7,7,8,8,9,9,10,10,11,11,12,12,13,13,14,14],"right_children":[2,4,6,8,10,12,14,16,18,20,22,24,26,28,30,-1,-1,-1,-1,-1,-1,-1,-1,-1,-1,-1,-1,-1,-1,-1,-1],"split_conditions":[4.108263E-1,4.5771757E-1,9.017696E-2,3.9200556E-1,-3.1299633E-1,4.350383E-1,8.580685E-1,-7.126425E-1,3.7351936E-1,4.5242596E0,3.338794E-1,4.641448E0,5.081133E-1,4.3619668E-1,4.542092E0,-4.1966874E-2,-1.1922817E-2,-3.744227E-4,2.3425758E-2,-1.0524881E-2,-5.380682E-2,-6.276782E-2,-4.5269933E-2,4.798238E-2,2.306686E-2,4.532893E-2,7.457316E-2,1.991334E-3,4.9823035E-2,1.5974643E-2,-2.0901896E-2],"split_indices":[9,10,20,3,20,9,4,3,9,1,9,1,3,9,1,0,0,0,0,0,0,0,0,0,0,0,0,0,0,0,0],"split_type":[0,0,0,0,0,0,0,0,0,0,0,0,0,0,0,0,0,0,0,0,0,0,0,0,0,0,0,0,0,0,0],"sum_hessian":[8.627156E3,6.5735293E3,2.0536267E3,4.3772295E3,2.1962996E3,1.8095548E3,2.440718E2,2.5825522E3,1.7946776E3,4.6476886E2,1.7315306E3,6.324303E2,1.1771245E3,1.5502493E2,8.904685E1,4.6685284E2,2.1156992E3,7.631941E2,1.0314834E3,3.7052786E2,9.4241E1,7.066502E2,1.0248805E3,5.290024E2,1.0342788E2,1.4992784E2,1.0271967E3,8.084055E1,7.418438E1,2.1685099E1,6.7361755E1],"tree_param":{"num_deleted":"0","num_feature":"31","num_nodes":"31","size_leaf_vector":"1"}},{"base_weights":[6.559615E-3,-4.8993143E-1,7.420861E-1,-2.5271136E-1,-8.9015675E-1,2.8935513E-1,1.1215051E0,-8.7243326E-2,-7.2709763E-1,-5.2466726E-1,-1.0546622E0,5.6269526E-1,-1.5512744E-1,1.232644E0,-3.3179812E-2,5.2832323E-3,-1.40162185E-2,-4.590529E-2,-1.8726243E-2,-1.9879231E-2,-5.0553758E-2,-2.3765333E-2,-5.560438E-2,3.01047E-2,-4.9271505E-2,-1.4276308E-2,3.738442E-2,4.616854E-2,6.8130955E-2,-1.1689763E-2,4.206947E-2],"categories":[],"categories_nodes":[],"categories_segments":[],"categories_sizes":[],"default_left":[0,0,0,0,0,0,0,0,0,0,0,0,0,0,0,0,0,0,0,0,0,0,0,0,0,0,0,0,0,0,0],"id":3,"left_children":[1,3,5,7,9,11,13,15,17,19,21,23,25,27,29,-1,-1,-1,-1,-1,-1,-1,-1,-1,-1,-1,-1,-1,-1,-1,-1],"loss_changes":[3.1430286E3,4.8713818E2,5.948751E2,2.5318025E2,1.1347571E2,1.9275433E2,2.4236768E2,8.936094E1,5.5250275E1,3.584877E1,4.239099E1,6.0993683E1,7.151395E1,6.61958E1,2.9640827E1,0E0,0E0,0E0,0E0,0E0,0E0,0E0,0E0,0E0,0E0,0E0,0E0,0E0,0E0,0E0,0E0],"parents":[2147483647,0,0,1,1,2,2,3,3,4,4,5,5,6,6,7,7,8,8,9,9,10,10,11,11,12,12,13,13,14,14],"right_children":[2,4,6,8,10,12,14,16,18,20,22,24,26,28,30,-1,-1,-1,-1,-1,-1,-1,-1,-1,-1,-1,-1,-1,-1,-1,-1],"split_conditions":[3.8195017E-1,4.6052846E-1,4.1475755E-1,9E0,-1.0045104E-1,9E0,2.7924392E-1,4.4703102E-1,3.6967862E-1,4.5202684E0,4.362037E0,9.601758E0,4.108263E-1,4.350383E-1,1.0574057E1,5.2832323E-3,-1.40162185E-2,-4.590529E-2,-1.8726243E-2,-1.9879231E-2,-5.0553758E-2,-2.3765333E-2,-5.560438E-2,3.01047E-2,-4.9271505E-2,-1.4276308E-2,3.738442E-2,4.616854E-2,6.8130955E-2,-1.1689763E-2,4.206947E-2],"split_indices":[9,10,9,2,20,2,20,10,9,1,1,0,9,9,0,0,0,0,0,0,0,0,0,0,0,0,0,0,0,0,0],"split_type":[0,0,0,0,0,0,0,0,0,0,0,0,0,0,0,0,0,0,0,0,0,0,0,0,0,0,0,0,0,0,0],"sum_hessian":[8.602609E3,5.136078E3,3.4665315E3,3.227091E3,1.908987E3,1.5824137E3,1.8841177E3,2.3946248E3,8.324664E2,5.9550977E2,1.3134773E3,9.797946E2,6.026191E2,1.7187278E3,1.6539E2,1.197784E3,1.1968408E3,5.374984E2,2.9496796E2,4.7535965E2,1.2015011E2,1.2043758E2,1.1930397E3,9.567962E2,2.299845E1,5.279529E2,7.466618E1,5.1382874E2,1.204899E3,1.3590833E2,2.948167E1],"tree_param":{"num_deleted":"0","num_feature":"31","num_nodes":"31","size_leaf_vector":"1"}},{"base_weights":[-1.7600729E-3,-4.5483565E-1,7.3236996E-1,-1.9640183E-1,-8.330965E-1,3.9217487E-1,1.1742808E0,-3.277974E-1,2.406817E-1,-4.4498524E-1,-9.9977696E-1,-3.448141E-1,5.2264816E-1,6.0122925E-1,1.3356514E0,-4.0553838E-2,-1.1959141E-2,6.2909736E-3,4.50973E-2,-1.585083E-2,-4.6405755E-2,-3.6738437E-2,-5.443115E-2,-2.3469008E-3,-4.7104545E-2,2.0169329E-2,3.8199827E-2,3.770585E-2,-1.5102223E-2,6.1790533E-2,8.440944E-2],"categories":[],"categories_nodes":[],"categories_segments":[],"categories_sizes":[],"default_left":[0,0,0,0,0,0,0,0,0,0,0,0,0,0,0,0,0,0,0,0,0,0,0,0,0,0,0,0,0,0,0],"id":4,"left_children":[1,3,5,7,9,11,13,15,17,19,21,23,25,27,29,-1,-1,-1,-1,-1,-1,-1,-1,-1,-1,-1,-1,-1,-1,-1,-1],"loss_changes":[2.85762E3,5.188291E2,4.91661E2,1.816174E2,1.3826575E2,1.7884207E2,1.2976807E2,1.0348038E2,5.5092392E1,3.9446564E1,3.349402E1,4.9547115E1,4.456131E1,4.4321495E1,3.4307617E1,0E0,0E0,0E0,0E0,0E0,0E0,0E0,0E0,0E0,0E0,0E0,0E0,0E0,0E0,0E0,0E0],"parents":[2147483647,0,0,1,1,2,2,3,3,4,4,5,5,6,6,7,7,8,8,9,9,10,10,11,11,12,12,13,13,14,14],"right_children":[2,4,6,8,10,12,14,16,18,20,22,24,26,28,30,-1,-1,-1,-1,-1,-1,-1,-1,-1,-1,-1,-1,-1,-1,-1,-1],"split_conditions":[3.8534534E-1,4.5771757E-1,4.3158737E-1,5.1348366E-2,-1.2624472E-1,-2.609194E-1,5.081133E-1,-7.126425E-1,9.312694E-2,4.5202684E0,4.6406606E-1,9.367841E0,4.126302E-1,8.591105E-1,1.1002957E1,-4.0553838E-2,-1.1959141E-2,6.2909736E-3,4.50973E-2,-1.585083E-2,-4.6405755E-2,-3.6738437E-2,-5.443115E-2,-2.3469008E-3,-4.7104545E-2,2.0169329E-2,3.8199827E-2,3.770585E-2,-1.5102223E-2,6.1790533E-2,8.440944E-2],"split_indices":[9,10,9,8,20,3,3,3,8,1,10,0,9,23,0,0,0,0,0,0,0,0,0,0,0,0,0,0,0,0,0],"split_type":[0,0,0,0,0,0,0,0,0,0,0,0,0,0,0,0,0,0,0,0,0,0,0,0,0,0,0,0,0,0,0],"sum_hessian":[8.587503E3,5.3108765E3,3.2766267E3,3.1573157E3,2.153561E3,1.8537708E3,1.4228558E3,2.428285E3,7.2903076E2,6.495768E2,1.5039841E3,2.780973E2,1.5756735E3,3.1498544E2,1.1078705E3,3.733849E2,2.0549E3,6.234244E2,1.0560641E2,5.1649646E2,1.3308029E2,3.8284204E2,1.1211421E3,1.8721884E2,9.087845E1,1.0586941E3,5.169793E2,2.6986063E2,4.512482E1,8.7082556E2,2.3704486E2],"tree_param":{"num_deleted":"0","num_feature":"31","num_nodes":"31","size_leaf_vector":"1"}},{"base_weights":[1.4640674E-3,-4.468931E-1,6.6182363E-1,-2.1126185E-1,-8.487092E-1,2.2623453E-1,9.85336E-1,-6.0242176E-2,-6.424246E-1,-1.0149481E0,-5.2621615E-1,4.8606288E-1,-2.0521088E-1,4.9804646E-1,1.1784552E0,7.1155503E-3,-1.2774306E-2,-1.7176732E-2,-4.0772922E-2,-2.695239E-2,-5.417762E-2,-2.0367838E-2,-4.928295E-2,3.2451738E-2,1.4369893E-2,1.0649014E-2,-2.7041588E-2,-6.874226E-3,3.2681674E-2,5.118056E-2,7.3890954E-2],"categories":[],"categories_nodes":[],"categories_segments":[],"categories_sizes":[],"default_left":[0,0,0,0,0,0,0,0,0,0,0,0,0,0,0,0,0,0,0,0,0,0,0,0,0,0,0,0,0,0,0],"id":5,"left_children":[1,3,5,7,9,11,13,15,17,19,21,23,25,27,29,-1,-1,-1,-1,-1,-1,-1,-1,-1,-1,-1,-1,-1,-1,-1,-1],"loss_changes":[2.5372903E3,4.8266992E2,4.8768518E2,2.0946468E2,9.971619E1,1.6614844E2,1.8555322E2,9.451244E1,4.238153E1,3.9047607E1,3.419377E1,2.9371948E1,7.852114E1,5.6442352E1,6.2383667E1,0E0,0E0,0E0,0E0,0E0,0E0,0E0,0E0,0E0,0E0,0E0,0E0,0E0,0E0,0E0,0E0],"parents":[2147483647,0,0,1,1,2,2,3,3,4,4,5,5,6,6,7,7,8,8,9,9,10,10,11,11,12,12,13,13,14,14],"right_children":[2,4,6,8,10,12,14,16,18,20,22,24,26,28,30,-1,-1,-1,-1,-1,-1,-1,-1,-1,-1,-1,-1,-1,-1,-1,-1],"split_conditions":[3.8195017E-1,4.6052846E-1,4.126302E-1,9E0,6.3367665E-2,9E0,5.081133E-1,4.468703E-1,4.39309E-1,4.3737693E0,4.5242596E0,4.4901714E0,9.100821E0,-1.4419289E-1,4.7713888E-1,7.1155503E-3,-1.2774306E-2,-1.7176732E-2,-4.0772922E-2,-2.695239E-2,-5.417762E-2,-2.0367838E-2,-4.928295E-2,3.2451738E-2,1.4369893E-2,1.0649014E-2,-2.7041588E-2,-6.874226E-3,3.2681674E-2,5.118056E-2,7.3890954E-2],"split_indices":[9,10,9,2,3,2,3,10,10,1,1,1,0,5,9,0,0,0,0,0,0,0,0,0,0,0,0,0,0,0,0],"split_type":[0,0,0,0,0,0,0,0,0,0,0,0,0,0,0,0,0,0,0,0,0,0,0,0,0,0,0,0,0,0,0],"sum_hessian":[8.565555E3,5.10191E3,3.4636448E3,3.2182356E3,1.8836744E3,1.4778411E3,1.9858037E3,2.3854482E3,8.3278723E2,1.2397122E3,6.439623E2,9.2249774E2,5.553433E2,5.659528E2,1.4198508E3,1.1705721E3,1.2148762E3,3.0795972E2,5.248275E2,1.5879529E2,1.0809169E3,5.1495123E2,1.2901106E2,5.0372986E2,4.187679E2,2.4731642E2,3.080269E2,1.1109737E2,4.5485544E2,9.420752E2,4.7777567E2],"tree_param":{"num_deleted":"0","num_feature":"31","num_nodes":"31","size_leaf_vector":"1"}},{"base_weights":[3.693164E-3,-4.294487E-1,6.405314E-1,-2.1472582E-1,-8.019471E-1,3.6033303E-1,1.1048521E0,3.9589185E-2,-4.19981E-1,-3.3409908E-1,-9.320364E-1,4.5063153E-1,-5.156912E-1,1.7787229E-1,1.1950473E0,1.2456305E-2,-7.412214E-3,-2.6907384E-2,-8.795685E-3,-8.779357E-3,-4.73824E-2,-2.1314906E-2,-4.9229935E-2,1.597166E-2,3.598373E-2,2.610298E-3,-4.485336E-2,-3.928087E-3,4.0581923E-2,5.516785E-2,7.604873E-2],"categories":[],"categories_nodes":[],"categories_segments":[],"categories_sizes":[],"default_left":[0,0,0,0,0,0,0,0,0,0,0,0,0,0,0,0,0,0,0,0,0,0,0,0,0,0,0,0,0,0,0],"id":6,"left_children":[1,3,5,7,9,11,13,15,17,19,21,23,25,27,29,-1,-1,-1,-1,-1,-1,-1,-1,-1,-1,-1,-1,-1,-1,-1,-1],"loss_changes":[2.3433298E3,4.038487E2,4.4634302E2,1.6768427E2,1.11578125E2,1.7036902E2,1.07411865E2,5.657998E1,5.09205E1,3.8873714E1,3.7270508E1,6.8113464E1,4.3893063E1,1.9322182E1,3.1318237E1,0E0,0E0,0E0,0E0,0E0,0E0,0E0,0E0,0E0,0E0,0E0,0E0,0E0,0E0,0E0,0E0],"parents":[2147483647,0,0,1,1,2,2,3,3,4,4,5,5,6,6,7,7,8,8,9,9,10,10,11,11,12,12,13,13,14,14],"right_children":[2,4,6,8,10,12,14,16,18,20,22,24,26,28,30,-1,-1,-1,-1,-1,-1,-1,-1,-1,-1,-1,-1,-1,-1,-1,-1],"split_conditions":[3.8195017E-1,4.6052846E-1,4.350383E-1,8.25E0,-2.988252E-1,4.6249682E-1,-2.9184137E-2,4.4703102E-1,3.6967862E-1,4.5242596E0,4.362037E0,4.126302E-1,9.008461E0,1.0574057E1,1.1002957E1,1.2456305E-2,-7.412214E-3,-2.6907384E-2,-8.795685E-3,-8.779357E-3,-4.73824E-2,-2.1314906E-2,-4.9229935E-2,1.597166E-2,3.598373E-2,2.610298E-3,-4.485336E-2,-3.928087E-3,4.0581923E-2,5.516785E-2,7.604873E-2],"split_indices":[9,10,9,2,20,20,8,10,9,1,1,9,0,0,0,0,0,0,0,0,0,0,0,0,0,0,0,0,0,0,0],"split_type":[0,0,0,0,0,0,0,0,0,0,0,0,0,0,0,0,0,0,0,0,0,0,0,0,0,0,0,0,0,0,0],"sum_hessian":[8.491062E3,5.05397E3,3.4370913E3,3.2082803E3,1.8456902E3,2.1460322E3,1.2910592E3,1.4331815E3,1.7750988E3,4.0344162E2,1.4422485E3,1.9465825E3,1.9944962E2,1.1520485E2,1.1758544E3,6.77647E2,7.555345E2,1.1938566E3,5.812422E2,3.2291425E2,8.052739E1,1.3785703E2,1.3043915E3,1.3119369E3,6.346456E2,8.061287E1,1.1883675E2,8.304126E1,3.2163593E1,9.2501276E2,2.5084158E2],"tree_param":{"num_deleted":"0","num_feature":"31","num_nodes":"31","size_leaf_vector":"1"}},{"base_weights":[4.813747E-3,-4.102093E-1,6.1501795E-1,-2.1391743E-1,-7.51596E-1,3.049935E-1,1.0039182E0,-4.046049E-1,3.5195652E-2,-4.0524033E-1,-9.1369545E-1,3.9432305E-1,-5.210257E-1,1.003086E-1,1.0949523E0,-5.2642297E-2,-1.766057E-2,-1.2306784E-3,4.3784063E-2,-1.734053E-2,-6.7227684E-2,-5.4178596E-2,-3.756034E-2,1.395554E-2,3.3447932E-2,-8.418656E-3,-5.57401E-2,-4.1292857E-2,1.5253789E-2,5.0594296E-2,7.348171E-2],"categories":[],"categories_nodes":[],"categories_segments":[],"categories_sizes":[],"default_left":[0,0,0,0,0,0,0,0,0,0,0,0,0,0,0,0,0,0,0,0,0,0,0,0,0,0,0,0,0,0,0],"id":7,"left_children":[1,3,5,7,9,11,13,15,17,19,21,23,25,27,29,-1,-1,-1,-1,-1,-1,-1,-1,-1,-1,-1,-1,-1,-1,-1,-1],"loss_changes":[2.151772E3,3.3835205E2,4.1384155E2,1.5277138E2,1.02578735E2,1.41843E2,1.2495288E2,5.9643677E1,7.0331154E1,3.122979E1,3.2640747E1,5.421927E1,3.8678524E1,2.7318357E1,3.962451E1,0E0,0E0,0E0,0E0,0E0,0E0,0E0,0E0,0E0,0E0,0E0,0E0,0E0,0E0,0E0,0E0],"parents":[2147483647,0,0,1,1,2,2,3,3,4,4,5,5,6,6,7,7,8,8,9,9,10,10,11,11,12,12,13,13,14,14],"right_children":[2,4,6,8,10,12,14,16,18,20,22,24,26,28,30,-1,-1,-1,-1,-1,-1,-1,-1,-1,-1,-1,-1,-1,-1,-1,-1],"split_conditions":[3.8195017E-1,4.6052846E-1,4.2387196E-1,2.103532E-1,-1.0045104E-1,4.6249682E-1,4.7153905E-1,3.849826E-1,5.9312695E-1,4.90708E-1,3.338794E-1,9.777392E-1,9.367841E0,4.3737203E-1,1.1002957E1,-5.2642297E-2,-1.766057E-2,-1.2306784E-3,4.3784063E-2,-1.734053E-2,-6.7227684E-2,-5.4178596E-2,-3.756034E-2,1.395554E-2,3.3447932E-2,-8.418656E-3,-5.57401E-2,-4.1292857E-2,1.5253789E-2,5.0594296E-2,7.348171E-2],"split_indices":[9,10,9,3,20,20,7,7,7,10,9,4,0,9,0,0,0,0,0,0,0,0,0,0,0,0,0,0,0,0,0],"split_type":[0,0,0,0,0,0,0,0,0,0,0,0,0,0,0,0,0,0,0,0,0,0,0,0,0,0,0,0,0,0,0],"sum_hessian":[8.492518E3,5.05485E3,3.4376677E3,3.211899E3,1.8429512E3,1.9150813E3,1.5225864E3,1.8190406E3,1.3928583E3,5.901722E2,1.2527789E3,1.7293489E3,1.857324E2,1.3993965E2,1.3826467E3,1.3047382E2,1.6885669E3,1.301917E3,9.094135E1,5.583891E2,3.1783085E1,6.063217E2,6.464572E2,1.221626E3,5.077229E2,1.1834782E2,6.738458E1,2.4062319E1,1.1587733E2,1.1382365E3,2.444103E2],"tree_param":{"num_deleted":"0","num_feature":"31","num_nodes":"31","size_leaf_vector":"1"}},{"base_weights":[2.1592532E-3,-3.5103318E-1,5.118092E-1,-5.637829E-1,-3.3624273E-2,1.7157017E-1,8.4294343E-1,-7.9140824E-1,-4.195054E-1,-4.6926826E-1,5.6222536E-2,8.598873E-2,6.922999E-1,7.472348E-1,1.4702983E0,-6.530152E-2,-3.619915E-2,-2.9892415E-2,-1.3980626E-2,-2.7504882E-2,2.0870352E-2,8.887793E-4,4.627452E-2,7.5831464E-3,-2.333106E-2,3.7906166E-2,-0E0,3.318427E-2,5.2190274E-2,7.67865E-2,5.9109908E-2],"categories":[],"categories_nodes":[],"categories_segments":[],"categories_sizes":[],"default_left":[0,0,0,0,0,0,0,0,0,0,0,0,0,0,0,0,0,0,0,0,0,0,0,0,0,0,0,0,0,0,0],"id":8,"left_children":[1,3,5,7,9,11,13,15,17,19,21,23,25,27,29,-1,-1,-1,-1,-1,-1,-1,-1,-1,-1,-1,-1,-1,-1,-1,-1],"loss_changes":[1.5233446E3,3.3737433E2,3.8981116E2,9.735608E1,7.8743225E1,7.599631E1,1.0272473E2,3.7881958E1,4.5298523E1,2.5137894E1,5.546882E1,5.3518898E1,1.103215E1,3.610675E1,1.5985107E-1,0E0,0E0,0E0,0E0,0E0,0E0,0E0,0E0,0E0,0E0,0E0,0E0,0E0,0E0,0E0,0E0],"parents":[2147483647,0,0,1,1,2,2,3,3,4,4,5,5,6,6,7,7,8,8,9,9,10,10,11,11,12,12,13,13,14,14],"right_children":[2,4,6,8,10,12,14,16,18,20,22,24,26,28,30,-1,-1,-1,-1,-1,-1,-1,-1,-1,-1,-1,-1,-1,-1,-1,-1],"split_conditions":[5.3897077E-1,8.485446E0,9.021383E0,-4.4389287E-1,-1.6070472E-1,5.891912E-1,1.1002957E1,7.187451E0,1.9558667E-1,1.0386242E1,4.8229394E0,4.59375E0,4.602686E0,6.2773913E-1,1E1,-6.530152E-2,-3.619915E-2,-2.9892415E-2,-1.3980626E-2,-2.7504882E-2,2.0870352E-2,8.887793E-4,4.627452E-2,7.5831464E-3,-2.333106E-2,3.7906166E-2,-0E0,3.318427E-2,5.2190274E-2,7.67865E-2,5.9109908E-2],"split_indices":[7,0,0,3,5,7,0,0,4,0,1,1,1,7,2,0,0,0,0,0,0,0,0,0,0,0,0,0,0,0,0],"split_type":[0,0,0,0,0,0,0,0,0,0,0,0,0,0,0,0,0,0,0,0,0,0,0,0,0,0,0,0,0,0,0],"sum_hessian":[8.458639E3,4.9963496E3,3.4622896E3,2.990036E3,2.0063137E3,1.7094634E3,1.7528262E3,1.1559484E3,1.8340874E3,3.419699E2,1.6643438E3,1.4705021E3,2.389613E2,1.5248914E3,2.2793484E2,1.2930716E2,1.0266412E3,8.027377E2,1.0313497E3,3.143028E2,2.766711E1,1.596024E3,6.8319756E1,1.3159257E3,1.5457642E2,2.1812991E2,2.0831392E1,1.1953027E3,3.2958862E2,1.7812479E2,4.981006E1],"tree_param":{"num_deleted":"0","num_feature":"31","num_nodes":"31","size_leaf_vector":"1"}},{"base_weights":[2.2179496E-3,7.1456397E-1,-2.7531293E-1,3.1549305E-1,9.3382543E-1,-5.1997054E-1,5.1327493E-2,3.988759E-1,-1.2861863E-1,3.067193E-1,1.0101626E0,-3.502827E-1,-8.813422E-1,2.6889613E-1,-2.3101667E-1,1.5122721E-2,3.6003094E-2,-1.3540472E-2,2.8712688E-2,2.4690086E-2,-3.239394E-2,4.6191256E-2,7.231146E-2,-1.116631E-2,-3.2019004E-2,-1.8724449E-2,-4.67929E-2,2.660414E-2,5.9461556E-3,-4.0011564E-3,-3.276752E-2],"categories":[],"categories_nodes":[],"categories_segments":[],"categories_sizes":[],"default_left":[0,0,0,0,0,0,0,0,0,0,0,0,0,0,0,0,0,0,0,0,0,0,0,0,0,0,0,0,0,0,0],"id":9,"left_children":[1,3,5,7,9,11,13,15,17,19,21,23,25,27,29,-1,-1,-1,-1,-1,-1,-1,-1,-1,-1,-1,-1,-1,-1,-1,-1],"loss_changes":[1.6640165E3,2.056571E2,4.8416028E2,3.126957E1,7.1965454E1,2.1151318E2,1.595529E2,2.129345E1,1.3636881E1,3.066473E1,4.7885498E1,8.647577E1,2.9568481E1,5.7649345E1,7.2158E1,0E0,0E0,0E0,0E0,0E0,0E0,0E0,0E0,0E0,0E0,0E0,0E0,0E0,0E0,0E0,0E0],"parents":[2147483647,0,0,1,1,2,2,3,3,4,4,5,5,6,6,7,7,8,8,9,9,10,10,11,11,12,12,13,13,14,14],"right_children":[2,4,6,8,10,12,14,16,18,20,22,24,26,28,30,-1,-1,-1,-1,-1,-1,-1,-1,-1,-1,-1,-1,-1,-1,-1,-1],"split_conditions":[4.1969976E-1,5.081133E-1,4.3181382E-2,7.385508E-1,8.91156E0,4.6406606E-1,4.4703102E-1,1E0,1.0386242E1,8.885056E0,1.1002957E1,5.357197E-1,4.362037E0,8E0,4.5110283E0,1.5122721E-2,3.6003094E-2,-1.3540472E-2,2.8712688E-2,2.4690086E-2,-3.239394E-2,4.6191256E-2,7.231146E-2,-1.116631E-2,-3.2019004E-2,-1.8724449E-2,-4.67929E-2,2.660414E-2,5.9461556E-3,-4.0011564E-3,-3.276752E-2],"split_indices":[10,3,5,20,0,10,10,30,0,0,0,4,1,2,1,0,0,0,0,0,0,0,0,0,0,0,0,0,0,0,0],"split_type":[0,0,0,0,0,0,0,0,0,0,0,0,0,0,0,0,0,0,0,0,0,0,0,0,0,0,0,0,0,0,0],"sum_hessian":[8.412527E3,2.3579316E3,6.054595E3,8.3817883E2,1.5197528E3,3.4613965E3,2.593199E3,7.062357E2,1.3194313E2,1.6629579E2,1.353457E3,2.3584434E3,1.1029529E3,1.4650585E3,1.1281405E3,5.466384E2,1.5959726E2,1.11001526E2,2.0941597E1,1.40028E2,2.6267794E1,1.1353608E3,2.1809613E2,1.6434448E3,7.1499854E2,1.089949E2,9.93958E2,5.294685E2,9.3559E2,8.341631E2,2.9397742E2],"tree_param":{"num_deleted":"0","num_feature":"31","num_nodes":"31","size_leaf_vector":"1"}},{"base_weights":[-9.1986335E-4,-4.323772E-1,4.5913094E-1,-2.8123116E-1,-7.3301893E-1,1.4496098E-1,8.154005E-1,-1.7563747E-1,-6.3242614E-1,-2.6082945E-1,-8.6081576E-1,3.5475785E-1,-2.3677064E-1,2.5913075E-1,9.45956E-1,-4.3747197E-3,-2.2522183E-2,-3.5028316E-2,-7.4029104E-3,-2.120223E-2,1.4542754E-2,-7.7091227E-3,-4.701947E-2,3.22371E-2,1.1863381E-2,-1.4001059E-2,3.85988E-2,2.1755854E-2,-1.6261166E-2,4.126052E-2,6.1156493E-2],"categories":[],"categories_nodes":[],"categories_segments":[],"categories_sizes":[],"default_left":[0,0,0,0,0,0,0,0,0,0,0,0,0,0,0,0,0,0,0,0,0,0,0,0,0,0,0,0,0,0,0],"id":10,"left_children":[1,3,5,7,9,11,13,15,17,19,21,23,25,27,29,-1,-1,-1,-1,-1,-1,-1,-1,-1,-1,-1,-1,-1,-1,-1,-1],"loss_changes":[1.6633024E3,1.9589178E2,4.534726E2,1.0646982E2,8.6527954E1,1.7299165E2,1.3722327E2,5.3551224E1,2.1566864E1,2.8276836E1,6.3371338E1,4.6996506E1,3.3759026E1,3.7751186E1,4.9026245E1,0E0,0E0,0E0,0E0,0E0,0E0,0E0,0E0,0E0,0E0,0E0,0E0,0E0,0E0,0E0,0E0],"parents":[2147483647,0,0,1,1,2,2,3,3,4,4,5,5,6,6,7,7,8,8,9,9,10,10,11,11,12,12,13,13,14,14],"right_children":[2,4,6,8,10,12,14,16,18,20,22,24,26,28,30,-1,-1,-1,-1,-1,-1,-1,-1,-1,-1,-1,-1,-1,-1,-1,-1],"split_conditions":[3.7351936E-1,4.646678E-1,4.126302E-1,9E0,-2.7201828E-1,9E0,5.172215E-1,4.5110283E0,3.6967862E-1,3.478646E-1,4.362037E0,8E0,4.108263E-1,8.292565E-1,4.7713888E-1,-4.3747197E-3,-2.2522183E-2,-3.5028316E-2,-7.4029104E-3,-2.120223E-2,1.4542754E-2,-7.7091227E-3,-4.701947E-2,3.22371E-2,1.1863381E-2,-1.4001059E-2,3.85988E-2,2.1755854E-2,-1.6261166E-2,4.126052E-2,6.1156493E-2],"split_indices":[9,10,9,2,20,2,7,1,9,9,1,2,9,20,9,0,0,0,0,0,0,0,0,0,0,0,0,0,0,0,0],"split_type":[0,0,0,0,0,0,0,0,0,0,0,0,0,0,0,0,0,0,0,0,0,0,0,0,0,0,0,0,0,0,0],"sum_hessian":[8.375709E3,4.322459E3,4.0532505E3,2.8793948E3,1.4430641E3,2.1556787E3,1.8975718E3,2.216523E3,6.628717E2,3.090008E2,1.1340634E3,1.3915554E3,7.641233E2,3.6212686E2,1.535445E3,1.6807827E3,5.3574036E2,5.7997595E2,8.289575E1,2.3909122E2,6.990958E1,1.15629974E2,1.01843335E3,3.9815918E2,9.9339624E2,7.3428357E2,2.9839725E1,2.7896558E2,8.31613E1,1.0755693E3,4.5987558E2],"tree_param":{"num_deleted":"0","num_feature":"31","num_nodes":"31","size_leaf_vector":"1"}},{"base_weights":[-6.363082E-3,-2.4572049E-1,7.5701755E-1,-5.8292102E-2,-6.385731E-1,2.3544165E-1,8.865034E-1,-2.2832635E-1,1.8481402E-1,-8.8405347E-1,-4.9875802E-1,3.1056955E-1,-2.7527073E-2,5.8796704E-1,1.037698E0,-6.77242E-3,-2.8086374E-2,1.06449E-2,-6.7763396E-2,-1.3415779E-2,-4.759523E-2,2.0472264E-2,-2.761828E-2,5.5010295E-3,2.5920449E-2,1.0858666E-2,3.2779843E-2,4.7854003E-2,6.7657836E-2],"categories":[],"categories_nodes":[],"categories_segments":[],"categories_sizes":[],"default_left":[0,0,0,0,0,0,0,0,0,0,0,0,0,0,0,0,0,0,0,0,0,0,0,0,0,0,0,0,0],"id":11,"left_children":[1,3,5,7,9,11,13,15,17,19,21,23,-1,25,27,-1,-1,-1,-1,-1,-1,-1,-1,-1,-1,-1,-1,-1,-1],"loss_changes":[1.5151653E3,4.6465567E2,1.330354E2,1.768792E2,6.881238E1,2.371806E1,6.998071E1,7.767912E1,7.650566E1,3.0022522E1,6.3967712E1,1.49153595E1,0E0,1.3026901E1,2.3621582E1,0E0,0E0,0E0,0E0,0E0,0E0,0E0,0E0,0E0,0E0,0E0,0E0,0E0,0E0],"parents":[2147483647,0,0,1,1,2,2,3,3,4,4,5,5,6,6,7,7,8,8,9,9,10,10,11,11,13,13,14,14],"right_children":[2,4,6,8,10,12,14,16,18,20,22,24,-1,26,28,-1,-1,-1,-1,-1,-1,-1,-1,-1,-1,-1,-1,-1,-1],"split_conditions":[4.1009262E-1,4.5771757E-1,4.3181382E-2,3.9200556E-1,3.338794E-1,1.4439471E0,4.3370774E-1,5.4897463E-1,9.601758E0,-4.372727E-1,3.345063E-1,4.3737203E-1,-2.7527073E-2,4.1352868E-1,1.1002957E1,-6.77242E-3,-2.8086374E-2,1.06449E-2,-6.7763396E-2,-1.3415779E-2,-4.759523E-2,2.0472264E-2,-2.761828E-2,5.5010295E-3,2.5920449E-2,1.0858666E-2,3.2779843E-2,4.7854003E-2,6.7657836E-2],"split_indices":[9,10,5,3,9,23,9,20,0,20,9,9,0,9,0,0,0,0,0,0,0,0,0,0,0,0,0,0,0],"split_type":[0,0,0,0,0,0,0,0,0,0,0,0,0,0,0,0,0,0,0,0,0,0,0,0,0,0,0,0,0],"sum_hessian":[8.288767E3,6.311438E3,1.9773282E3,4.274769E3,2.036669E3,3.9468735E2,1.5826409E3,2.5159778E3,1.7587911E3,7.3467926E2,1.3019897E3,3.6158917E2,3.3098175E1,5.3579834E2,1.0468425E3,1.9704639E3,5.4551404E2,1.7291134E3,2.9677649E1,7.419828E1,6.60481E2,7.161995E1,1.2303698E3,1.8606847E2,1.755207E2,8.440594E1,4.513924E2,8.406974E2,2.0614514E2],"tree_param":{"num_deleted":"0","num_feature":"31","num_nodes":"29","size_leaf_vector":"1"}},{"base_weights":[4.463352E-3,6.47173E-1,-2.4341755E-1,3.187297E-1,8.3706975E-1,3.5092965E-2,-4.7456437E-1,4.2661285E-1,4.628792E-3,1.0709269E0,6.208224E-1,2.0561919E-1,-3.1351286E-1,-1.5711193E-1,-5.9723496E-1,3.241154E-2,1.7887477E-2,2.895532E-2,-7.070598E-3,4.7204625E-2,6.662467E-2,1.6673421E-2,3.506222E-2,2.319008E-2,4.9378774E-3,-8.361011E-3,-3.3961553E-2,-5.714345E-3,-7.275107E-2,-2.046104E-2,-3.9391603E-2],"categories":[],"categories_nodes":[],"categories_segments":[],"categories_sizes":[],"default_left":[0,0,0,0,0,0,0,0,0,0,0,0,0,0,0,0,0,0,0,0,0,0,0,0,0,0,0,0,0,0,0],"id":12,"left_children":[1,3,5,7,9,11,13,15,17,19,21,23,25,27,29,-1,-1,-1,-1,-1,-1,-1,-1,-1,-1,-1,-1,-1,-1,-1,-1],"loss_changes":[1.3232809E3,1.4343085E2,3.8597223E2,2.8733505E1,7.233374E1,1.6178882E2,1.272298E2,8.990021E0,1.870521E1,2.0246155E1,1.7015533E1,5.02293E1,4.742411E1,5.0279213E1,8.3744995E1,0E0,0E0,0E0,0E0,0E0,0E0,0E0,0E0,0E0,0E0,0E0,0E0,0E0,0E0,0E0,0E0],"parents":[2147483647,0,0,1,1,2,2,3,3,4,4,5,5,6,6,7,7,8,8,9,9,10,10,11,11,12,12,13,13,14,14],"right_children":[2,4,6,8,10,12,14,16,18,20,22,24,26,28,30,-1,-1,-1,-1,-1,-1,-1,-1,-1,-1,-1,-1,-1,-1,-1,-1],"split_conditions":[4.1969976E-1,1.1236838E-1,4.468703E-1,3.664599E-1,4.0012527E-1,9E0,-3.1299633E-1,4.000848E-1,8.989532E0,6.6670084E-1,8.91156E0,8E0,4.39309E-1,8.66884E0,4.6406606E-1,3.241154E-2,1.7887477E-2,2.895532E-2,-7.070598E-3,4.7204625E-2,6.662467E-2,1.6673421E-2,3.506222E-2,2.319008E-2,4.9378774E-3,-8.361011E-3,-3.3961553E-2,-5.714345E-3,-7.275107E-2,-2.046104E-2,-3.9391603E-2],"split_indices":[10,5,10,20,10,2,20,10,0,7,0,2,10,0,10,0,0,0,0,0,0,0,0,0,0,0,0,0,0,0,0],"split_type":[0,0,0,0,0,0,0,0,0,0,0,0,0,0,0,0,0,0,0,0,0,0,0,0,0,0,0,0,0,0,0],"sum_hessian":[8.301559E3,2.3099272E3,5.991632E3,8.4860297E2,1.4613242E3,2.7177844E3,3.2738472E3,6.3064453E2,2.1795847E2,6.978337E2,7.6349054E2,1.8259736E3,8.918108E2,9.1420874E2,2.3596384E3,1.4482707E2,4.8581744E2,4.3253147E1,1.747053E2,4.7667557E2,2.2115813E2,1.6974777E2,5.9374274E2,5.320253E2,1.2939484E3,6.3947345E2,2.5233736E2,8.872633E2,2.6945408E1,1.1915647E3,1.1680737E3],"tree_param":{"num_deleted":"0","num_feature":"31","num_nodes":"31","size_leaf_vector":"1"}},{"base_weights":[-4.275905E-3,-3.9955476E-1,3.8519958E-1,-2.584924E-1,-6.6679376E-1,1.1851072E-1,7.1723664E-1,2.944487E-2,-3.665603E-1,-7.7720964E-1,-3.0470115E-1,3.0472416E-1,-2.2138157E-1,2.2107543E-1,8.344287E-1,1.8688668E-2,-8.316048E-3,-1.579809E-2,-3.8325887E-2,-8.428007E-3,-4.215085E-2,-9.824023E-3,-5.7340313E-2,2.2111889E-2,6.188563E-3,1.1359597E-2,-1.8579205E-2,1.4520521E-2,-3.0817194E-2,3.5277184E-2,5.7118125E-2],"categories":[],"categories_nodes":[],"categories_segments":[],"categories_sizes":[],"default_left":[0,0,0,0,0,0,0,0,0,0,0,0,0,0,0,0,0,0,0,0,0,0,0,0,0,0,0,0,0,0,0],"id":13,"left_children":[1,3,5,7,9,11,13,15,17,19,21,23,25,27,29,-1,-1,-1,-1,-1,-1,-1,-1,-1,-1,-1,-1,-1,-1,-1,-1],"loss_changes":[1.2662898E3,1.533678E2,3.6650916E2,8.3350525E1,5.56297E1,1.4573746E2,1.0667523E2,4.947814E1,3.8685364E1,4.2682617E1,2.9618187E1,3.678598E1,5.510509E1,2.0933258E1,5.7197144E1,0E0,0E0,0E0,0E0,0E0,0E0,0E0,0E0,0E0,0E0,0E0,0E0,0E0,0E0,0E0,0E0],"parents":[2147483647,0,0,1,1,2,2,3,3,4,4,5,5,6,6,7,7,8,8,9,9,10,10,11,11,12,12,13,13,14,14],"right_children":[2,4,6,8,10,12,14,16,18,20,22,24,26,28,30,-1,-1,-1,-1,-1,-1,-1,-1,-1,-1,-1,-1,-1,-1,-1,-1],"split_conditions":[3.7159038E-1,4.646678E-1,4.126302E-1,8E0,5.781144E-2,9E0,4.3181382E-2,4.4223228E0,8.712925E0,4.362037E0,4.8706344E-1,4.4901714E0,8.816596E0,1.4439471E0,4.7713888E-1,1.8688668E-2,-8.316048E-3,-1.579809E-2,-3.8325887E-2,-8.428007E-3,-4.215085E-2,-9.824023E-3,-5.7340313E-2,2.2111889E-2,6.188563E-3,1.1359597E-2,-1.8579205E-2,1.4520521E-2,-3.0817194E-2,3.5277184E-2,5.7118125E-2],"split_indices":[9,10,9,2,5,2,5,1,0,1,10,1,0,23,9,0,0,0,0,0,0,0,0,0,0,0,0,0,0,0,0],"split_type":[0,0,0,0,0,0,0,0,0,0,0,0,0,0,0,0,0,0,0,0,0,0,0,0,0,0,0,0,0,0,0],"sum_hessian":[8.221238E3,4.0804495E3,4.1407886E3,2.6737769E3,1.4066725E3,2.2982073E3,1.8425812E3,7.2955273E2,1.9442242E3,1.0757808E3,3.3089178E2,1.4852781E3,8.129292E2,3.534871E2,1.489094E3,2.6414923E2,4.6540353E2,1.729505E3,2.1471922E2,1.05956436E2,9.698243E2,2.9560687E2,3.5284916E1,8.416671E2,6.436109E2,2.0333151E2,6.095977E2,3.2788477E2,2.5602318E1,1.0548293E3,4.3426465E2],"tree_param":{"num_deleted":"0","num_feature":"31","num_nodes":"31","size_leaf_vector":"1"}},{"base_weights":[-8.653368E-3,-2.1359985E-1,6.584579E-1,-4.232353E-2,-5.326864E-1,2.1928012E-1,7.711516E-1,-1.8030553E-1,2.0771064E-1,-2.0564342E-1,-6.3218737E-1,8.2138805E-3,4.390523E-1,4.7812778E-1,9.0023416E-1,-4.1236314E-3,-2.419692E-2,1.1858734E-2,-6.352336E-2,-3.2590032E-3,-3.4163963E-2,-4.169918E-2,-2.5615314E-2,1.6987538E-2,-3.1082068E-2,3.0690422E-2,-1.0612709E-2,2.6309943E-2,-4.5245197E-3,4.090125E-2,6.23822E-2],"categories":[],"categories_nodes":[],"categories_segments":[],"categories_sizes":[],"default_left":[0,0,0,0,0,0,0,0,0,0,0,0,0,0,0,0,0,0,0,0,0,0,0,0,0,0,0,0,0,0,0],"id":14,"left_children":[1,3,5,7,9,11,13,15,17,19,21,23,25,27,29,-1,-1,-1,-1,-1,-1,-1,-1,-1,-1,-1,-1,-1,-1,-1,-1],"loss_changes":[1.1253298E3,3.4398825E2,9.519641E1,1.415269E2,7.112695E1,1.837182E1,5.704254E1,7.8339134E1,6.3917244E1,3.4405033E1,3.962738E1,4.3298798E1,2.2484169E1,1.3169136E1,2.7963196E1,0E0,0E0,0E0,0E0,0E0,0E0,0E0,0E0,0E0,0E0,0E0,0E0,0E0,0E0,0E0,0E0],"parents":[2147483647,0,0,1,1,2,2,3,3,4,4,5,5,6,6,7,7,8,8,9,9,10,10,11,11,12,12,13,13,14,14],"right_children":[2,4,6,8,10,12,14,16,18,20,22,24,26,28,30,-1,-1,-1,-1,-1,-1,-1,-1,-1,-1,-1,-1,-1,-1,-1,-1],"split_conditions":[4.1009262E-1,4.561511E-1,4.3181382E-2,1.1500171E-1,-3.1299633E-1,4.3737203E-1,4.3158737E-1,5.113198E-1,9.601758E0,8.344864E0,3.338794E-1,9.489449E0,1.1118858E0,4.1524538E-1,1.1002957E1,-4.1236314E-3,-2.419692E-2,1.1858734E-2,-6.352336E-2,-3.2590032E-3,-3.4163963E-2,-4.169918E-2,-2.5615314E-2,1.6987538E-2,-3.1082068E-2,3.0690422E-2,-1.0612709E-2,2.6309943E-2,-4.5245197E-3,4.090125E-2,6.23822E-2],"split_indices":[9,10,5,5,20,9,9,4,0,0,9,0,4,5,0,0,0,0,0,0,0,0,0,0,0,0,0,0,0,0,0],"split_type":[0,0,0,0,0,0,0,0,0,0,0,0,0,0,0,0,0,0,0,0,0,0,0,0,0,0,0,0,0,0,0],"sum_hessian":[8.227375E3,6.2950894E3,1.9322855E3,4.098192E3,2.1968975E3,3.9614368E2,1.5361418E3,2.6417134E3,1.4564785E3,5.1437537E2,1.6825221E3,2.0359682E2,1.9254686E2,4.73112E2,1.0630299E3,2.0003779E3,6.4133545E2,1.4297933E3,2.6685213E1,3.995633E2,1.1481208E2,6.219723E2,1.0605498E3,1.3419783E2,6.9398994E1,1.5214586E2,4.0401E1,4.3669467E2,3.6417316E1,8.655061E2,1.975238E2],"tree_param":{"num_deleted":"0","num_feature":"31","num_nodes":"31","size_leaf_vector":"1"}},{"base_weights":[-2.1794806E-3,5.631759E-1,-2.1832214E-1,2.4766916E-1,7.4639726E-1,-3.71471E-1,8.783595E-2,1.7209208E-1,6.961692E-1,6.645701E-1,1.2705725E0,-2.3940448E-1,-6.4447105E-1,2.1688622E-1,-1.5231174E-1,-2.4302357E-3,1.7329058E-2,5.41088E-2,1.9759373E-3,3.567789E-2,-6.7419857E-3,4.376036E-2,6.750863E-2,-4.2261716E-2,-9.7026555E-3,-4.083531E-3,-3.5503093E-2,7.05411E-3,3.7879486E-2,9.911445E-4,-2.7607044E-2],"categories":[],"categories_nodes":[],"categories_segments":[],"categories_sizes":[],"default_left":[0,0,0,0,0,0,0,0,0,0,0,0,0,0,0,0,0,0,0,0,0,0,0,0,0,0,0,0,0,0,0],"id":15,"left_children":[1,3,5,7,9,11,13,15,17,19,21,23,25,27,29,-1,-1,-1,-1,-1,-1,-1,-1,-1,-1,-1,-1,-1,-1,-1,-1],"loss_changes":[9.990758E2,1.3014325E2,2.7747775E2,2.7859348E1,5.92193E1,1.4170361E2,6.1241596E1,2.7698399E1,2.9915539E1,4.8892517E1,3.184906E0,7.2592865E1,4.7128906E1,5.227869E1,4.7649773E1,0E0,0E0,0E0,0E0,0E0,0E0,0E0,0E0,0E0,0E0,0E0,0E0,0E0,0E0,0E0,0E0],"parents":[2147483647,0,0,1,1,2,2,3,3,4,4,5,5,6,6,7,7,8,8,9,9,10,10,11,11,12,12,13,13,14,14],"right_children":[2,4,6,8,10,12,14,16,18,20,22,24,26,28,30,-1,-1,-1,-1,-1,-1,-1,-1,-1,-1,-1,-1,-1,-1,-1,-1],"split_conditions":[4.1969976E-1,5.081133E-1,5.343795E-1,4.1528085E-1,1.1002957E1,4.6317282E-1,4.5052752E0,4.907209E-1,9.336114E0,1.0732309E1,3.7493435E-1,-1.1778258E0,4.362037E0,5.918487E-1,4.4851285E-1,-2.4302357E-3,1.7329058E-2,5.41088E-2,1.9759373E-3,3.567789E-2,-6.7419857E-3,4.376036E-2,6.750863E-2,-4.2261716E-2,-9.7026555E-3,-4.083531E-3,-3.5503093E-2,7.05411E-3,3.7879486E-2,9.911445E-4,-2.7607044E-2],"split_indices":[10,3,7,10,0,10,1,7,0,0,10,3,1,7,10,0,0,0,0,0,0,0,0,0,0,0,0,0,0,0,0],"split_type":[0,0,0,0,0,0,0,0,0,0,0,0,0,0,0,0,0,0,0,0,0,0,0,0,0,0,0,0,0,0,0],"sum_hessian":[8.1724673E3,2.2591543E3,5.913313E3,8.320908E2,1.4270636E3,3.9417605E3,1.9715524E3,7.148451E2,1.1724575E2,1.2386235E3,1.8843999E2,2.6596262E3,1.2821343E3,1.2830792E3,6.88473E2,3.1576132E2,3.9908374E2,7.283163E1,4.441412E1,1.1675417E3,7.108183E1,3.6022472E1,1.5241751E2,1.824653E2,2.4771611E3,1.3461478E2,1.1475195E3,1.1278517E3,1.5522765E2,4.8225363E2,2.0621942E2],"tree_param":{"num_deleted":"0","num_feature":"31","num_nodes":"31","size_leaf_vector":"1"}},{"base_weights":[-8.490984E-3,-3.5165346E-1,3.324117E-1,-2.0656282E-1,-5.499119E-1,1.6381036E-1,7.657434E-1,-1.0303622E-1,-5.587448E-1,-3.0168822E-1,-6.72336E-1,2.632673E-1,-2.9370442E-1,1.0106825E0,5.186117E-1,2.8105635E-2,-7.094852E-3,1.800749E-2,-3.027665E-2,-1.2500174E-2,-5.850351E-2,-1.3444095E-2,-3.585377E-2,2.5535246E-2,9.749899E-3,-5.102147E-3,-2.8962934E-2,3.7519608E-2,5.6003757E-2,1.7782642E-2,5.120966E-2],"categories":[],"categories_nodes":[],"categories_segments":[],"categories_sizes":[],"default_left":[0,0,0,0,0,0,0,0,0,0,0,0,0,0,0,0,0,0,0,0,0,0,0,0,0,0,0,0,0,0,0],"id":16,"left_children":[1,3,5,7,9,11,13,15,17,19,21,23,25,27,29,-1,-1,-1,-1,-1,-1,-1,-1,-1,-1,-1,-1,-1,-1,-1,-1],"loss_changes":[9.509261E2,1.16154144E2,2.974629E2,8.517921E1,5.1367676E1,1.3384709E2,6.772626E1,4.6954464E1,2.3331451E1,2.4669594E1,2.0050476E1,4.0454422E1,2.8492805E1,1.4193115E1,4.6169815E1,0E0,0E0,0E0,0E0,0E0,0E0,0E0,0E0,0E0,0E0,0E0,0E0,0E0,0E0,0E0,0E0],"parents":[2147483647,0,0,1,1,2,2,3,3,4,4,5,5,6,6,7,7,8,8,9,9,10,10,11,11,12,12,13,13,14,14],"right_children":[2,4,6,8,10,12,14,16,18,20,22,24,26,28,30,-1,-1,-1,-1,-1,-1,-1,-1,-1,-1,-1,-1,-1,-1,-1,-1],"split_conditions":[3.7159038E-1,4.6052846E-1,4.350383E-1,9E0,-1.0045104E-1,9.5E0,9E0,7.906408E0,8.003789E0,4.90708E-1,4.362037E0,8E0,1E1,4.4658047E-1,1.1002957E1,2.8105635E-2,-7.094852E-3,1.800749E-2,-3.027665E-2,-1.2500174E-2,-5.850351E-2,-1.3444095E-2,-3.585377E-2,2.5535246E-2,9.749899E-3,-5.102147E-3,-2.8962934E-2,3.7519608E-2,5.6003757E-2,1.7782642E-2,5.120966E-2],"split_indices":[9,10,9,2,20,2,2,0,0,10,1,2,2,9,0,0,0,0,0,0,0,0,0,0,0,0,0,0,0,0,0],"split_type":[0,0,0,0,0,0,0,0,0,0,0,0,0,0,0,0,0,0,0,0,0,0,0,0,0,0,0,0,0,0,0],"sum_hessian":[8.124583E3,4.0491328E3,4.0754502E3,2.3410125E3,1.7081205E3,2.9362336E3,1.1392167E3,1.8116244E3,5.2938794E2,5.6701636E2,1.1411041E3,2.4129749E3,5.2325885E2,5.6863654E2,5.705801E2,9.822977E1,1.7133947E3,2.479322E1,5.045947E2,5.378127E2,2.9203674E1,1.1575248E2,1.0253517E3,5.1835205E2,1.8946227E3,3.151488E2,2.0811E2,1.7345729E2,3.9517926E2,4.3437497E2,1.3620511E2],"tree_param":{"num_deleted":"0","num_feature":"31","num_nodes":"31","size_leaf_vector":"1"}},{"base_weights":[3.8021633E-3,-2.5270757E-1,4.300388E-1,-6.888231E-1,-1.8208416E-1,2.4387151E-1,7.4346554E-1,-1.5984273E-1,-7.5452626E-1,8.5997E-2,-2.7669856E-1,3.5547262E-1,-1.7911853E-1,-2.2302552E-1,7.99606E-1,7.739223E-3,-2.9346934E-2,-2.040072E-2,-4.1388888E-2,1.2316551E-3,3.4779385E-2,-1.123236E-2,-3.2062765E-2,2.0598045E-2,-2.5016924E-3,-1.9505415E-2,7.349328E-3,6.404716E-3,-3.3354905E-2,4.8743796E-2,3.1052232E-2],"categories":[],"categories_nodes":[],"categories_segments":[],"categories_sizes":[],"default_left":[0,0,0,0,0,0,0,0,0,0,0,0,0,0,0,0,0,0,0,0,0,0,0,0,0,0,0,0,0,0,0],"id":17,"left_children":[1,3,5,7,9,11,13,15,17,19,21,23,25,27,29,-1,-1,-1,-1,-1,-1,-1,-1,-1,-1,-1,-1,-1,-1,-1,-1],"loss_changes":[8.816501E2,1.5461435E2,1.7622644E2,2.3919952E1,1.1004825E2,9.004982E1,6.165625E1,1.1053236E1,1.4869629E1,4.2162712E1,6.0363632E1,3.4649002E1,2.757955E1,1.0144377E1,3.1843018E1,0E0,0E0,0E0,0E0,0E0,0E0,0E0,0E0,0E0,0E0,0E0,0E0,0E0,0E0,0E0,0E0],"parents":[2147483647,0,0,1,1,2,2,3,3,4,4,5,5,6,6,7,7,8,8,9,9,10,10,11,11,12,12,13,13,14,14],"right_children":[2,4,6,8,10,12,14,16,18,20,22,24,26,28,30,-1,-1,-1,-1,-1,-1,-1,-1,-1,-1,-1,-1,-1,-1,-1,-1],"split_conditions":[3.8534534E-1,3.338794E-1,4.350383E-1,-4.372727E-1,7.75E0,9.5E0,-7.38825E-2,7.5660567E0,3.14393E-1,9.193889E-2,4.5612006E0,4.6285505E0,4.108263E-1,4.77305E0,8.75E0,7.739223E-3,-2.9346934E-2,-2.040072E-2,-4.1388888E-2,1.2316551E-3,3.4779385E-2,-1.123236E-2,-3.2062765E-2,2.0598045E-2,-2.5016924E-3,-1.9505415E-2,7.349328E-3,6.404716E-3,-3.3354905E-2,4.8743796E-2,3.1052232E-2],"split_indices":[9,9,9,20,2,2,8,0,9,8,1,1,9,1,2,0,0,0,0,0,0,0,0,0,0,0,0,0,0,0,0],"split_type":[0,0,0,0,0,0,0,0,0,0,0,0,0,0,0,0,0,0,0,0,0,0,0,0,0,0,0,0,0,0,0],"sum_hessian":[8.059522E3,5.0317524E3,3.0277698E3,6.984328E2,4.33332E3,1.9021415E3,1.1256282E3,7.826067E1,6.201721E2,1.1299054E3,3.2034143E3,1.5056776E3,3.9646387E2,6.1272846E1,1.0643553E3,4.5528362E1,3.273231E1,1.1099359E2,5.0917853E2,1.0287556E3,1.0114985E2,2.8064856E3,3.9692865E2,1.3219829E3,1.8369472E2,2.4085295E2,1.5561093E2,3.476083E1,2.6512016E1,5.320619E2,5.3229346E2],"tree_param":{"num_deleted":"0","num_feature":"31","num_nodes":"31","size_leaf_vector":"1"}},{"base_weights":[4.384923E-3,4.8345038E-1,-1.7645678E-1,3.3917978E-1,8.1477195E-1,-3.5255965E-2,-4.6134767E-1,-1.0677617E-2,3.990831E-1,9.2766154E-1,3.59521E-1,7.375507E-2,-3.1251186E-1,-3.9154953E-1,-8.537824E-1,2.1560034E-2,-9.8149525E-3,2.4053166E-2,9.00049E-3,3.8598508E-2,5.920398E-2,2.6644E-2,-1.9365355E-2,9.335476E-3,-6.2709576E-3,-1.2754247E-2,-4.8526928E-2,-8.329651E-3,-2.5833843E-2,-3.6626462E-2,-5.3456213E-2],"categories":[],"categories_nodes":[],"categories_segments":[],"categories_sizes":[],"default_left":[0,0,0,0,0,0,0,0,0,0,0,0,0,0,0,0,0,0,0,0,0,0,0,0,0,0,0,0,0,0,0],"id":18,"left_children":[1,3,5,7,9,11,13,15,17,19,21,23,25,27,29,-1,-1,-1,-1,-1,-1,-1,-1,-1,-1,-1,-1,-1,-1,-1,-1],"loss_changes":[6.995566E2,1.0499402E2,2.3564389E2,3.2475708E1,3.3480133E1,1.18616684E2,5.226709E1,1.8773697E1,2.3402878E1,1.9131195E1,1.8132019E1,6.340963E1,4.111458E1,4.6208984E1,5.6734314E0,0E0,0E0,0E0,0E0,0E0,0E0,0E0,0E0,0E0,0E0,0E0,0E0,0E0,0E0,0E0,0E0],"parents":[2147483647,0,0,1,1,2,2,3,3,4,4,5,5,6,6,7,7,8,8,9,9,10,10,11,11,12,12,13,13,14,14],"right_children":[2,4,6,8,10,12,14,16,18,20,22,24,26,28,30,-1,-1,-1,-1,-1,-1,-1,-1,-1,-1,-1,-1,-1,-1,-1,-1],"split_conditions":[4.1969976E-1,3.0563775E-1,4.5771757E-1,-1.0382844E-1,4.0745345E-1,9E0,4.8706344E-1,4.4901714E0,4.124164E-1,6.6670084E-1,4.699682E0,4.468703E-1,1.05E1,8E0,8.130972E-1,2.1560034E-2,-9.8149525E-3,2.4053166E-2,9.00049E-3,3.8598508E-2,5.920398E-2,2.6644E-2,-1.9365355E-2,9.335476E-3,-6.2709576E-3,-1.2754247E-2,-4.8526928E-2,-8.329651E-3,-2.5833843E-2,-3.6626462E-2,-5.3456213E-2],"split_indices":[10,5,10,5,10,2,10,1,10,7,1,10,2,2,4,0,0,0,0,0,0,0,0,0,0,0,0,0,0,0,0],"split_type":[0,0,0,0,0,0,0,0,0,0,0,0,0,0,0,0,0,0,0,0,0,0,0,0,0,0,0,0,0,0,0],"sum_hessian":[8.070077E3,2.210919E3,5.859158E3,1.5434781E3,6.674408E2,3.9194873E3,1.9396709E3,2.2539474E2,1.3180835E3,5.3280524E2,1.3463559E2,2.813878E3,1.1056095E3,1.6506013E3,2.8906955E2,6.557284E1,1.598219E2,9.5674994E2,3.6133353E2,3.3699213E2,1.9581308E2,1.09953224E2,2.4682367E1,1.7963004E3,1.01757745E3,1.01969824E3,8.591125E1,5.921976E2,1.0584038E3,1.9116296E2,9.790658E1],"tree_param":{"num_deleted":"0","num_feature":"31","num_nodes":"31","size_leaf_vector":"1"}},{"base_weights":[4.1566347E-3,4.8218864E-1,-1.740176E-1,3.4028238E-1,8.114884E-1,-5.2896584E-4,-4.0153483E-1,1.2650856E-1,4.1547468E-1,9.269783E-1,3.661184E-1,-4.3305755E-1,7.180138E-2,-3.4442812E-1,-8.398706E-1,-0E0,3.9240517E-2,2.525816E-2,8.255172E-3,3.975192E-2,5.712698E-2,2.7143896E-2,-2.1892276E-2,-1.3285788E-2,-4.365949E-2,-1.3431677E-3,1.2341182E-2,1.5056033E-3,-1.9708699E-2,-3.4985065E-2,-5.1621515E-2],"categories":[],"categories_nodes":[],"categories_segments":[],"categories_sizes":[],"default_left":[0,0,0,0,0,0,0,0,0,0,0,0,0,0,0,0,0,0,0,0,0,0,0,0,0,0,0,0,0,0,0],"id":19,"left_children":[1,3,5,7,9,11,13,15,17,19,21,23,25,27,29,-1,-1,-1,-1,-1,-1,-1,-1,-1,-1,-1,-1,-1,-1,-1,-1],"loss_changes":[6.8184235E2,1.0079553E2,2.3007637E2,2.4266998E1,3.2638092E1,1.0371218E2,6.2319183E1,3.3282333E1,2.4963974E1,1.2490936E1,2.0118233E1,3.4293983E1,4.9061428E1,4.1743225E1,6.007019E0,0E0,0E0,0E0,0E0,0E0,0E0,0E0,0E0,0E0,0E0,0E0,0E0,0E0,0E0,0E0,0E0],"parents":[2147483647,0,0,1,1,2,2,3,3,4,4,5,5,6,6,7,7,8,8,9,9,10,10,11,11,12,12,13,13,14,14],"right_children":[2,4,6,8,10,12,14,16,18,20,22,24,26,28,30,-1,-1,-1,-1,-1,-1,-1,-1,-1,-1,-1,-1,-1,-1,-1,-1],"split_conditions":[4.1969976E-1,3.0563775E-1,4.5176885E-1,-9.7604105E-3,4.0745345E-1,-5.155318E-1,4.8706344E-1,4.1528085E-1,4.124164E-1,6.6670084E-1,4.699682E0,1.164899E0,5.513484E-1,4.3737693E0,7.312186E-1,-0E0,3.9240517E-2,2.525816E-2,8.255172E-3,3.975192E-2,5.712698E-2,2.7143896E-2,-2.1892276E-2,-1.3285788E-2,-4.365949E-2,-1.3431677E-3,1.2341182E-2,1.5056033E-3,-1.9708699E-2,-3.4985065E-2,-5.1621515E-2],"split_indices":[10,5,10,5,10,3,10,10,10,7,1,4,7,1,4,0,0,0,0,0,0,0,0,0,0,0,0,0,0,0,0],"split_type":[0,0,0,0,0,0,0,0,0,0,0,0,0,0,0,0,0,0,0,0,0,0,0,0,0,0,0,0,0,0,0],"sum_hessian":[8.0006885E3,2.1717388E3,5.8289497E3,1.5209742E3,6.507646E2,3.3087861E3,2.5201638E3,3.9786316E2,1.1231111E3,5.1468787E2,1.3607668E2,4.7301172E2,2.8357744E3,2.233243E3,2.869208E2,3.3543686E2,6.2426308E1,8.248114E2,2.982997E2,3.2566217E2,1.8902573E2,1.1228742E2,2.3789248E1,3.4536356E2,1.27648155E2,1.8138237E3,1.0219507E3,2.6146E2,1.971783E3,1.7201364E2,1.1490718E2],"tree_param":{"num_deleted":"0","num_feature":"31","num_nodes":"31","size_leaf_vector":"1"}},{"base_weights":[-5.011437E-4,-2.764105E-1,3.2141802E-1,-1.7165889E-1,-5.121904E-1,1.7850222E-1,6.80183E-1,-9.4930895E-2,-4.3256903E-1,-2.933448E-2,-5.796859E-1,2.3316063E-1,-4.96103E-1,9.093914E-1,4.5512387E-1,7.011596E-3,-1.1497168E-2,-2.5731966E-2,-6.8481914E-3,6.5550255E-3,-5.1374476E-2,-1.0310675E-2,-3.358479E-2,2.5279403E-2,8.562275E-3,-1.8161122E-2,-6.98518E-2,3.1542953E-2,5.1035184E-2,1.4864154E-2,4.7121167E-2],"categories":[],"categories_nodes":[],"categories_segments":[],"categories_sizes":[],"default_left":[0,0,0,0,0,0,0,0,0,0,0,0,0,0,0,0,0,0,0,0,0,0,0,0,0,0,0,0,0,0,0],"id":20,"left_children":[1,3,5,7,9,11,13,15,17,19,21,23,25,27,29,-1,-1,-1,-1,-1,-1,-1,-1,-1,-1,-1,-1,-1,-1,-1,-1],"loss_changes":[7.067364E2,1.05520386E2,1.878594E2,5.9279083E1,4.27507E1,9.711887E1,5.280307E1,7.306305E1,1.6077515E1,2.6700327E1,3.9223083E1,4.0740356E1,2.226654E1,1.4356842E1,4.0086815E1,0E0,0E0,0E0,0E0,0E0,0E0,0E0,0E0,0E0,0E0,0E0,0E0,0E0,0E0,0E0,0E0],"parents":[2147483647,0,0,1,1,2,2,3,3,4,4,5,5,6,6,7,7,8,8,9,9,10,10,11,11,12,12,13,13,14,14],"right_children":[2,4,6,8,10,12,14,16,18,20,22,24,26,28,30,-1,-1,-1,-1,-1,-1,-1,-1,-1,-1,-1,-1,-1,-1,-1,-1],"split_conditions":[3.7540266E-1,4.646678E-1,4.3619668E-1,9E0,4.36544E0,1E1,9E0,4.4223228E0,4.5242596E0,8.9788043E-1,-3.2006237E-1,8E0,9.966023E0,4.4658047E-1,1.1002957E1,7.011596E-3,-1.1497168E-2,-2.5731966E-2,-6.8481914E-3,6.5550255E-3,-5.1374476E-2,-1.0310675E-2,-3.358479E-2,2.5279403E-2,8.562275E-3,-1.8161122E-2,-6.98518E-2,3.1542953E-2,5.1035184E-2,1.4864154E-2,4.7121167E-2],"split_indices":[9,10,9,2,1,2,2,1,1,20,20,2,0,9,0,0,0,0,0,0,0,0,0,0,0,0,0,0,0,0,0],"split_type":[0,0,0,0,0,0,0,0,0,0,0,0,0,0,0,0,0,0,0,0,0,0,0,0,0,0,0,0,0,0,0],"sum_hessian":[7.953006E3,4.283028E3,3.6699783E3,2.968497E3,1.3145306E3,2.6270374E3,1.0429409E3,2.2966086E3,6.718884E2,1.6193036E2,1.1526003E3,2.4316255E3,1.9541194E2,5.1325415E2,5.2968677E2,8.3706384E2,1.4595448E3,5.241951E2,1.4769328E2,1.4083127E2,2.1099081E1,2.2954047E2,9.230599E2,4.4704767E2,1.9845778E3,1.7293387E2,2.2478079E1,1.5086996E2,3.6238416E2,4.0283524E2,1.2685152E2],"tree_param":{"num_deleted":"0","num_feature":"31","num_nodes":"31","size_leaf_vector":"1"}},{"base_weights":[8.721833E-3,-1.3969575E-1,5.4928654E-1,-2.799422E-1,8.099384E-2,6.20306E-1,-8.808455E-2,-4.7995355E-2,-4.0456042E-1,1.1607848E-1,-1.2324885E0,5.3604007E-1,9.513716E-1,-4.5483723E-1,1.3755174E-1,2.6572892E-3,-2.4393983E-2,-3.3934947E-2,-1.6388142E-2,1.8658562E-3,2.1442687E-2,-4.2927306E-2,-7.509085E-2,2.919065E-2,-2.3183791E-2,3.389684E-2,5.844871E-2,7.499148E-3,-3.8980637E-2,2.3342205E-2,-2.585865E-2],"categories":[],"categories_nodes":[],"categories_segments":[],"categories_sizes":[],"default_left":[0,0,0,0,0,0,0,0,0,0,0,0,0,0,0,0,0,0,0,0,0,0,0,0,0,0,0,0,0,0,0],"id":21,"left_children":[1,3,5,7,9,11,13,15,17,19,21,23,25,27,29,-1,-1,-1,-1,-1,-1,-1,-1,-1,-1,-1,-1,-1,-1,-1,-1],"loss_changes":[6.3672797E2,1.9277756E2,7.760559E1,1.0992999E2,1.1158802E2,4.161145E1,1.4494227E1,5.947075E1,5.1482727E1,5.7990364E1,3.2926483E0,5.9388947E1,1.6439697E1,1.3451438E1,2.3805573E1,0E0,0E0,0E0,0E0,0E0,0E0,0E0,0E0,0E0,0E0,0E0,0E0,0E0,0E0,0E0,0E0],"parents":[2147483647,0,0,1,1,2,2,3,3,4,4,5,5,6,6,7,7,8,8,9,9,10,10,11,11,12,12,13,13,14,14],"right_children":[2,4,6,8,10,12,14,16,18,20,22,24,26,28,30,-1,-1,-1,-1,-1,-1,-1,-1,-1,-1,-1,-1,-1,-1,-1,-1],"split_conditions":[4.126302E-1,3.6967862E-1,2.7924392E-1,-1.9190525E-1,9.69191E0,4.8340467E-1,4.3619668E-1,8.469825E0,3.338794E-1,2.2401732E-1,-3.360943E-1,1.0652092E1,6.5384406E-1,4.472452E0,1.145948E0,2.6572892E-3,-2.4393983E-2,-3.3934947E-2,-1.6388142E-2,1.8658562E-3,2.1442687E-2,-4.2927306E-2,-7.509085E-2,2.919065E-2,-2.3183791E-2,3.389684E-2,5.844871E-2,7.499148E-3,-3.8980637E-2,2.3342205E-2,-2.585865E-2],"split_indices":[9,9,20,20,0,9,9,0,9,5,20,0,7,1,20,0,0,0,0,0,0,0,0,0,0,0,0,0,0,0,0],"split_type":[0,0,0,0,0,0,0,0,0,0,0,0,0,0,0,0,0,0,0,0,0,0,0,0,0,0,0,0,0,0,0],"sum_hessian":[7.9314175E3,6.2237393E3,1.7076782E3,3.8056492E3,2.41809E3,1.536806E3,1.708722E2,1.3315898E3,2.4740593E3,2.3571047E3,6.0985497E1,1.229663E3,3.0714313E2,6.464767E1,1.06224525E2,1.0837179E3,2.4787196E2,5.374139E2,1.9366454E3,1.8852495E3,4.718552E2,2.9351366E1,3.163413E1,1.1745665E3,5.5096375E1,1.401649E2,1.6697821E2,2.2747053E1,4.190061E1,7.1262566E1,3.496196E1],"tree_param":{"num_deleted":"0","num_feature":"31","num_nodes":"31","size_leaf_vector":"1"}},{"base_weights":[4.322813E-3,4.3011397E-1,-1.5295899E-1,3.1400317E-1,7.5579405E-1,3.2953333E-2,-3.1300798E-1,4.957688E-1,2.0883507E-1,9.454588E-1,4.154495E-1,1.6420832E-1,-2.3451331E-1,-2.647741E-1,-7.9780823E-1,1.0669862E-2,3.1183293E-2,1.5233594E-2,-7.539358E-3,4.2100456E-2,5.4989602E-2,2.731269E-2,-9.916841E-3,1.6740113E-2,1.973221E-3,-1.805297E-2,4.061446E-3,-1.1887466E-2,-6.459343E-2,-5.2741986E-2,-3.020048E-2],"categories":[],"categories_nodes":[],"categories_segments":[],"categories_sizes":[],"default_left":[0,0,0,0,0,0,0,0,0,0,0,0,0,0,0,0,0,0,0,0,0,0,0,0,0,0,0,0,0,0,0],"id":22,"left_children":[1,3,5,7,9,11,13,15,17,19,21,23,25,27,29,-1,-1,-1,-1,-1,-1,-1,-1,-1,-1,-1,-1,-1,-1,-1,-1],"loss_changes":[5.2970996E2,7.999881E1,1.7191881E2,2.9794601E1,3.5020844E1,9.390113E1,7.195413E1,2.0360886E1,3.469236E1,3.4586487E0,1.6660816E1,3.8091656E1,3.5285275E1,7.754108E1,1.2318146E1,0E0,0E0,0E0,0E0,0E0,0E0,0E0,0E0,0E0,0E0,0E0,0E0,0E0,0E0,0E0,0E0],"parents":[2147483647,0,0,1,1,2,2,3,3,4,4,5,5,6,6,7,7,8,8,9,9,10,10,11,11,12,12,13,13,14,14],"right_children":[2,4,6,8,10,12,14,16,18,20,22,24,26,28,30,-1,-1,-1,-1,-1,-1,-1,-1,-1,-1,-1,-1,-1,-1,-1,-1],"split_conditions":[4.1969976E-1,3.2697868E-1,4.468703E-1,4.482484E0,4.0012527E-1,9E0,4.8706344E-1,8.856561E0,3.98836E-2,1.1002957E1,4.699682E0,8.536889E0,4.5262475E0,8.685305E0,7.187451E0,1.0669862E-2,3.1183293E-2,1.5233594E-2,-7.539358E-3,4.2100456E-2,5.4989602E-2,2.731269E-2,-9.916841E-3,1.6740113E-2,1.973221E-3,-1.805297E-2,4.061446E-3,-1.1887466E-2,-6.459343E-2,-5.2741986E-2,-3.020048E-2],"split_indices":[10,5,10,1,10,2,10,0,14,0,1,0,1,0,0,0,0,0,0,0,0,0,0,0,0,0,0,0,0,0,0],"split_type":[0,0,0,0,0,0,0,0,0,0,0,0,0,0,0,0,0,0,0,0,0,0,0,0,0,0,0,0,0,0,0],"sum_hessian":[7.9049624E3,2.131742E3,5.7732207E3,1.5748292E3,5.569127E2,2.67097E3,3.1022505E3,5.737931E2,1.0010362E3,3.549597E2,2.01953E2,1.7927343E3,8.7823584E2,2.8247178E3,2.7753275E2,1.8102539E2,3.9276767E2,7.9108044E2,2.099557E2,2.210183E2,1.339414E2,1.6692535E2,3.502764E1,7.5511E2,1.0376243E3,6.272052E2,2.5103064E2,2.7548892E3,6.982867E1,1.15039734E2,1.62493E2],"tree_param":{"num_deleted":"0","num_feature":"31","num_nodes":"31","size_leaf_vector":"1"}},{"base_weights":[-2.8181795E-3,4.095664E-1,-1.5485318E-1,7.4915904E-1,2.8469905E-1,2.9275635E-2,-3.1323966E-1,9.056876E-1,5.2340204E-1,-2.0124257E-1,3.2851493E-1,1.5922654E-1,-2.1553071E-1,-2.7225378E-1,-8.031335E-1,3.8487975E-2,5.2331556E-2,3.3292707E-2,-6.79682E-4,1.0975095E-3,-4.105486E-2,1.5164374E-2,4.684302E-2,2.2289682E-2,3.971534E-3,-7.81208E-3,-4.2048395E-2,-3.4909383E-3,-1.8579938E-2,-3.465682E-2,-5.436573E-2],"categories":[],"categories_nodes":[],"categories_segments":[],"categories_sizes":[],"default_left":[0,0,0,0,0,0,0,0,0,0,0,0,0,0,0,0,0,0,0,0,0,0,0,0,0,0,0,0,0,0,0],"id":23,"left_children":[1,3,5,7,9,11,13,15,17,19,21,23,25,27,29,-1,-1,-1,-1,-1,-1,-1,-1,-1,-1,-1,-1,-1,-1,-1,-1],"loss_changes":[4.9328647E2,8.9228455E1,1.6774806E2,1.8840302E1,3.3226364E1,8.467612E1,6.1421234E1,4.3899536E0,1.834404E1,1.8086798E1,2.1065247E1,3.9594955E1,3.3751564E1,5.730136E1,5.5535583E0,0E0,0E0,0E0,0E0,0E0,0E0,0E0,0E0,0E0,0E0,0E0,0E0,0E0,0E0,0E0,0E0],"parents":[2147483647,0,0,1,1,2,2,3,3,4,4,5,5,6,6,7,7,8,8,9,9,10,10,11,11,12,12,13,13,14,14],"right_children":[2,4,6,8,10,12,14,16,18,20,22,24,26,28,30,-1,-1,-1,-1,-1,-1,-1,-1,-1,-1,-1,-1,-1,-1,-1,-1],"split_conditions":[4.1969976E-1,-1.4128189E0,4.468703E-1,3.9683068E-1,4.261175E-1,8.75E0,4.8787245E-1,6.6670084E-1,4.6771903E0,4.77305E0,1.1002957E1,4.410027E0,1.177841E0,7.75E0,7.3833666E0,3.8487975E-2,5.2331556E-2,3.3292707E-2,-6.79682E-4,1.0975095E-3,-4.105486E-2,1.5164374E-2,4.684302E-2,2.2289682E-2,3.971534E-3,-7.81208E-3,-4.2048395E-2,-3.4909383E-3,-1.8579938E-2,-3.465682E-2,-5.436573E-2],"split_indices":[10,17,10,10,7,2,10,7,1,1,0,1,14,2,0,0,0,0,0,0,0,0,0,0,0,0,0,0,0,0,0],"split_type":[0,0,0,0,0,0,0,0,0,0,0,0,0,0,0,0,0,0,0,0,0,0,0,0,0,0,0,0,0,0,0],"sum_hessian":[7.8645874E3,2.1171794E3,5.747408E3,5.660724E2,1.5511069E3,2.6578958E3,3.0895125E3,3.3021115E2,2.3586125E2,1.2731912E2,1.4237878E3,1.7372336E3,9.2066205E2,2.8542388E3,2.3527368E2,1.7539731E2,1.5481386E2,1.8632593E2,4.9535313E1,9.47932E1,3.2525925E1,1.3702893E3,5.3498592E1,3.7583508E2,1.3613986E3,8.4351904E2,7.714305E1,9.413897E2,1.912849E3,1.750857E2,6.0187992E1],"tree_param":{"num_deleted":"0","num_feature":"31","num_nodes":"31","size_leaf_vector":"1"}},{"base_weights":[-3.8102944E-3,-1.4126489E-1,4.7051984E-1,-2.597733E-1,7.623484E-2,1.7232797E-1,5.751605E-1,-4.0339637E-1,-9.339196E-2,2.0477358E-1,-1.6793555E-1,2.5669754E-1,-2.091714E-1,4.7953773E-1,9.0250874E-1,1.72507E-2,-2.1538224E-2,2.642234E-3,-1.6845737E-2,5.862317E-3,2.64269E-2,-6.2683644E-3,-6.727781E-2,3.536309E-2,1.0188678E-2,-3.3086613E-2,2.871874E-6,2.6133178E-2,-2.627171E-2,3.4304466E-2,5.698504E-2],"categories":[],"categories_nodes":[],"categories_segments":[],"categories_sizes":[],"default_left":[0,0,0,0,0,0,0,0,0,0,0,0,0,0,0,0,0,0,0,0,0,0,0,0,0,0,0,0,0,0,0],"id":24,"left_children":[1,3,5,7,9,11,13,15,17,19,21,23,25,27,29,-1,-1,-1,-1,-1,-1,-1,-1,-1,-1,-1,-1,-1,-1,-1,-1],"loss_changes":[5.1094525E2,1.5671559E2,5.458966E1,9.385092E1,6.7375656E1,1.4945432E1,3.961133E1,4.3544098E1,6.512673E1,3.959654E1,3.646812E1,8.557375E0,8.096332E0,4.4424072E1,1.3039413E1,0E0,0E0,0E0,0E0,0E0,0E0,0E0,0E0,0E0,0E0,0E0,0E0,0E0,0E0,0E0,0E0],"parents":[2147483647,0,0,1,1,2,2,3,3,4,4,5,5,6,6,7,7,8,8,9,9,10,10,11,11,12,12,13,13,14,14],"right_children":[2,4,6,8,10,12,14,16,18,20,22,24,26,28,30,-1,-1,-1,-1,-1,-1,-1,-1,-1,-1,-1,-1,-1,-1,-1,-1],"split_conditions":[4.1009262E-1,5.337101E-1,3.3427677E-1,3.5790703E-1,4.5052752E0,7.843976E-1,4.799694E-1,4.3438587E0,8.796644E0,3.893174E-1,9.601758E0,0E0,1.0288901E0,1.0652092E1,1.1002957E1,1.72507E-2,-2.1538224E-2,2.642234E-3,-1.6845737E-2,5.862317E-3,2.64269E-2,-6.2683644E-3,-6.727781E-2,3.536309E-2,1.0188678E-2,-3.3086613E-2,2.871874E-6,2.6133178E-2,-2.627171E-2,3.4304466E-2,5.698504E-2],"split_indices":[9,7,3,9,1,23,9,1,0,9,0,22,23,0,0,0,0,0,0,0,0,0,0,0,0,0,0,0,0,0,0],"split_type":[0,0,0,0,0,0,0,0,0,0,0,0,0,0,0,0,0,0,0,0,0,0,0,0,0,0,0,0,0,0,0],"sum_hessian":[7.8336924E3,6.07505E3,1.758643E3,3.9327532E3,2.1422966E3,4.587005E2,1.2999424E3,2.1085596E3,1.8241936E3,1.4042161E3,7.3808044E2,3.7659424E2,8.210628E1,1.0103473E3,2.8959512E2,7.330955E1,2.03525E3,1.1402264E3,6.839671E2,1.1080148E3,2.962014E2,7.146309E2,2.3449505E1,3.658913E1,3.400051E2,2.4893093E1,5.721318E1,9.69886E2,4.046135E1,1.5594006E2,1.3365506E2],"tree_param":{"num_deleted":"0","num_feature":"31","num_nodes":"31","size_leaf_vector":"1"}},{"base_weights":[7.719517E-3,-2.5579506E-1,2.4357343E-1,-5.0593875E-2,-3.6633646E-1,1.2454344E-1,6.031331E-1,4.7688313E-2,-3.4658843E-1,3.4655496E-1,-3.9206898E-1,1.661635E-1,-4.6031356E-1,6.721099E-1,-1.4225811E-1,5.170177E-3,-2.7476866E-2,-2.0336628E-2,2.1163778E-2,-7.853001E-3,3.275969E-2,-2.9622644E-2,-1.5293716E-2,2.1160306E-2,5.466185E-3,-1.5945552E-2,-5.0122548E-2,2.9911509E-2,4.94755E-2,6.8082213E-3,-2.8563753E-2],"categories":[],"categories_nodes":[],"categories_segments":[],"categories_sizes":[],"default_left":[0,0,0,0,0,0,0,0,0,0,0,0,0,0,0,0,0,0,0,0,0,0,0,0,0,0,0,0,0,0,0],"id":25,"left_children":[1,3,5,7,9,11,13,15,17,19,21,23,25,27,29,-1,-1,-1,-1,-1,-1,-1,-1,-1,-1,-1,-1,-1,-1,-1,-1],"loss_changes":[4.8366928E2,8.324495E1,1.7547743E2,3.760976E1,4.4079376E1,7.527353E1,5.2766663E1,3.2281452E1,1.5260727E1,1.335728E1,3.928009E1,4.1952934E1,1.4841877E1,2.0416077E1,1.0735196E1,0E0,0E0,0E0,0E0,0E0,0E0,0E0,0E0,0E0,0E0,0E0,0E0,0E0,0E0,0E0,0E0],"parents":[2147483647,0,0,1,1,2,2,3,3,4,4,5,5,6,6,7,7,8,8,9,9,10,10,11,11,12,12,13,13,14,14],"right_children":[2,4,6,8,10,12,14,16,18,20,22,24,26,28,30,-1,-1,-1,-1,-1,-1,-1,-1,-1,-1,-1,-1,-1,-1,-1,-1],"split_conditions":[3.6894068E-1,-1.9190525E-1,4.350383E-1,4.5079856E0,4.3438587E0,1E1,4.136563E-1,8.611064E0,5.9312695E-1,-1.3178167E-1,3.369938E-1,8.536889E0,9.69191E0,1.1002957E1,1.1118858E0,5.170177E-3,-2.7476866E-2,-2.0336628E-2,2.1163778E-2,-7.853001E-3,3.275969E-2,-2.9622644E-2,-1.5293716E-2,2.1160306E-2,5.466185E-3,-1.5945552E-2,-5.0122548E-2,2.9911509E-2,4.94755E-2,6.8082213E-3,-2.8563753E-2],"split_indices":[9,20,9,1,1,2,14,0,7,5,9,0,0,0,4,0,0,0,0,0,0,0,0,0,0,0,0,0,0,0,0],"split_type":[0,0,0,0,0,0,0,0,0,0,0,0,0,0,0,0,0,0,0,0,0,0,0,0,0,0,0,0,0,0,0],"sum_hessian":[7.7782056E3,3.6732E3,4.105006E3,1.2876406E3,2.3855593E3,3.0864912E3,1.0185146E3,9.6742004E2,3.2022058E2,8.196971E1,2.3035896E3,2.8830957E3,2.0339542E2,9.326722E2,8.5842415E1,8.866893E2,8.073073E1,2.981327E2,2.2087885E1,3.1273714E1,5.0696E1,6.886231E2,1.6149666E3,5.191175E2,2.3639783E3,1.641314E2,3.9264015E1,7.6176044E2,1.7091171E2,5.2603165E1,3.323925E1],"tree_param":{"num_deleted":"0","num_feature":"31","num_nodes":"31","size_leaf_vector":"1"}}]},"name":"gbtree"},"learner_model_param":{"base_score":"[4.7596598E-1]","boost_from_average":"1","num_class":"0","num_feature":"31","num_target":"1"},"objective":{"name":"binary:logistic","reg_loss_param":{"scale_pos_weight":"1"}}},"version":[3,2,0]}