{"learner":{"attributes":{"best_iteration":"8","best_score":"0.6841320388251488","scikit_learn":"{\"_estimator_type\": \"classifier\"}"},"feature_names":["predicted_total","prediction_std","market_line","model_market_gap","abs_model_market_gap","gap_per_sigma","num_books","base_p_over","base_edge_prob","high_tail_prob_9p5","low_tail_prob_7p5","hours_to_first_pitch","pinnacle_available","pinnacle_delta_consensus","pinnacle_delta_model","draftkings_available","draftkings_delta_consensus","draftkings_delta_model","fanduel_available","fanduel_delta_consensus","fanduel_delta_model","betmgm_available","betmgm_delta_consensus","betmgm_delta_model","caesars_available","caesars_delta_consensus","caesars_delta_model","market_line_std","market_line_range","books_above_consensus","books_below_consensus"],"feature_types":["float","float","float","float","float","float","int","float","float","float","float","float","float","float","float","float","float","float","float","float","float","float","float","float","float","float","float","float","float","float","float"],"gradient_booster":{"model":{"cats":{"enc":[],"feature_segments":[],"sorted_idx":[]},"gbtree_model_param":{"num_parallel_tree":"1","num_trees":"29"},"iteration_indptr":[0,1,2,3,4,5,6,7,8,9,10,11,12,13,14,15,16,17,18,19,20,21,22,23,24,25,26,27,28,29],"tree_info":[0,0,0,0,0,0,0,0,0,0,0,0,0,0,0,0,0,0,0,0,0,0,0,0,0,0,0,0,0],"trees":[{"base_weights":[2.7110153E-3,-5.7133436E-1,1.0325195E0,-9.6311927E-1,-1.289272E-1,1.4822952E0,5.672334E-1,-5.036381E-1,-1.1379874E0,9.0194054E-2,-6.323123E-1,1.0651516E0,1.750291E0,6.687464E-1,-4.770688E-1,7.189288E-4,-3.4413606E-2,-7.537749E-2,-4.820588E-2,1.4068233E-2,-8.044952E-3,-2.5450949E-2,-6.022975E-2,5.711769E-2,1.0357246E-2,7.768776E-2,9.8719366E-2,2.0414514E-2,5.446273E-2,-4.6775844E-2,-0E0],"categories":[],"categories_nodes":[],"categories_segments":[],"categories_sizes":[],"default_left":[0,0,0,0,0,0,0,0,0,0,0,0,0,0,0,0,0,0,0,0,0,0,0,0,0,0,0,0,0,0,0],"id":0,"left_children":[1,3,5,7,9,11,13,15,17,19,21,23,25,27,29,-1,-1,-1,-1,-1,-1,-1,-1,-1,-1,-1,-1,-1,-1,-1,-1],"loss_changes":[3.8527769E3,7.2482043E2,4.860901E2,1.7679077E2,2.1727734E2,1.2814624E2,1.22594025E2,5.902394E1,9.973828E1,6.5996475E1,4.0577393E1,3.0309753E1,2.4776855E1,1.1372064E2,2.2589415E1,0E0,0E0,0E0,0E0,0E0,0E0,0E0,0E0,0E0,0E0,0E0,0E0,0E0,0E0,0E0,0E0],"parents":[2147483647,0,0,1,1,2,2,3,3,4,4,5,5,6,6,7,7,8,8,9,9,10,10,11,11,12,12,13,13,14,14],"right_children":[2,4,6,8,10,12,14,16,18,20,22,24,26,28,30,-1,-1,-1,-1,-1,-1,-1,-1,-1,-1,-1,-1,-1,-1,-1,-1],"split_conditions":[4.0053836E-1,3.4916368E-1,-8.0575585E-1,-1.388464E-1,2.1768452E-1,4.5828685E-1,8.0285925E-1,4.2045145E0,3.1079373E-1,4.3850064E0,1E1,4.7664337E0,5.2257454E-1,4.3858334E-1,4.5895147E0,7.189288E-4,-3.4413606E-2,-7.537749E-2,-4.820588E-2,1.4068233E-2,-8.044952E-3,-2.5450949E-2,-6.022975E-2,5.711769E-2,1.0357246E-2,7.768776E-2,9.8719366E-2,2.0414514E-2,5.446273E-2,-4.6775844E-2,-0E0],"split_indices":[9,9,17,20,17,9,20,1,9,1,2,1,9,9,1,0,0,0,0,0,0,0,0,0,0,0,0,0,0,0,0],"split_type":[0,0,0,0,0,0,0,0,0,0,0,0,0,0,0,0,0,0,0,0,0,0,0,0,0,0,0,0,0,0,0],"sum_hessian":[6.5132E3,4.182467E3,2.3307334E3,2.2166501E3,1.9658168E3,1.1826783E3,1.1480549E3,6.135082E2,1.603142E3,1.3704921E3,5.9532465E2,4.667943E2,7.158841E2,1.0471736E3,1.0088137E2,1.614102E2,4.52098E2,5.0764502E2,1.095497E3,7.7840564E2,5.920865E2,4.931978E2,1.0212682E2,4.274381E2,3.935619E1,3.9032373E2,3.2556036E2,6.4937714E2,3.9779642E2,5.056523E1,5.031614E1],"tree_param":{"num_deleted":"0","num_feature":"31","num_nodes":"31","size_leaf_vector":"1"}},{"base_weights":[1.0094748E-2,-6.4974964E-1,8.0596095E-1,-4.538624E-1,-1.3452214E0,3.8698456E-1,1.325966E0,-2.7728283E-1,-9.696592E-1,-1.0644681E0,-1.5139263E0,6.6999793E-1,-3.622299E-2,1.5973712E0,8.7803125E-1,1.1067482E-3,-3.188932E-2,-4.3803703E-2,-8.4982686E-2,3.2596532E-3,-5.8278073E-2,-6.0185354E-2,-7.999308E-2,4.4242334E-2,9.648225E-3,4.347755E-3,-4.484303E-2,7.0087485E-2,9.278583E-2,4.9702927E-2,-6.098335E-3],"categories":[],"categories_nodes":[],"categories_segments":[],"categories_sizes":[],"default_left":[0,0,0,0,0,0,0,0,0,0,0,0,0,0,0,0,0,0,0,0,0,0,0,0,0,0,0,0,0,0,0],"id":1,"left_children":[1,3,5,7,9,11,13,15,17,19,21,23,25,27,29,-1,-1,-1,-1,-1,-1,-1,-1,-1,-1,-1,-1,-1,-1,-1,-1],"loss_changes":[3.4399902E3,4.862931E2,6.4555554E2,2.5399664E2,3.347815E1,1.9749432E2,1.5764673E2,2.2542986E2,4.5171448E1,3.4874176E1,8.534424E0,1.0066449E2,7.0477905E1,3.56709E1,5.8919647E1,0E0,0E0,0E0,0E0,0E0,0E0,0E0,0E0,0E0,0E0,0E0,0E0,0E0,0E0,0E0,0E0],"parents":[2147483647,0,0,1,1,2,2,3,3,4,4,5,5,6,6,7,7,8,8,9,9,10,10,11,11,12,12,13,13,14,14],"right_children":[2,4,6,8,10,12,14,16,18,20,22,24,26,28,30,-1,-1,-1,-1,-1,-1,-1,-1,-1,-1,-1,-1,-1,-1,-1,-1],"split_conditions":[3.7930757E-1,4.8468283E-1,4.3628433E-1,8.75E0,4.2217037E-1,9E0,-8.2402885E-1,4.6041766E-1,8.87167E0,2.940589E-1,4.9067298E-1,4.288087E-1,9.953274E-1,5.2002156E-1,7.9497117E-1,1.1067482E-3,-3.188932E-2,-4.3803703E-2,-8.4982686E-2,3.2596532E-3,-5.8278073E-2,-6.0185354E-2,-7.999308E-2,4.4242334E-2,9.648225E-3,4.347755E-3,-4.484303E-2,7.0087485E-2,9.278583E-2,4.9702927E-2,-6.098335E-3],"split_indices":[9,10,9,2,4,2,17,10,0,9,10,10,4,9,14,0,0,0,0,0,0,0,0,0,0,0,0,0,0,0,0],"split_type":[0,0,0,0,0,0,0,0,0,0,0,0,0,0,0,0,0,0,0,0,0,0,0,0,0,0,0,0,0,0,0],"sum_hessian":[6.5464634E3,3.5791462E3,2.9673171E3,2.7953875E3,7.837588E2,1.645436E3,1.3218811E3,2.0850483E3,7.103393E2,3.0011755E2,4.8364124E2,9.856227E2,6.5981335E2,8.196647E2,5.022164E2,1.1397479E3,9.453003E2,6.3376495E2,7.657437E1,2.4547256E1,2.755703E2,1.11928856E2,3.7171237E2,6.780914E2,3.075313E2,5.785713E2,8.124203E1,4.7421237E2,3.4545233E2,4.5019345E2,5.2022953E1],"tree_param":{"num_deleted":"0","num_feature":"31","num_nodes":"31","size_leaf_vector":"1"}},{"base_weights":[3.9055516E-4,-5.19051E-1,9.1642445E-1,-1.438967E-1,-9.425422E-1,1.3118218E0,5.0599664E-1,6.879767E-2,-6.2641907E-1,-7.171735E-1,-1.2996335E0,9.079682E-1,1.5690383E0,5.9901977E-1,-4.5280492E-1,-4.334904E-3,2.2076553E-2,-4.390159E-2,-7.1506E-3,-1.8531969E-2,-4.4173833E-2,-7.4489884E-2,-5.3688027E-2,5.0358124E-2,5.575552E-3,6.871605E-2,8.8827E-2,1.8390752E-2,4.871935E-2,-6.1918985E-2,-5.7859635E-3],"categories":[],"categories_nodes":[],"categories_segments":[],"categories_sizes":[],"default_left":[0,0,0,0,0,0,0,0,0,0,0,0,0,0,0,0,0,0,0,0,0,0,0,0,0,0,0,0,0,0,0],"id":2,"left_children":[1,3,5,7,9,11,13,15,17,19,21,23,25,27,29,-1,-1,-1,-1,-1,-1,-1,-1,-1,-1,-1,-1,-1,-1,-1,-1],"loss_changes":[3.0996265E3,6.5990955E2,3.8085815E2,2.266774E2,1.5482092E2,1.2121875E2,1.0404849E2,8.900604E1,8.17215E1,6.833661E1,2.8608154E1,3.6811676E1,2.3962036E1,9.0888824E1,2.6864395E1,0E0,0E0,0E0,0E0,0E0,0E0,0E0,0E0,0E0,0E0,0E0,0E0,0E0,0E0,0E0,0E0],"parents":[2147483647,0,0,1,1,2,2,3,3,4,4,5,5,6,6,7,7,8,8,9,9,10,10,11,11,12,12,13,13,14,14],"right_children":[2,4,6,8,10,12,14,16,18,20,22,24,26,28,30,-1,-1,-1,-1,-1,-1,-1,-1,-1,-1,-1,-1,-1,-1,-1,-1],"split_conditions":[4.0053836E-1,4.608118E-1,-8.0575585E-1,9E0,4.8519063E-1,4.5828685E-1,8.0285925E-1,1.7190905E-1,3.8023585E-1,4.2184324E0,-4.3331388E-1,4.2793897E-1,5.2002156E-1,4.3858334E-1,4.429286E0,-4.334904E-3,2.2076553E-2,-4.390159E-2,-7.1506E-3,-1.8531969E-2,-4.4173833E-2,-7.4489884E-2,-5.3688027E-2,5.0358124E-2,5.575552E-3,6.871605E-2,8.8827E-2,1.8390752E-2,4.871935E-2,-6.1918985E-2,-5.7859635E-3],"split_indices":[9,10,17,2,10,9,20,5,9,1,3,10,9,9,1,0,0,0,0,0,0,0,0,0,0,0,0,0,0,0,0],"split_type":[0,0,0,0,0,0,0,0,0,0,0,0,0,0,0,0,0,0,0,0,0,0,0,0,0,0,0,0,0,0,0],"sum_hessian":[6.5100347E3,4.1547256E3,2.3553093E3,2.2047637E3,1.9499618E3,1.197135E3,1.1581742E3,1.5311415E3,6.7362213E2,1.1995037E3,7.504581E2,4.6962216E2,7.275129E2,1.0566198E3,1.015544E2,1.0811211E3,4.5002048E2,4.4168124E2,2.3194087E2,3.9145975E2,8.0804395E2,4.008786E2,3.4957956E2,4.1691724E2,5.2704914E1,3.836811E2,3.438318E2,6.566522E2,3.999676E2,2.8708542E1,7.2845856E1],"tree_param":{"num_deleted":"0","num_feature":"31","num_nodes":"31","size_leaf_vector":"1"}},{"base_weights":[1.2199495E-2,-4.8432267E-1,8.8172376E-1,-1.15947194E-1,-8.965182E-1,1.2708493E0,4.733345E-1,9.207092E-2,-5.8714217E-1,-6.725068E-1,-1.2578894E0,1.0064689E0,1.5983357E0,5.5780035E-1,-4.310296E-1,2.2039987E-2,-3.2489938E-3,-4.088595E-2,-8.558559E-3,-1.6856551E-2,-4.1824818E-2,-5.214702E-2,-7.2669566E-2,5.4353453E-2,4.3745036E-3,3.8046613E-2,8.1516154E-2,1.742723E-2,4.8460778E-2,-5.6046933E-2,-7.183168E-3],"categories":[],"categories_nodes":[],"categories_segments":[],"categories_sizes":[],"default_left":[0,0,0,0,0,0,0,0,0,0,0,0,0,0,0,0,0,0,0,0,0,0,0,0,0,0,0,0,0,0,0],"id":3,"left_children":[1,3,5,7,9,11,13,15,17,19,21,23,25,27,29,-1,-1,-1,-1,-1,-1,-1,-1,-1,-1,-1,-1,-1,-1,-1,-1],"loss_changes":[2.8041274E3,6.273058E2,3.736178E2,2.144319E2,1.5580957E2,1.00806885E2,8.875992E1,8.32516E1,6.3777496E1,6.567584E1,2.7723022E1,4.948712E1,1.1388062E1,9.0121155E1,1.9174297E1,0E0,0E0,0E0,0E0,0E0,0E0,0E0,0E0,0E0,0E0,0E0,0E0,0E0,0E0,0E0,0E0],"parents":[2147483647,0,0,1,1,2,2,3,3,4,4,5,5,6,6,7,7,8,8,9,9,10,10,11,11,12,12,13,13,14,14],"right_children":[2,4,6,8,10,12,14,16,18,20,22,24,26,28,30,-1,-1,-1,-1,-1,-1,-1,-1,-1,-1,-1,-1,-1,-1,-1,-1],"split_conditions":[4.0053836E-1,4.6041766E-1,-8.0575585E-1,9E0,4.8519063E-1,4.852236E-1,8.0285925E-1,7.75E0,3.7930757E-1,4.2184324E0,4.2338642E-1,4.2793897E-1,4.3037457E0,4.559667E-1,4.429286E0,2.2039987E-2,-3.2489938E-3,-4.088595E-2,-8.558559E-3,-1.6856551E-2,-4.1824818E-2,-5.214702E-2,-7.2669566E-2,5.4353453E-2,4.3745036E-3,3.8046613E-2,8.1516154E-2,1.742723E-2,4.8460778E-2,-5.6046933E-2,-7.183168E-3],"split_indices":[9,10,17,2,10,9,20,2,9,1,17,10,1,9,1,0,0,0,0,0,0,0,0,0,0,0,0,0,0,0,0],"split_type":[0,0,0,0,0,0,0,0,0,0,0,0,0,0,0,0,0,0,0,0,0,0,0,0,0,0,0,0,0,0,0],"sum_hessian":[6.490812E3,4.1319893E3,2.358823E3,2.1835857E3,1.9484033E3,1.205486E3,1.1533369E3,1.5156553E3,6.679305E2,1.2066716E3,7.4173175E2,6.71854E2,5.33632E2,1.0557222E3,9.7614815E1,4.69903E2,1.0457523E3,4.2817593E2,2.3975456E2,3.986736E2,8.0799805E2,3.5981625E2,3.8191547E2,6.1714325E2,5.471072E1,2.168794E1,5.119441E2,7.025624E2,3.5315976E2,2.6792915E1,7.08219E1],"tree_param":{"num_deleted":"0","num_feature":"31","num_nodes":"31","size_leaf_vector":"1"}},{"base_weights":[-7.618594E-3,-5.933653E-1,6.972885E-1,-2.6706716E-1,-9.4736093E-1,3.4161705E-1,1.1739317E0,-6.572205E-1,-4.4993743E-2,-7.371192E-1,-1.2120259E0,4.0587017E-1,-7.781342E-1,8.981178E-1,1.4786526E0,-2.5902469E-2,-6.367515E-2,-1.05615705E-2,1.6925288E-2,-2.4408692E-2,-5.1277258E-2,-6.979988E-2,-4.9692273E-2,1.151873E-2,3.5426065E-2,-4.21847E-3,-4.8415076E-2,4.8253097E-2,1.9151078E-3,4.781669E-2,7.781836E-2],"categories":[],"categories_nodes":[],"categories_segments":[],"categories_sizes":[],"default_left":[0,0,0,0,0,0,0,0,0,0,0,0,0,0,0,0,0,0,0,0,0,0,0,0,0,0,0,0,0,0,0],"id":4,"left_children":[1,3,5,7,9,11,13,15,17,19,21,23,25,27,29,-1,-1,-1,-1,-1,-1,-1,-1,-1,-1,-1,-1,-1,-1,-1,-1],"loss_changes":[2.6694065E3,4.0712732E2,4.962854E2,1.5926944E2,9.2006226E1,1.21663574E2,1.0215369E2,5.554239E1,7.5051155E1,6.682306E1,2.668274E1,8.411737E1,1.1745712E1,3.788623E1,2.0539917E1,0E0,0E0,0E0,0E0,0E0,0E0,0E0,0E0,0E0,0E0,0E0,0E0,0E0,0E0,0E0,0E0],"parents":[2147483647,0,0,1,1,2,2,3,3,4,4,5,5,6,6,7,7,8,8,9,9,10,10,11,11,12,12,13,13,14,14],"right_children":[2,4,6,8,10,12,14,16,18,20,22,24,26,28,30,-1,-1,-1,-1,-1,-1,-1,-1,-1,-1,-1,-1,-1,-1,-1,-1],"split_conditions":[3.7930757E-1,4.6452674E-1,4.3858334E-1,-2.0687759E-1,4.8519063E-1,8.0285925E-1,1.2645683E0,8.630441E0,6.8539244E-1,7.969938E0,-4.3331388E-1,7.6090395E-1,8.862822E0,7.9497117E-1,4.689308E-1,-2.5902469E-2,-6.367515E-2,-1.05615705E-2,1.6925288E-2,-2.4408692E-2,-5.1277258E-2,-6.979988E-2,-4.9692273E-2,1.151873E-2,3.5426065E-2,-4.21847E-3,-4.8415076E-2,4.8253097E-2,1.9151078E-3,4.781669E-2,7.781836E-2],"split_indices":[9,10,9,3,10,20,3,0,4,0,3,3,0,14,9,0,0,0,0,0,0,0,0,0,0,0,0,0,0,0,0],"split_type":[0,0,0,0,0,0,0,0,0,0,0,0,0,0,0,0,0,0,0,0,0,0,0,0,0,0,0,0,0,0,0],"sum_hessian":[6.461113E3,3.5291472E3,2.9319656E3,1.8385364E3,1.6906108E3,1.6812606E3,1.2507048E3,6.651454E2,1.173391E3,9.468154E2,7.437955E2,1.5913975E3,8.986325E1,6.6097925E2,5.897255E2,5.4587885E2,1.1926657E2,8.195542E2,3.538368E2,5.1145145E2,4.3536398E2,3.9717804E2,3.4661743E2,1.0099501E3,5.814474E2,2.0180418E1,6.968283E1,6.127908E2,4.818849E1,8.01595E1,5.09566E2],"tree_param":{"num_deleted":"0","num_feature":"31","num_nodes":"31","size_leaf_vector":"1"}},{"base_weights":[-4.415615E-3,-5.4943305E-1,6.5162843E-1,-2.4050891E-1,-8.680982E-1,3.2328594E-1,1.0967057E0,-4.5845952E-2,-7.512554E-1,-6.968562E-1,-1.2214483E0,5.670839E-1,-4.5073003E-2,1.326516E0,7.065913E-1,6.8470896E-3,-1.937051E-2,-2.6055217E-2,-5.8369834E-2,-2.7154485E-2,-5.361986E-2,-7.161846E-2,-4.8313294E-2,3.6953572E-2,8.4041385E-3,-4.352438E-2,3.446759E-3,-2.586684E-3,6.846154E-2,4.1253433E-2,-1.2324564E-2],"categories":[],"categories_nodes":[],"categories_segments":[],"categories_sizes":[],"default_left":[0,0,0,0,0,0,0,0,0,0,0,0,0,0,0,0,0,0,0,0,0,0,0,0,0,0,0,0,0,0,0],"id":5,"left_children":[1,3,5,7,9,11,13,15,17,19,21,23,25,27,29,-1,-1,-1,-1,-1,-1,-1,-1,-1,-1,-1,-1,-1,-1,-1,-1],"loss_changes":[2.314786E3,3.4749353E2,4.2830127E2,1.7860632E2,1.03177734E2,1.5224826E2,1.09427E2,8.161737E1,4.5945984E1,6.6468445E1,2.7153503E1,6.9536316E1,6.3895996E1,4.6413452E1,5.3199997E1,0E0,0E0,0E0,0E0,0E0,0E0,0E0,0E0,0E0,0E0,0E0,0E0,0E0,0E0,0E0,0E0],"parents":[2147483647,0,0,1,1,2,2,3,3,4,4,5,5,6,6,7,7,8,8,9,9,10,10,11,11,12,12,13,13,14,14],"right_children":[2,4,6,8,10,12,14,16,18,20,22,24,26,28,30,-1,-1,-1,-1,-1,-1,-1,-1,-1,-1,-1,-1,-1,-1,-1,-1],"split_conditions":[3.7930757E-1,4.6392652E-1,4.3858334E-1,8.75E0,4.9067298E-1,9E0,-8.2402885E-1,4.3850064E0,8.621206E0,8.250918E0,-4.7500613E-1,4.288087E-1,4.1226608E-1,4.1710696E0,7.9497117E-1,6.8470896E-3,-1.937051E-2,-2.6055217E-2,-5.8369834E-2,-2.7154485E-2,-5.361986E-2,-7.161846E-2,-4.8313294E-2,3.6953572E-2,8.4041385E-3,-4.352438E-2,3.446759E-3,-2.586684E-3,6.846154E-2,4.1253433E-2,-1.2324564E-2],"split_indices":[9,10,9,2,10,2,17,1,0,0,3,10,7,1,14,0,0,0,0,0,0,0,0,0,0,0,0,0,0,0,0],"split_type":[0,0,0,0,0,0,0,0,0,0,0,0,0,0,0,0,0,0,0,0,0,0,0,0,0,0,0,0,0,0,0],"sum_hessian":[6.469976E3,3.5343757E3,2.9356006E3,1.7967175E3,1.7376582E3,1.6915856E3,1.2440149E3,1.3027616E3,4.939559E2,1.1748217E3,5.6283655E2,1.01757117E3,6.7401447E2,7.7950635E2,4.645085E2,8.4902136E2,4.537403E2,3.2126318E2,1.7269273E2,8.37379E2,3.374427E2,3.026617E2,2.6017484E2,7.095271E2,3.080441E2,8.040065E1,5.936138E2,2.3278748E1,7.562276E2,4.1357556E2,5.0932953E1],"tree_param":{"num_deleted":"0","num_feature":"31","num_nodes":"31","size_leaf_vector":"1"}},{"base_weights":[-1.4408334E-2,-4.1688377E-1,8.148762E-1,-1.007256E-1,-8.095426E-1,1.1243876E0,4.478173E-1,8.473237E-2,-5.034834E-1,-5.9958273E-1,-1.1329124E0,8.8396347E-1,1.4056058E0,5.1571685E-1,-3.626419E-1,1.92736E-2,-2.9659618E-3,-1.833521E-2,-4.628663E-2,-1.5536624E-2,-3.831847E-2,-6.5021545E-2,-4.715423E-2,4.7304552E-2,1.1111082E-2,6.279364E-2,7.844787E-2,1.5515176E-2,3.8287476E-2,-3.8152233E-2,8.556637E-3],"categories":[],"categories_nodes":[],"categories_segments":[],"categories_sizes":[],"default_left":[0,0,0,0,0,0,0,0,0,0,0,0,0,0,0,0,0,0,0,0,0,0,0,0,0,0,0,0,0,0,0],"id":6,"left_children":[1,3,5,7,9,11,13,15,17,19,21,23,25,27,29,-1,-1,-1,-1,-1,-1,-1,-1,-1,-1,-1,-1,-1,-1,-1,-1],"loss_changes":[2.1306306E3,5.332236E2,2.3563904E2,1.7820563E2,1.2841626E2,7.345581E1,5.3111786E1,7.0873055E1,4.2501633E1,5.5513214E1,2.1007568E1,2.462738E1,8.140259E0,4.475322E1,1.640604E1,0E0,0E0,0E0,0E0,0E0,0E0,0E0,0E0,0E0,0E0,0E0,0E0,0E0,0E0,0E0,0E0],"parents":[2147483647,0,0,1,1,2,2,3,3,4,4,5,5,6,6,7,7,8,8,9,9,10,10,11,11,12,12,13,13,14,14],"right_children":[2,4,6,8,10,12,14,16,18,20,22,24,26,28,30,-1,-1,-1,-1,-1,-1,-1,-1,-1,-1,-1,-1,-1,-1,-1,-1],"split_conditions":[4.0829217E-1,4.6041766E-1,-8.0575585E-1,2.1768452E-1,4.8468283E-1,4.852236E-1,8.0285925E-1,8E0,9.7922385E-1,7.904868E0,-4.3331388E-1,4.260151E-1,1.0678258E1,4.3858334E-1,4.9186984E-1,1.92736E-2,-2.9659618E-3,-1.833521E-2,-4.628663E-2,-1.5536624E-2,-3.831847E-2,-6.5021545E-2,-4.715423E-2,4.7304552E-2,1.1111082E-2,6.279364E-2,7.844787E-2,1.5515176E-2,3.8287476E-2,-3.8152233E-2,8.556637E-3],"split_indices":[9,10,17,17,10,9,20,2,4,0,3,10,0,9,9,0,0,0,0,0,0,0,0,0,0,0,0,0,0,0,0],"split_type":[0,0,0,0,0,0,0,0,0,0,0,0,0,0,0,0,0,0,0,0,0,0,0,0,0,0,0,0,0,0,0],"sum_hessian":[6.379797E3,4.2960415E3,2.0837556E3,2.3815251E3,1.9145164E3,1.1279633E3,9.5579236E2,1.6313977E3,7.501274E2,1.1646504E3,7.498659E2,6.1293744E2,5.1502576E2,8.828058E2,7.298659E1,5.277142E2,1.1036836E3,5.6977167E2,1.8035567E2,4.2885715E2,7.357933E2,3.9156464E2,3.5830127E2,5.592689E2,5.3668507E1,2.7841916E2,2.3660663E2,4.875462E2,3.952596E2,4.142666E1,3.1559927E1],"tree_param":{"num_deleted":"0","num_feature":"31","num_nodes":"31","size_leaf_vector":"1"}},{"base_weights":[3.3594351E-3,-5.051719E-1,6.088739E-1,-3.5382685E-1,-1.0847162E0,3.0618846E-1,1.0507759E0,-1.7177242E-1,-6.4830095E-1,-8.7986046E-1,-1.2714412E0,-7.404751E-1,3.6002043E-1,6.681266E-1,1.254245E0,7.293431E-4,-2.1901263E-2,-2.9099295E-2,-5.766001E-2,4.994E-4,-4.7671102E-2,-4.6158727E-2,-6.71983E-2,-4.648897E-2,-6.4423974E-3,9.971603E-3,3.0681452E-2,4.0211808E-2,2.87723E-4,6.467448E-2,1.427865E-2],"categories":[],"categories_nodes":[],"categories_segments":[],"categories_sizes":[],"default_left":[0,0,0,0,0,0,0,0,0,0,0,0,0,0,0,0,0,0,0,0,0,0,0,0,0,0,0,0,0,0,0],"id":7,"left_children":[1,3,5,7,9,11,13,15,17,19,21,23,25,27,29,-1,-1,-1,-1,-1,-1,-1,-1,-1,-1,-1,-1,-1,-1,-1,-1],"loss_changes":[1.9673741E3,3.035202E2,3.8920532E2,1.4739963E2,2.478955E1,9.81613E1,9.016614E1,8.477916E1,3.3535217E1,2.3071686E1,6.423523E0,9.4246025E0,6.682291E1,3.731862E1,2.8244507E1,0E0,0E0,0E0,0E0,0E0,0E0,0E0,0E0,0E0,0E0,0E0,0E0,0E0,0E0,0E0,0E0],"parents":[2147483647,0,0,1,1,2,2,3,3,4,4,5,5,6,6,7,7,8,8,9,9,10,10,11,11,12,12,13,13,14,14],"right_children":[2,4,6,8,10,12,14,16,18,20,22,24,26,28,30,-1,-1,-1,-1,-1,-1,-1,-1,-1,-1,-1,-1,-1,-1,-1,-1],"split_conditions":[3.7930757E-1,4.8519063E-1,4.5232388E-1,2.1768452E-1,4.2338642E-1,4.161777E-1,5.7074046E-1,4.6008492E-1,8.630441E0,2.940589E-1,4.9067298E-1,2.3239445E1,7.593049E-1,7.9590565E-1,4.1238427E-1,7.293431E-4,-2.1901263E-2,-2.9099295E-2,-5.766001E-2,4.994E-4,-4.7671102E-2,-4.6158727E-2,-6.71983E-2,-4.648897E-2,-6.4423974E-3,9.971603E-3,3.0681452E-2,4.0211808E-2,2.87723E-4,6.467448E-2,1.427865E-2],"split_indices":[9,10,9,17,17,7,7,10,0,9,10,11,4,4,10,0,0,0,0,0,0,0,0,0,0,0,0,0,0,0,0],"split_type":[0,0,0,0,0,0,0,0,0,0,0,0,0,0,0,0,0,0,0,0,0,0,0,0,0,0,0,0,0,0,0],"sum_hessian":[6.3851094E3,3.4704827E3,2.9146265E3,2.7546787E3,7.1580414E2,1.732067E3,1.1825593E3,1.7046492E3,1.0500295E3,3.472891E2,3.68515E2,8.329639E1,1.6487706E3,4.1383704E2,7.687223E2,1.0034442E3,7.012049E2,9.322821E2,1.1774738E2,2.6441761E1,3.2084735E2,6.872256E1,2.9979248E2,6.256469E1,2.0731697E1,1.0121959E3,6.365747E2,3.426884E2,7.114866E1,7.379482E2,3.0774136E1],"tree_param":{"num_deleted":"0","num_feature":"31","num_nodes":"31","size_leaf_vector":"1"}},{"base_weights":[-3.913649E-3,-2.769383E-1,8.4334683E-1,-7.403032E-1,-5.725948E-2,7.0294946E-1,1.3907775E0,-6.076029E-1,-1.08169E0,1.0581822E-1,-3.913053E-1,2.836421E-1,8.2434887E-1,1.1004372E0,7.309486E-2,-1.8990548E-2,-4.6549395E-2,-6.0941488E-2,-4.7748975E-2,3.9224834E-3,6.893521E-2,-5.4873206E-2,-1.5983721E-2,2.4050226E-2,-8.2862815E-3,3.2967873E-2,5.0185967E-2,3.5874467E-2,6.428662E-2],"categories":[],"categories_nodes":[],"categories_segments":[],"categories_sizes":[],"default_left":[0,0,0,0,0,0,0,0,0,0,0,0,0,0,0,0,0,0,0,0,0,0,0,0,0,0,0,0,0],"id":8,"left_children":[1,3,5,7,9,11,13,15,17,19,21,23,25,27,-1,-1,-1,-1,-1,-1,-1,-1,-1,-1,-1,-1,-1,-1,-1],"loss_changes":[1.4699315E3,4.8899988E2,1.1664685E2,6.835498E1,1.77893E2,6.2269836E1,2.7489014E0,8.137097E1,4.701935E0,7.5916595E1,5.3200714E1,2.5153807E1,2.6687012E1,2.748146E0,0E0,0E0,0E0,0E0,0E0,0E0,0E0,0E0,0E0,0E0,0E0,0E0,0E0,0E0,0E0],"parents":[2147483647,0,0,1,1,2,2,3,3,4,4,5,5,6,6,7,7,8,8,9,9,10,10,11,11,12,12,13,13],"right_children":[2,4,6,8,10,12,14,16,18,20,22,24,26,28,-1,-1,-1,-1,-1,-1,-1,-1,-1,-1,-1,-1,-1,-1,-1],"split_conditions":[5.687868E-1,8.08125E0,1.028317E1,7.84608E-1,2.1768452E-1,8.752073E0,1.0613335E1,4.324465E0,7.616046E0,1.0678258E1,-3.4372333E-1,4.406827E0,3.024726E-1,3.0730376E-1,7.309486E-2,-1.8990548E-2,-4.6549395E-2,-6.0941488E-2,-4.7748975E-2,3.9224834E-3,6.893521E-2,-5.4873206E-2,-1.5983721E-2,2.4050226E-2,-8.2862815E-3,3.2967873E-2,5.0185967E-2,3.5874467E-2,6.428662E-2],"split_indices":[7,0,0,17,17,0,0,1,0,0,5,1,5,5,0,0,0,0,0,0,0,0,0,0,0,0,0,0,0],"split_type":[0,0,0,0,0,0,0,0,0,0,0,0,0,0,0,0,0,0,0,0,0,0,0,0,0,0,0,0,0],"sum_hessian":[6.350925E3,4.804338E3,1.5465869E3,1.5433419E3,3.260996E3,1.2348287E3,3.117582E2,1.1157749E3,4.2756696E2,2.191766E3,1.0692299E3,2.791117E2,9.5571704E2,6.837624E1,2.4338196E2,6.575589E2,4.5821606E2,1.9629689E2,2.3127007E2,2.147865E3,4.3901257E1,9.557625E1,9.736536E2,1.9414668E2,8.4965004E1,5.0326376E2,4.524533E2,2.5825851E1,4.2550392E1],"tree_param":{"num_deleted":"0","num_feature":"31","num_nodes":"29","size_leaf_vector":"1"}},{"base_weights":[-3.8960518E-3,6.7487144E-1,-3.846808E-1,3.3240178E-1,1.0225192E0,-9.31605E-2,-7.2273964E-1,-5.614418E-1,3.88339E-1,1.2952216E0,8.568084E-1,3.440291E-1,-2.3298836E-1,-5.460066E-1,-1.0205568E0,-6.2047955E-2,-6.4090895E-3,-4.016236E-2,2.0691799E-2,5.3228516E-2,7.100896E-2,4.566397E-2,9.123584E-3,4.1846674E-2,1.280635E-2,-4.170483E-2,-8.498059E-3,-1.2363309E-2,-3.5394516E-2,-5.8987673E-2,-4.1870102E-2],"categories":[],"categories_nodes":[],"categories_segments":[],"categories_sizes":[],"default_left":[0,0,0,0,0,0,0,0,0,0,0,0,0,0,0,0,0,0,0,0,0,0,0,0,0,0,0,0,0,0,0],"id":9,"left_children":[1,3,5,7,9,11,13,15,17,19,21,23,25,27,29,-1,-1,-1,-1,-1,-1,-1,-1,-1,-1,-1,-1,-1,-1,-1,-1],"loss_changes":[1.6336449E3,2.6947998E2,3.9877405E2,5.7774277E1,4.8230225E1,1.3321948E2,9.723053E1,1.9483006E1,3.3438477E1,8.619324E0,2.635968E1,2.2229694E1,6.2064636E1,5.657666E1,1.7895508E1,0E0,0E0,0E0,0E0,0E0,0E0,0E0,0E0,0E0,0E0,0E0,0E0,0E0,0E0,0E0,0E0],"parents":[2147483647,0,0,1,1,2,2,3,3,4,4,5,5,6,6,7,7,8,8,9,9,10,10,11,11,12,12,13,13,14,14],"right_children":[2,4,6,8,10,12,14,16,18,20,22,24,26,28,30,-1,-1,-1,-1,-1,-1,-1,-1,-1,-1,-1,-1,-1,-1,-1,-1],"split_conditions":[4.2432123E-1,7.99378E-1,4.6041766E-1,3.9367348E-1,3.8857076E-1,8E0,4.8519063E-1,4.401058E0,3.9875517E0,3.5383382E-1,1.000883E1,4.1466913E0,-9.8147553E-1,-1.4853066E-1,-4.3331388E-1,-6.2047955E-2,-6.4090895E-3,-4.016236E-2,2.0691799E-2,5.3228516E-2,7.100896E-2,4.566397E-2,9.123584E-3,4.1846674E-2,1.280635E-2,-4.170483E-2,-8.498059E-3,-1.2363309E-2,-3.5394516E-2,-5.8987673E-2,-4.1870102E-2],"split_indices":[10,3,10,7,10,2,10,1,1,5,0,1,3,20,3,0,0,0,0,0,0,0,0,0,0,0,0,0,0,0,0],"split_type":[0,0,0,0,0,0,0,0,0,0,0,0,0,0,0,0,0,0,0,0,0,0,0,0,0,0,0,0,0,0,0],"sum_hessian":[6.3167983E3,2.269404E3,4.047394E3,1.1454767E3,1.1239274E3,2.1749763E3,1.8724177E3,6.6187675E1,1.0792891E3,4.1921167E2,7.0471576E2,5.260047E2,1.6489717E3,1.1790657E3,6.93352E2,2.4138771E1,4.204891E1,2.11679E1,1.0581212E3,1.5455956E2,2.646521E2,6.493334E2,5.538239E1,7.668451E1,4.4932016E2,1.5386606E2,1.4951056E3,4.1658636E2,7.624793E2,3.645305E2,3.2882153E2],"tree_param":{"num_deleted":"0","num_feature":"31","num_nodes":"31","size_leaf_vector":"1"}},{"base_weights":[-5.25757E-3,-4.553608E-1,5.3566927E-1,-1.7287207E-1,-7.003095E-1,2.6546475E-1,9.4641393E-1,7.760608E-4,-6.708955E-1,-3.7418655E-1,-8.3689684E-1,3.881966E-1,-2.5089648E-1,6.2377155E-1,1.1265706E0,1.8385826E-2,-6.207493E-3,-2.8645424E-2,-6.151842E-2,8.67585E-3,-2.809817E-2,-3.4361914E-2,-5.516379E-2,1.05769215E-2,2.6842335E-2,-5.0214613E-3,-3.4415506E-2,3.464726E-2,-1.462681E-2,4.8663612E-2,6.7082316E-2],"categories":[],"categories_nodes":[],"categories_segments":[],"categories_sizes":[],"default_left":[0,0,0,0,0,0,0,0,0,0,0,0,0,0,0,0,0,0,0,0,0,0,0,0,0,0,0,0,0,0,0],"id":10,"left_children":[1,3,5,7,9,11,13,15,17,19,21,23,25,27,29,-1,-1,-1,-1,-1,-1,-1,-1,-1,-1,-1,-1,-1,-1,-1,-1],"loss_changes":[1.5261608E3,2.363421E2,3.152024E2,1.378188E2,8.071576E1,1.0923938E2,6.3841858E1,5.4331203E1,2.0810425E1,5.6292885E1,4.9506042E1,3.61503E1,2.1505945E1,2.6425003E1,2.0707031E1,0E0,0E0,0E0,0E0,0E0,0E0,0E0,0E0,0E0,0E0,0E0,0E0,0E0,0E0,0E0,0E0],"parents":[2147483647,0,0,1,1,2,2,3,3,4,4,5,5,6,6,7,7,8,8,9,9,10,10,11,11,12,12,13,13,14,14],"right_children":[2,4,6,8,10,12,14,16,18,20,22,24,26,28,30,-1,-1,-1,-1,-1,-1,-1,-1,-1,-1,-1,-1,-1,-1,-1,-1],"split_conditions":[3.7930757E-1,4.608118E-1,4.5232388E-1,9E0,-1.3039544E-1,9.5E0,5.7074046E-1,-6.829451E-1,4.528229E0,4.2045145E0,4.8896408E-1,4.0829217E-1,8.0285925E-1,1.1427639E0,5.2257454E-1,1.8385826E-2,-6.207493E-3,-2.8645424E-2,-6.151842E-2,8.67585E-3,-2.809817E-2,-3.4361914E-2,-5.516379E-2,1.05769215E-2,2.6842335E-2,-5.0214613E-3,-3.4415506E-2,3.464726E-2,-1.462681E-2,4.8663612E-2,6.7082316E-2],"split_indices":[9,10,9,2,20,2,7,20,1,1,10,9,20,14,9,0,0,0,0,0,0,0,0,0,0,0,0,0,0,0,0],"split_type":[0,0,0,0,0,0,0,0,0,0,0,0,0,0,0,0,0,0,0,0,0,0,0,0,0,0,0,0,0,0,0],"sum_hessian":[6.26436E3,3.4196052E3,2.8447546E3,1.5900721E3,1.8295331E3,1.7182195E3,1.1265352E3,1.1801716E3,4.0990054E2,5.4269934E2,1.2868337E3,1.3889656E3,3.292539E2,4.072415E2,7.1929364E2,2.9916345E2,8.810081E2,3.5255835E2,5.7342186E1,1.3832442E2,4.0437494E2,8.289941E2,4.5783963E2,6.375191E2,7.514465E2,2.4715181E2,8.21021E1,3.7931235E2,2.7929138E1,4.2695547E2,2.9233817E2],"tree_param":{"num_deleted":"0","num_feature":"31","num_nodes":"31","size_leaf_vector":"1"}},{"base_weights":[3.0191813E-4,-3.273926E-1,6.823242E-1,-6.6935964E-2,-6.646682E-1,3.8147438E-1,9.3860596E-1,-8.131301E-1,-6.775076E-3,-4.8576045E-1,-9.58946E-1,4.5304272E-1,-1.8194166E-1,7.012873E-1,1.2385156E0,-2.2569811E-2,-4.7514435E-2,-4.878622E-3,1.488915E-2,-1.0544524E-2,-3.222953E-2,-3.6138304E-2,-5.5517834E-2,1.968006E-2,6.2823385E-2,-3.8491342E-2,4.9826555E-4,3.731099E-2,3.0401514E-3,4.8039466E-2,6.541165E-2],"categories":[],"categories_nodes":[],"categories_segments":[],"categories_sizes":[],"default_left":[0,0,0,0,0,0,0,0,0,0,0,0,0,0,0,0,0,0,0,0,0,0,0,0,0,0,0,0,0,0,0],"id":11,"left_children":[1,3,5,7,9,11,13,15,17,19,21,23,25,27,29,-1,-1,-1,-1,-1,-1,-1,-1,-1,-1,-1,-1,-1,-1,-1,-1],"loss_changes":[1.3890834E3,3.6851913E2,1.5455109E2,1.0627121E2,9.505139E1,3.7785706E1,7.528113E1,7.6259766E0,6.0758934E1,4.9400177E1,2.2663391E1,3.820114E1,1.2139353E1,1.7363678E1,6.2767334E0,0E0,0E0,0E0,0E0,0E0,0E0,0E0,0E0,0E0,0E0,0E0,0E0,0E0,0E0,0E0,0E0],"parents":[2147483647,0,0,1,1,2,2,3,3,4,4,5,5,6,6,7,7,8,8,9,9,10,10,11,11,12,12,13,13,14,14],"right_children":[2,4,6,8,10,12,14,16,18,20,22,24,26,28,30,-1,-1,-1,-1,-1,-1,-1,-1,-1,-1,-1,-1,-1,-1,-1,-1],"split_conditions":[4.0829217E-1,4.6041766E-1,7.99378E-1,-9.8147553E-1,4.8468283E-1,7.8792685E-1,4.852236E-1,4.352701E-1,7.511513E-1,7.904868E0,4.2217037E-1,5.31653E-1,-3.4372333E-1,4.2793897E-1,1.2998523E0,-2.2569811E-2,-4.7514435E-2,-4.878622E-3,1.488915E-2,-1.0544524E-2,-3.222953E-2,-3.6138304E-2,-5.5517834E-2,1.968006E-2,6.2823385E-2,-3.8491342E-2,4.9826555E-4,3.731099E-2,3.0401514E-3,4.8039466E-2,6.541165E-2],"split_indices":[9,10,3,3,10,4,9,10,3,0,4,9,5,10,3,0,0,0,0,0,0,0,0,0,0,0,0,0,0,0,0],"split_type":[0,0,0,0,0,0,0,0,0,0,0,0,0,0,0,0,0,0,0,0,0,0,0,0,0,0,0,0,0,0,0],"sum_hessian":[6.2109614E3,4.195754E3,2.0152075E3,2.3691777E3,1.8265765E3,9.296483E2,1.0855592E3,1.7464502E2,2.1945327E3,1.1396819E3,6.868946E2,8.255314E2,1.0411697E2,6.101169E2,4.7544226E2,5.0774834E1,1.2387019E2,1.692089E3,5.024436E2,4.1954175E2,7.2014014E2,2.7335947E2,4.135351E2,7.7166815E2,5.386322E1,2.4397442E1,7.971953E1,5.695204E2,4.0596523E1,1.0190893E2,3.7353333E2],"tree_param":{"num_deleted":"0","num_feature":"31","num_nodes":"31","size_leaf_vector":"1"}},{"base_weights":[2.1407946E-3,6.0768104E-1,-3.398538E-1,3.1700116E-1,9.111644E-1,-9.246454E-2,-6.336501E-1,-4.2976037E-2,3.5449997E-1,1.2698671E0,7.9398406E-1,3.822722E-2,-4.1056073E-1,-4.6097866E-1,-9.3729943E-1,1.5575478E-2,4.6002403E-2,5.0732702E-2,6.715087E-2,3.4145378E-2,5.12662E-2,1.0532193E-2,-7.5239427E-3,-1.24651445E-2,-3.0815383E-2,-1.1097547E-2,-3.276749E-2,-5.6928378E-2,-3.6485907E-2],"categories":[],"categories_nodes":[],"categories_segments":[],"categories_sizes":[],"default_left":[0,0,0,0,0,0,0,0,0,0,0,0,0,0,0,0,0,0,0,0,0,0,0,0,0,0,0,0,0],"id":12,"left_children":[1,3,5,7,9,11,13,-1,15,17,19,21,23,25,27,-1,-1,-1,-1,-1,-1,-1,-1,-1,-1,-1,-1,-1,-1],"loss_changes":[1.2878889E3,1.9719824E2,2.8857333E2,5.1242065E1,4.3671204E1,8.9905785E1,9.406592E1,0E0,2.6314224E1,1.7748108E0,1.9649231E1,4.9934486E1,2.0410408E1,5.3518494E1,2.5368835E1,0E0,0E0,0E0,0E0,0E0,0E0,0E0,0E0,0E0,0E0,0E0,0E0,0E0,0E0],"parents":[2147483647,0,0,1,1,2,2,3,3,4,4,5,5,6,6,8,8,9,9,10,10,11,11,12,12,13,13,14,14],"right_children":[2,4,6,8,10,12,14,-1,16,18,20,22,24,26,28,-1,-1,-1,-1,-1,-1,-1,-1,-1,-1,-1,-1,-1,-1],"split_conditions":[4.2432123E-1,7.99378E-1,4.6041766E-1,-3.4372333E-1,3.8056412E-1,9E0,4.8519063E-1,-4.2976037E-2,1.0678258E1,1.0613335E1,3.6738393E-1,4.4756514E-1,6.606251E-1,7.969938E0,-4.7500613E-1,1.5575478E-2,4.6002403E-2,5.0732702E-2,6.715087E-2,3.4145378E-2,5.12662E-2,1.0532193E-2,-7.5239427E-3,-1.24651445E-2,-3.0815383E-2,-1.1097547E-2,-3.276749E-2,-5.6928378E-2,-3.6485907E-2],"split_indices":[10,3,10,5,10,2,10,0,0,0,5,10,17,0,3,0,0,0,0,0,0,0,0,0,0,0,0,0,0],"split_type":[0,0,0,0,0,0,0,0,0,0,0,0,0,0,0,0,0,0,0,0,0,0,0,0,0,0,0,0,0],"sum_hessian":[6.2146836E3,2.2427217E3,3.9719622E3,1.14795E3,1.0947716E3,2.1580774E3,1.8138848E3,3.3939045E1,1.114011E3,2.6430933E2,8.3046234E2,1.5304242E3,6.276532E2,1.1599623E3,6.539224E2,1.0385225E3,7.548854E1,6.611547E1,1.9819385E2,5.669925E2,2.6346985E2,8.0016144E2,7.3026276E2,3.5489407E2,2.7275912E2,5.226037E2,6.3735864E2,3.2696655E2,3.2695587E2],"tree_param":{"num_deleted":"0","num_feature":"31","num_nodes":"29","size_leaf_vector":"1"}},{"base_weights":[7.709081E-3,-4.1157332E-1,4.7137177E-1,-2.8504092E-1,-8.9700276E-1,2.2505541E-1,8.22113E-1,-1.6354296E-1,-6.6723084E-1,-1.2121817E0,-7.697731E-1,4.135211E-1,-6.44956E-2,1.0947012E0,6.242396E-1,-1.4722164E-3,-2.0928178E-2,-2.9776825E-2,-6.981368E-2,-6.266054E-2,-3.939769E-2,-2.2707528E-2,-4.6611104E-2,2.8482705E-2,1.0726078E-2,1.4909518E-2,-1.6240818E-2,7.7128983E-3,5.7430238E-2,4.905428E-3,3.5287727E-2],"categories":[],"categories_nodes":[],"categories_segments":[],"categories_sizes":[],"default_left":[0,0,0,0,0,0,0,0,0,0,0,0,0,0,0,0,0,0,0,0,0,0,0,0,0,0,0,0,0,0,0],"id":13,"left_children":[1,3,5,7,9,11,13,15,17,19,21,23,25,27,29,-1,-1,-1,-1,-1,-1,-1,-1,-1,-1,-1,-1,-1,-1,-1,-1],"loss_changes":[1.2005065E3,1.9842047E2,2.5277917E2,1.1920477E2,2.4572205E1,9.430376E1,6.3487732E1,6.681834E1,3.03544E1,8.981018E-1,2.3624146E1,3.210141E1,6.4566956E1,2.5001404E1,2.9955475E1,0E0,0E0,0E0,0E0,0E0,0E0,0E0,0E0,0E0,0E0,0E0,0E0,0E0,0E0,0E0,0E0],"parents":[2147483647,0,0,1,1,2,2,3,3,4,4,5,5,6,6,7,7,8,8,9,9,10,10,11,11,12,12,13,13,14,14],"right_children":[2,4,6,8,10,12,14,16,18,20,22,24,26,28,30,-1,-1,-1,-1,-1,-1,-1,-1,-1,-1,-1,-1,-1,-1,-1,-1],"split_conditions":[3.7466758E-1,4.8468283E-1,4.3628433E-1,8.75E0,-2.0407605E-1,9E0,-1.3089035E0,4.3850064E0,8.87167E0,3.1465858E-1,4.2184324E0,4.2432123E-1,9.048988E0,4.2526417E0,-2.9286608E-2,-1.4722164E-3,-2.0928178E-2,-2.9776825E-2,-6.981368E-2,-6.266054E-2,-3.939769E-2,-2.2707528E-2,-4.6611104E-2,2.8482705E-2,1.0726078E-2,1.4909518E-2,-1.6240818E-2,7.7128983E-3,5.7430238E-2,4.905428E-3,3.5287727E-2],"split_indices":[9,10,9,2,5,2,17,1,0,9,1,10,0,1,8,0,0,0,0,0,0,0,0,0,0,0,0,0,0,0,0],"split_type":[0,0,0,0,0,0,0,0,0,0,0,0,0,0,0,0,0,0,0,0,0,0,0,0,0,0,0,0,0,0,0],"sum_hessian":[6.1712095E3,3.2405908E3,2.9306187E3,2.5733943E3,6.6719653E2,1.7238545E3,1.2067642E3,1.9552125E3,6.181818E2,1.8651825E2,4.8067828E2,1.0440972E3,6.797574E2,5.0332028E2,7.034439E2,1.2833815E3,6.7183105E2,5.6639075E2,5.179104E1,1.6607657E2,2.044168E1,1.663326E2,3.143457E2,5.824123E2,4.6168484E2,2.8359122E2,3.9616617E2,2.7904877E1,4.754154E2,9.528637E1,6.0815753E2],"tree_param":{"num_deleted":"0","num_feature":"31","num_nodes":"31","size_leaf_vector":"1"}},{"base_weights":[8.352894E-3,-2.788243E-1,6.0991615E-1,-4.4531178E-2,-5.99814E-1,3.6286303E-1,8.6324126E-1,8.861391E-2,-3.3814272E-1,-4.6813807E-1,-9.413908E-1,5.089802E-1,-2.1794869E-2,3.4103933E-1,9.996794E-1,1.2504781E-2,-4.4098967E-3,-1.1391121E-2,-3.5147823E-2,-1.2419318E-2,-3.1832498E-2,-5.83736E-2,-3.4059625E-2,3.1324964E-2,1.1773982E-2,2.2857435E-2,-1.6024245E-2,5.073195E-3,4.251295E-2,6.6338845E-2,4.5046244E-2],"categories":[],"categories_nodes":[],"categories_segments":[],"categories_sizes":[],"default_left":[0,0,0,0,0,0,0,0,0,0,0,0,0,0,0,0,0,0,0,0,0,0,0,0,0,0,0,0,0,0,0],"id":14,"left_children":[1,3,5,7,9,11,13,15,17,19,21,23,25,27,29,-1,-1,-1,-1,-1,-1,-1,-1,-1,-1,-1,-1,-1,-1,-1,-1],"loss_changes":[1.0622592E3,3.1279285E2,1.2348328E2,9.4253075E1,7.779004E1,5.6875275E1,6.881549E1,4.7414593E1,2.9767776E1,4.6587067E1,2.6629974E1,2.3068756E1,4.0253716E1,2.47903E1,2.2198486E1,0E0,0E0,0E0,0E0,0E0,0E0,0E0,0E0,0E0,0E0,0E0,0E0,0E0,0E0,0E0,0E0],"parents":[2147483647,0,0,1,1,2,2,3,3,4,4,5,5,6,6,7,7,8,8,9,9,10,10,11,11,12,12,13,13,14,14],"right_children":[2,4,6,8,10,12,14,16,18,20,22,24,26,28,30,-1,-1,-1,-1,-1,-1,-1,-1,-1,-1,-1,-1,-1,-1,-1,-1],"split_conditions":[4.0829217E-1,4.608118E-1,4.5828685E-1,2.1768452E-1,4.9067298E-1,9.522555E0,3.7138912E-1,8.585182E0,9.7922385E-1,7.904868E0,-4.7500613E-1,4.1772836E-1,-9.196868E-1,5.277136E-1,-2.2910159E0,1.2504781E-2,-4.4098967E-3,-1.1391121E-2,-3.5147823E-2,-1.2419318E-2,-3.1832498E-2,-5.83736E-2,-3.4059625E-2,3.1324964E-2,1.1773982E-2,2.2857435E-2,-1.6024245E-2,5.073195E-3,4.251295E-2,6.6338845E-2,4.5046244E-2],"split_indices":[9,10,9,17,10,0,3,0,4,0,3,10,20,9,17,0,0,0,0,0,0,0,0,0,0,0,0,0,0,0,0],"split_type":[0,0,0,0,0,0,0,0,0,0,0,0,0,0,0,0,0,0,0,0,0,0,0,0,0,0,0,0,0,0,0],"sum_hessian":[6.1445737E3,4.1595894E3,1.9849844E3,2.4061907E3,1.7533984E3,1.0077953E3,9.771891E2,1.655968E3,7.5022266E2,1.2693845E3,4.8401398E2,7.302675E2,2.7752777E2,2.0417955E2,7.730096E2,8.65663E2,7.9030505E2,5.789457E2,1.7127696E2,5.535934E2,7.1579114E2,2.5484332E2,2.2917064E2,5.0847214E2,2.2179536E2,1.0593403E2,1.7159373E2,1.4075093E2,6.342862E1,1.7302295E2,5.9998663E2],"tree_param":{"num_deleted":"0","num_feature":"31","num_nodes":"31","size_leaf_vector":"1"}},{"base_weights":[-3.4764465E-3,5.3817767E-1,-3.050177E-1,8.512316E-1,2.622194E-1,-8.136058E-2,-5.783238E-1,1.1685898E0,7.312166E-1,-4.0766995E-2,2.9399884E-1,3.5293788E-2,-3.4959856E-1,-4.4724816E-1,-8.8429695E-1,4.6812672E-2,6.2257785E-2,4.967242E-2,3.2641232E-2,-4.2995002E-2,1.5863003E-2,1.05365915E-2,-9.369765E-3,-6.6539936E-2,-1.51554495E-2,-6.37462E-3,-3.0275136E-2,-5.4488685E-2,-3.2821357E-2],"categories":[],"categories_nodes":[],"categories_segments":[],"categories_sizes":[],"default_left":[0,0,0,0,0,0,0,0,0,0,0,0,0,0,0,0,0,0,0,0,0,0,0,0,0,0,0,0,0],"id":15,"left_children":[1,3,5,7,9,11,13,15,17,-1,19,21,23,25,27,-1,-1,-1,-1,-1,-1,-1,-1,-1,-1,-1,-1,-1,-1],"loss_changes":[9.973458E2,1.8797021E2,2.3957318E2,3.68291E1,4.0227936E1,6.768201E1,6.972089E1,2.1522217E0,1.3734131E1,0E0,3.08237E1,5.895008E1,2.876368E1,6.2447525E1,2.2884796E1,0E0,0E0,0E0,0E0,0E0,0E0,0E0,0E0,0E0,0E0,0E0,0E0,0E0,0E0],"parents":[2147483647,0,0,1,1,2,2,3,3,4,4,5,5,6,6,7,7,8,8,10,10,11,11,12,12,13,13,14,14],"right_children":[2,4,6,8,10,12,14,16,18,-1,20,22,24,26,28,-1,-1,-1,-1,-1,-1,-1,-1,-1,-1,-1,-1,-1,-1],"split_conditions":[4.2432123E-1,-8.0575585E-1,4.6041766E-1,3.8219634E-1,3.6552718E-1,2.1768452E-1,4.8896408E-1,1.0613335E1,-1.7122611E0,-4.0766995E-2,3.9875517E0,8.585182E0,2.4365771E-1,4.2184324E0,-4.3331388E-1,4.6812672E-2,6.2257785E-2,4.967242E-2,3.2641232E-2,-4.2995002E-2,1.5863003E-2,1.05365915E-2,-9.369765E-3,-6.6539936E-2,-1.51554495E-2,-6.37462E-3,-3.0275136E-2,-5.4488685E-2,-3.2821357E-2],"split_indices":[10,17,10,10,7,17,10,0,14,0,1,0,17,1,3,0,0,0,0,0,0,0,0,0,0,0,0,0,0],"split_type":[0,0,0,0,0,0,0,0,0,0,0,0,0,0,0,0,0,0,0,0,0,0,0,0,0,0,0,0,0],"sum_hessian":[6.102559E3,2.1815823E3,3.9209768E3,1.01980084E3,1.1617814E3,2.15818E3,1.7627969E3,2.745807E2,7.452202E2,3.1688818E1,1.1300925E3,1.504763E3,6.5341705E2,1.2380198E3,5.247771E2,7.52638E1,1.9931688E2,1.655468E2,5.796734E2,2.0739801E1,1.1093528E3,8.42239E2,6.625239E2,2.686459E1,6.265525E2,4.114844E2,8.2653534E2,2.7150797E2,2.532691E2],"tree_param":{"num_deleted":"0","num_feature":"31","num_nodes":"29","size_leaf_vector":"1"}},{"base_weights":[-8.980554E-3,-3.6740503E-1,4.2003053E-1,-4.7310677E-1,7.730991E-2,2.2277014E-1,7.931685E-1,-3.852856E-1,-9.143289E-1,-2.389677E-1,3.8852188E-1,2.7655175E-1,-4.6480072E-1,2.0971665E-2,8.745872E-1,-1.7362528E-2,-6.69412E-2,-0E0,-5.020957E-2,-2.1791805E-2,1.360299E-2,5.6180656E-2,1.1600006E-2,-4.450233E-2,1.4769184E-2,-3.5814695E-2,2.5470952E-2,4.3327924E-2,-1.4304384E-2,-1.0158478E-2,4.6012606E-2],"categories":[],"categories_nodes":[],"categories_segments":[],"categories_sizes":[],"default_left":[0,0,0,0,0,0,0,0,0,0,0,0,0,0,0,0,0,0,0,0,0,0,0,0,0,0,0,0,0,0,0],"id":16,"left_children":[1,3,5,7,9,11,13,15,17,19,21,23,25,27,29,-1,-1,-1,-1,-1,-1,-1,-1,-1,-1,-1,-1,-1,-1,-1,-1],"loss_changes":[9.3346844E2,1.5563629E2,2.0281644E2,1.0261481E2,6.2871643E1,6.717374E1,5.9788696E1,7.9726654E1,3.6157227E1,3.212445E1,3.6247955E1,3.7332657E1,3.3070335E1,2.4840786E1,4.299469E1,0E0,0E0,0E0,0E0,0E0,0E0,0E0,0E0,0E0,0E0,0E0,0E0,0E0,0E0,0E0,0E0],"parents":[2147483647,0,0,1,1,2,2,3,3,4,4,5,5,6,6,7,7,8,8,9,9,10,10,11,11,12,12,13,13,14,14],"right_children":[2,4,6,8,10,12,14,16,18,20,22,24,26,28,30,-1,-1,-1,-1,-1,-1,-1,-1,-1,-1,-1,-1,-1,-1,-1,-1],"split_conditions":[3.7930757E-1,1.3493878E-1,4.5828685E-1,4.9067298E-1,3.558009E-1,1E1,4.707134E-1,8.87167E0,2.940589E-1,5.735655E-1,3.59782E-1,3.9429085E0,4.7340755E0,9.9825535E0,4.1795697E0,-1.7362528E-2,-6.69412E-2,-0E0,-5.020957E-2,-2.1791805E-2,1.360299E-2,5.6180656E-2,1.1600006E-2,-4.450233E-2,1.4769184E-2,-3.5814695E-2,2.5470952E-2,4.3327924E-2,-1.4304384E-2,-1.0158478E-2,4.6012606E-2],"split_indices":[9,5,9,10,9,2,7,0,9,7,9,1,1,0,1,0,0,0,0,0,0,0,0,0,0,0,0,0,0,0,0],"split_type":[0,0,0,0,0,0,0,0,0,0,0,0,0,0,0,0,0,0,0,0,0,0,0,0,0,0,0,0,0,0,0],"sum_hessian":[6.066687E3,3.3056665E3,2.7610205E3,2.671108E3,6.345584E2,1.808619E3,9.5240155E2,2.2312068E3,4.3990134E2,3.1462936E2,3.1992902E2,1.6787909E3,1.2982819E2,9.131524E1,8.610863E2,2.1484468E3,8.2759834E1,3.969449E1,4.0020685E2,2.2762479E2,8.700459E1,5.3769585E1,2.6615942E2,2.5030941E1,1.65376E3,1.0377392E2,2.6054262E1,2.352864E1,6.77866E1,3.454306E1,8.265433E2],"tree_param":{"num_deleted":"0","num_feature":"31","num_nodes":"31","size_leaf_vector":"1"}},{"base_weights":[8.99607E-3,-3.2622707E-1,4.0818694E-1,-5.780295E-2,-4.8515245E-1,1.8757898E-1,7.141625E-1,3.3954772E-1,-1.8686134E-1,-9.1661614E-1,-3.8391808E-1,3.5793924E-1,-6.1069485E-2,-3.2838184E-1,7.748739E-1,9.250953E-3,4.098017E-2,-3.4530368E-2,-3.8308655E-3,-4.231551E-3,-4.9583055E-2,-1.692981E-2,-6.0178142E-2,4.2386256E-2,1.5317723E-2,1.2451469E-2,-1.3912569E-2,1.0238648E-2,-5.19523E-2,1.4094779E-2,4.477664E-2],"categories":[],"categories_nodes":[],"categories_segments":[],"categories_sizes":[],"default_left":[0,0,0,0,0,0,0,0,0,0,0,0,0,0,0,0,0,0,0,0,0,0,0,0,0,0,0,0,0,0,0],"id":17,"left_children":[1,3,5,7,9,11,13,15,17,19,21,23,25,27,29,-1,-1,-1,-1,-1,-1,-1,-1,-1,-1,-1,-1,-1,-1,-1,-1],"loss_changes":[8.0319836E2,1.3899762E2,1.8449573E2,6.244921E1,8.8502625E1,6.767227E1,7.318176E1,2.1633884E1,5.080333E1,2.380716E1,6.0647278E1,2.3185005E1,4.3905437E1,2.4966223E1,6.3763977E1,0E0,0E0,0E0,0E0,0E0,0E0,0E0,0E0,0E0,0E0,0E0,0E0,0E0,0E0,0E0,0E0],"parents":[2147483647,0,0,1,1,2,2,3,3,4,4,5,5,6,6,7,7,8,8,9,9,10,10,11,11,12,12,13,13,14,14],"right_children":[2,4,6,8,10,12,14,16,18,20,22,24,26,28,30,-1,-1,-1,-1,-1,-1,-1,-1,-1,-1,-1,-1,-1,-1,-1,-1],"split_conditions":[3.7930757E-1,-1.0151273E-1,4.3628433E-1,4.2045145E0,3.1079373E-1,9E0,4.1795697E0,3.6250195E-1,3.1992388E-1,2.940589E-1,8.826694E0,8.585182E0,9.048988E0,4.6709654E-1,3.4559253E-1,9.250953E-3,4.098017E-2,-3.4530368E-2,-3.8308655E-3,-4.231551E-3,-4.9583055E-2,-1.692981E-2,-6.0178142E-2,4.2386256E-2,1.5317723E-2,1.2451469E-2,-1.3912569E-2,1.0238648E-2,-5.19523E-2,1.4094779E-2,4.477664E-2],"split_indices":[9,20,9,1,9,2,1,9,9,9,0,0,0,9,3,0,0,0,0,0,0,0,0,0,0,0,0,0,0,0,0],"split_type":[0,0,0,0,0,0,0,0,0,0,0,0,0,0,0,0,0,0,0,0,0,0,0,0,0,0,0,0,0,0,0],"sum_hessian":[5.998056E3,3.260171E3,2.7378853E3,1.213895E3,2.046276E3,1.5931244E3,1.1447609E3,2.9642795E2,9.1746704E2,3.8543927E2,1.6608367E3,9.453487E2,6.4777576E2,6.23289E1,1.0824319E3,2.2665555E2,6.977239E1,1.6251817E2,7.5494885E2,3.2462677E1,3.529766E2,1.5767228E3,8.411388E1,8.676741E1,8.585813E2,2.6631253E2,3.814632E2,3.626468E1,2.6064222E1,2.1447543E2,8.679565E2],"tree_param":{"num_deleted":"0","num_feature":"31","num_nodes":"31","size_leaf_vector":"1"}},{"base_weights":[4.0057763E-3,4.856646E-1,-2.63291E-1,2.3232532E-1,7.6439893E-1,-5.2828535E-2,-5.184555E-1,2.8812197E-1,-3.216675E-1,1.1251227E0,6.5271497E-1,2.9317182E-1,-1.6312978E-1,-4.0231732E-1,-8.283846E-1,-1.2153613E-2,1.6724516E-2,-2.640372E-2,-1.7060431E-3,4.9296074E-2,6.1772685E-2,5.8102846E-2,3.0368304E-2,2.4336597E-2,3.8244722E-3,-1.0654603E-3,-1.862801E-2,-1.0927554E-2,-3.0601254E-2,-2.7970785E-2,-5.296501E-2],"categories":[],"categories_nodes":[],"categories_segments":[],"categories_sizes":[],"default_left":[0,0,0,0,0,0,0,0,0,0,0,0,0,0,0,0,0,0,0,0,0,0,0,0,0,0,0,0,0,0,0],"id":18,"left_children":[1,3,5,7,9,11,13,15,17,19,21,23,25,27,29,-1,-1,-1,-1,-1,-1,-1,-1,-1,-1,-1,-1,-1,-1,-1,-1],"loss_changes":[7.752333E2,1.5120563E2,2.0776468E2,3.508039E1,3.9350403E1,8.11494E1,6.205838E1,2.548082E1,6.020051E0,7.815857E-1,1.638028E1,2.1363396E1,4.7804012E1,4.8776276E1,2.7962585E1,0E0,0E0,0E0,0E0,0E0,0E0,0E0,0E0,0E0,0E0,0E0,0E0,0E0,0E0,0E0,0E0],"parents":[2147483647,0,0,1,1,2,2,3,3,4,4,5,5,6,6,7,7,8,8,9,9,10,10,11,11,12,12,13,13,14,14],"right_children":[2,4,6,8,10,12,14,16,18,20,22,24,26,28,30,-1,-1,-1,-1,-1,-1,-1,-1,-1,-1,-1,-1,-1,-1,-1,-1],"split_conditions":[4.2432123E-1,7.99378E-1,4.6008492E-1,6.9141537E-1,3.8056412E-1,8E0,4.9015883E-1,4.1253796E0,4.6434445E0,6.5558493E-1,-2.2986488E0,4.3451405E0,4.388377E0,4.3161917E0,8E0,-1.2153613E-2,1.6724516E-2,-2.640372E-2,-1.7060431E-3,4.9296074E-2,6.1772685E-2,5.8102846E-2,3.0368304E-2,2.4336597E-2,3.8244722E-3,-1.0654603E-3,-1.862801E-2,-1.0927554E-2,-3.0601254E-2,-2.7970785E-2,-5.296501E-2],"split_indices":[10,3,10,23,10,2,10,1,1,7,14,1,1,1,2,0,0,0,0,0,0,0,0,0,0,0,0,0,0,0,0],"split_type":[0,0,0,0,0,0,0,0,0,0,0,0,0,0,0,0,0,0,0,0,0,0,0,0,0,0,0,0,0,0,0],"sum_hessian":[6.017092E3,2.14714E3,3.869952E3,1.1271064E3,1.02003326E3,2.122494E3,1.7474579E3,1.0251746E3,1.0193196E2,2.364366E2,7.835967E2,5.1182806E2,1.6106659E3,1.2749453E3,4.725126E2,8.1276436E1,9.438981E2,5.795917E1,4.397279E1,1.1412877E2,1.2230783E2,5.967612E1,7.2392053E2,2.6853394E2,2.4329414E2,9.622291E2,6.4843677E2,6.8218604E2,5.927592E2,2.2183359E2,2.5067902E2],"tree_param":{"num_deleted":"0","num_feature":"31","num_nodes":"31","size_leaf_vector":"1"}},{"base_weights":[6.288093E-3,5.1052946E-1,-2.1670358E-1,7.786152E-1,2.5911966E-1,-2.8932195E-2,-4.8299792E-1,1.0859149E0,6.699961E-1,-5.2956086E-1,3.0463213E-1,6.657688E-2,-2.6401395E-1,-3.63229E-1,-8.0948824E-1,3.2987695E-2,5.6549605E-2,5.455623E-2,3.079064E-2,-5.3672653E-2,-3.3695349E-3,-2.1295836E-2,1.6573569E-2,9.885716E-3,-4.698599E-3,-6.1636556E-2,-1.1135528E-2,-8.294604E-3,-2.9411638E-2,-5.152113E-2,-2.8430168E-2],"categories":[],"categories_nodes":[],"categories_segments":[],"categories_sizes":[],"default_left":[0,0,0,0,0,0,0,0,0,0,0,0,0,0,0,0,0,0,0,0,0,0,0,0,0,0,0,0,0,0,0],"id":19,"left_children":[1,3,5,7,9,11,13,15,17,19,21,23,25,27,29,-1,-1,-1,-1,-1,-1,-1,-1,-1,-1,-1,-1,-1,-1,-1,-1],"loss_changes":[6.6986725E2,1.2251724E2,2.0638634E2,2.7657715E1,3.4238686E1,5.4516216E1,6.594165E1,2.5068054E0,1.3326721E1,1.27260895E1,1.7832E1,3.638068E1,2.72289E1,5.529898E1,2.2784973E1,0E0,0E0,0E0,0E0,0E0,0E0,0E0,0E0,0E0,0E0,0E0,0E0,0E0,0E0,0E0,0E0],"parents":[2147483647,0,0,1,1,2,2,3,3,4,4,5,5,6,6,7,7,8,8,9,9,10,10,11,11,12,12,13,13,14,14],"right_children":[2,4,6,8,10,12,14,16,18,20,22,24,26,28,30,-1,-1,-1,-1,-1,-1,-1,-1,-1,-1,-1,-1,-1,-1,-1,-1],"split_conditions":[4.160971E-1,-8.0575585E-1,4.6041766E-1,3.8056412E-1,3.9599356E-1,2.1768452E-1,4.9015883E-1,2.2354195E-1,-2.2910159E0,4.4816046E0,4.052578E0,4.3850064E0,2.4365771E-1,4.3161917E0,-4.3331388E-1,3.2987695E-2,5.6549605E-2,5.455623E-2,3.079064E-2,-5.3672653E-2,-3.3695349E-3,-2.1295836E-2,1.6573569E-2,9.885716E-3,-4.698599E-3,-6.1636556E-2,-1.1135528E-2,-8.294604E-3,-2.9411638E-2,-5.152113E-2,-2.8430168E-2],"split_indices":[10,17,10,10,7,17,10,5,17,1,1,1,17,1,3,0,0,0,0,0,0,0,0,0,0,0,0,0,0,0,0],"split_type":[0,0,0,0,0,0,0,0,0,0,0,0,0,0,0,0,0,0,0,0,0,0,0,0,0,0,0,0,0,0,0],"sum_hessian":[5.952976E3,1.8248469E3,4.1281294E3,8.807199E2,9.441271E2,2.4227505E3,1.7053788E3,2.2482372E2,6.558962E2,5.0110046E1,8.94017E2,1.723222E3,6.9952826E2,1.2512213E3,4.5415744E2,2.4921782E1,1.9990193E2,6.998511E1,5.859111E2,2.160582E1,2.8504227E1,3.0363008E1,8.6365405E2,9.4892017E2,7.7430194E2,2.604902E1,6.7347925E2,6.6891797E2,5.8230334E2,2.330362E2,2.2112125E2],"tree_param":{"num_deleted":"0","num_feature":"31","num_nodes":"31","size_leaf_vector":"1"}},{"base_weights":[6.766375E-5,-2.4431297E-1,4.4403607E-1,-4.4755054E-1,-4.1968E-2,3.4747672E-1,9.499082E-1,-1.2378575E-1,-5.7253945E-1,1.2134681E-1,-3.3583102E-1,4.178385E-1,-2.6731536E-1,1.2322167E-1,1.0681719E0,-6.694191E-4,-4.2596463E-2,-2.3468958E-2,-4.298983E-2,1.2769093E-2,-1.0475394E-2,-3.767897E-2,-6.2930374E-3,1.1830478E-2,2.8306762E-2,-5.1367884E-3,-5.834673E-2,1.941876E-2,-7.055094E-3,6.0989883E-2,4.098688E-2],"categories":[],"categories_nodes":[],"categories_segments":[],"categories_sizes":[],"default_left":[0,0,0,0,0,0,0,0,0,0,0,0,0,0,0,0,0,0,0,0,0,0,0,0,0,0,0,0,0,0,0],"id":20,"left_children":[1,3,5,7,9,11,13,15,17,19,21,23,25,27,29,-1,-1,-1,-1,-1,-1,-1,-1,-1,-1,-1,-1,-1,-1,-1,-1],"loss_changes":[6.401899E2,1.5634836E2,1.0141351E2,7.651294E1,9.176393E1,7.650336E1,3.2182404E1,4.253296E1,3.946991E1,5.4590607E1,5.955021E1,4.210858E1,2.6445051E1,3.2647057E0,8.59137E0,0E0,0E0,0E0,0E0,0E0,0E0,0E0,0E0,0E0,0E0,0E0,0E0,0E0,0E0,0E0,0E0],"parents":[2147483647,0,0,1,1,2,2,3,3,4,4,5,5,6,6,7,7,8,8,9,9,10,10,11,11,12,12,13,13,14,14],"right_children":[2,4,6,8,10,12,14,16,18,20,22,24,26,28,30,-1,-1,-1,-1,-1,-1,-1,-1,-1,-1,-1,-1,-1,-1,-1,-1],"split_conditions":[4.0053836E-1,3.4916368E-1,5.2257454E-1,-1.8090054E-1,8.657726E0,9.75E0,-7.3489316E-2,8.414232E0,4.9067298E-1,4.5525146E-1,3.7838617E-1,4.2793965E-1,1.0246501E1,8.004373E-1,3.7732875E-1,-6.694191E-4,-4.2596463E-2,-2.3468958E-2,-4.298983E-2,1.2769093E-2,-1.0475394E-2,-3.767897E-2,-6.2930374E-3,1.1830478E-2,2.8306762E-2,-5.1367884E-3,-5.834673E-2,1.941876E-2,-7.055094E-3,6.0989883E-2,4.098688E-2],"split_indices":[9,9,9,20,0,2,5,0,10,10,9,9,0,17,10,0,0,0,0,0,0,0,0,0,0,0,0,0,0,0,0],"split_type":[0,0,0,0,0,0,0,0,0,0,0,0,0,0,0,0,0,0,0,0,0,0,0,0,0,0,0,0,0,0,0],"sum_hessian":[5.896147E3,3.8031611E3,2.0929858E3,1.8956934E3,1.9074679E3,1.7606815E3,3.3230444E2,5.2955145E2,1.366142E3,1.2263921E3,6.8107574E2,1.5807354E3,1.7994614E2,4.2311783E1,2.8999268E2,4.6184097E2,6.77105E1,1.0095535E3,3.565884E2,8.7355884E2,3.5283328E2,2.2576746E2,4.553083E2,7.1432263E2,8.664127E2,1.5418896E2,2.5757174E1,2.103188E1,2.1279905E1,1.7472728E2,1.1526539E2],"tree_param":{"num_deleted":"0","num_feature":"31","num_nodes":"31","size_leaf_vector":"1"}},{"base_weights":[2.1829318E-4,-2.155204E-1,4.6229973E-1,-4.4169253E-1,-4.3462917E-2,2.473051E-1,6.934928E-1,-1.8534717E-1,-5.8928627E-1,4.0021233E-2,-2.9299313E-1,3.811684E-1,-1.0143562E-1,2.9133052E-1,8.485237E-1,-4.1896507E-2,-9.9051584E-5,-3.6423463E-2,-1.834855E-2,8.493035E-3,-6.9227987E-3,-6.7598517E-3,-2.7499903E-2,-3.4522098E-2,2.1725908E-2,1.2646362E-2,-1.5822789E-2,3.1737816E-2,1.7762035E-3,3.6234062E-2,5.593292E-2],"categories":[],"categories_nodes":[],"categories_segments":[],"categories_sizes":[],"default_left":[0,0,0,0,0,0,0,0,0,0,0,0,0,0,0,0,0,0,0,0,0,0,0,0,0,0,0,0,0,0,0],"id":21,"left_children":[1,3,5,7,9,11,13,15,17,19,21,23,25,27,29,-1,-1,-1,-1,-1,-1,-1,-1,-1,-1,-1,-1,-1,-1,-1,-1],"loss_changes":[5.8697656E2,1.5604358E2,9.262723E1,6.520535E1,4.7614212E1,4.5635082E1,5.548581E1,7.6020874E1,3.323822E1,3.970645E1,2.294965E1,4.0863228E1,2.0861343E1,2.2156162E1,1.9731384E1,0E0,0E0,0E0,0E0,0E0,0E0,0E0,0E0,0E0,0E0,0E0,0E0,0E0,0E0,0E0,0E0],"parents":[2147483647,0,0,1,1,2,2,3,3,4,4,5,5,6,6,7,7,8,8,9,9,10,10,11,11,12,12,13,13,14,14],"right_children":[2,4,6,8,10,12,14,16,18,20,22,24,26,28,30,-1,-1,-1,-1,-1,-1,-1,-1,-1,-1,-1,-1,-1,-1,-1,-1],"split_conditions":[4.0829217E-1,3.4414342E-1,4.5828685E-1,4.2243524E0,1.9618025E-1,9.522555E0,1.2653093E-1,-2.1749596E-1,3.2654276E-1,4.388377E0,8.637392E0,4.052578E0,-9.196868E-1,9.9825535E0,1.0613335E1,-4.1896507E-2,-9.9051584E-5,-3.6423463E-2,-1.834855E-2,8.493035E-3,-6.9227987E-3,-6.7598517E-3,-2.7499903E-2,-3.4522098E-2,2.1725908E-2,1.2646362E-2,-1.5822789E-2,3.1737816E-2,1.7762035E-3,3.6234062E-2,5.593292E-2],"split_indices":[9,9,9,1,20,0,5,5,9,1,0,1,20,0,0,0,0,0,0,0,0,0,0,0,0,0,0,0,0,0,0],"split_type":[0,0,0,0,0,0,0,0,0,0,0,0,0,0,0,0,0,0,0,0,0,0,0,0,0,0,0,0,0,0,0],"sum_hessian":[5.883593E3,4.0113772E3,1.8722156E3,1.731283E3,2.2800942E3,9.726855E2,8.9953015E2,6.3473035E2,1.0965526E3,1.7091497E3,5.7094446E2,7.0316486E2,2.6952063E2,2.5224222E2,6.4728796E2,1.3742334E2,4.9730698E2,6.710076E2,4.25545E2,9.9009076E2,7.1905896E2,3.5612238E2,2.1482205E2,3.2036243E1,6.711286E2,1.0129659E2,1.6822404E2,1.06081215E2,1.4616101E2,4.4937775E2,1.9791019E2],"tree_param":{"num_deleted":"0","num_feature":"31","num_nodes":"31","size_leaf_vector":"1"}},{"base_weights":[3.9683178E-4,2.66204E-1,-3.4307182E-1,8.1636906E-2,5.3586376E-1,-2.4315912E-1,-6.9909364E-1,-4.2975935E-1,1.3719216E-1,8.895929E-1,4.1690144E-1,-9.824754E-2,-5.092632E-1,-1.0290158E0,-5.732307E-1,-6.266903E-2,-1.5605253E-2,4.2718407E-2,4.759127E-3,2.824842E-2,5.1998723E-2,2.290203E-2,-1.704876E-2,1.3053182E-2,-1.1966975E-2,-2.0873172E-2,-5.0746955E-2,-5.396052E-2,-3.180811E-2,-1.948951E-2,-3.9330874E-2],"categories":[],"categories_nodes":[],"categories_segments":[],"categories_sizes":[],"default_left":[0,0,0,0,0,0,0,0,0,0,0,0,0,0,0,0,0,0,0,0,0,0,0,0,0,0,0,0,0,0,0],"id":22,"left_children":[1,3,5,7,9,11,13,15,17,19,21,23,25,27,29,-1,-1,-1,-1,-1,-1,-1,-1,-1,-1,-1,-1,-1,-1,-1,-1],"loss_changes":[5.355156E2,1.6438426E2,9.04892E1,5.591823E1,5.5510193E1,7.696079E1,2.1721222E1,1.7586353E1,5.3134995E1,1.4896881E1,3.180037E1,6.5965515E1,3.1579697E1,1.2706909E0,1.519043E1,0E0,0E0,0E0,0E0,0E0,0E0,0E0,0E0,0E0,0E0,0E0,0E0,0E0,0E0,0E0,0E0],"parents":[2147483647,0,0,1,1,2,2,3,3,4,4,5,5,6,6,7,7,8,8,9,9,10,10,11,11,12,12,13,13,14,14],"right_children":[2,4,6,8,10,12,14,16,18,20,22,24,26,28,30,-1,-1,-1,-1,-1,-1,-1,-1,-1,-1,-1,-1,-1,-1,-1,-1],"split_conditions":[4.4756514E-1,7.511513E-1,4.8519063E-1,-2.0742285E-1,3.8857076E-1,4.3831663E0,-2.0407605E-1,-4.9577847E-1,8.242004E0,3.2034993E-1,1.000883E1,7.75E0,8.573486E0,1.7920737E0,4.324465E0,-6.266903E-2,-1.5605253E-2,4.2718407E-2,4.759127E-3,2.824842E-2,5.1998723E-2,2.290203E-2,-1.704876E-2,1.3053182E-2,-1.1966975E-2,-2.0873172E-2,-5.0746955E-2,-5.396052E-2,-3.180811E-2,-1.948951E-2,-3.9330874E-2],"split_indices":[10,3,10,5,10,1,5,5,0,5,0,2,0,4,1,0,0,0,0,0,0,0,0,0,0,0,0,0,0,0,0],"split_type":[0,0,0,0,0,0,0,0,0,0,0,0,0,0,0,0,0,0,0,0,0,0,0,0,0,0,0,0,0,0,0],"sum_hessian":[5.861848E3,3.305097E3,2.5567512E3,1.9641161E3,1.3409807E3,1.9995361E3,5.57215E2,1.9078978E2,1.7733264E3,3.3380118E2,1.00717957E3,1.2968203E3,7.027158E2,1.4947054E2,4.077445E2,2.1222038E1,1.6956773E2,9.572369E1,1.6776027E3,1.09110695E2,2.2469048E2,9.563235E2,5.085612E1,3.6476785E2,9.320524E2,5.9817114E2,1.0454466E2,1.2898668E2,2.0483854E1,2.2280132E2,1.8494319E2],"tree_param":{"num_deleted":"0","num_feature":"31","num_nodes":"31","size_leaf_vector":"1"}},{"base_weights":[2.3373629E-3,2.6102194E-1,-3.3317402E-1,1.7159976E-1,7.787485E-1,-2.3790099E-1,-6.6920197E-1,-4.9702185E-1,2.0269932E-1,-5.9011425E-3,8.219635E-1,-1.8585467E-1,-1.0316935E0,-1.0011442E0,-5.467148E-1,-1.6314125E-2,-6.302614E-2,1.7992003E-2,4.1140253E-3,5.0483614E-2,2.8959278E-2,-2.5745463E-3,-2.0112274E-2,-7.153804E-2,-4.105208E-2,-5.275286E-2,-3.082653E-2,-1.8744376E-2,-3.9835796E-2],"categories":[],"categories_nodes":[],"categories_segments":[],"categories_sizes":[],"default_left":[0,0,0,0,0,0,0,0,0,0,0,0,0,0,0,0,0,0,0,0,0,0,0,0,0,0,0,0,0],"id":23,"left_children":[1,3,5,7,9,11,13,15,17,-1,19,21,23,25,27,-1,-1,-1,-1,-1,-1,-1,-1,-1,-1,-1,-1,-1,-1],"loss_changes":[5.068809E2,1.5223135E2,8.0890015E1,5.8681976E1,1.9124756E1,8.135117E1,2.136528E1,1.5209524E1,5.0788612E1,0E0,1.9613525E1,5.4088516E1,7.4073486E0,1.4357147E0,1.694889E1,0E0,0E0,0E0,0E0,0E0,0E0,0E0,0E0,0E0,0E0,0E0,0E0,0E0,0E0],"parents":[2147483647,0,0,1,1,2,2,3,3,4,4,5,5,6,6,7,7,8,8,10,10,11,11,12,12,13,13,14,14],"right_children":[2,4,6,8,10,12,14,16,18,-1,20,22,24,26,28,-1,-1,-1,-1,-1,-1,-1,-1,-1,-1,-1,-1,-1,-1],"split_conditions":[4.4756514E-1,6.094911E-1,4.8468283E-1,3.9599356E-1,4.1832094E0,8.621206E0,4.1914704E-1,2.226599E0,4.1360813E-1,-5.9011425E-3,-1.8024601E0,2.1768452E-1,-4.4748887E-1,1.7920737E0,4.351354E0,-1.6314125E-2,-6.302614E-2,1.7992003E-2,4.1140253E-3,5.0483614E-2,2.8959278E-2,-2.5745463E-3,-2.0112274E-2,-7.153804E-2,-4.105208E-2,-5.275286E-2,-3.082653E-2,-1.8744376E-2,-3.9835796E-2],"split_indices":[10,7,10,7,1,0,7,4,10,0,17,17,17,4,1,0,0,0,0,0,0,0,0,0,0,0,0,0,0],"split_type":[0,0,0,0,0,0,0,0,0,0,0,0,0,0,0,0,0,0,0,0,0,0,0,0,0,0,0,0,0],"sum_hessian":[5.836367E3,3.2960786E3,2.5402886E3,2.813225E3,4.8285355E2,1.982272E3,5.580167E2,1.2341807E2,2.689807E3,2.182681E1,4.6102676E2,1.8628512E3,1.194207E2,1.4610098E2,4.1191574E2,1.0340955E2,2.0008512E1,1.1645232E3,1.5252837E3,2.5597388E2,2.0505287E2,1.1513453E3,7.1150586E2,3.6928432E1,8.249227E1,1.2462536E2,2.1475618E1,2.4756316E2,1.6435258E2],"tree_param":{"num_deleted":"0","num_feature":"31","num_nodes":"29","size_leaf_vector":"1"}},{"base_weights":[-1.1313554E-3,-2.72872E-1,2.991065E-1,-2.540673E-2,-4.1021195E-1,1.2714115E-1,6.011322E-1,3.4351546E-1,-1.4610314E-1,-5.2733934E-1,-1.7928821E-1,3.2755148E-1,-7.5477414E-2,-2.2318003E-1,6.494862E-1,2.4461277E-2,-3.4622863E-2,-2.4471741E-2,-1.6583757E-3,-2.285859E-2,-4.8407804E-2,-1.1879485E-3,-4.4580057E-2,3.7067056E-2,1.21258525E-2,-1.1276044E-2,1.04334485E-2,1.8711088E-2,-4.217079E-2,4.9315874E-2,2.6316822E-2],"categories":[],"categories_nodes":[],"categories_segments":[],"categories_sizes":[],"default_left":[0,0,0,0,0,0,0,0,0,0,0,0,0,0,0,0,0,0,0,0,0,0,0,0,0,0,0,0,0,0,0],"id":24,"left_children":[1,3,5,7,9,11,13,15,17,19,21,23,25,27,29,-1,-1,-1,-1,-1,-1,-1,-1,-1,-1,-1,-1,-1,-1,-1,-1],"loss_changes":[4.7370325E2,1.0348663E2,1.4295203E2,4.861975E1,5.267035E1,7.158488E1,4.022165E1,4.124547E1,3.1794378E1,3.8993835E1,7.322946E1,3.0615334E1,3.7467106E1,2.1716225E1,3.7860107E1,0E0,0E0,0E0,0E0,0E0,0E0,0E0,0E0,0E0,0E0,0E0,0E0,0E0,0E0,0E0,0E0],"parents":[2147483647,0,0,1,1,2,2,3,3,4,4,5,5,6,6,7,7,8,8,9,9,10,10,11,11,12,12,13,13,14,14],"right_children":[2,4,6,8,10,12,14,16,18,20,22,24,26,28,30,-1,-1,-1,-1,-1,-1,-1,-1,-1,-1,-1,-1,-1,-1,-1,-1],"split_conditions":[3.7466758E-1,-1.388464E-1,4.3858334E-1,4.2045145E0,3.4916368E-1,8.954166E0,4.1795697E0,8.483023E0,3.2654276E-1,4.504664E0,8.630441E0,8.585182E0,5.6750107E-1,4.6389005E-1,-1.8024601E0,2.4461277E-2,-3.4622863E-2,-2.4471741E-2,-1.6583757E-3,-2.285859E-2,-4.8407804E-2,-1.1879485E-3,-4.4580057E-2,3.7067056E-2,1.21258525E-2,-1.1276044E-2,1.04334485E-2,1.8711088E-2,-4.217079E-2,4.9315874E-2,2.6316822E-2],"split_indices":[9,20,9,1,9,0,1,0,9,1,0,0,7,9,17,0,0,0,0,0,0,0,0,0,0,0,0,0,0,0,0],"split_type":[0,0,0,0,0,0,0,0,0,0,0,0,0,0,0,0,0,0,0,0,0,0,0,0,0,0,0,0,0,0,0],"sum_hessian":[5.802187E3,3.0460776E3,2.7561091E3,1.0885342E3,1.9575435E3,1.7584174E3,9.9769183E2,2.670171E2,8.215171E2,1.2965062E3,6.610372E2,8.839022E2,8.7451514E2,5.4651665E1,9.4304016E2,2.3518657E2,3.183053E1,2.0125386E2,6.2026324E2,1.1223783E3,1.7412798E2,5.44497E2,1.1654016E2,1.4764627E2,7.36256E2,5.730387E2,3.014765E2,2.8078096E1,2.6573566E1,2.4829027E2,6.947499E2],"tree_param":{"num_deleted":"0","num_feature":"31","num_nodes":"31","size_leaf_vector":"1"}},{"base_weights":[-1.5581609E-3,-1.8197964E-1,3.9418942E-1,-3.6464557E-1,-2.3243753E-2,2.619998E-1,7.125373E-1,-3.76554E-2,-4.9150997E-1,1.1198979E-2,-6.41727E-1,1.17737964E-1,4.005085E-1,4.1051748E-1,9.13375E-1,2.4559477E-3,-3.1248963E-2,-2.1686332E-2,-4.7019567E-2,-2.4494561E-3,1.1242852E-2,-4.309632E-2,-1.673385E-2,1.2657928E-2,-2.281622E-2,5.9319902E-2,1.8098695E-2,2.436461E-2,-1.1267568E-2,3.7957486E-2,5.2415766E-2],"categories":[],"categories_nodes":[],"categories_segments":[],"categories_sizes":[],"default_left":[0,0,0,0,0,0,0,0,0,0,0,0,0,0,0,0,0,0,0,0,0,0,0,0,0,0,0,0,0,0,0],"id":25,"left_children":[1,3,5,7,9,11,13,15,17,19,21,23,25,27,29,-1,-1,-1,-1,-1,-1,-1,-1,-1,-1,-1,-1,-1,-1,-1,-1],"loss_changes":[4.115487E2,1.1472011E2,7.5379395E1,7.620169E1,4.5330185E1,2.5354996E1,3.1006805E1,2.6527176E1,3.3285583E1,2.5919456E1,6.772888E0,4.9162285E1,1.8542763E1,1.0761898E1,4.6031494E0,0E0,0E0,0E0,0E0,0E0,0E0,0E0,0E0,0E0,0E0,0E0,0E0,0E0,0E0,0E0,0E0],"parents":[2147483647,0,0,1,1,2,2,3,3,4,4,5,5,6,6,7,7,8,8,9,9,10,10,11,11,12,12,13,13,14,14],"right_children":[2,4,6,8,10,12,14,16,18,20,22,24,26,28,30,-1,-1,-1,-1,-1,-1,-1,-1,-1,-1,-1,-1,-1,-1,-1,-1],"split_conditions":[4.0829217E-1,3.4916368E-1,2.9325217E-1,-1.8854906E-1,1E1,4.3628433E-1,4.689308E-1,8.414232E0,4.5399833E0,1.8774363E-1,3.8774666E-1,9.646346E0,8.9448805E0,4.7664337E0,5.2257454E-1,2.4559477E-3,-3.1248963E-2,-2.1686332E-2,-4.7019567E-2,-2.4494561E-3,1.1242852E-2,-4.309632E-2,-1.673385E-2,1.2657928E-2,-2.281622E-2,5.9319902E-2,1.8098695E-2,2.436461E-2,-1.1267568E-2,3.7957486E-2,5.2415766E-2],"split_indices":[9,9,5,20,2,9,9,0,1,5,9,0,0,1,9,0,0,0,0,0,0,0,0,0,0,0,0,0,0,0,0],"split_type":[0,0,0,0,0,0,0,0,0,0,0,0,0,0,0,0,0,0,0,0,0,0,0,0,0,0,0,0,0,0,0],"sum_hessian":[5.7604624E3,3.9577212E3,1.802741E3,1.8383633E3,2.119358E3,1.2768292E3,5.259117E2,5.15037E2,1.3233263E3,2.0091129E3,1.1024514E2,6.279454E2,6.4888385E2,2.1287463E2,3.1303708E2,4.5003818E2,6.4998825E1,1.1762843E3,1.47042E2,1.5680062E3,4.411066E2,6.1718452E1,4.8526684E1,5.0927457E2,1.1867084E2,2.7302399E1,6.215814E2,1.906388E2,2.2235844E1,1.5295555E2,1.6008153E2],"tree_param":{"num_deleted":"0","num_feature":"31","num_nodes":"31","size_leaf_vector":"1"}},{"base_weights":[-6.7051942E-3,3.818795E-1,-1.7381515E-1,6.40148E-1,1.5926324E-1,-4.618819E-2,-4.1850522E-1,9.9448156E-1,5.2815753E-1,2.1305992E-1,-3.8858595E-1,4.169338E-2,-2.572155E-1,-9.807634E-2,-5.444502E-1,3.7635602E-2,5.4593563E-2,3.0148316E-2,1.0946727E-2,8.737038E-3,4.580065E-2,-4.395956E-2,-6.899684E-3,3.4702204E-3,-2.9453332E-2,-7.4237245E-3,-2.52962E-2,2.3110075E-2,-1.4923865E-2,-2.1934694E-2,-4.2658336E-2],"categories":[],"categories_nodes":[],"categories_segments":[],"categories_sizes":[],"default_left":[0,0,0,0,0,0,0,0,0,0,0,0,0,0,0,0,0,0,0,0,0,0,0,0,0,0,0,0,0,0,0],"id":26,"left_children":[1,3,5,7,9,11,13,15,17,19,21,23,25,27,29,-1,-1,-1,-1,-1,-1,-1,-1,-1,-1,-1,-1,-1,-1,-1,-1],"loss_changes":[3.7099777E2,9.840921E1,1.2465654E2,3.0160889E1,2.7414177E1,4.8819073E1,5.501155E1,2.4149323E0,1.3640198E1,2.2211914E1,9.776689E0,3.243729E1,2.0648136E1,4.393648E1,3.1048523E1,0E0,0E0,0E0,0E0,0E0,0E0,0E0,0E0,0E0,0E0,0E0,0E0,0E0,0E0,0E0,0E0],"parents":[2147483647,0,0,1,1,2,2,3,3,4,4,5,5,6,6,7,7,8,8,9,9,10,10,11,11,12,12,13,13,14,14],"right_children":[2,4,6,8,10,12,14,16,18,20,22,24,26,28,30,-1,-1,-1,-1,-1,-1,-1,-1,-1,-1,-1,-1,-1,-1,-1,-1],"split_conditions":[4.160971E-1,-8.0575585E-1,4.6452674E-1,3.8056412E-1,8.0285925E-1,2.1768452E-1,-1.8854906E-1,1.0678258E1,1.000883E1,1.1007095E1,4.4887404E0,4.7851305E0,8.630441E0,4.2045145E0,7.957309E0,3.7635602E-2,5.4593563E-2,3.0148316E-2,1.0946727E-2,8.737038E-3,4.580065E-2,-4.395956E-2,-6.899684E-3,3.4702204E-3,-2.9453332E-2,-7.4237245E-3,-2.52962E-2,2.3110075E-2,-1.4923865E-2,-2.1934694E-2,-4.2658336E-2],"split_indices":[10,17,10,10,20,17,20,0,0,0,1,1,0,1,0,0,0,0,0,0,0,0,0,0,0,0,0,0,0,0,0],"split_type":[0,0,0,0,0,0,0,0,0,0,0,0,0,0,0,0,0,0,0,0,0,0,0,0,0,0,0,0,0,0,0],"sum_hessian":[5.709847E3,1.7159473E3,3.9938997E3,7.922121E2,9.237351E2,2.6269263E3,1.3669735E3,1.8604065E2,6.0617145E2,8.4258386E2,8.115124E1,1.8550531E3,7.718731E2,3.8714526E2,9.7982825E2,5.90243E1,1.2701635E2,4.8603958E2,1.20131874E2,8.016654E2,4.0918476E1,2.5470503E1,5.5680737E1,1.778994E3,7.605912E1,5.398406E2,2.3203252E2,1.0104223E2,2.8610303E2,7.339056E2,2.4592265E2],"tree_param":{"num_deleted":"0","num_feature":"31","num_nodes":"31","size_leaf_vector":"1"}},{"base_weights":[9.6188707E-4,2.2188543E-1,-2.851876E-1,7.421379E-2,4.8963043E-1,-7.158152E-1,-2.1996589E-1,1.2410117E-1,-3.342967E-1,3.423647E-1,8.385617E-1,-1.0188102E0,-5.355613E-1,-7.614107E-2,-4.815056E-1,3.8023226E-2,4.312549E-3,-3.735409E-2,-3.631289E-3,1.886333E-2,-1.6500758E-2,1.9476775E-2,4.4912815E-2,-3.0229766E-2,-5.4580558E-2,-1.1320778E-2,-3.5649583E-2,-6.510588E-3,2.6373757E-2,-1.4735785E-2,-3.203939E-2],"categories":[],"categories_nodes":[],"categories_segments":[],"categories_sizes":[],"default_left":[0,0,0,0,0,0,0,0,0,0,0,0,0,0,0,0,0,0,0,0,0,0,0,0,0,0,0,0,0,0,0],"id":27,"left_children":[1,3,5,7,9,11,13,15,17,19,21,23,25,27,29,-1,-1,-1,-1,-1,-1,-1,-1,-1,-1,-1,-1,-1,-1,-1,-1],"loss_changes":[3.6017917E2,1.2695755E2,6.920807E1,4.2336983E1,5.7885834E1,1.635791E1,8.1021126E1,4.4294304E1,2.4135735E1,1.9197517E1,8.081909E0,1.9191055E0,1.0926792E1,4.561174E1,2.2198349E1,0E0,0E0,0E0,0E0,0E0,0E0,0E0,0E0,0E0,0E0,0E0,0E0,0E0,0E0,0E0,0E0],"parents":[2147483647,0,0,1,1,2,2,3,3,4,4,5,5,6,6,7,7,8,8,9,9,10,10,11,11,12,12,13,13,14,14],"right_children":[2,4,6,8,10,12,14,16,18,20,22,24,26,28,30,-1,-1,-1,-1,-1,-1,-1,-1,-1,-1,-1,-1,-1,-1,-1,-1],"split_conditions":[4.4756514E-1,5.687868E-1,-9.2140883E-1,7.149E-1,4.852236E-1,3.1298444E-1,4.3831663E0,8.242004E0,4.3415446E0,1.000883E1,4.429286E0,2.953518E-1,7.9454827E0,3.678164E-1,-1.3039544E-1,3.8023226E-2,4.312549E-3,-3.735409E-2,-3.631289E-3,1.886333E-2,-1.6500758E-2,1.9476775E-2,4.4912815E-2,-3.0229766E-2,-5.4580558E-2,-1.1320778E-2,-3.5649583E-2,-6.510588E-3,2.6373757E-2,-1.4735785E-2,-3.203939E-2],"split_indices":[10,7,3,20,9,9,1,0,1,0,1,9,0,9,20,0,0,0,0,0,0,0,0,0,0,0,0,0,0,0,0],"split_type":[0,0,0,0,0,0,0,0,0,0,0,0,0,0,0,0,0,0,0,0,0,0,0,0,0,0,0,0,0,0,0],"sum_hessian":[5.6936895E3,3.2136887E3,2.4800007E3,2.0734197E3,1.140269E3,3.231803E2,2.1568203E3,1.8494469E3,2.239728E2,8.0503937E2,3.3522968E2,1.1666323E2,2.0651707E2,1.393732E3,7.630883E2,1.0138731E2,1.7480596E3,8.5159515E1,1.3881328E2,7.664307E2,3.8608604E1,4.1495956E1,2.937337E2,2.0631754E1,9.603148E1,7.737758E1,1.291395E2,1.2808922E3,1.128398E2,3.5441855E2,4.0866977E2],"tree_param":{"num_deleted":"0","num_feature":"31","num_nodes":"31","size_leaf_vector":"1"}},{"base_weights":[1.0146288E-3,3.6290866E-1,-1.5363288E-1,6.043901E-1,1.6275044E-1,-3.0261816E-2,-3.9333826E-1,9.3375385E-1,5.0537145E-1,-4.9118388E-1,2.0024486E-1,4.7434434E-2,-2.1952316E-1,-1.7052732E-1,-5.213838E-1,2.6491884E-2,4.8997533E-2,4.6898045E-2,2.2812707E-2,-4.805402E-2,-5.7087834E-3,-2.6038164E-2,1.1356293E-2,8.093483E-3,-5.2503296E-3,-4.8868444E-2,-9.150933E-3,-1.3423127E-3,-3.362458E-2,-2.1234302E-2,-4.0618353E-2],"categories":[],"categories_nodes":[],"categories_segments":[],"categories_sizes":[],"default_left":[0,0,0,0,0,0,0,0,0,0,0,0,0,0,0,0,0,0,0,0,0,0,0,0,0,0,0,0,0,0,0],"id":28,"left_children":[1,3,5,7,9,11,13,15,17,19,21,23,25,27,29,-1,-1,-1,-1,-1,-1,-1,-1,-1,-1,-1,-1,-1,-1,-1,-1],"loss_changes":[3.1633224E2,8.145026E1,1.1697276E2,2.3744354E1,2.29057E1,3.8531193E1,3.804396E1,1.9099426E0,1.1478577E1,8.537179E0,1.7231804E1,3.2420994E1,2.0508202E1,3.5470024E1,2.3044632E1,0E0,0E0,0E0,0E0,0E0,0E0,0E0,0E0,0E0,0E0,0E0,0E0,0E0,0E0,0E0,0E0],"parents":[2147483647,0,0,1,1,2,2,3,3,4,4,5,5,6,6,7,7,8,8,9,9,10,10,11,11,12,12,13,13,14,14],"right_children":[2,4,6,8,10,12,14,16,18,20,22,24,26,28,30,-1,-1,-1,-1,-1,-1,-1,-1,-1,-1,-1,-1,-1,-1,-1,-1],"split_conditions":[4.160971E-1,-8.0575585E-1,4.6452674E-1,3.8056412E-1,3.9599356E-1,2.1768452E-1,4.2184324E0,2.2354195E-1,-2.2910159E0,4.4816046E0,4.052578E0,4.392474E0,2.4365771E-1,7.876292E-1,4.9193072E-1,2.6491884E-2,4.8997533E-2,4.6898045E-2,2.2812707E-2,-4.805402E-2,-5.7087834E-3,-2.6038164E-2,1.1356293E-2,8.093483E-3,-5.2503296E-3,-4.8868444E-2,-9.150933E-3,-1.3423127E-3,-3.362458E-2,-2.1234302E-2,-4.0618353E-2],"split_indices":[10,17,10,10,7,17,1,5,17,1,1,1,17,20,10,0,0,0,0,0,0,0,0,0,0,0,0,0,0,0,0],"split_type":[0,0,0,0,0,0,0,0,0,0,0,0,0,0,0,0,0,0,0,0,0,0,0,0,0,0,0,0,0,0,0],"sum_hessian":[5.6474805E3,1.6903815E3,3.9570989E3,7.6382477E2,9.2655664E2,2.6145398E3,1.3425591E3,1.7219055E2,5.916342E2,4.8643227E1,8.7791345E2,1.8539086E3,7.606312E2,4.9224072E2,8.5031836E2,2.0676395E1,1.5151414E2,5.6220528E1,5.354137E2,2.003856E1,2.8604666E1,2.9966244E1,8.479472E2,1.0596404E3,7.942681E2,3.2334282E1,7.2829694E2,3.8464597E2,1.07594765E2,6.4243463E2,2.0788373E2],"tree_param":{"num_deleted":"0","num_feature":"31","num_nodes":"31","size_leaf_vector":"1"}}]},"name":"gbtree"},"learner_model_param":{"base_score":"[4.6983087E-1]","boost_from_average":"1","num_class":"0","num_feature":"31","num_target":"1"},"objective":{"name":"binary:logistic","reg_loss_param":{"scale_pos_weight":"1"}}},"version":[3,2,0]}