{"learner":{"attributes":{"best_iteration":"8","best_score":"0.6843309906061271","scikit_learn":"{\"_estimator_type\": \"classifier\"}"},"feature_names":["predicted_total","prediction_std","market_line","model_market_gap","abs_model_market_gap","gap_per_sigma","num_books","base_p_over","base_edge_prob","high_tail_prob_9p5","low_tail_prob_7p5","hours_to_first_pitch","pinnacle_available","pinnacle_delta_consensus","pinnacle_delta_model","draftkings_available","draftkings_delta_consensus","draftkings_delta_model","fanduel_available","fanduel_delta_consensus","fanduel_delta_model","betmgm_available","betmgm_delta_consensus","betmgm_delta_model","caesars_available","caesars_delta_consensus","caesars_delta_model","market_line_std","market_line_range","books_above_consensus","books_below_consensus"],"feature_types":["float","float","float","float","float","float","int","float","float","float","float","float","float","float","float","float","float","float","float","float","float","float","float","float","float","float","float","float","float","float","float"],"gradient_booster":{"model":{"cats":{"enc":[],"feature_segments":[],"sorted_idx":[]},"gbtree_model_param":{"num_parallel_tree":"1","num_trees":"29"},"iteration_indptr":[0,1,2,3,4,5,6,7,8,9,10,11,12,13,14,15,16,17,18,19,20,21,22,23,24,25,26,27,28,29],"tree_info":[0,0,0,0,0,0,0,0,0,0,0,0,0,0,0,0,0,0,0,0,0,0,0,0,0,0,0,0,0],"trees":[{"base_weights":[2.7110153E-3,-5.7133436E-1,1.0325195E0,-9.6311927E-1,-1.289272E-1,1.4730268E0,5.683554E-1,-4.5848128E-1,-1.1312894E0,9.344534E-2,-6.166847E-1,1.1805637E0,1.8313053E0,2.8972623E-1,9.581326E-1,-1.3798195E-3,-3.2040443E-2,-7.528488E-2,-4.768998E-2,-3.8862966E-3,1.9198008E-2,-2.4747243E-2,-6.022975E-2,4.2452734E-2,6.851393E-2,9.599205E-2,7.4779384E-2,2.647842E-2,-1.5979415E-2,-1.3819827E-3,5.491933E-2],"categories":[],"categories_nodes":[],"categories_segments":[],"categories_sizes":[],"default_left":[0,0,0,0,0,0,0,0,0,0,0,0,0,0,0,0,0,0,0,0,0,0,0,0,0,0,0,0,0,0,0],"id":0,"left_children":[1,3,5,7,9,11,13,15,17,19,21,23,25,27,29,-1,-1,-1,-1,-1,-1,-1,-1,-1,-1,-1,-1,-1,-1,-1,-1],"loss_changes":[3.8527769E3,7.2482043E2,4.74886E2,1.8693042E2,2.1365692E2,1.2033032E2,1.2293182E2,4.368573E1,1.0711035E2,6.7405785E1,4.2610046E1,3.899469E1,9.426025E0,9.79384E1,6.577838E1,0E0,0E0,0E0,0E0,0E0,0E0,0E0,0E0,0E0,0E0,0E0,0E0,0E0,0E0,0E0,0E0],"parents":[2147483647,0,0,1,1,2,2,3,3,4,4,5,5,6,6,7,7,8,8,9,9,10,10,11,11,12,12,13,13,14,14],"right_children":[2,4,6,8,10,12,14,16,18,20,22,24,26,28,30,-1,-1,-1,-1,-1,-1,-1,-1,-1,-1,-1,-1,-1,-1,-1,-1],"split_conditions":[4.008493E-1,3.4947467E-1,-8.0880964E-1,-2.2380315E-1,1.8227078E-1,4.7812223E-1,4.365953E-1,4.238282E0,3.111047E-1,1.606976E-1,1E1,4.262095E-1,-1.382251E0,9.356588E0,4.3659097E-1,-1.3798195E-3,-3.2040443E-2,-7.528488E-2,-4.768998E-2,-3.8862966E-3,1.9198008E-2,-2.4747243E-2,-6.022975E-2,4.2452734E-2,6.851393E-2,9.599205E-2,7.4779384E-2,2.647842E-2,-1.5979415E-2,-1.3819827E-3,5.491933E-2],"split_indices":[9,9,17,20,17,9,9,1,9,5,2,9,17,0,7,0,0,0,0,0,0,0,0,0,0,0,0,0,0,0,0],"split_type":[0,0,0,0,0,0,0,0,0,0,0,0,0,0,0,0,0,0,0,0,0,0,0,0,0,0,0,0,0,0,0],"sum_hessian":[6.5132E3,4.182467E3,2.3307334E3,2.2166501E3,1.9658168E3,1.1933893E3,1.1373441E3,5.562175E2,1.6604326E3,1.3510631E3,6.1475366E2,6.620807E2,5.3130853E2,6.65568E2,4.717761E2,1.66392E2,3.8982556E2,5.288177E2,1.131615E3,8.5064166E2,5.0042142E2,5.1262683E2,1.0212682E2,2.4535345E2,4.1672723E2,4.124927E2,1.1881584E2,4.7800333E2,1.8756462E2,5.8785194E1,4.129909E2],"tree_param":{"num_deleted":"0","num_feature":"31","num_nodes":"31","size_leaf_vector":"1"}},{"base_weights":[1.0179543E-2,-6.494138E-1,8.0571705E-1,-2.8427148E-1,-1.0217985E0,4.0150034E-1,1.3435467E0,-5.2804787E-2,-9.252603E-1,-7.691114E-1,-1.3539549E0,6.8126774E-1,-2.0866942E-2,6.268707E-1,1.504469E0,-1.0288057E-2,1.8269328E-2,-3.4196842E-2,-6.8664536E-2,-2.306044E-2,-5.0646365E-2,-7.82465E-2,-5.535664E-2,4.4398736E-2,1.02092875E-2,5.144249E-3,-4.4878736E-2,4.1412428E-2,-2.8567081E-3,6.631812E-2,9.1088876E-2],"categories":[],"categories_nodes":[],"categories_segments":[],"categories_sizes":[],"default_left":[0,0,0,0,0,0,0,0,0,0,0,0,0,0,0,0,0,0,0,0,0,0,0,0,0,0,0,0,0,0,0],"id":1,"left_children":[1,3,5,7,9,11,13,15,17,19,21,23,25,27,29,-1,-1,-1,-1,-1,-1,-1,-1,-1,-1,-1,-1,-1,-1,-1,-1],"loss_changes":[3.4372434E3,4.8608862E2,6.44109E2,2.6842432E2,1.4621228E2,2.0084152E2,1.4450562E2,8.538394E1,4.962506E1,7.469177E1,3.5711426E1,1.0020102E2,7.3941246E1,3.290632E1,5.3197266E1,0E0,0E0,0E0,0E0,0E0,0E0,0E0,0E0,0E0,0E0,0E0,0E0,0E0,0E0,0E0,0E0],"parents":[2147483647,0,0,1,1,2,2,3,3,4,4,5,5,6,6,7,7,8,8,9,9,10,10,11,11,12,12,13,13,14,14],"right_children":[2,4,6,8,10,12,14,16,18,20,22,24,26,28,30,-1,-1,-1,-1,-1,-1,-1,-1,-1,-1,-1,-1,-1,-1,-1,-1],"split_conditions":[3.7961856E-1,4.6370214E-1,4.388943E-1,9E0,4.8496625E-1,9E0,5.3125817E-1,7.288596E-1,8.634731E0,7.9386225E0,4.6128562E-1,4.285843E-1,1.0109593E0,6.832418E-1,5.1547325E-1,-1.0288057E-2,1.8269328E-2,-3.4196842E-2,-6.8664536E-2,-2.306044E-2,-5.0646365E-2,-7.82465E-2,-5.535664E-2,4.4398736E-2,1.02092875E-2,5.144249E-3,-4.4878736E-2,4.1412428E-2,-2.8567081E-3,6.631812E-2,9.1088876E-2],"split_indices":[9,10,9,2,10,2,7,4,0,0,7,10,4,14,9,0,0,0,0,0,0,0,0,0,0,0,0,0,0,0,0],"split_type":[0,0,0,0,0,0,0,0,0,0,0,0,0,0,0,0,0,0,0,0,0,0,0,0,0,0,0,0,0,0,0],"sum_hessian":[6.5464287E3,3.5790745E3,2.9673542E3,1.8091617E3,1.7699127E3,1.6963177E3,1.2710366E3,1.3310021E3,4.7815976E2,1.0093135E3,7.605992E2,1.01996295E3,6.763548E2,2.350889E2,1.0359476E3,9.756468E2,3.5535526E2,3.143437E2,1.6381607E2,4.4895483E2,5.6035864E2,4.0388318E2,3.5671603E2,7.101374E2,3.0982553E2,5.940401E2,8.231472E1,1.8151862E2,5.3570274E1,6.7055316E2,3.653945E2],"tree_param":{"num_deleted":"0","num_feature":"31","num_nodes":"31","size_leaf_vector":"1"}},{"base_weights":[4.422549E-4,-5.1913005E-1,9.1665727E-1,-1.4357974E-1,-9.4303674E-1,4.2901796E-1,1.2567089E0,6.97564E-2,-6.2741685E-1,-7.1872866E-1,-1.2985126E0,5.327205E-1,-4.6360728E-1,8.3708644E-1,1.5522062E0,-5.0391755E-3,1.9077973E-2,-4.4022344E-2,-7.0566214E-3,-2.2238404E-2,-4.4590287E-2,8.655077E-3,-6.704272E-2,1.6631735E-2,4.412204E-2,-3.8809564E-2,3.1429265E-2,4.6392094E-2,5.516293E-3,6.8926655E-2,8.7795794E-2],"categories":[],"categories_nodes":[],"categories_segments":[],"categories_sizes":[],"default_left":[0,0,0,0,0,0,0,0,0,0,0,0,0,0,0,0,0,0,0,0,0,0,0,0,0,0,0,0,0,0,0],"id":2,"left_children":[1,3,5,7,9,11,13,15,17,19,21,23,25,27,29,-1,-1,-1,-1,-1,-1,-1,-1,-1,-1,-1,-1,-1,-1,-1,-1],"loss_changes":[3.100985E3,6.612351E2,3.8948865E2,2.2796602E2,1.5337329E2,9.046359E1,1.6897925E2,8.164493E1,8.269028E1,5.591565E1,4.7578125E1,6.0171173E1,3.5834053E1,3.7710236E1,2.3244995E1,0E0,0E0,0E0,0E0,0E0,0E0,0E0,0E0,0E0,0E0,0E0,0E0,0E0,0E0,0E0,0E0],"parents":[2147483647,0,0,1,1,2,2,3,3,4,4,5,5,6,6,7,7,8,8,9,9,10,10,11,11,12,12,13,13,14,14],"right_children":[2,4,6,8,10,12,14,16,18,20,22,24,26,28,30,-1,-1,-1,-1,-1,-1,-1,-1,-1,-1,-1,-1,-1,-1,-1,-1],"split_conditions":[4.008493E-1,4.605874E-1,6.644192E-1,9E0,4.8496625E-1,7.960519E-1,4.474621E-1,1.5074334E-1,3.805468E-1,7.9386225E0,4.00376E0,4.388943E-1,4.8181024E0,4.277146E-1,5.129202E-1,-5.0391755E-3,1.9077973E-2,-4.4022344E-2,-7.0566214E-3,-2.2238404E-2,-4.4590287E-2,8.655077E-3,-6.704272E-2,1.6631735E-2,4.412204E-2,-3.8809564E-2,3.1429265E-2,4.6392094E-2,5.516293E-3,6.8926655E-2,8.7795794E-2],"split_indices":[9,10,3,2,10,20,9,5,9,0,1,9,1,10,9,0,0,0,0,0,0,0,0,0,0,0,0,0,0,0,0],"split_type":[0,0,0,0,0,0,0,0,0,0,0,0,0,0,0,0,0,0,0,0,0,0,0,0,0,0,0,0,0,0,0],"sum_hessian":[6.509962E3,4.154598E3,2.355364E3,2.2046174E3,1.9499805E3,9.697865E2,1.3855775E3,1.5309021E3,6.737155E2,1.1996182E3,7.503623E2,8.697697E2,1.0001678E2,5.7598694E2,8.095906E2,9.9008795E2,5.408141E2,4.4179993E2,2.3191559E2,4.6766095E2,7.319572E2,2.0681084E1,7.296812E2,5.5608856E2,3.1368118E2,7.83538E1,2.166298E1,5.113079E2,6.467904E1,4.4592902E2,3.636616E2],"tree_param":{"num_deleted":"0","num_feature":"31","num_nodes":"31","size_leaf_vector":"1"}},{"base_weights":[1.2369903E-2,-4.8429057E-1,8.820203E-1,-1.1539065E-1,-8.9700365E-1,1.2661401E0,4.7048995E-1,1.0281452E-1,-5.6906164E-1,-6.7414397E-1,-1.2565887E0,1.007431E0,1.5821002E0,5.5662537E-1,-4.0987074E-1,2.119948E-2,-2.3918129E-3,-3.9543E-2,-8.324981E-3,-1.8629452E-2,-4.1673925E-2,5.298458E-3,-6.492865E-2,5.4364767E-2,4.633835E-3,8.583168E-2,6.95276E-2,1.75138E-2,4.8509292E-2,-3.4425747E-2,2.9179994E-2],"categories":[],"categories_nodes":[],"categories_segments":[],"categories_sizes":[],"default_left":[0,0,0,0,0,0,0,0,0,0,0,0,0,0,0,0,0,0,0,0,0,0,0,0,0,0,0,0,0,0,0],"id":3,"left_children":[1,3,5,7,9,11,13,15,17,19,21,23,25,27,29,-1,-1,-1,-1,-1,-1,-1,-1,-1,-1,-1,-1,-1,-1,-1,-1],"loss_changes":[2.8052761E3,6.289503E2,3.7167944E2,2.1653789E2,1.5422339E2,9.599719E1,8.7179306E1,7.157885E1,6.2967453E1,5.7218933E1,4.3054565E1,4.8983276E1,8.655518E0,8.80148E1,2.9291567E1,0E0,0E0,0E0,0E0,0E0,0E0,0E0,0E0,0E0,0E0,0E0,0E0,0E0,0E0,0E0,0E0],"parents":[2147483647,0,0,1,1,2,2,3,3,4,4,5,5,6,6,7,7,8,8,9,9,10,10,11,11,12,12,13,13,14,14],"right_children":[2,4,6,8,10,12,14,16,18,20,22,24,26,28,30,-1,-1,-1,-1,-1,-1,-1,-1,-1,-1,-1,-1,-1,-1,-1,-1],"split_conditions":[4.008493E-1,4.601933E-1,-8.0880964E-1,8.75E0,4.8496625E-1,4.7812223E-1,7.8094894E-1,7.75E0,3.7961856E-1,-1.7598842E-1,4.00376E0,4.277146E-1,-1.8602818E0,4.4514197E-1,4.8181024E0,2.119948E-2,-2.3918129E-3,-3.9543E-2,-8.324981E-3,-1.8629452E-2,-4.1673925E-2,5.298458E-3,-6.492865E-2,5.4364767E-2,4.633835E-3,8.583168E-2,6.95276E-2,1.75138E-2,4.8509292E-2,-3.4425747E-2,2.9179994E-2],"split_indices":[9,10,17,2,10,9,20,2,9,20,1,10,17,9,1,0,0,0,0,0,0,0,0,0,0,0,0,0,0,0,0],"split_type":[0,0,0,0,0,0,0,0,0,0,0,0,0,0,0,0,0,0,0,0,0,0,0,0,0,0,0,0,0,0,0],"sum_hessian":[6.4907207E3,4.1317305E3,2.35899E3,2.1832742E3,1.9484564E3,1.2177296E3,1.1412604E3,1.4749591E3,7.0831506E2,1.2068153E3,7.4164105E2,6.744762E2,5.432534E2,1.0404266E3,1.0083382E2,4.7020963E2,1.00474945E3,4.5512842E2,2.5318665E2,4.199514E2,7.8686395E2,2.1935467E1,7.1970557E2,6.1977014E2,5.470607E1,3.0915274E2,2.3410066E2,6.968868E2,3.4353983E2,7.938383E1,2.1449986E1],"tree_param":{"num_deleted":"0","num_feature":"31","num_nodes":"31","size_leaf_vector":"1"}},{"base_weights":[-7.4863825E-3,-5.928353E-1,6.967821E-1,-2.6751116E-1,-9.4584036E-1,3.4146172E-1,1.1729347E0,-6.4954764E-1,-5.1925708E-2,-7.74835E-1,-1.2744615E0,4.0461153E-1,-8.079169E-1,7.9356474E-1,1.38913E0,-2.5776062E-2,-6.17638E-2,4.6319692E-4,-5.3708185E-2,-3.1772356E-2,-5.604902E-2,-7.461151E-2,-4.903356E-2,1.1874032E-2,3.59448E-2,-6.487014E-2,-2.8252175E-2,4.413803E-2,4.5121955E-3,6.1997917E-2,8.411562E-2],"categories":[],"categories_nodes":[],"categories_segments":[],"categories_sizes":[],"default_left":[0,0,0,0,0,0,0,0,0,0,0,0,0,0,0,0,0,0,0,0,0,0,0,0,0,0,0,0,0,0,0],"id":4,"left_children":[1,3,5,7,9,11,13,15,17,19,21,23,25,27,29,-1,-1,-1,-1,-1,-1,-1,-1,-1,-1,-1,-1,-1,-1,-1,-1],"loss_changes":[2.6652356E3,4.0473926E2,4.953567E2,1.5138329E2,9.27157E1,1.2276486E2,1.0012036E2,5.045926E1,7.398635E1,5.2194214E1,3.341211E1,8.336789E1,8.644405E0,2.8492126E1,3.0016724E1,0E0,0E0,0E0,0E0,0E0,0E0,0E0,0E0,0E0,0E0,0E0,0E0,0E0,0E0,0E0,0E0],"parents":[2147483647,0,0,1,1,2,2,3,3,4,4,5,5,6,6,7,7,8,8,9,9,10,10,11,11,12,12,13,13,14,14],"right_children":[2,4,6,8,10,12,14,16,18,20,22,24,26,28,30,-1,-1,-1,-1,-1,-1,-1,-1,-1,-1,-1,-1,-1,-1,-1,-1],"split_conditions":[3.7961856E-1,4.6430236E-1,4.388943E-1,-1.9140472E-1,4.9044862E-1,8.4173405E-1,7.5206764E-2,8.634731E0,8.876508E0,8.281564E0,-3.871437E-2,8.03748E-1,4.307926E0,6.832418E-1,1.0641913E1,-2.5776062E-2,-6.17638E-2,4.6319692E-4,-5.3708185E-2,-3.1772356E-2,-5.604902E-2,-7.461151E-2,-4.903356E-2,1.1874032E-2,3.59448E-2,-6.487014E-2,-2.8252175E-2,4.413803E-2,4.5121955E-3,6.1997917E-2,8.411562E-2],"split_indices":[9,10,9,3,10,20,8,0,0,0,8,3,1,14,0,0,0,0,0,0,0,0,0,0,0,0,0,0,0,0,0],"split_type":[0,0,0,0,0,0,0,0,0,0,0,0,0,0,0,0,0,0,0,0,0,0,0,0,0,0,0,0,0,0,0],"sum_hessian":[6.461255E3,3.5288613E3,2.9323936E3,1.838557E3,1.6903043E3,1.6814762E3,1.2509174E3,6.61452E2,1.1771051E3,1.1165873E3,5.737171E2,1.5952965E3,8.6179695E1,4.578205E2,7.9309686E2,5.416202E2,1.1983183E2,1.11231E3,6.4795006E1,8.004904E2,3.160968E2,3.244116E2,2.493055E2,1.0441721E3,5.511245E2,2.5426989E1,6.075271E1,4.0558868E2,5.2231815E1,5.3303076E2,2.6006613E2],"tree_param":{"num_deleted":"0","num_feature":"31","num_nodes":"31","size_leaf_vector":"1"}},{"base_weights":[-4.213508E-3,-5.489534E-1,6.5138197E-1,-2.415251E-1,-8.661743E-1,2.984394E-1,1.0663595E0,-4.677993E-2,-7.524483E-1,-6.535357E-1,-1.1553881E0,-5.5575883E-1,3.8163403E-1,5.493847E-1,1.2687767E0,-8.883602E-3,1.4997661E-2,-2.6463646E-2,-5.7852786E-2,-2.349124E-2,-5.126788E-2,-4.5971595E-2,-6.8733834E-2,-3.7961558E-2,5.299338E-3,1.0964642E-2,3.8924735E-2,3.7442483E-2,-2.3404846E-4,5.210343E-2,7.257077E-2],"categories":[],"categories_nodes":[],"categories_segments":[],"categories_sizes":[],"default_left":[0,0,0,0,0,0,0,0,0,0,0,0,0,0,0,0,0,0,0,0,0,0,0,0,0,0,0,0,0,0,0],"id":5,"left_children":[1,3,5,7,9,11,13,15,17,19,21,23,25,27,29,-1,-1,-1,-1,-1,-1,-1,-1,-1,-1,-1,-1,-1,-1,-1,-1],"loss_changes":[2.3121355E3,3.4422595E2,4.2940247E2,1.7876443E2,1.05092896E2,1.13433365E2,1.3943933E2,5.9304585E1,4.322989E1,6.7548004E1,3.4990173E1,1.9381687E1,9.293846E1,4.253476E1,3.6550293E1,0E0,0E0,0E0,0E0,0E0,0E0,0E0,0E0,0E0,0E0,0E0,0E0,0E0,0E0,0E0,0E0],"parents":[2147483647,0,0,1,1,2,2,3,3,4,4,5,5,6,6,7,7,8,8,9,9,10,10,11,11,12,12,13,13,14,14],"right_children":[2,4,6,8,10,12,14,16,18,20,22,24,26,28,30,-1,-1,-1,-1,-1,-1,-1,-1,-1,-1,-1,-1,-1,-1,-1,-1],"split_conditions":[3.7961856E-1,4.6370214E-1,5.7056606E-1,8.75E0,4.8496625E-1,-1.9691171E-1,4.262095E-1,7.2825843E-1,8.625476E0,8.272629E0,4.3011186E-1,4.847685E-1,4.365953E-1,4.285843E-1,4.7812223E-1,-8.883602E-3,1.4997661E-2,-2.6463646E-2,-5.7852786E-2,-2.349124E-2,-5.126788E-2,-4.5971595E-2,-6.8733834E-2,-3.7961558E-2,5.299338E-3,1.0964642E-2,3.8924735E-2,3.7442483E-2,-2.3404846E-4,5.210343E-2,7.257077E-2],"split_indices":[9,10,7,2,10,5,9,3,0,0,17,9,9,10,9,0,0,0,0,0,0,0,0,0,0,0,0,0,0,0,0],"split_type":[0,0,0,0,0,0,0,0,0,0,0,0,0,0,0,0,0,0,0,0,0,0,0,0,0,0,0,0,0,0,0],"sum_hessian":[6.470285E3,3.5342646E3,2.9360205E3,1.7969447E3,1.7373201E3,1.5887191E3,1.3473013E3,1.3029011E3,4.9404352E2,1.00536035E3,7.3195966E2,1.3977893E2,1.4489402E3,3.814618E2,9.6583954E2,9.4697076E2,3.559304E2,3.2170587E2,1.7233765E2,6.762846E2,3.2907574E2,3.580223E2,3.7393735E2,1.0691308E2,3.2865845E1,1.0308616E3,4.1807867E2,2.8023456E2,1.0122723E2,4.374021E2,5.2843744E2],"tree_param":{"num_deleted":"0","num_feature":"31","num_nodes":"31","size_leaf_vector":"1"}},{"base_weights":[-1.4140901E-2,-4.1653904E-1,8.1484985E-1,-9.9478945E-2,-8.1027436E-1,1.0769491E0,3.9866844E-1,8.970679E-2,-4.9802312E-1,-6.0147464E-1,-1.1318543E0,7.330359E-1,1.2910957E0,4.742583E-1,-3.5011113E-1,-2.2990538E-3,1.9305022E-2,-1.8230936E-2,-4.622459E-2,-2.0021325E-2,-4.3297555E-2,7.293053E-3,-5.843109E-2,4.0613618E-2,-2.3432149E-2,5.080377E-2,7.229724E-2,1.999449E-2,6.0584605E-2,-3.5510432E-2,2.6753644E-2],"categories":[],"categories_nodes":[],"categories_segments":[],"categories_sizes":[],"default_left":[0,0,0,0,0,0,0,0,0,0,0,0,0,0,0,0,0,0,0,0,0,0,0,0,0,0,0,0,0,0,0],"id":6,"left_children":[1,3,5,7,9,11,13,15,17,19,21,23,25,27,29,-1,-1,-1,-1,-1,-1,-1,-1,-1,-1,-1,-1,-1,-1,-1,-1],"loss_changes":[2.1294219E3,5.361751E2,2.263822E2,1.7986359E2,1.2697644E2,9.185571E1,4.617546E1,6.515207E1,4.2749603E1,6.108728E1,3.5865845E1,4.8015778E1,2.999414E1,3.9092896E1,2.4744709E1,0E0,0E0,0E0,0E0,0E0,0E0,0E0,0E0,0E0,0E0,0E0,0E0,0E0,0E0,0E0,0E0],"parents":[2147483647,0,0,1,1,2,2,3,3,4,4,5,5,6,6,7,7,8,8,9,9,10,10,11,11,12,12,13,13,14,14],"right_children":[2,4,6,8,10,12,14,16,18,20,22,24,26,28,30,-1,-1,-1,-1,-1,-1,-1,-1,-1,-1,-1,-1,-1,-1,-1,-1],"split_conditions":[4.0860313E-1,4.601933E-1,-6.5305024E-1,1.9043174E-1,4.8445845E-1,4.474621E-1,7.8094894E-1,7.5177205E-1,9.596511E-1,4.332247E0,4.00376E0,4.8181024E0,1.3832455E0,5.2061224E-1,4.8181024E0,-2.2990538E-3,1.9305022E-2,-1.8230936E-2,-4.622459E-2,-2.0021325E-2,-4.3297555E-2,7.293053E-3,-5.843109E-2,4.0613618E-2,-2.3432149E-2,5.080377E-2,7.229724E-2,1.999449E-2,6.0584605E-2,-3.5510432E-2,2.6753644E-2],"split_indices":[9,10,17,17,10,9,20,3,4,1,1,1,4,9,1,0,0,0,0,0,0,0,0,0,0,0,0,0,0,0,0],"split_type":[0,0,0,0,0,0,0,0,0,0,0,0,0,0,0,0,0,0,0,0,0,0,0,0,0,0,0,0,0,0,0],"sum_hessian":[6.3796626E3,4.2957236E3,2.0839392E3,2.381226E3,1.9144977E3,1.2764263E3,8.0751294E2,1.6154384E3,7.6578766E2,1.1646565E3,7.498412E2,4.935613E2,7.828649E2,7.343773E2,7.313559E1,1.1088335E3,5.066048E2,5.8650183E2,1.792858E2,6.6495734E2,4.9969907E2,2.065578E1,7.291854E2,4.6379413E2,2.9767166E1,2.8791943E2,4.949455E2,6.7015E2,6.422734E1,5.2428635E1,2.0706959E1],"tree_param":{"num_deleted":"0","num_feature":"31","num_nodes":"31","size_leaf_vector":"1"}},{"base_weights":[3.3638112E-3,7.3576987E-1,-4.1716048E-1,3.76541E-1,1.1131357E0,-1.08802006E-1,-7.768291E-1,1.8109554E-1,6.9537E-1,8.991761E-1,1.3635874E0,5.249445E-2,-4.5915738E-1,-5.8506644E-1,-1.0834688E0,1.5370622E-2,-2.7068093E-2,3.9673563E-2,-4.3555363E-3,4.7867913E-2,1.3209509E-2,7.4575424E-2,5.917547E-2,1.1452734E-2,-9.141883E-3,-1.6780708E-2,-4.3213334E-2,-1.7580211E-2,-3.882552E-2,6.3562007E-3,-5.626225E-2],"categories":[],"categories_nodes":[],"categories_segments":[],"categories_sizes":[],"default_left":[0,0,0,0,0,0,0,0,0,0,0,0,0,0,0,0,0,0,0,0,0,0,0,0,0,0,0,0,0,0,0],"id":7,"left_children":[1,3,5,7,9,11,13,15,17,19,21,23,25,27,29,-1,-1,-1,-1,-1,-1,-1,-1,-1,-1,-1,-1,-1,-1,-1,-1],"loss_changes":[1.9679419E3,3.1480676E2,4.4979114E2,7.418143E1,5.7933838E1,1.2376702E2,1.08526E2,6.8307816E1,3.5124405E1,2.2102875E1,7.8846436E0,6.2399242E1,3.3728714E1,5.0940887E1,3.6789795E1,0E0,0E0,0E0,0E0,0E0,0E0,0E0,0E0,0E0,0E0,0E0,0E0,0E0,0E0,0E0,0E0],"parents":[2147483647,0,0,1,1,2,2,3,3,4,4,5,5,6,6,7,7,8,8,9,9,10,10,11,11,12,12,13,13,14,14],"right_children":[2,4,6,8,10,12,14,16,18,20,22,24,26,28,30,-1,-1,-1,-1,-1,-1,-1,-1,-1,-1,-1,-1,-1,-1,-1,-1],"split_conditions":[4.2409685E-1,5.7520676E-1,4.605874E-1,4.388943E-1,4.7812223E-1,1.9043174E-1,4.8496625E-1,9.599263E0,6.832418E-1,4.8181024E0,-1.8602818E0,8.58937E0,9.596511E-1,8.001473E0,4.00376E0,1.5370622E-2,-2.7068093E-2,3.9673563E-2,-4.3555363E-3,4.7867913E-2,1.3209509E-2,7.4575424E-2,5.917547E-2,1.1452734E-2,-9.141883E-3,-1.6780708E-2,-4.3213334E-2,-1.7580211E-2,-3.882552E-2,6.3562007E-3,-5.626225E-2],"split_indices":[10,7,10,9,9,17,10,0,14,1,17,0,4,0,1,0,0,0,0,0,0,0,0,0,0,0,0,0,0,0,0],"split_type":[0,0,0,0,0,0,0,0,0,0,0,0,0,0,0,0,0,0,0,0,0,0,0,0,0,0,0,0,0,0,0],"sum_hessian":[6.385335E3,2.3286384E3,4.0566965E3,1.1953064E3,1.133332E3,2.1858447E3,1.8708518E3,7.433739E2,4.519325E2,6.165745E2,5.167575E2,1.4975382E3,6.883065E2,1.155012E3,7.1583984E2,6.339566E2,1.094173E2,4.0178714E2,5.0145363E1,5.636028E2,5.2971786E1,2.9296777E2,2.2378969E2,8.561252E2,6.414131E2,5.3063367E2,1.5767287E2,5.234242E2,6.315878E2,2.3582817E1,6.92257E2],"tree_param":{"num_deleted":"0","num_feature":"31","num_nodes":"31","size_leaf_vector":"1"}},{"base_weights":[-3.8154318E-3,-2.7305657E-1,8.495154E-1,-7.404529E-1,-5.211257E-2,6.364178E-1,1.2192695E0,-6.1106014E-1,-1.1285325E0,1.0930722E-1,-3.677531E-1,2.1934137E-1,7.39707E-1,1.0323044E0,7.171338E-2,-2.2108432E-2,-4.2567503E-2,-6.364643E-2,-4.9082723E-2,4.225492E-3,6.695155E-2,-5.5258896E-2,-1.4824152E-2,2.031733E-2,-2.3494285E-2,3.498772E-2,6.7630924E-2,6.9342956E-2,4.629751E-2],"categories":[],"categories_nodes":[],"categories_segments":[],"categories_sizes":[],"default_left":[0,0,0,0,0,0,0,0,0,0,0,0,0,0,0,0,0,0,0,0,0,0,0,0,0,0,0,0,0],"id":8,"left_children":[1,3,5,7,9,11,13,15,17,19,21,23,25,27,-1,-1,-1,-1,-1,-1,-1,-1,-1,-1,-1,-1,-1,-1,-1],"loss_changes":[1.4600082E3,4.986667E2,1.18164795E2,7.611853E1,1.6739622E2,4.1330475E1,1.8842712E1,4.6363556E1,5.21286E0,6.5757965E1,5.7490097E1,2.5636707E1,1.673169E1,8.444672E0,0E0,0E0,0E0,0E0,0E0,0E0,0E0,0E0,0E0,0E0,0E0,0E0,0E0,0E0,0E0],"parents":[2147483647,0,0,1,1,2,2,3,3,4,4,5,5,6,6,7,7,8,8,9,9,10,10,11,11,12,12,13,13],"right_children":[2,4,6,8,10,12,14,16,18,20,22,24,26,28,-1,-1,-1,-1,-1,-1,-1,-1,-1,-1,-1,-1,-1,-1,-1],"split_conditions":[5.7056606E-1,8.111509E0,6.157118E-1,8.6763895E-1,1.8227078E-1,8.662079E0,1.0348069E1,4.321646E0,7.6700244E0,1.0707567E1,-3.3691373E-1,1.492193E0,1.0641913E1,6.216485E-1,7.171338E-2,-2.2108432E-2,-4.2567503E-2,-6.364643E-2,-4.9082723E-2,4.225492E-3,6.695155E-2,-5.5258896E-2,-1.4824152E-2,2.031733E-2,-2.3494285E-2,3.498772E-2,6.7630924E-2,6.9342956E-2,4.629751E-2],"split_indices":[7,0,7,4,17,0,0,1,0,0,5,3,0,7,0,0,0,0,0,0,0,0,0,0,0,0,0,0,0],"split_type":[0,0,0,0,0,0,0,0,0,0,0,0,0,0,0,0,0,0,0,0,0,0,0,0,0,0,0,0,0],"sum_hessian":[6.3512026E3,4.8291226E3,1.5220803E3,1.5482555E3,3.2808672E3,9.6938525E2,5.5269507E2,1.1653661E3,3.8288943E2,2.1711873E3,1.1096798E3,1.9404103E2,7.753442E2,3.023236E2,2.5037143E2,6.881803E2,4.7718576E2,1.8465758E2,1.9823187E2,2.1305254E3,4.066195E1,9.499146E1,1.01468835E3,1.5350278E2,4.0538254E1,7.3222394E2,4.312025E1,6.3770508E1,2.385531E2],"tree_param":{"num_deleted":"0","num_feature":"31","num_nodes":"29","size_leaf_vector":"1"}},{"base_weights":[-3.705484E-3,6.725062E-1,-3.8315275E-1,3.418582E-1,1.030817E0,-9.1254406E-2,-7.2181755E-1,-6.1806834E-1,3.9452365E-1,9.1592556E-1,7.130132E-2,3.359458E-1,-2.2787297E-1,-5.396508E-1,-1.011267E0,-5.785616E-2,-1.4525274E-2,1.4825038E-3,2.5604296E-2,3.6420666E-2,5.227978E-2,2.3893079E-2,-1.0603515E-3,-4.2259634E-2,-8.457137E-3,-1.2406204E-2,-3.492802E-2,1.2207476E-2,-5.270346E-2],"categories":[],"categories_nodes":[],"categories_segments":[],"categories_sizes":[],"default_left":[0,0,0,0,0,0,0,0,0,0,0,0,0,0,0,0,0,0,0,0,0,0,0,0,0,0,0,0,0],"id":9,"left_children":[1,3,5,7,9,11,13,15,17,19,-1,21,23,25,27,-1,-1,-1,-1,-1,-1,-1,-1,-1,-1,-1,-1,-1,-1],"loss_changes":[1.6219817E3,2.682024E2,4.0002545E2,6.0346848E1,4.637268E1,1.27220566E2,9.741028E1,1.0022924E1,4.8106384E1,1.8784851E1,0E0,2.6878323E1,5.938513E1,5.2964325E1,3.9426697E1,0E0,0E0,0E0,0E0,0E0,0E0,0E0,0E0,0E0,0E0,0E0,0E0,0E0,0E0],"parents":[2147483647,0,0,1,1,2,2,3,3,4,4,5,5,6,6,7,7,8,8,9,9,11,11,12,12,13,13,14,14],"right_children":[2,4,6,8,10,12,14,16,18,20,-1,22,24,26,28,-1,-1,-1,-1,-1,-1,-1,-1,-1,-1,-1,-1,-1,-1],"split_conditions":[4.2409685E-1,5.7520676E-1,4.601933E-1,3.8937148E-1,1.0641913E1,8E0,4.8445845E-1,9.227092E0,4.29788E0,2.9214177E-1,7.130132E-2,4.4253807E0,-2.2871694E-1,-1.7598842E-1,4.00376E0,-5.785616E-2,-1.4525274E-2,1.4825038E-3,2.5604296E-2,3.6420666E-2,5.227978E-2,2.3893079E-2,-1.0603515E-3,-4.2259634E-2,-8.457137E-3,-1.2406204E-2,-3.492802E-2,1.2207476E-2,-5.270346E-2],"split_indices":[10,7,10,7,0,2,10,0,1,5,0,1,5,20,1,0,0,0,0,0,0,0,0,0,0,0,0,0,0],"split_type":[0,0,0,0,0,0,0,0,0,0,0,0,0,0,0,0,0,0,0,0,0,0,0,0,0,0,0,0,0],"sum_hessian":[6.317596E3,2.2700593E3,4.0475369E3,1.1829258E3,1.0871335E3,2.1755444E3,1.8719924E3,6.021035E1,1.1227155E3,8.47808E2,2.3932555E2,5.26093E2,1.6494515E3,1.1528555E3,7.1913696E2,2.0612957E1,3.9597393E1,2.7461353E2,8.481019E2,3.5264108E2,4.951669E2,3.7640955E2,1.4968346E2,1.4066971E2,1.5087817E3,4.0896756E2,7.438879E2,2.3245655E1,6.958913E2],"tree_param":{"num_deleted":"0","num_feature":"31","num_nodes":"29","size_leaf_vector":"1"}},{"base_weights":[-4.8764003E-3,-4.5716965E-1,5.386933E-1,-1.7487235E-1,-6.957609E-1,2.6927987E-1,9.480956E-1,3.0001868E-3,-6.771622E-1,-3.6938515E-1,-8.424522E-1,3.9208245E-1,-2.4612986E-1,6.720025E-1,1.1578485E0,1.3663607E-2,-7.6104826E-3,-5.526329E-2,-2.9065147E-2,4.011759E-3,-2.732412E-2,-3.4854744E-2,-5.6223728E-2,1.1156931E-2,2.6710639E-2,-4.9048397E-3,-3.7335332E-2,3.8482144E-2,3.266035E-3,4.954992E-2,6.84553E-2],"categories":[],"categories_nodes":[],"categories_segments":[],"categories_sizes":[],"default_left":[0,0,0,0,0,0,0,0,0,0,0,0,0,0,0,0,0,0,0,0,0,0,0,0,0,0,0,0,0,0,0],"id":10,"left_children":[1,3,5,7,9,11,13,15,17,19,21,23,25,27,29,-1,-1,-1,-1,-1,-1,-1,-1,-1,-1,-1,-1,-1,-1,-1,-1],"loss_changes":[1.5412045E3,2.3006104E2,3.1326074E2,1.4044867E2,8.78725E1,1.0909503E2,6.3450073E1,4.8829014E1,1.5244156E1,4.626214E1,5.0406982E1,3.2992325E1,2.4278618E1,2.8908005E1,1.931372E1,0E0,0E0,0E0,0E0,0E0,0E0,0E0,0E0,0E0,0E0,0E0,0E0,0E0,0E0,0E0,0E0],"parents":[2147483647,0,0,1,1,2,2,3,3,4,4,5,5,6,6,7,7,8,8,9,9,10,10,11,11,12,12,13,13,14,14],"right_children":[2,4,6,8,10,12,14,16,18,20,22,24,26,28,30,-1,-1,-1,-1,-1,-1,-1,-1,-1,-1,-1,-1,-1,-1,-1,-1],"split_conditions":[3.7961856E-1,4.601933E-1,4.409155E-1,9E0,-1.263367E-1,9.5E0,5.894663E-1,8E0,3.4362316E-1,4.2345233E0,4.9044862E-1,4.0860313E-1,1.05E1,3.570507E-1,5.1547325E-1,1.3663607E-2,-7.6104826E-3,-5.526329E-2,-2.9065147E-2,4.011759E-3,-2.732412E-2,-3.4854744E-2,-5.6223728E-2,1.1156931E-2,2.6710639E-2,-4.9048397E-3,-3.7335332E-2,3.8482144E-2,3.266035E-3,4.954992E-2,6.84553E-2],"split_indices":[9,10,9,2,20,2,7,2,9,1,10,9,2,23,9,0,0,0,0,0,0,0,0,0,0,0,0,0,0,0,0],"split_type":[0,0,0,0,0,0,0,0,0,0,0,0,0,0,0,0,0,0,0,0,0,0,0,0,0,0,0,0,0,0,0],"sum_hessian":[6.26487E3,3.4199146E3,2.8449556E3,1.5684518E3,1.8514628E3,1.7181228E3,1.1268326E3,1.1594525E3,4.089993E2,5.7671674E2,1.2747461E3,1.3882274E3,3.2989536E2,4.905255E2,6.363072E2,4.2286722E2,7.3658527E2,7.0591934E1,3.3840735E2,1.6295804E2,4.137587E2,8.462382E2,4.2850784E2,6.372748E2,7.5095264E2,2.567573E2,7.313807E1,4.217771E2,6.874841E1,3.62408E2,2.738992E2],"tree_param":{"num_deleted":"0","num_feature":"31","num_nodes":"31","size_leaf_vector":"1"}},{"base_weights":[4.935087E-4,-3.2753664E-1,6.8321496E-1,-6.834738E-2,-6.634238E-1,3.4358618E-1,9.0548146E-1,-6.214444E-1,2.0255448E-2,-4.8415357E-1,-9.5793337E-1,2.8004792E-1,1.131543E0,5.7420254E-1,1.1281123E0,-2.4999967E-2,-5.4516483E-2,-3.6310076E-3,1.4566748E-2,-1.2721056E-2,-3.3058554E-2,-3.4567233E-2,-5.63714E-2,2.6027938E-2,-4.813354E-3,7.321936E-2,3.4797404E-2,8.024553E-2,2.5834221E-2,4.6196416E-2,6.257943E-2],"categories":[],"categories_nodes":[],"categories_segments":[],"categories_sizes":[],"default_left":[0,0,0,0,0,0,0,0,0,0,0,0,0,0,0,0,0,0,0,0,0,0,0,0,0,0,0,0,0,0,0],"id":11,"left_children":[1,3,5,7,9,11,13,15,17,19,21,23,25,27,29,-1,-1,-1,-1,-1,-1,-1,-1,-1,-1,-1,-1,-1,-1,-1,-1],"loss_changes":[1.3920953E3,3.6525565E2,1.5142096E2,1.163994E2,9.5296936E1,3.9216827E1,8.818268E1,1.7264755E1,5.160556E1,4.5872467E1,2.9220154E1,6.75851E1,6.0726547E0,2.7198563E1,1.5553955E1,0E0,0E0,0E0,0E0,0E0,0E0,0E0,0E0,0E0,0E0,0E0,0E0,0E0,0E0,0E0,0E0],"parents":[2147483647,0,0,1,1,2,2,3,3,4,4,5,5,6,6,7,7,8,8,9,9,10,10,11,11,12,12,13,13,14,14],"right_children":[2,4,6,8,10,12,14,16,18,20,22,24,26,28,30,-1,-1,-1,-1,-1,-1,-1,-1,-1,-1,-1,-1,-1,-1,-1,-1],"split_conditions":[4.0860313E-1,4.601933E-1,6.644192E-1,-1.4963782E-1,4.8445845E-1,5.2455163E-1,4.474621E-1,8.884545E0,1.6994517E-1,8.001473E0,4.275335E-1,9.550766E0,4.9481547E-1,4.0977612E-1,1.4276253E0,-2.4999967E-2,-5.4516483E-2,-3.6310076E-3,1.4566748E-2,-1.2721056E-2,-3.3058554E-2,-3.4567233E-2,-5.63714E-2,2.6027938E-2,-4.813354E-3,7.321936E-2,3.4797404E-2,8.024553E-2,2.5834221E-2,4.6196416E-2,6.257943E-2],"split_indices":[9,10,3,5,10,9,9,0,5,0,4,0,4,9,4,0,0,0,0,0,0,0,0,0,0,0,0,0,0,0,0],"split_type":[0,0,0,0,0,0,0,0,0,0,0,0,0,0,0,0,0,0,0,0,0,0,0,0,0,0,0,0,0,0,0],"sum_hessian":[6.2116934E3,4.19625E3,2.0154431E3,2.3702415E3,1.8260084E3,7.996102E2,1.2158329E3,3.259225E2,2.0443191E3,1.1387871E3,6.872214E2,7.426871E2,5.6923183E1,4.919132E2,7.239197E2,2.624937E2,6.3428772E1,1.5231821E3,5.211369E2,4.9821304E2,6.405741E2,2.7151227E2,4.1570908E2,4.5295734E2,2.897297E2,2.9329409E1,2.7593773E1,2.2972383E1,4.6894083E2,2.798074E2,4.4411227E2],"tree_param":{"num_deleted":"0","num_feature":"31","num_nodes":"31","size_leaf_vector":"1"}},{"base_weights":[2.3999077E-3,6.064935E-1,-3.3889183E-1,2.7540118E-1,8.7255836E-1,-9.17875E-2,-6.3247687E-1,-4.163347E-2,3.1823462E-1,1.2593149E0,7.5941E-1,3.933807E-2,-4.104073E-1,-4.804746E-1,-9.8204994E-1,1.3692501E-2,4.861479E-2,4.928526E-2,6.719387E-2,5.358847E-2,3.373299E-2,1.088231E-2,-7.79134E-3,-1.1523098E-2,-3.156734E-2,-1.41710015E-2,-3.3307873E-2,-6.10422E-2,-3.4752097E-2],"categories":[],"categories_nodes":[],"categories_segments":[],"categories_sizes":[],"default_left":[0,0,0,0,0,0,0,0,0,0,0,0,0,0,0,0,0,0,0,0,0,0,0,0,0,0,0,0,0],"id":12,"left_children":[1,3,5,7,9,11,13,-1,15,17,19,21,23,25,27,-1,-1,-1,-1,-1,-1,-1,-1,-1,-1,-1,-1,-1,-1],"loss_changes":[1.2823838E3,1.97107E2,2.8804755E2,4.8068893E1,5.2112976E1,9.03746E1,9.523413E1,0E0,2.732071E1,3.3187256E0,2.3822388E1,5.339458E1,2.460556E1,4.5888794E1,3.5469482E1,0E0,0E0,0E0,0E0,0E0,0E0,0E0,0E0,0E0,0E0,0E0,0E0,0E0,0E0],"parents":[2147483647,0,0,1,1,2,2,3,3,4,4,5,5,6,6,8,8,9,9,10,10,11,11,12,12,13,13,14,14],"right_children":[2,4,6,8,10,12,14,-1,16,18,20,22,24,26,28,-1,-1,-1,-1,-1,-1,-1,-1,-1,-1,-1,-1,-1,-1],"split_conditions":[4.2409685E-1,6.644192E-1,4.601933E-1,-3.3691373E-1,3.8033977E-1,9E0,4.8873973E-1,-4.163347E-2,1.0895543E1,1.0641913E1,-1.7284693E0,4.4734076E-1,6.3927805E-1,8.001473E0,-9.719535E-2,1.3692501E-2,4.861479E-2,4.928526E-2,6.719387E-2,5.358847E-2,3.373299E-2,1.088231E-2,-7.79134E-3,-1.1523098E-2,-3.156734E-2,-1.41710015E-2,-3.3307873E-2,-6.10422E-2,-3.4752097E-2],"split_indices":[10,3,10,5,10,2,10,0,0,0,14,10,17,0,5,0,0,0,0,0,0,0,0,0,0,0,0,0,0],"split_type":[0,0,0,0,0,0,0,0,0,0,0,0,0,0,0,0,0,0,0,0,0,0,0,0,0,0,0,0,0],"sum_hessian":[6.2157124E3,2.243573E3,3.9721394E3,1.0017781E3,1.2417949E3,2.1585989E3,1.8135405E3,3.5737072E1,9.66041E2,2.7608197E2,9.65713E2,1.5300455E3,6.285533E2,1.267656E3,5.458846E2,9.075948E2,5.844624E1,7.171614E1,2.0436583E2,2.0062567E2,7.650873E2,7.999673E2,7.3007825E2,3.491652E2,2.793881E2,6.179698E2,6.4968616E2,2.9403757E2,2.5184703E2],"tree_param":{"num_deleted":"0","num_feature":"31","num_nodes":"29","size_leaf_vector":"1"}},{"base_weights":[8.006703E-3,-4.1339532E-1,4.7394657E-1,-2.8687122E-1,-8.978428E-1,2.2900097E-1,8.2272327E-1,-1.6492371E-1,-6.699435E-1,1.0449527E-2,-9.380512E-1,4.1789418E-1,-6.086802E-2,1.148649E0,6.651783E-1,-1.3033932E-4,-1.7789468E-2,-2.9893348E-2,-7.000484E-2,-5.5613317E-2,-3.739409E-2,2.252995E-2,-2.9487437E-2,1.4387707E-2,-1.5565375E-2,4.7274344E-2,6.516215E-2,1.4658107E-2,3.847597E-2],"categories":[],"categories_nodes":[],"categories_segments":[],"categories_sizes":[],"default_left":[0,0,0,0,0,0,0,0,0,0,0,0,0,0,0,0,0,0,0,0,0,0,0,0,0,0,0,0,0],"id":13,"left_children":[1,3,5,7,9,11,13,15,17,-1,19,21,23,25,27,-1,-1,-1,-1,-1,-1,-1,-1,-1,-1,-1,-1,-1,-1],"loss_changes":[1.2127477E3,1.9802716E2,2.5001996E2,1.19888855E2,3.0369995E1,9.464606E1,6.0194275E1,6.0526035E1,3.0590088E1,0E0,1.9411682E1,3.4970596E1,5.976699E1,9.361206E0,3.1176361E1,0E0,0E0,0E0,0E0,0E0,0E0,0E0,0E0,0E0,0E0,0E0,0E0,0E0,0E0],"parents":[2147483647,0,0,1,1,2,2,3,3,4,4,5,5,6,6,7,7,8,8,10,10,11,11,12,12,13,13,14,14],"right_children":[2,4,6,8,10,12,14,16,18,-1,20,22,24,26,28,-1,-1,-1,-1,-1,-1,-1,-1,-1,-1,-1,-1,-1,-1],"split_conditions":[3.7497857E-1,4.8445845E-1,4.365953E-1,8.75E0,4.00376E0,9E0,-1.6574926E0,4.601933E-1,8.876508E0,1.0449527E-2,-9.719535E-2,4.831908E0,9.104004E0,5.129202E-1,3.3380877E-2,-1.3033932E-4,-1.7789468E-2,-2.9893348E-2,-7.000484E-2,-5.5613317E-2,-3.739409E-2,2.252995E-2,-2.9487437E-2,1.4387707E-2,-1.5565375E-2,4.7274344E-2,6.516215E-2,1.4658107E-2,3.847597E-2],"split_indices":[9,10,9,2,1,2,17,10,0,0,5,1,0,9,5,0,0,0,0,0,0,0,0,0,0,0,0,0,0],"split_type":[0,0,0,0,0,0,0,0,0,0,0,0,0,0,0,0,0,0,0,0,0,0,0,0,0,0,0,0,0],"sum_hessian":[6.172465E3,3.241031E3,2.9314338E3,2.5727087E3,6.6832214E2,1.724327E3,1.2071068E3,1.954041E3,6.186678E2,2.295872E1,6.453634E2,1.0438855E3,6.804416E2,3.8883734E2,8.182695E2,1.0576577E3,8.963833E2,5.6664355E2,5.2024235E1,3.312002E2,3.1416324E2,1.0123325E3,3.1552916E1,2.8400217E2,3.9643942E2,1.7473381E2,2.1410353E2,1.813223E2,6.369472E2],"tree_param":{"num_deleted":"0","num_feature":"31","num_nodes":"29","size_leaf_vector":"1"}},{"base_weights":[8.768467E-3,-3.73033E-1,4.6549174E-1,-2.587054E-1,-8.60155E-1,2.1157415E-1,8.131045E-1,-2.2044091E-1,-1.2418823E0,-1.0864413E0,-6.052995E-1,-5.424581E-1,2.542385E-1,9.1897815E-1,3.0375728E-1,-3.4502277E-3,-2.3196341E-2,-7.027554E-2,-2.6277846E-2,-3.798426E-2,-6.0596623E-2,6.5037496E-3,-3.3107392E-2,-4.152086E-2,-9.793041E-3,1.9633396E-2,2.919389E-3,4.037278E-2,6.403906E-2,-2.1172987E-2,2.0683248E-2],"categories":[],"categories_nodes":[],"categories_segments":[],"categories_sizes":[],"default_left":[0,0,0,0,0,0,0,0,0,0,0,0,0,0,0,0,0,0,0,0,0,0,0,0,0,0,0,0,0,0,0],"id":14,"left_children":[1,3,5,7,9,11,13,15,17,19,21,23,25,27,29,-1,-1,-1,-1,-1,-1,-1,-1,-1,-1,-1,-1,-1,-1,-1,-1],"loss_changes":[1.0722195E3,1.8583331E2,2.4658362E2,1.0131799E2,3.498883E1,5.23675E1,6.2876404E1,9.630179E1,9.986176E0,1.1444458E1,1.2977188E1,8.172159E0,4.1502968E1,3.690802E1,1.6855335E1,0E0,0E0,0E0,0E0,0E0,0E0,0E0,0E0,0E0,0E0,0E0,0E0,0E0,0E0,0E0,0E0],"parents":[2147483647,0,0,1,1,2,2,3,3,4,4,5,5,6,6,7,7,8,8,9,9,10,10,11,11,12,12,13,13,14,14],"right_children":[2,4,6,8,10,12,14,16,18,20,22,24,26,28,30,-1,-1,-1,-1,-1,-1,-1,-1,-1,-1,-1,-1,-1,-1,-1,-1],"split_conditions":[3.7961856E-1,4.8496625E-1,4.365953E-1,8.876508E0,-9.719535E-2,-1.9691171E-1,-1.4708394E-1,1.8227078E-1,1.4021775E-1,4.9250463E-1,2.9436988E-1,4.2239588E-1,9.104004E0,1.0707567E1,-5.7834025E-2,-3.4502277E-3,-2.3196341E-2,-7.027554E-2,-2.6277846E-2,-3.798426E-2,-6.0596623E-2,6.5037496E-3,-3.3107392E-2,-4.152086E-2,-9.793041E-3,1.9633396E-2,2.919389E-3,4.037278E-2,6.403906E-2,-2.1172987E-2,2.0683248E-2],"split_indices":[9,10,9,0,5,5,17,17,5,10,9,10,0,0,17,0,0,0,0,0,0,0,0,0,0,0,0,0,0,0,0],"split_type":[0,0,0,0,0,0,0,0,0,0,0,0,0,0,0,0,0,0,0,0,0,0,0,0,0,0,0,0,0,0,0],"sum_hessian":[6.1447393E3,3.3468455E3,2.7978936E3,2.7134673E3,6.3337823E2,1.6190403E3,1.1788533E3,2.6143699E3,9.909747E1,3.3162112E2,3.0175714E2,8.51964E1,1.5338439E3,9.7432715E2,2.0452612E2,1.613956E3,1.0004137E3,7.8876495E1,2.0220974E1,9.6376236E1,2.3524487E2,2.1216183E1,2.8054095E2,4.4694534E1,4.0501865E1,8.968848E2,6.3695905E2,7.501243E2,2.2420284E2,2.5864588E1,1.7866153E2],"tree_param":{"num_deleted":"0","num_feature":"31","num_nodes":"31","size_leaf_vector":"1"}},{"base_weights":[-3.0364767E-3,5.3851616E-1,-3.0482346E-1,8.1144404E-1,2.2071713E-1,-8.1208184E-2,-5.7801217E-1,7.209588E-1,6.275147E-2,-2.3247011E-1,3.1796625E-1,-4.9256122E-1,1.2406323E-3,-4.4689894E-1,-8.8363504E-1,2.8365731E-2,4.262486E-2,1.8266585E-3,-4.9724028E-2,1.8138792E-2,-2.8063644E-2,-1.9467711E-2,-4.8033785E-2,7.803071E-3,-9.855886E-3,-1.3330829E-2,-3.3840314E-2,-5.528844E-2,-3.154571E-2],"categories":[],"categories_nodes":[],"categories_segments":[],"categories_sizes":[],"default_left":[0,0,0,0,0,0,0,0,0,0,0,0,0,0,0,0,0,0,0,0,0,0,0,0,0,0,0,0,0],"id":15,"left_children":[1,3,5,7,9,11,13,15,-1,17,19,21,23,25,27,-1,-1,-1,-1,-1,-1,-1,-1,-1,-1,-1,-1,-1,-1],"loss_changes":[9.982055E2,1.8899731E2,2.3939606E2,4.4943848E1,4.480251E1,7.33462E1,6.9662415E1,1.8569305E1,0E0,3.710701E1,3.326892E1,1.6423073E1,5.5351944E1,5.082556E1,2.7859528E1,0E0,0E0,0E0,0E0,0E0,0E0,0E0,0E0,0E0,0E0,0E0,0E0,0E0,0E0],"parents":[2147483647,0,0,1,1,2,2,3,3,4,4,5,5,6,6,7,7,9,9,10,10,11,11,12,12,13,13,14,14],"right_children":[2,4,6,8,10,12,14,16,-1,18,20,22,24,26,28,-1,-1,-1,-1,-1,-1,-1,-1,-1,-1,-1,-1,-1,-1],"split_conditions":[4.2409685E-1,-6.6292024E-1,4.601933E-1,1.0707567E1,4.2467637E0,-5.050671E-1,4.8873973E-1,1.2318134E0,6.275147E-2,4.142516E-1,1.2481405E0,8.904946E0,8.569295E0,4.3273687E0,4.6128562E-1,2.8365731E-2,4.262486E-2,1.8266585E-3,-4.9724028E-2,1.8138792E-2,-2.8063644E-2,-1.9467711E-2,-4.8033785E-2,7.803071E-3,-9.855886E-3,-1.3330829E-2,-3.3840314E-2,-5.528844E-2,-3.154571E-2],"split_indices":[10,17,10,0,1,3,10,4,0,10,23,0,0,1,7,0,0,0,0,0,0,0,0,0,0,0,0,0,0],"split_type":[0,0,0,0,0,0,0,0,0,0,0,0,0,0,0,0,0,0,0,0,0,0,0,0,0,0,0,0,0],"sum_hessian":[6.103992E3,2.1834998E3,3.9204924E3,1.1726685E3,1.01083136E3,2.157678E3,1.7628143E3,9.787239E2,1.9394458E2,1.7773541E2,8.3309595E2,3.590059E2,1.7986721E3,1.2375011E3,5.253131E2,4.5703168E2,5.216922E2,1.3257553E2,4.5159878E1,7.940312E2,3.906478E1,2.9750464E2,6.150125E1,1.01100604E3,7.876661E2,6.9651587E2,5.409853E2,2.7556122E2,2.4975192E2],"tree_param":{"num_deleted":"0","num_feature":"31","num_nodes":"29","size_leaf_vector":"1"}},{"base_weights":[-8.784839E-3,-3.6735648E-1,4.2013225E-1,-2.6290256E-1,-8.0562365E-1,2.2287098E-1,7.9332334E-1,-3.583636E-1,1.5110812E-1,2.4144573E-2,-8.546311E-1,2.7641985E-1,-4.5954975E-1,2.157559E-1,8.9871377E-1,-1.4928124E-2,-4.8983384E-2,-8.357532E-3,2.0668918E-2,-5.615575E-2,-3.740337E-2,3.9532974E-2,1.1959968E-2,-5.513913E-2,-1.3126239E-2,4.725898E-2,-3.6633646E-3,3.894868E-2,6.0448702E-2],"categories":[],"categories_nodes":[],"categories_segments":[],"categories_sizes":[],"default_left":[0,0,0,0,0,0,0,0,0,0,0,0,0,0,0,0,0,0,0,0,0,0,0,0,0,0,0,0,0],"id":16,"left_children":[1,3,5,7,9,11,13,15,17,-1,19,21,23,25,27,-1,-1,-1,-1,-1,-1,-1,-1,-1,-1,-1,-1,-1,-1],"loss_changes":[9.3388544E2,1.5077869E2,2.029678E2,1.0584378E2,4.101361E1,6.642532E1,5.7513306E1,7.994141E1,4.2098274E1,0E0,1.5479309E1,3.1599762E1,1.5915249E1,3.1994473E1,2.7684937E1,0E0,0E0,0E0,0E0,0E0,0E0,0E0,0E0,0E0,0E0,0E0,0E0,0E0,0E0],"parents":[2147483647,0,0,1,1,2,2,3,3,4,4,5,5,6,6,7,7,8,8,10,10,11,11,12,12,13,13,14,14],"right_children":[2,4,6,8,10,12,14,16,18,-1,20,22,24,26,28,-1,-1,-1,-1,-1,-1,-1,-1,-1,-1,-1,-1,-1,-1],"split_conditions":[3.7961856E-1,4.8445845E-1,4.474621E-1,1.606976E-1,4.00376E0,1E1,3.3380877E-2,8.676295E0,3.5611185E-1,2.4144573E-2,-1.9691171E-1,8.58937E0,4.3273687E0,4.48573E0,1.0707567E1,-1.4928124E-2,-4.8983384E-2,-8.357532E-3,2.0668918E-2,-5.615575E-2,-3.740337E-2,3.9532974E-2,1.1959968E-2,-5.513913E-2,-1.3126239E-2,4.725898E-2,-3.6633646E-3,3.894868E-2,6.0448702E-2],"split_indices":[9,10,9,5,1,2,5,0,9,0,5,0,1,1,0,0,0,0,0,0,0,0,0,0,0,0,0,0,0],"split_type":[0,0,0,0,0,0,0,0,0,0,0,0,0,0,0,0,0,0,0,0,0,0,0,0,0,0,0,0,0],"sum_hessian":[6.068237E3,3.305563E3,2.7626738E3,2.672316E3,6.3324725E2,1.8097872E3,9.528866E2,2.172208E3,5.0010773E2,2.2404177E1,6.108431E2,1.6794829E3,1.3030438E2,1.4827766E2,8.0460895E2,1.9844825E3,1.877255E2,2.2592087E2,2.7418686E2,1.6760706E2,4.43236E2,1.1026053E2,1.5692224E3,2.8160053E1,1.02144325E2,4.0987286E1,1.0729038E2,5.8608466E2,2.1852429E2],"tree_param":{"num_deleted":"0","num_feature":"31","num_nodes":"29","size_leaf_vector":"1"}},{"base_weights":[9.428991E-3,-2.4388103E-1,5.4421747E-1,-4.8846003E-1,-1.9393034E-2,7.6053596E-1,2.4437605E-1,-1.375793E-1,-6.1924416E-1,1.0050946E-1,-2.7943447E-1,3.3162573E-1,8.698532E-1,-6.275086E-1,2.9282022E-1,2.6911562E-2,-1.2052157E-2,-4.6435144E-2,-2.566708E-2,1.0214843E-2,-7.6217796E-3,-9.280061E-3,-3.544984E-2,7.381184E-2,1.025433E-2,3.7595402E-2,5.587287E-2,-8.061817E-3,-5.0695825E-2,2.489034E-2,2.2553934E-3],"categories":[],"categories_nodes":[],"categories_segments":[],"categories_sizes":[],"default_left":[0,0,0,0,0,0,0,0,0,0,0,0,0,0,0,0,0,0,0,0,0,0,0,0,0,0,0,0,0,0,0],"id":17,"left_children":[1,3,5,7,9,11,13,15,17,19,21,23,25,27,29,-1,-1,-1,-1,-1,-1,-1,-1,-1,-1,-1,-1,-1,-1,-1,-1],"loss_changes":[8.132856E2,2.2352943E2,1.2459387E2,8.911499E1,6.63936E1,5.1681396E1,3.460102E1,3.7410835E1,4.5254883E1,3.8304848E1,2.6649067E1,3.2518314E1,2.3956299E1,7.215149E0,3.8991837E1,0E0,0E0,0E0,0E0,0E0,0E0,0E0,0E0,0E0,0E0,0E0,0E0,0E0,0E0,0E0,0E0],"parents":[2147483647,0,0,1,1,2,2,3,3,4,4,5,5,6,6,7,7,8,8,9,9,10,10,11,11,12,12,13,13,14,14],"right_children":[2,4,6,8,10,12,14,16,18,20,22,24,26,28,30,-1,-1,-1,-1,-1,-1,-1,-1,-1,-1,-1,-1,-1,-1,-1,-1],"split_conditions":[4.0860313E-1,3.4947467E-1,-6.6292024E-1,-2.1512839E-1,9E0,4.262095E-1,4.13699E0,4.157055E0,3.0975983E-1,4.4286675E0,1E1,4.0977612E-1,5.129202E-1,4.226962E-1,9.550766E0,2.6911562E-2,-1.2052157E-2,-4.6435144E-2,-2.566708E-2,1.0214843E-2,-7.6217796E-3,-9.280061E-3,-3.544984E-2,7.381184E-2,1.025433E-2,3.7595402E-2,5.587287E-2,-8.061817E-3,-5.0695825E-2,2.489034E-2,2.2553934E-3],"split_indices":[9,9,17,20,2,9,1,1,9,1,2,9,9,9,0,0,0,0,0,0,0,0,0,0,0,0,0,0,0,0,0],"split_type":[0,0,0,0,0,0,0,0,0,0,0,0,0,0,0,0,0,0,0,0,0,0,0,0,0,0,0,0,0,0,0],"sum_hessian":[5.999154E3,4.0713948E3,1.9277589E3,1.9469528E3,2.1244421E3,1.1176781E3,8.100809E2,5.301763E2,1.4167765E3,1.4543252E3,6.701168E2,2.2901723E2,8.886609E2,4.1165264E1,7.689156E2,6.901873E1,4.6115753E2,3.5678503E2,1.0599915E3,1.0320386E3,4.2228665E2,5.5271246E2,1.1740436E2,2.0517044E1,2.0850018E2,6.079485E2,2.807124E2,2.0173885E1,2.0991379E1,4.191963E2,3.4971933E2],"tree_param":{"num_deleted":"0","num_feature":"31","num_nodes":"31","size_leaf_vector":"1"}},{"base_weights":[4.1264696E-3,4.8662347E-1,-2.637748E-1,2.4073045E-1,7.7590364E-1,-5.4526813E-2,-5.176338E-1,-8.17348E-2,3.4629312E-1,1.0917237E0,6.764054E-1,2.8393623E-1,-1.6238897E-1,-4.0045798E-1,-8.2932395E-1,5.876382E-3,-3.0372787E-2,3.902192E-2,1.1719215E-2,2.5268657E-2,5.7299383E-2,5.3136554E-2,3.15267E-2,1.9791394E-2,-3.186644E-4,-6.1708987E-3,-3.9453864E-2,-1.1330358E-2,-3.0993504E-2,-2.701129E-2,-5.3576924E-2],"categories":[],"categories_nodes":[],"categories_segments":[],"categories_sizes":[],"default_left":[0,0,0,0,0,0,0,0,0,0,0,0,0,0,0,0,0,0,0,0,0,0,0,0,0,0,0,0,0,0,0],"id":18,"left_children":[1,3,5,7,9,11,13,15,17,19,21,23,25,27,29,-1,-1,-1,-1,-1,-1,-1,-1,-1,-1,-1,-1,-1,-1,-1,-1],"loss_changes":[7.7838354E2,1.5235559E2,2.0547891E2,3.97806E1,2.917096E1,7.764109E1,6.295294E1,3.0470566E1,4.2129524E1,5.9126587E0,1.1717651E1,1.6772476E1,3.9018326E1,4.8191193E1,3.1810669E1,0E0,0E0,0E0,0E0,0E0,0E0,0E0,0E0,0E0,0E0,0E0,0E0,0E0,0E0,0E0,0E0],"parents":[2147483647,0,0,1,1,2,2,3,3,4,4,5,5,6,6,7,7,8,8,9,9,10,10,11,11,12,12,13,13,14,14],"right_children":[2,4,6,8,10,12,14,16,18,20,22,24,26,28,30,-1,-1,-1,-1,-1,-1,-1,-1,-1,-1,-1,-1,-1,-1,-1,-1],"split_conditions":[4.2409685E-1,5.7520676E-1,4.5986056E-1,4.29788E0,3.8033977E-1,8E0,4.8993444E-1,4.142516E-1,4.3698683E0,2.3615596E-1,-2.2372072E0,4.4253807E0,1E1,4.325241E0,8E0,5.876382E-3,-3.0372787E-2,3.902192E-2,1.1719215E-2,2.5268657E-2,5.7299383E-2,5.3136554E-2,3.15267E-2,1.9791394E-2,-3.186644E-4,-6.1708987E-3,-3.9453864E-2,-1.1330358E-2,-3.0993504E-2,-2.701129E-2,-5.3576924E-2],"split_indices":[10,7,10,1,10,2,10,10,1,5,14,1,2,1,2,0,0,0,0,0,0,0,0,0,0,0,0,0,0,0,0],"split_type":[0,0,0,0,0,0,0,0,0,0,0,0,0,0,0,0,0,0,0,0,0,0,0,0,0,0,0,0,0,0,0],"sum_hessian":[6.0174404E3,2.1479827E3,3.8694575E3,1.1634155E3,9.845671E2,2.1228645E3,1.7465931E3,2.8657224E2,8.768433E2,2.3061407E2,7.53953E2,5.117896E2,1.611075E3,1.2731721E3,4.7342102E2,2.0865776E2,7.7914474E1,1.7688622E2,6.999571E2,2.1593782E1,2.090203E2,7.485279E1,6.791002E2,3.693832E2,1.4240643E2,1.5193088E3,9.176614E1,7.131142E2,5.6005786E2,2.1914462E2,2.5427638E2],"tree_param":{"num_deleted":"0","num_feature":"31","num_nodes":"31","size_leaf_vector":"1"}},{"base_weights":[6.319488E-3,5.1186496E-1,-2.1751791E-1,7.7004343E-1,2.6394466E-1,-3.0677317E-2,-4.8253912E-1,6.7321473E-1,5.468425E-2,-6.2217355E-1,3.09451E-1,6.291292E-2,-2.5486398E-1,-3.645584E-1,-8.21221E-1,5.1086813E-2,3.0877208E-2,-1.7680617E-2,-4.3712985E-2,1.3901289E-2,7.0360765E-2,8.358414E-3,-3.5851304E-3,1.7719802E-2,-1.5480454E-2,-1.0038192E-2,-2.9052181E-2,-5.3205233E-2,-2.6886567E-2],"categories":[],"categories_nodes":[],"categories_segments":[],"categories_sizes":[],"default_left":[0,0,0,0,0,0,0,0,0,0,0,0,0,0,0,0,0,0,0,0,0,0,0,0,0,0,0,0,0],"id":19,"left_children":[1,3,5,7,9,11,13,15,-1,17,19,21,23,25,27,-1,-1,-1,-1,-1,-1,-1,-1,-1,-1,-1,-1,-1,-1],"loss_changes":[6.742979E2,1.1644269E2,2.0434872E2,2.6203064E1,3.8080383E1,5.0942406E1,6.7370026E1,1.1877869E1,0E0,2.2630405E0,2.9658241E1,2.4062706E1,2.4062096E1,4.4642776E1,2.875998E1,0E0,0E0,0E0,0E0,0E0,0E0,0E0,0E0,0E0,0E0,0E0,0E0,0E0,0E0],"parents":[2147483647,0,0,1,1,2,2,3,3,4,4,5,5,6,6,7,7,9,9,10,10,11,11,12,12,13,13,14,14],"right_children":[2,4,6,8,10,12,14,16,-1,18,20,22,24,26,28,-1,-1,-1,-1,-1,-1,-1,-1,-1,-1,-1,-1,-1,-1],"split_conditions":[4.1587272E-1,-8.0880964E-1,4.601933E-1,2.1813233E0,3.8937148E-1,1.9043174E-1,4.9044862E-1,3.7710437E-1,5.468425E-2,3.926776E-1,5.181587E0,4.378004E0,4.14481E0,4.3273687E0,-9.719535E-2,5.1086813E-2,3.0877208E-2,-1.7680617E-2,-4.3712985E-2,1.3901289E-2,7.0360765E-2,8.358414E-3,-3.5851304E-3,1.7719802E-2,-1.5480454E-2,-1.0038192E-2,-2.9052181E-2,-5.3205233E-2,-2.6886567E-2],"split_indices":[10,17,10,4,7,17,10,10,0,10,1,1,1,1,5,0,0,0,0,0,0,0,0,0,0,0,0,0,0],"split_type":[0,0,0,0,0,0,0,0,0,0,0,0,0,0,0,0,0,0,0,0,0,0,0,0,0,0,0,0,0],"sum_hessian":[5.9543135E3,1.82678E3,4.1275337E3,8.924179E2,9.3436206E2,2.4225889E3,1.7049448E3,6.921234E2,2.0029453E2,4.4187405E1,8.901747E2,1.7094844E3,7.1310443E2,1.267983E3,4.3696185E2,9.0053154E1,6.0207025E2,2.4105429E1,2.0081976E1,8.6801514E2,2.2159567E1,9.639435E2,7.455409E2,5.758945E1,6.55515E2,7.2455615E2,5.434269E2,2.319892E2,2.0497264E2],"tree_param":{"num_deleted":"0","num_feature":"31","num_nodes":"29","size_leaf_vector":"1"}},{"base_weights":[3.0934744E-4,-2.450669E-1,4.4557002E-1,-1.6026434E-1,-7.214168E-1,2.9837018E-1,7.949123E-1,-3.831104E-2,-3.8051233E-1,1.8680513E-2,-7.6609063E-1,1.4881094E-1,4.8527873E-1,6.4036876E-1,1.1328433E0,-1.1299062E-2,4.5325253E-3,-1.582013E-2,-3.7957758E-2,-5.3955078E-2,-3.2098047E-2,1.2517097E-2,-2.2391284E-2,3.2100238E-2,1.33654205E-2,3.461063E-2,-3.6036983E-4,6.1858393E-2,4.890531E-2],"categories":[],"categories_nodes":[],"categories_segments":[],"categories_sizes":[],"default_left":[0,0,0,0,0,0,0,0,0,0,0,0,0,0,0,0,0,0,0,0,0,0,0,0,0,0,0,0,0],"id":20,"left_children":[1,3,5,7,9,11,13,15,17,-1,19,21,23,25,27,-1,-1,-1,-1,-1,-1,-1,-1,-1,-1,-1,-1,-1,-1],"loss_changes":[6.448245E2,1.5327846E2,1.07144196E2,8.6711845E1,2.8731384E1,4.1072266E1,3.0577545E1,5.0488834E1,2.7249146E1,0E0,1.9731293E1,5.0164513E1,2.1882507E1,1.45997925E1,2.2938538E-1,0E0,0E0,0E0,0E0,0E0,0E0,0E0,0E0,0E0,0E0,0E0,0E0,0E0,0E0],"parents":[2147483647,0,0,1,1,2,2,3,3,4,4,5,5,6,6,7,7,8,8,10,10,11,11,12,12,13,13,14,14],"right_children":[2,4,6,8,10,12,14,16,18,-1,20,22,24,26,28,-1,-1,-1,-1,-1,-1,-1,-1,-1,-1,-1,-1,-1,-1],"split_conditions":[4.008493E-1,4.8496625E-1,2.878336E-1,1.8227078E-1,4.00376E0,4.365953E-1,5.1547325E-1,3.5333607E-1,1.1842535E0,1.8680513E-2,-8.3105063E-1,9.626985E0,1.001629E1,1.0262891E1,3.7710437E-1,-1.1299062E-2,4.5325253E-3,-1.582013E-2,-3.7957758E-2,-5.3955078E-2,-3.2098047E-2,1.2517097E-2,-2.2391284E-2,3.2100238E-2,1.33654205E-2,3.461063E-2,-3.6036983E-4,6.1858393E-2,4.890531E-2],"split_indices":[9,10,5,17,1,9,9,9,4,0,3,0,0,0,10,0,0,0,0,0,0,0,0,0,0,0,0,0,0],"split_type":[0,0,0,0,0,0,0,0,0,0,0,0,0,0,0,0,0,0,0,0,0,0,0,0,0,0,0,0,0],"sum_hessian":[5.8975728E3,3.8025156E3,2.0950571E3,3.2304968E3,5.7201886E2,1.4769894E3,6.1806775E2,2.0813115E3,1.1491852E3,2.1669199E1,5.503497E2,8.230606E2,6.5392883E2,4.2849088E2,1.8957689E2,8.477202E2,1.2335913E3,9.863768E2,1.6280838E2,1.5144968E2,3.989E2,7.046455E2,1.1841509E2,3.7760986E2,2.7631897E2,3.968877E2,3.160316E1,1.041054E2,8.547149E1],"tree_param":{"num_deleted":"0","num_feature":"31","num_nodes":"29","size_leaf_vector":"1"}},{"base_weights":[2.7240018E-4,-2.1634027E-1,4.6341988E-1,-4.377608E-1,-4.815699E-2,2.4818622E-1,6.9462234E-1,-3.4594917E-1,-8.2856256E-1,3.2993764E-2,-2.9391408E-1,4.680292E-1,5.1796235E-2,8.6501884E-1,3.325224E-1,-4.8069074E-3,-2.4236498E-2,-5.1531207E-2,-2.950967E-2,6.7768777E-3,-9.055575E-3,-1.0844223E-2,-3.738789E-2,1.9673964E-2,6.3518174E-2,-4.6325088E-2,5.8568674E-3,3.7044343E-2,5.6324493E-2,3.3243593E-2,2.741114E-3],"categories":[],"categories_nodes":[],"categories_segments":[],"categories_sizes":[],"default_left":[0,0,0,0,0,0,0,0,0,0,0,0,0,0,0,0,0,0,0,0,0,0,0,0,0,0,0,0,0,0,0],"id":21,"left_children":[1,3,5,7,9,11,13,15,17,19,21,23,25,27,29,-1,-1,-1,-1,-1,-1,-1,-1,-1,-1,-1,-1,-1,-1,-1,-1],"loss_changes":[5.9079175E2,1.4925278E2,9.2855194E1,6.130014E1,4.5596134E1,4.1963245E1,5.4914276E1,4.851927E1,1.4231186E1,3.7742E1,1.932088E1,2.6153313E1,3.3163754E1,1.7839386E1,2.679287E1,0E0,0E0,0E0,0E0,0E0,0E0,0E0,0E0,0E0,0E0,0E0,0E0,0E0,0E0,0E0,0E0],"parents":[2147483647,0,0,1,1,2,2,3,3,4,4,5,5,6,6,7,7,8,8,9,9,10,10,11,11,12,12,13,13,14,14],"right_children":[2,4,6,8,10,12,14,16,18,20,22,24,26,28,30,-1,-1,-1,-1,-1,-1,-1,-1,-1,-1,-1,-1,-1,-1,-1,-1],"split_conditions":[4.0860313E-1,3.444544E-1,4.474621E-1,8.4773713E-1,1.9076817E-1,9.104004E0,-6.6292024E-1,4.2457895E0,3.1602997E-1,4.4286675E0,1.2041996E0,4.566311E0,9.13772E0,1.0641913E1,1.001629E1,-4.8069074E-3,-2.4236498E-2,-5.1531207E-2,-2.950967E-2,6.7768777E-3,-9.055575E-3,-1.0844223E-2,-3.738789E-2,1.9673964E-2,6.3518174E-2,-4.6325088E-2,5.8568674E-3,3.7044343E-2,5.6324493E-2,3.3243593E-2,2.741114E-3],"split_indices":[9,9,9,17,20,0,17,1,9,1,4,1,0,0,0,0,0,0,0,0,0,0,0,0,0,0,0,0,0,0,0],"split_type":[0,0,0,0,0,0,0,0,0,0,0,0,0,0,0,0,0,0,0,0,0,0,0,0,0,0,0,0,0,0,0],"sum_hessian":[5.8843687E3,4.009685E3,1.8746837E3,1.7289945E3,2.2806907E3,9.734657E2,9.01218E2,1.4035409E3,3.2545367E2,1.7152278E3,5.654628E2,4.5752173E2,5.159439E2,6.1056775E2,2.9065027E2,5.0298108E2,9.0055975E2,1.7208975E2,1.5336394E2,1.1608954E3,5.5433234E2,4.8631787E2,7.914495E1,4.215802E2,3.594155E1,3.0460749E1,4.854832E2,4.197335E2,1.9083424E2,1.307095E2,1.5994077E2],"tree_param":{"num_deleted":"0","num_feature":"31","num_nodes":"31","size_leaf_vector":"1"}},{"base_weights":[7.7873265E-4,2.671263E-1,-3.4358904E-1,1.5183493E-1,6.9864225E-1,-7.32337E-2,-4.745824E-1,-3.0459923E-1,2.0969161E-1,9.740124E-1,5.1889443E-1,3.042209E-1,-2.1655373E-1,-3.792208E-1,-8.4218436E-1,-1.9424258E-2,3.459798E-2,4.1641563E-2,9.112625E-3,4.1388836E-2,5.9157044E-2,2.9049689E-2,-1.5015162E-2,4.5290034E-2,9.405767E-3,2.4990669E-2,-1.4329664E-2,-1.4697692E-2,-3.924358E-2,-2.7616505E-2,-5.0372154E-2],"categories":[],"categories_nodes":[],"categories_segments":[],"categories_sizes":[],"default_left":[0,0,0,0,0,0,0,0,0,0,0,0,0,0,0,0,0,0,0,0,0,0,0,0,0,0,0,0,0,0,0],"id":22,"left_children":[1,3,5,7,9,11,13,15,17,19,21,23,25,27,29,-1,-1,-1,-1,-1,-1,-1,-1,-1,-1,-1,-1,-1,-1,-1,-1],"loss_changes":[5.381638E2,1.6423508E2,9.0434784E1,6.914252E1,3.3177216E1,4.5445293E1,5.950586E1,2.5097393E1,3.918963E1,5.9713135E0,2.2090843E1,1.557917E1,3.0794935E1,4.6775467E1,1.5473175E1,0E0,0E0,0E0,0E0,0E0,0E0,0E0,0E0,0E0,0E0,0E0,0E0,0E0,0E0,0E0,0E0],"parents":[2147483647,0,0,1,1,2,2,3,3,4,4,5,5,6,6,7,7,8,8,9,9,10,10,11,11,12,12,13,13,14,14],"right_children":[2,4,6,8,10,12,14,16,18,20,22,24,26,28,30,-1,-1,-1,-1,-1,-1,-1,-1,-1,-1,-1,-1,-1,-1,-1,-1],"split_conditions":[4.4734076E-1,2.878336E-1,-2.1512839E-1,-1.4963782E-1,3.9106172E-1,4.238282E0,4.9044862E-1,4.8585935E0,8.272629E0,5.0542006E0,4.8181024E0,2.7731767E-1,2.4265866E-1,4.466311E0,8E0,-1.9424258E-2,3.459798E-2,4.1641563E-2,9.112625E-3,4.1388836E-2,5.9157044E-2,2.9049689E-2,-1.5015162E-2,4.5290034E-2,9.405767E-3,2.4990669E-2,-1.4329664E-2,-1.4697692E-2,-3.924358E-2,-2.7616505E-2,-5.0372154E-2],"split_indices":[10,5,20,5,10,1,10,1,0,1,1,4,4,1,2,0,0,0,0,0,0,0,0,0,0,0,0,0,0,0,0],"split_type":[0,0,0,0,0,0,0,0,0,0,0,0,0,0,0,0,0,0,0,0,0,0,0,0,0,0,0,0,0,0,0],"sum_hessian":[5.8635327E3,3.3068862E3,2.5566465E3,2.6121465E3,6.947396E2,8.3596185E2,1.7206846E3,2.9251276E2,2.3196338E3,2.7045612E2,4.2428354E2,2.290593E2,6.069025E2,1.3699149E3,3.5076968E2,2.7111273E2,2.140003E1,9.505059E1,2.2245833E3,1.655594E2,1.04896706E2,3.951545E2,2.9129023E1,3.4577377E1,1.9448192E2,5.2705093E1,5.5419745E2,1.1352334E3,2.3468147E2,1.3096289E2,2.198068E2],"tree_param":{"num_deleted":"0","num_feature":"31","num_nodes":"31","size_leaf_vector":"1"}},{"base_weights":[2.6130248E-3,2.6173788E-1,-3.3368343E-1,9.985335E-2,5.4884744E-1,-2.3940343E-1,-6.669659E-1,1.4432676E-1,-4.6126533E-1,4.6186027E-1,1.064347E0,-1.8597174E-1,-1.0501827E0,3.1067332E-2,-7.1929395E-1,3.9140668E-2,5.2134707E-3,-6.0691264E-2,-1.599044E-2,4.9372192E-2,2.1145497E-2,4.2498693E-2,6.000778E-2,-2.973408E-3,-1.9389572E-2,-7.247908E-2,-4.1985884E-2,-5.0394293E-2,-3.0620506E-2],"categories":[],"categories_nodes":[],"categories_segments":[],"categories_sizes":[],"default_left":[0,0,0,0,0,0,0,0,0,0,0,0,0,0,0,0,0,0,0,0,0,0,0,0,0,0,0,0,0],"id":23,"left_children":[1,3,5,7,9,11,13,15,17,19,21,23,25,-1,27,-1,-1,-1,-1,-1,-1,-1,-1,-1,-1,-1,-1,-1,-1],"loss_changes":[5.0912198E2,1.5315044E2,7.938403E1,5.2804886E1,5.2028717E1,8.536863E1,3.8599045E1,4.9785473E1,1.54531975E1,1.9788391E1,2.4933777E0,4.748548E1,7.3700256E0,0E0,1.5044708E1,0E0,0E0,0E0,0E0,0E0,0E0,0E0,0E0,0E0,0E0,0E0,0E0,0E0,0E0],"parents":[2147483647,0,0,1,1,2,2,3,3,4,4,5,5,6,6,7,7,8,8,9,9,10,10,11,11,12,12,14,14],"right_children":[2,4,6,8,10,12,14,16,18,20,22,24,26,-1,28,-1,-1,-1,-1,-1,-1,-1,-1,-1,-1,-1,-1,-1,-1],"split_conditions":[4.4734076E-1,5.7056606E-1,4.8445845E-1,1.1490617E0,1.0641913E1,8.625476E0,4.00376E0,8.272629E0,3.11904E-1,-2.2372072E0,5.0542006E0,1.8227078E-1,-4.270576E-1,3.1067332E-2,4.219483E-1,3.9140668E-2,5.2134707E-3,-6.0691264E-2,-1.599044E-2,4.9372192E-2,2.1145497E-2,4.2498693E-2,6.000778E-2,-2.973408E-3,-1.9389572E-2,-7.247908E-2,-4.1985884E-2,-5.0394293E-2,-3.0620506E-2],"split_indices":[10,7,10,4,0,0,1,0,7,14,1,17,17,0,7,0,0,0,0,0,0,0,0,0,0,0,0,0,0],"split_type":[0,0,0,0,0,0,0,0,0,0,0,0,0,0,0,0,0,0,0,0,0,0,0,0,0,0,0,0,0],"sum_hessian":[5.83855E3,3.2982239E3,2.5403262E3,2.1112205E3,1.1870033E3,1.983316E3,5.5701E2,1.9578835E3,1.5333687E2,1.0191999E3,1.6780347E2,1.8632314E3,1.2008458E2,2.0743204E1,5.362668E2,1.1309822E2,1.8447854E3,2.1639162E1,1.3169771E2,6.660573E1,9.525941E2,7.127934E1,9.6524124E1,1.1475256E3,7.157059E2,3.7049866E1,8.303471E1,1.398726E2,3.963942E2],"tree_param":{"num_deleted":"0","num_feature":"31","num_nodes":"29","size_leaf_vector":"1"}},{"base_weights":[-6.672264E-4,-2.7393332E-1,3.0079994E-1,-2.5704527E-2,-4.0557793E-1,1.2728602E-1,6.0476E-1,1.8305296E-1,-2.1352427E-1,-5.214919E-1,-1.8179964E-1,3.215625E-1,-6.864677E-2,4.5427954E-1,8.4419596E-1,1.4132655E-2,-1.3037455E-2,-1.5541493E-2,1.5165247E-2,-3.9218742E-2,-2.1767441E-2,-1.0774365E-3,-4.1758828E-2,3.7387196E-2,1.1702363E-2,8.347202E-3,-1.2393481E-2,2.982358E-2,1.3260911E-2,1.7669063E-2,4.6300434E-2],"categories":[],"categories_nodes":[],"categories_segments":[],"categories_sizes":[],"default_left":[0,0,0,0,0,0,0,0,0,0,0,0,0,0,0,0,0,0,0,0,0,0,0,0,0,0,0,0,0,0,0],"id":24,"left_children":[1,3,5,7,9,11,13,15,17,19,21,23,25,27,29,-1,-1,-1,-1,-1,-1,-1,-1,-1,-1,-1,-1,-1,-1,-1,-1],"loss_changes":[4.7856564E2,9.947899E1,1.4535834E2,4.159728E1,5.1307373E1,6.713078E1,3.5099945E1,2.234188E1,2.8290356E1,2.8733551E1,7.130153E1,3.246724E1,3.7168514E1,1.6193604E1,1.4513855E1,0E0,0E0,0E0,0E0,0E0,0E0,0E0,0E0,0E0,0E0,0E0,0E0,0E0,0E0,0E0,0E0],"parents":[2147483647,0,0,1,1,2,2,3,3,4,4,5,5,6,6,7,7,8,8,9,9,10,10,11,11,12,12,13,13,14,14],"right_children":[2,4,6,8,10,12,14,16,18,20,22,24,26,28,30,-1,-1,-1,-1,-1,-1,-1,-1,-1,-1,-1,-1,-1,-1,-1,-1],"split_conditions":[3.7497857E-1,-1.8685581E-1,4.388943E-1,4.3206916E0,3.4947467E-1,9.0102415E0,1.3702396E0,8.486979E0,5.722183E-1,-2.0663518E-1,8.634731E0,8.58937E0,8.75E0,1.001629E1,4.6182948E-1,1.4132655E-2,-1.3037455E-2,-1.5541493E-2,1.5165247E-2,-3.9218742E-2,-2.1767441E-2,-1.0774365E-3,-4.1758828E-2,3.7387196E-2,1.1702363E-2,8.347202E-3,-1.2393481E-2,2.982358E-2,1.3260911E-2,1.7669063E-2,4.6300434E-2],"split_indices":[9,20,9,1,9,0,3,0,7,5,0,0,2,0,9,0,0,0,0,0,0,0,0,0,0,0,0,0,0,0,0],"split_type":[0,0,0,0,0,0,0,0,0,0,0,0,0,0,0,0,0,0,0,0,0,0,0,0,0,0,0,0,0,0,0],"sum_hessian":[5.805257E3,3.0454988E3,2.759758E3,1.0567683E3,1.9887303E3,1.759088E3,1.00067017E3,5.0000723E2,5.567611E2,1.3077698E3,6.809606E2,8.8314606E2,8.7594196E2,6.185528E2,3.821174E2,4.0932214E2,9.06851E1,4.695425E2,8.721857E1,3.181965E2,9.895733E2,5.4874445E2,1.322161E2,1.4749615E2,7.356499E2,3.780333E2,4.9790866E2,3.4997256E2,2.685802E2,5.6463295E1,3.256541E2],"tree_param":{"num_deleted":"0","num_feature":"31","num_nodes":"31","size_leaf_vector":"1"}},{"base_weights":[-9.3472964E-4,-1.7107919E-1,4.2921847E-1,-3.6175123E-1,-1.823978E-2,-6.477444E-1,4.6460852E-1,-3.286225E-2,-4.8817626E-1,1.4958418E-2,-6.4769715E-1,-5.7252478E-2,4.3446603E-3,3.7642646E-1,8.3574545E-1,5.4534495E-2,-4.5923046E-3,-3.781711E-2,-2.0246794E-2,-2.2946454E-3,1.0731018E-2,-1.3165995E-2,-5.038442E-2,2.8148089E-2,6.3666687E-3,4.6881944E-2,-1.4414093E-2],"categories":[],"categories_nodes":[],"categories_segments":[],"categories_sizes":[],"default_left":[0,0,0,0,0,0,0,0,0,0,0,0,0,0,0,0,0,0,0,0,0,0,0,0,0,0,0],"id":25,"left_children":[1,3,5,7,9,11,13,15,17,19,21,-1,-1,23,25,-1,-1,-1,-1,-1,-1,-1,-1,-1,-1,-1,-1],"loss_changes":[4.221116E2,1.2037348E2,6.2864746E1,7.63078E1,4.8148586E1,1.9649399E1,5.096582E1,3.4002426E1,2.8786255E1,2.6584661E1,1.5187435E1,0E0,0E0,5.9374313E1,3.5260056E1,0E0,0E0,0E0,0E0,0E0,0E0,0E0,0E0,0E0,0E0,0E0,0E0],"parents":[2147483647,0,0,1,1,2,2,3,3,4,4,5,5,6,6,7,7,8,8,9,9,10,10,13,13,14,14],"right_children":[2,4,6,8,10,12,14,16,18,20,22,-1,-1,24,26,-1,-1,-1,-1,-1,-1,-1,-1,-1,-1,-1,-1],"split_conditions":[4.136609E-1,3.4947467E-1,4.13699E0,-2.2380315E-1,1E1,1.6477288E-1,5.1547325E-1,4.062798E0,3.0975983E-1,1.8790637E-1,4.3837256E0,-5.7252478E-2,4.3446603E-3,9E0,4.8978353E-1,5.4534495E-2,-4.5923046E-3,-3.781711E-2,-2.0246794E-2,-2.2946454E-3,1.0731018E-2,-1.3165995E-2,-5.038442E-2,2.8148089E-2,6.3666687E-3,4.6881944E-2,-1.4414093E-2],"split_indices":[9,9,1,20,2,5,9,1,9,5,1,0,0,2,14,0,0,0,0,0,0,0,0,0,0,0,0],"split_type":[0,0,0,0,0,0,0,0,0,0,0,0,0,0,0,0,0,0,0,0,0,0,0,0,0,0,0],"sum_hessian":[5.7641816E3,4.1316157E3,1.6325658E3,1.8364917E3,2.2951243E3,5.0660053E1,1.5819056E3,5.1106946E2,1.3254222E3,2.1816943E3,1.13429955E2,2.970589E1,2.0954163E1,1.281895E3,3.0001065E2,2.3577656E1,4.874918E2,3.0956323E2,1.01585895E3,1.6725017E3,5.0919266E2,5.6800377E1,5.6629578E1,7.310898E2,5.508053E2,2.7554224E2,2.4468416E1],"tree_param":{"num_deleted":"0","num_feature":"31","num_nodes":"27","size_leaf_vector":"1"}},{"base_weights":[-6.1529577E-3,3.8685632E-1,-1.7572331E-1,1.7249785E-1,6.37786E-1,-3.424459E-2,-3.883789E-1,2.2893105E-1,-3.9923647E-1,5.460813E-1,1.0487127E0,-1.250303E-1,1.5112966E-1,-8.799917E-2,-5.1181924E-1,1.0063117E-2,5.9349425E-2,-3.352409E-2,1.4565672E-2,3.079529E-2,1.695676E-2,4.210628E-2,5.69884E-2,-7.7458686E-4,-1.4529401E-2,1.9286953E-2,-1.6510977E-3,5.1592566E-2,-7.706374E-3,-2.0482127E-2,-3.7831884E-2],"categories":[],"categories_nodes":[],"categories_segments":[],"categories_sizes":[],"default_left":[0,0,0,0,0,0,0,0,0,0,0,0,0,0,0,0,0,0,0,0,0,0,0,0,0,0,0,0,0,0,0],"id":26,"left_children":[1,3,5,7,9,11,13,15,17,19,21,23,25,27,29,-1,-1,-1,-1,-1,-1,-1,-1,-1,-1,-1,-1,-1,-1,-1,-1],"loss_changes":[3.8098782E2,9.229614E1,1.2006729E2,3.0231932E1,2.840451E1,4.044671E1,5.8932846E1,2.1782112E1,1.6232944E1,8.820877E0,3.5588074E-1,2.9195637E1,3.42109E1,3.4759483E1,2.7403442E1,0E0,0E0,0E0,0E0,0E0,0E0,0E0,0E0,0E0,0E0,0E0,0E0,0E0,0E0,0E0,0E0],"parents":[2147483647,0,0,1,1,2,2,3,3,4,4,5,5,6,6,7,7,8,8,9,9,10,10,11,11,12,12,13,13,14,14],"right_children":[2,4,6,8,10,12,14,16,18,20,22,24,26,28,30,-1,-1,-1,-1,-1,-1,-1,-1,-1,-1,-1,-1,-1,-1,-1,-1],"split_conditions":[4.1587272E-1,7.5206764E-2,4.601933E-1,7.8094894E-1,1.0707567E1,1.3388109E-1,-2.2380315E-1,5.181587E0,4.8181024E0,1.0069682E1,5.0260887E0,8.625476E0,8.58937E0,4.062798E0,4.9044862E-1,1.0063117E-2,5.9349425E-2,-3.352409E-2,1.4565672E-2,3.079529E-2,1.695676E-2,4.210628E-2,5.69884E-2,-7.7458686E-4,-1.4529401E-2,1.9286953E-2,-1.6510977E-3,5.1592566E-2,-7.706374E-3,-2.0482127E-2,-3.7831884E-2],"split_indices":[10,8,10,20,0,5,20,1,1,0,1,0,0,1,10,0,0,0,0,0,0,0,0,0,0,0,0,0,0,0,0],"split_type":[0,0,0,0,0,0,0,0,0,0,0,0,0,0,0,0,0,0,0,0,0,0,0,0,0,0,0,0,0,0,0],"sum_hessian":[5.713464E3,1.7209999E3,3.9924639E3,9.303842E2,7.9061566E2,2.3994104E3,1.5930535E3,8.482103E2,8.2173874E1,6.5057446E2,1.4004121E2,1.6117819E3,7.876286E2,4.654568E2,1.1275967E3,8.269567E2,2.1253628E1,5.924889E1,2.2924984E1,4.827679E2,1.6780655E2,4.9784077E1,9.025713E1,9.7204156E2,6.397403E2,3.4587726E2,4.4175137E2,2.4155931E1,4.4130087E2,7.9991144E2,3.2768524E2],"tree_param":{"num_deleted":"0","num_feature":"31","num_nodes":"31","size_leaf_vector":"1"}},{"base_weights":[1.2653493E-3,2.2339568E-1,-2.8704998E-1,8.049784E-2,4.875108E-1,-6.917552E-2,-4.0729642E-1,1.3108432E-1,-3.3944005E-1,3.3726445E-1,8.2994455E-1,1.5639913E-1,-2.7524874E-1,-3.2295474E-1,-7.431734E-1,3.6997277E-2,4.756591E-3,-2.2701329E-2,3.298789E-2,1.9575601E-2,-2.0488432E-2,4.9214214E-2,3.2744657E-2,1.3956912E-2,-1.616076E-2,-8.429611E-3,-4.1945025E-2,-1.1475289E-2,-3.496712E-2,1.6508179E-2,-4.1903522E-2],"categories":[],"categories_nodes":[],"categories_segments":[],"categories_sizes":[],"default_left":[0,0,0,0,0,0,0,0,0,0,0,0,0,0,0,0,0,0,0,0,0,0,0,0,0,0,0,0,0,0,0],"id":27,"left_children":[1,3,5,7,9,11,13,15,17,19,21,23,25,27,29,-1,-1,-1,-1,-1,-1,-1,-1,-1,-1,-1,-1,-1,-1,-1,-1],"loss_changes":[3.6512314E2,1.2136154E2,6.483858E1,4.450566E1,5.7337555E1,4.1258564E1,4.4560425E1,4.0619987E1,2.6334572E1,3.2294388E1,7.6441345E0,2.5097195E1,2.7397202E1,4.454474E1,3.3107758E1,0E0,0E0,0E0,0E0,0E0,0E0,0E0,0E0,0E0,0E0,0E0,0E0,0E0,0E0,0E0,0E0],"parents":[2147483647,0,0,1,1,2,2,3,3,4,4,5,5,6,6,7,7,8,8,9,9,10,10,11,11,12,12,13,13,14,14],"right_children":[2,4,6,8,10,12,14,16,18,20,22,24,26,28,30,-1,-1,-1,-1,-1,-1,-1,-1,-1,-1,-1,-1,-1,-1,-1,-1],"split_conditions":[4.4734076E-1,5.7056606E-1,-1.6500948E-1,7.042903E-1,4.7812223E-1,4.3206916E0,4.8993444E-1,8.272629E0,4.8585935E0,4.8181024E0,-1.8602818E0,4.8227355E-1,8.541691E0,4.437942E0,2.9436988E-1,3.6997277E-2,4.756591E-3,-2.2701329E-2,3.298789E-2,1.9575601E-2,-2.0488432E-2,4.9214214E-2,3.2744657E-2,1.3956912E-2,-1.616076E-2,-8.429611E-3,-4.1945025E-2,-1.1475289E-2,-3.496712E-2,1.6508179E-2,-4.1903522E-2],"split_indices":[10,7,20,20,9,1,10,0,1,1,17,10,0,1,9,0,0,0,0,0,0,0,0,0,0,0,0,0,0,0,0],"split_type":[0,0,0,0,0,0,0,0,0,0,0,0,0,0,0,0,0,0,0,0,0,0,0,0,0,0,0,0,0,0,0],"sum_hessian":[5.6973633E3,3.2186914E3,2.478672E3,2.0908286E3,1.1278629E3,8.832059E2,1.5954662E3,1.8676946E3,2.2313397E2,7.8707806E2,3.407848E2,4.2141855E2,4.6178732E2,1.2788534E3,3.1661282E2,1.01642265E2,1.7660524E3,2.013364E2,2.179758E1,7.34929E2,5.214906E1,1.7558574E2,1.6519904E2,3.3654547E2,8.487308E1,3.907929E2,7.099441E1,1.0274984E3,2.5135495E2,2.5144863E1,2.9146796E2],"tree_param":{"num_deleted":"0","num_feature":"31","num_nodes":"31","size_leaf_vector":"1"}},{"base_weights":[1.5631634E-3,3.6803994E-1,-1.5561736E-1,1.7689633E-1,6.01921E-1,-3.489513E-2,-3.9100805E-1,-6.0036546E-1,2.1717268E-1,5.1118433E-1,9.3076587E-1,4.0399373E-2,-2.1412116E-1,-1.2472789E-1,-4.93576E-1,-4.3036968E-2,-1.5768318E-2,9.296703E-3,6.243925E-2,2.7838636E-2,-2.32926E-2,4.9908243E-2,3.391055E-2,7.5082737E-3,-5.339492E-3,-3.979445E-3,-1.897522E-2,1.7954156E-2,-1.2346379E-2,-1.9455092E-2,-3.559388E-2],"categories":[],"categories_nodes":[],"categories_segments":[],"categories_sizes":[],"default_left":[0,0,0,0,0,0,0,0,0,0,0,0,0,0,0,0,0,0,0,0,0,0,0,0,0,0,0,0,0,0,0],"id":28,"left_children":[1,3,5,7,9,11,13,15,17,19,21,23,25,27,29,-1,-1,-1,-1,-1,-1,-1,-1,-1,-1,-1,-1,-1,-1,-1,-1],"loss_changes":[3.257602E2,7.552394E1,1.1233035E2,2.9531973E1,2.1501709E1,3.53849E1,3.6368256E1,2.670372E0,2.8026657E1,2.7362335E1,1.066803E0,2.9842928E1,1.7105793E1,2.238558E1,2.127127E1,0E0,0E0,0E0,0E0,0E0,0E0,0E0,0E0,0E0,0E0,0E0,0E0,0E0,0E0,0E0,0E0],"parents":[2147483647,0,0,1,1,2,2,3,3,4,4,5,5,6,6,7,7,8,8,9,9,10,10,11,11,12,12,13,13,14,14],"right_children":[2,4,6,8,10,12,14,16,18,20,22,24,26,28,30,-1,-1,-1,-1,-1,-1,-1,-1,-1,-1,-1,-1,-1,-1,-1,-1],"split_conditions":[4.1587272E-1,5.7520676E-1,4.6430236E-1,3.8937148E-1,2.1813233E0,1.9043174E-1,-2.2380315E-1,-3.6941698E-1,5.181587E0,2.0924604E0,3.9106172E-1,4.378004E0,4.4931778E-1,5.214661E-1,4.9044862E-1,-4.3036968E-2,-1.5768318E-2,9.296703E-3,6.243925E-2,2.7838636E-2,-2.32926E-2,4.9908243E-2,3.391055E-2,7.5082737E-3,-5.339492E-3,-3.979445E-3,-1.897522E-2,1.7954156E-2,-1.2346379E-2,-1.9455092E-2,-3.559388E-2],"split_indices":[10,7,10,7,4,17,20,5,1,4,10,1,10,7,10,0,0,0,0,0,0,0,0,0,0,0,0,0,0,0,0],"split_type":[0,0,0,0,0,0,0,0,0,0,0,0,0,0,0,0,0,0,0,0,0,0,0,0,0,0,0,0,0,0,0],"sum_hessian":[5.650538E3,1.6956372E3,3.954901E3,9.354728E2,7.601644E2,2.6162698E3,1.3386311E3,4.4471634E1,8.910011E2,6.0025574E2,1.599087E2,1.8426069E3,7.736628E2,3.740164E2,9.6461475E2,2.0761745E1,2.370989E1,8.6729266E2,2.3708464E1,5.745139E2,2.5741774E1,1.2093778E2,3.897092E1,1.0562378E3,7.863691E2,4.2892352E2,3.447393E2,7.4307144E1,2.9970923E2,6.5677716E2,3.078376E2],"tree_param":{"num_deleted":"0","num_feature":"31","num_nodes":"31","size_leaf_vector":"1"}}]},"name":"gbtree"},"learner_model_param":{"base_score":"[4.6983087E-1]","boost_from_average":"1","num_class":"0","num_feature":"31","num_target":"1"},"objective":{"name":"binary:logistic","reg_loss_param":{"scale_pos_weight":"1"}}},"version":[3,2,0]}