{"learner":{"attributes":{"best_iteration":"11","best_score":"2.8822213258604723","scikit_learn":"{\"_estimator_type\": \"regressor\"}"},"feature_names":["away_team_id","home_team_id","h2h_avg_total_runs","home_avg_runs_scored_10g","home_avg_runs_allowed_10g","home_avg_total_runs_10g","home_win_pct_10g","home_avg_runs_scored_30g","home_avg_runs_allowed_30g","home_avg_total_runs_30g","home_win_pct_30g","home_bullpen_era_10g","home_bullpen_era_30g","home_bullpen_era_season","home_season_avg_scored","home_season_avg_allowed","home_days_rest","away_avg_runs_scored_10g","away_avg_runs_allowed_10g","away_avg_total_runs_10g","away_win_pct_10g","away_avg_runs_scored_30g","away_avg_runs_allowed_30g","away_avg_total_runs_30g","away_win_pct_30g","away_bullpen_era_10g","away_bullpen_era_30g","away_bullpen_era_season","away_season_avg_scored","away_season_avg_allowed","away_days_rest","combined_scoring_10g","combined_allowed_10g","home_offense_vs_away_pitching_10g","away_offense_vs_home_pitching_10g","combined_scoring_30g","combined_allowed_30g","home_offense_vs_away_pitching_30g","away_offense_vs_home_pitching_30g","combined_season_scoring","combined_season_allowed","combined_bullpen_era_10g","combined_bullpen_era_30g","combined_bullpen_era_season","park_factor","league_avg_total_runs_7d","league_avg_total_runs_30d","league_avg_total_runs_season","is_dome","temp_f","wind_mph","precip_mm","humidity_pct","dew_point_f","first_pitch_local_hour","is_night_game","home_dc_attack","home_dc_defense","away_dc_attack","away_dc_defense","dc_lambda_home","dc_lambda_away","dc_expected_total","dc_home_edge","dc_fit_n_games","home_rolling_ops_10g","home_rolling_ops_30g","home_rolling_bb_pct_10g","home_rolling_bb_pct_30g","home_rolling_k_pct_10g","home_rolling_k_pct_30g","away_rolling_ops_10g","away_rolling_ops_30g","away_rolling_bb_pct_10g","away_rolling_bb_pct_30g","away_rolling_k_pct_10g","away_rolling_k_pct_30g","home_lineup_confirmed","home_lineup_batters_known","home_lineup_batters_with_sample","home_lineup_low_pa_batters","home_lineup_platoon_adv_batters","home_lineup_avg_pre_pa","home_lineup_avg_ops","home_lineup_avg_obp","home_lineup_avg_slg","home_lineup_avg_bb_pct","home_lineup_avg_k_pct","home_lineup_top3_avg_ops","home_lineup_mid3_avg_ops","home_lineup_bottom3_avg_ops","home_lineup_std_ops","away_lineup_confirmed","away_lineup_batters_known","away_lineup_batters_with_sample","away_lineup_low_pa_batters","away_lineup_platoon_adv_batters","away_lineup_avg_pre_pa","away_lineup_avg_ops","away_lineup_avg_obp","away_lineup_avg_slg","away_lineup_avg_bb_pct","away_lineup_avg_k_pct","away_lineup_top3_avg_ops","away_lineup_mid3_avg_ops","away_lineup_bottom3_avg_ops","away_lineup_std_ops","home_lineup_delta_ops_30g","home_lineup_delta_bb_pct_30g","home_lineup_delta_k_pct_30g","home_lineup_top3_delta_ops_30g","home_lineup_depth_gap_ops","away_lineup_delta_ops_30g","away_lineup_delta_bb_pct_30g","away_lineup_delta_k_pct_30g","away_lineup_top3_delta_ops_30g","away_lineup_depth_gap_ops","home_bullpen_top2_quality_score","home_bullpen_top4_quality_score","home_bullpen_top2_used_yesterday","home_bullpen_top2_b2b","home_bullpen_top4_used_yesterday","home_bullpen_top4_b2b","home_bullpen_top4_available_score","home_bullpen_top4_burned_score","home_bullpen_top4_pitches_3d","away_bullpen_top2_quality_score","away_bullpen_top4_quality_score","away_bullpen_top2_used_yesterday","away_bullpen_top2_b2b","away_bullpen_top4_used_yesterday","away_bullpen_top4_b2b","away_bullpen_top4_available_score","away_bullpen_top4_burned_score","away_bullpen_top4_pitches_3d","ump_avg_total_runs","home_pitcher_era_3g","home_pitcher_whip_3g","home_pitcher_k9_3g","home_pitcher_hr9_3g","home_pitcher_ip_3g","home_pitcher_avg_pitches_3g","home_pitcher_prev_pitches","home_pitcher_avg_bf_3g","home_pitcher_prev_bf","home_pitcher_days_rest","home_pitcher_short_rest","home_pitcher_long_rest","home_pitcher_offseason_gap","home_pitcher_short_leash_score","home_pitcher_workhorse_score","home_pitcher_opener_flag","home_pitcher_bulk_flag","away_pitcher_era_3g","away_pitcher_whip_3g","away_pitcher_k9_3g","away_pitcher_hr9_3g","away_pitcher_ip_3g","away_pitcher_avg_pitches_3g","away_pitcher_prev_pitches","away_pitcher_avg_bf_3g","away_pitcher_prev_bf","away_pitcher_days_rest","away_pitcher_short_rest","away_pitcher_long_rest","away_pitcher_offseason_gap","away_pitcher_short_leash_score","away_pitcher_workhorse_score","away_pitcher_opener_flag","away_pitcher_bulk_flag","combined_pitcher_era","combined_pitcher_whip","combined_pitcher_k9","combined_pitcher_avg_pitches_3g","combined_pitcher_prev_pitches","combined_pitcher_avg_bf_3g","combined_pitcher_short_rest_flags","combined_pitcher_offseason_gap_flags","combined_pitcher_short_leash_score","combined_pitcher_workhorse_score","combined_pitcher_opener_flags","combined_pitcher_bulk_flags","point_prediction"],"feature_types":["int","int","float","float","float","float","float","float","float","float","float","float","float","float","float","float","float","float","float","float","float","float","float","float","float","float","float","float","float","float","float","float","float","float","float","float","float","float","float","float","float","float","float","float","float","float","float","float","int","float","float","float","float","float","float","float","float","float","float","float","float","float","float","float","int","float","float","float","float","float","float","float","float","float","float","float","float","float","float","float","float","float","float","float","float","float","float","float","float","float","float","float","float","float","float","float","float","float","float","float","float","float","float","float","float","float","float","float","float","float","float","float","float","float","float","float","float","float","float","float","float","float","float","float","float","float","float","float","float","float","float","float","float","float","float","float","float","float","float","float","float","float","float","float","float","float","float","float","float","float","float","float","float","float","float","float","float","float","float","float","float","float","float","float","float","float","float","float","float","float","float","float","float","float","float","float","float","float","float","float","float","float","float"],"gradient_booster":{"model":{"cats":{"enc":[],"feature_segments":[],"sorted_idx":[]},"gbtree_model_param":{"num_parallel_tree":"1","num_trees":"32"},"iteration_indptr":[0,1,2,3,4,5,6,7,8,9,10,11,12,13,14,15,16,17,18,19,20,21,22,23,24,25,26,27,28,29,30,31,32],"tree_info":[0,0,0,0,0,0,0,0,0,0,0,0,0,0,0,0,0,0,0,0,0,0,0,0,0,0,0,0,0,0,0,0],"trees":[{"base_weights":[-4.5403587E-3,-1.9446197E-1,9.2047393E-1,-2.907766E-1,1.7569026E-1,5.8258504E-1,1.6269288E0,8.809352E-3,-4.0672415E-1,4.3735075E-1,-1.4099939E-1,1.1646564E0,1.6929325E-1,2.2223818E0,8.737181E-1,8.9845E-2,-3.1241833E-3,-2.300038E-2,7.249842E-3,1.3195529E-2,7.305342E-2,5.6476783E-2,-1.3697192E-2,1.550568E-1,4.4130336E-2,7.637907E-2,-1.0218738E-3,1.3196747E-1,3.1627536E-2,5.8470108E-2,-4.9880225E-2],"categories":[],"categories_nodes":[],"categories_segments":[],"categories_sizes":[],"default_left":[0,0,0,1,0,0,0,1,0,0,0,1,0,0,1,0,0,0,0,0,0,0,0,0,0,0,0,0,0,0,0],"id":0,"left_children":[1,3,5,7,9,11,13,15,17,19,21,23,25,27,29,-1,-1,-1,-1,-1,-1,-1,-1,-1,-1,-1,-1,-1,-1,-1,-1],"loss_changes":[1.0911869E3,1.8387085E2,2.5021039E2,1.4219278E2,8.8434006E1,1.7230533E2,1.4843634E2,1.4627924E2,8.691931E1,1.0257523E2,8.2031555E1,1.5649173E2,1.0937477E2,1.2129608E2,8.7578865E1,0E0,0E0,0E0,0E0,0E0,0E0,0E0,0E0,0E0,0E0,0E0,0E0,0E0,0E0,0E0,0E0],"parents":[2147483647,0,0,1,1,2,2,3,3,4,4,5,5,6,6,7,7,8,8,9,9,10,10,11,11,12,12,13,13,14,14],"right_children":[2,4,6,8,10,12,14,16,18,20,22,24,26,28,30,-1,-1,-1,-1,-1,-1,-1,-1,-1,-1,-1,-1,-1,-1,-1,-1],"split_conditions":[1.095689E1,9.745449E0,1.2607005E1,3.0871892E-2,7.477251E-1,7.1493137E-1,1.4299228E1,8E0,1E2,5.785714E0,7.677081E0,1.4210526E0,7.768405E0,2.651111E2,2.7739725E0,8.9845E-2,-3.1241833E-3,-2.300038E-2,7.249842E-3,1.3195529E-2,7.305342E-2,5.6476783E-2,-1.3697192E-2,1.550568E-1,4.4130336E-2,7.637907E-2,-1.0218738E-3,1.3196747E-1,3.1627536E-2,5.8470108E-2,-4.9880225E-2],"split_indices":[182,182,182,115,88,89,127,161,141,12,43,153,43,82,139,0,0,0,0,0,0,0,0,0,0,0,0,0,0,0,0],"split_type":[0,0,0,0,0,0,0,0,0,0,0,0,0,0,0,0,0,0,0,0,0,0,0,0,0,0,0,0,0,0,0],"sum_hessian":[6.208E3,5.152E3,1.056E3,4.089E3,1.063E3,7.17E2,3.39E2,1.141E3,2.948E3,5.82E2,4.81E2,2.96E2,4.21E2,1.87E2,1.52E2,4.2E1,1.099E3,2.689E3,2.59E2,5E2,8.2E1,4.4E1,4.37E2,3.5E1,2.61E2,5E1,3.71E2,1.47E2,4E1,1.32E2,2E1],"tree_param":{"num_deleted":"0","num_feature":"183","num_nodes":"31","size_leaf_vector":"1"}},{"base_weights":[-2.3491079E-2,-2.0489769E-1,8.79077E-1,-2.837152E-1,1.0624587E-1,5.415047E-1,1.4333429E0,1.4784394E-1,-2.9375613E-1,4.3893304E-1,-1.4342764E-1,1.9795223E0,3.790179E-1,1.8542181E0,4.674296E-1,-1.8077538E-3,-1.9517584E-2,4.103115E-2,-1.7211674E-2,1.7537974E-2,-1.7090747E-2,1.2185086E-1,-2.6801962E-3,2.5293255E-2,-6.7274176E-2,7.265986E-2,1.6197184E-1,9.076232E-2,-9.959082E-3],"categories":[],"categories_nodes":[],"categories_segments":[],"categories_sizes":[],"default_left":[0,0,0,0,0,0,0,0,1,0,0,0,0,0,0,0,0,0,0,0,0,0,0,0,0,0,0,0,0],"id":1,"left_children":[1,3,5,7,9,11,13,-1,15,17,19,21,23,25,27,-1,-1,-1,-1,-1,-1,-1,-1,-1,-1,-1,-1,-1,-1],"loss_changes":[1.0273151E3,1.2823135E2,1.9451282E2,1.3689062E2,8.798279E1,1.5130797E2,1.5878772E2,0E0,1.03375305E2,1.36373E2,5.955247E1,6.2127472E1,1.3069232E2,1.4240936E2,1.1155813E2,0E0,0E0,0E0,0E0,0E0,0E0,0E0,0E0,0E0,0E0,0E0,0E0,0E0,0E0],"parents":[2147483647,0,0,1,1,2,2,3,3,4,4,5,5,6,6,8,8,9,9,10,10,11,11,12,12,13,13,14,14],"right_children":[2,4,6,8,10,12,14,-1,16,18,20,22,24,26,28,-1,-1,-1,-1,-1,-1,-1,-1,-1,-1,-1,-1,-1,-1],"split_conditions":[1.095689E1,9.745449E0,1.2468986E1,-3.7E0,1.2403533E1,7.612E0,2.4711E-1,1.4784394E-1,3.0042104E-2,1.17E1,4.0333333E0,9.9808973E-1,2.6575422E-2,7.777778E-2,3.8911765E0,-1.8077538E-3,-1.9517584E-2,4.103115E-2,-1.7211674E-2,1.7537974E-2,-1.7090747E-2,1.2185086E-1,-2.6801962E-3,2.5293255E-2,-6.7274176E-2,7.265986E-2,1.6197184E-1,9.076232E-2,-9.959082E-3],"split_indices":[182,182,182,33,132,62,69,0,115,51,8,44,109,166,26,0,0,0,0,0,0,0,0,0,0,0,0,0,0],"split_type":[0,0,0,0,0,0,0,0,0,0,0,0,0,0,0,0,0,0,0,0,0,0,0,0,0,0,0,0,0],"sum_hessian":[6.271E3,5.223E3,1.048E3,4.168E3,1.055E3,6.54E2,3.94E2,1.1E1,4.157E3,4.52E2,6.03E2,6.4E1,5.9E2,2.73E2,1.21E2,1.135E3,3.022E3,3.04E2,1.48E2,1.72E2,4.31E2,5.2E1,1.2E1,5.51E2,3.9E1,2.15E2,5.8E1,3.9E1,8.2E1],"tree_param":{"num_deleted":"0","num_feature":"183","num_nodes":"29","size_leaf_vector":"1"}},{"base_weights":[3.1589463E-2,-1.4229397E-1,8.986393E-1,-2.246751E-1,1.6500989E-1,7.1402687E-1,1.9796387E0,1.9054883E0,-2.3818195E-1,-1.573261E-1,3.9713034E-1,1.9854951E0,5.960364E-1,4.4244847E-1,2.642742E0,1.0119176E-3,1.75212E-1,1.3601032E-2,-1.4424137E-2,3.485198E-3,-3.6073938E-2,5.273043E-2,9.401926E-3,1.21135846E-1,-3.6543633E-3,3.5663467E-2,-2.6895536E-2,6.84499E-2,-6.2140018E-2,1.6190982E-1,1.7745035E-2],"categories":[],"categories_nodes":[],"categories_segments":[],"categories_sizes":[],"default_left":[0,0,0,0,1,0,0,0,1,1,0,1,1,0,0,0,0,0,0,0,0,0,0,0,0,0,0,0,0,0,0],"id":2,"left_children":[1,3,5,7,9,11,13,15,17,19,21,23,25,27,29,-1,-1,-1,-1,-1,-1,-1,-1,-1,-1,-1,-1,-1,-1,-1,-1],"loss_changes":[9.422398E2,1.3185608E2,2.0498114E2,1.18711105E2,8.25506E1,1.3138574E2,1.5096106E2,7.751847E1,1.04918976E2,5.940371E1,8.7475266E1,6.832834E1,1.10075836E2,7.83784E1,1.400249E2,0E0,0E0,0E0,0E0,0E0,0E0,0E0,0E0,0E0,0E0,0E0,0E0,0E0,0E0,0E0,0E0],"parents":[2147483647,0,0,1,1,2,2,3,3,4,4,5,5,6,6,7,7,8,8,9,9,10,10,11,11,12,12,13,13,14,14],"right_children":[2,4,6,8,10,12,14,16,18,20,22,24,26,28,30,-1,-1,-1,-1,-1,-1,-1,-1,-1,-1,-1,-1,-1,-1,-1,-1],"split_conditions":[1.095689E1,9.72695E0,1.3657283E1,-3.5E0,4.3333332E1,3.3867924E0,5.25E1,1.5882353E0,6.4E1,2.3E1,9.982081E0,1.02E1,9.11E1,3.6174448E0,9.6E0,1.0119176E-3,1.75212E-1,1.3601032E-2,-1.4424137E-2,3.485198E-3,-3.6073938E-2,5.273043E-2,9.401926E-3,1.21135846E-1,-3.6543633E-3,3.5663467E-2,-2.6895536E-2,6.84499E-2,-6.2140018E-2,1.6190982E-1,1.7745035E-2],"split_indices":[182,182,182,33,175,28,53,156,159,144,182,2,49,133,35,0,0,0,0,0,0,0,0,0,0,0,0,0,0,0,0],"split_type":[0,0,0,0,0,0,0,0,0,0,0,0,0,0,0,0,0,0,0,0,0,0,0,0,0,0,0,0,0,0,0],"sum_hessian":[6.245E3,5.203E3,1.042E3,4.104E3,1.099E3,8.93E2,1.49E2,2.4E1,4.08E3,4.6E2,6.39E2,7.3E1,8.2E2,4.6E1,1.03E2,1.2E1,1.2E1,3.65E2,3.715E3,3.29E2,1.31E2,1.52E2,4.87E2,6E1,1.3E1,7.44E2,7.6E1,3E1,1.6E1,8.1E1,2.2E1],"tree_param":{"num_deleted":"0","num_feature":"183","num_nodes":"31","size_leaf_vector":"1"}},{"base_weights":[1.7624184E-2,-1.03051916E-1,1.139567E0,-2.2878656E-1,2.3292612E-1,9.4117856E-1,2.384343E0,4.3808147E-2,-3.3451417E-1,-4.1916646E-2,4.6191788E-1,1.5528069E0,5.865346E-1,2.9652257E0,-8.688225E-3,-7.374605E-4,1.3991235E-1,1.5869068E-2,-1.9448267E-2,7.800607E-2,-5.9302635E-3,1.7889503E-2,8.760535E-2,1.1467961E-1,3.2085244E-2,3.703175E-2,-4.879582E-2,2.754674E-1,9.735476E-2],"categories":[],"categories_nodes":[],"categories_segments":[],"categories_sizes":[],"default_left":[0,0,0,1,1,0,0,0,0,0,0,0,0,0,0,0,0,0,0,0,0,0,0,0,0,0,0,0,0],"id":3,"left_children":[1,3,5,7,9,11,13,15,17,19,21,23,25,27,-1,-1,-1,-1,-1,-1,-1,-1,-1,-1,-1,-1,-1,-1,-1],"loss_changes":[8.462341E2,2.3844682E2,1.4474493E2,1.1845441E2,9.6856476E1,1.1206232E2,1.2343759E2,1.859645E2,1.0533081E2,8.6082436E1,1.1103935E2,1.2605609E2,8.253947E1,1.5060083E2,0E0,0E0,0E0,0E0,0E0,0E0,0E0,0E0,0E0,0E0,0E0,0E0,0E0,0E0,0E0],"parents":[2147483647,0,0,1,1,2,2,3,3,4,4,5,5,6,6,7,7,8,8,9,9,10,10,11,11,12,12,13,13],"right_children":[2,4,6,8,10,12,14,16,18,20,22,24,26,28,-1,-1,-1,-1,-1,-1,-1,-1,-1,-1,-1,-1,-1,-1,-1],"split_conditions":[1.1942241E1,9.745449E0,1.4511323E1,3.0871892E-2,4.3666668E1,1.2744444E2,9.733334E0,6.183E0,8E0,7.804348E0,9.839667E-2,1.3119302E1,2.405819E-2,6.0247936E0,-8.688225E-3,-7.374605E-4,1.3991235E-1,1.5869068E-2,-1.9448267E-2,7.800607E-2,-5.9302635E-3,1.7889503E-2,8.760535E-2,1.1467961E-1,3.2085244E-2,3.703175E-2,-4.879582E-2,2.754674E-1,9.735476E-2],"split_indices":[182,182,182,115,175,97,35,60,94,45,74,132,114,138,0,0,0,0,0,0,0,0,0,0,0,0,0,0,0],"split_type":[0,0,0,0,0,0,0,0,0,0,0,0,0,0,0,0,0,0,0,0,0,0,0,0,0,0,0,0,0],"sum_hessian":[6.245E3,5.64E3,6.05E2,4.105E3,1.535E3,5.25E2,8E1,1.147E3,2.958E3,6.98E2,8.37E2,1.9E2,3.35E2,6.5E1,1.5E1,1.125E3,2.2E1,2.27E2,2.731E3,3E1,6.68E2,7.77E2,6E1,1.03E2,8.7E1,3.06E2,2.9E1,1.6E1,4.9E1],"tree_param":{"num_deleted":"0","num_feature":"183","num_nodes":"29","size_leaf_vector":"1"}},{"base_weights":[-8.92359E-3,5.9285873E-1,-8.393569E-2,7.917719E-1,-4.6255562E-1,1.7047524E-1,-2.07112E-1,1.1702234E0,2.10755E-1,-8.7247014E-1,8.6995405E-1,8.29159E-1,3.7248064E-2,-4.8231205E-1,-1.02433555E-1,4.9280774E-2,1.4472833E-1,-5.488628E-4,8.052234E-2,-7.5252103E-3,-7.7511646E-2,1.0391519E-1,-3.679076E-3,-2.1931328E-2,5.7853002E-2,-1.299864E-3,4.9699582E-2,-3.2696612E-2,5.547996E-3,3.129817E-2,-8.532281E-3],"categories":[],"categories_nodes":[],"categories_segments":[],"categories_sizes":[],"default_left":[0,0,1,0,0,0,0,0,0,1,0,0,1,1,0,0,0,0,0,0,0,0,0,0,0,0,0,0,0,0,0],"id":4,"left_children":[1,3,5,7,9,11,13,15,17,19,21,23,25,27,29,-1,-1,-1,-1,-1,-1,-1,-1,-1,-1,-1,-1,-1,-1,-1,-1],"loss_changes":[2.8226413E2,1.4628381E2,1.7437656E2,1.2764438E2,6.214839E1,1.590395E2,1.07783615E2,1.05887695E2,7.266839E1,4.127488E1,3.1490057E1,1.2794977E2,9.1735756E1,1.05329285E2,1.3521735E2,0E0,0E0,0E0,0E0,0E0,0E0,0E0,0E0,0E0,0E0,0E0,0E0,0E0,0E0,0E0,0E0],"parents":[2147483647,0,0,1,1,2,2,3,3,4,4,5,5,6,6,7,7,8,8,9,9,10,10,11,11,12,12,13,13,14,14],"right_children":[2,4,6,8,10,12,14,16,18,20,22,24,26,28,30,-1,-1,-1,-1,-1,-1,-1,-1,-1,-1,-1,-1,-1,-1,-1,-1],"split_conditions":[8.58134E0,1.0807955E1,3.1362727E-2,7.391048E-1,2.5125E-1,6.9631356E-1,2E0,1.0148509E1,2.5243E-1,1.05E1,1.1175946E1,1.6166667E2,1.5177612E-1,6.3E1,-9.940683E-3,4.9280774E-2,1.4472833E-1,-5.488628E-4,8.052234E-2,-7.5252103E-3,-7.7511646E-2,1.0391519E-1,-3.679076E-3,-2.1931328E-2,5.7853002E-2,-1.299864E-3,4.9699582E-2,-3.2696612E-2,5.547996E-3,3.129817E-2,-8.532281E-3],"split_indices":[47,41,115,103,76,83,134,41,70,50,132,173,111,53,110,0,0,0,0,0,0,0,0,0,0,0,0,0,0,0,0],"split_type":[0,0,0,0,0,0,0,0,0,0,0,0,0,0,0,0,0,0,0,0,0,0,0,0,0,0,0,0,0,0,0],"sum_hessian":[6.251E3,6.91E2,5.56E3,5.82E2,1.09E2,1.813E3,3.747E3,3.51E2,2.31E2,8.4E1,2.5E1,3.03E2,1.51E3,1.03E3,2.717E3,3.2E2,3.1E1,2.01E2,3E1,4.2E1,4.2E1,1E1,1.5E1,6.2E1,2.41E2,1.418E3,9.2E1,7.99E2,2.31E2,2.31E2,2.486E3],"tree_param":{"num_deleted":"0","num_feature":"183","num_nodes":"31","size_leaf_vector":"1"}},{"base_weights":[1.42715275E-2,-1.8044844E-1,6.5846306E-1,5.6168425E-1,-2.1880788E-1,5.272598E-1,1.6435974E0,1.1314186E0,-5.006037E-1,-2.8719977E-1,7.3764145E-2,1.7146311E0,4.4771913E-1,3.0817497E0,1.0256071E0,7.7946894E-2,-2.08865E-2,-5.6218565E-2,1.0178052E-2,5.954321E-2,-1.5321992E-2,-7.142428E-3,3.5171952E-2,5.5558246E-2,1.7019565E-1,4.5215886E-2,1.4099561E-2,2.362654E-1,7.228588E-2,9.901159E-2,1.3890202E-4],"categories":[],"categories_nodes":[],"categories_segments":[],"categories_sizes":[],"default_left":[0,0,0,0,0,0,0,0,0,0,0,0,0,0,0,0,0,0,0,0,0,0,0,0,0,0,0,0,0,0,0],"id":5,"left_children":[1,3,5,7,9,11,13,15,17,19,21,23,25,27,29,-1,-1,-1,-1,-1,-1,-1,-1,-1,-1,-1,-1,-1,-1,-1,-1],"loss_changes":[7.8682294E2,1.372781E2,1.8602472E2,1.4469653E2,9.1748825E1,1.1967645E2,1.4394711E2,1.04185776E2,3.7537674E1,1.0617206E2,1.1884085E2,7.3086334E1,9.081479E1,1.1954852E2,1.1871538E2,0E0,0E0,0E0,0E0,0E0,0E0,0E0,0E0,0E0,0E0,0E0,0E0,0E0,0E0,0E0,0E0],"parents":[2147483647,0,0,1,1,2,2,3,3,4,4,5,5,6,6,7,7,8,8,9,9,10,10,11,11,12,12,13,13,14,14],"right_children":[2,4,6,8,10,12,14,16,18,20,22,24,26,28,30,-1,-1,-1,-1,-1,-1,-1,-1,-1,-1,-1,-1,-1,-1,-1,-1],"split_conditions":[1.0379211E1,5.3E1,1.342614E1,7.670786E-2,9.58125E0,7.967033E0,7.390667E-2,8.92069E-2,4.480553E0,-3.2E0,9.8E0,8.3048284E-2,6.806723E-1,4.233333E0,1.4276242E1,7.7946894E-2,-2.08865E-2,-5.6218565E-2,1.0178052E-2,5.954321E-2,-1.5321992E-2,-7.142428E-3,3.5171952E-2,5.5558246E-2,1.7019565E-1,4.5215886E-2,1.4099561E-2,2.362654E-1,7.228588E-2,9.901159E-2,1.3890202E-4],"split_indices":[182,52,182,116,39,45,74,86,12,33,32,110,139,22,127,0,0,0,0,0,0,0,0,0,0,0,0,0,0,0,0],"split_type":[0,0,0,0,0,0,0,0,0,0,0,0,0,0,0,0,0,0,0,0,0,0,0,0,0,0,0,0,0,0,0],"sum_hessian":[6.268E3,4.814E3,1.454E3,2.35E2,4.579E3,1.286E3,1.68E2,1.53E2,8.2E1,3.712E3,8.67E2,7.8E1,1.208E3,4.8E1,1.2E2,1.2E2,3.3E1,4.3E1,3.9E1,4.6E1,3.666E3,6.46E2,2.21E2,6E1,1.8E1,3.19E2,8.89E2,2.2E1,2.6E1,6.1E1,5.9E1],"tree_param":{"num_deleted":"0","num_feature":"183","num_nodes":"31","size_leaf_vector":"1"}},{"base_weights":[-1.931844E-2,6.0325575E-1,-8.192329E-2,1.2146485E0,3.2502472E-1,-3.5515296E-1,1.6160566E-2,9.105615E-1,2.3053618E-1,6.8750054E-1,-6.215038E-1,9.5389295E-1,-3.9256343E-1,-5.624897E-2,4.3567783E-1,1.601022E-1,3.2718524E-2,2.6481738E-2,1.3098256E-1,-4.9565427E-2,6.2174417E-2,-2.3837658E-2,1.21973395E-1,1.5091178E-2,-2.3062333E-2,4.3941652E-3,-1.3250914E-2,7.81272E-3,5.3548943E-2],"categories":[],"categories_nodes":[],"categories_segments":[],"categories_sizes":[],"default_left":[0,0,0,0,0,0,0,1,0,1,0,0,0,0,0,0,0,0,0,0,0,0,0,0,0,0,0,0,0],"id":6,"left_children":[1,3,5,7,9,11,13,15,-1,17,19,21,23,25,27,-1,-1,-1,-1,-1,-1,-1,-1,-1,-1,-1,-1,-1,-1],"loss_changes":[2.4273813E2,9.56942E1,1.517908E2,1.732873E2,1.3604669E2,7.38988E1,1.2670607E2,9.19025E1,0E0,8.38311E1,7.828004E1,9.198253E1,6.9750916E1,1.0705336E2,1.08415924E2,0E0,0E0,0E0,0E0,0E0,0E0,0E0,0E0,0E0,0E0,0E0,0E0,0E0,0E0],"parents":[2147483647,0,0,1,1,2,2,3,3,4,4,5,5,6,6,7,7,9,9,10,10,11,11,12,12,13,13,14,14],"right_children":[2,4,6,8,10,12,14,16,-1,18,20,22,24,26,28,-1,-1,-1,-1,-1,-1,-1,-1,-1,-1,-1,-1,-1,-1],"split_conditions":[8.5345745E0,3.8E0,2E0,5.512195E0,7.465896E-1,-3.0739E-2,3.5029533E0,7.6101694E0,2.3053618E-1,9.6666664E1,7.785626E0,5.1724136E-1,3.041069E-1,1.3158131E1,9.521E0,1.601022E-1,3.2718524E-2,2.6481738E-2,1.3098256E-1,-4.9565427E-2,6.2174417E-2,-2.3837658E-2,1.21973395E-1,1.5091178E-2,-2.3062333E-2,4.3941652E-3,-1.3250914E-2,7.81272E-3,5.3548943E-2],"split_indices":[47,3,134,15,103,111,171,135,0,141,117,24,99,132,62,0,0,0,0,0,0,0,0,0,0,0,0,0,0],"split_type":[0,0,0,0,0,0,0,0,0,0,0,0,0,0,0,0,0,0,0,0,0,0,0,0,0,0,0,0,0],"sum_hessian":[6.226E3,5.67E2,5.659E3,1.75E2,3.92E2,1.494E3,4.165E3,1.63E2,1.2E1,2.84E2,1.08E2,4E1,1.454E3,3.553E3,6.12E2,1.4E1,1.49E2,2.65E2,1.9E1,9.1E1,1.7E1,2.1E1,1.9E1,1.3E2,1.324E3,2.102E3,1.451E3,4.27E2,1.85E2],"tree_param":{"num_deleted":"0","num_feature":"183","num_nodes":"29","size_leaf_vector":"1"}},{"base_weights":[5.8209267E-3,-2.2852074E-1,4.556353E-1,8.8039964E-1,-2.4896759E-1,3.0897895E-1,1.2183429E0,-2.8886542E-1,2.4759037E0,-4.816431E-3,-3.3978203E-1,-7.3526986E-2,4.6213162E-1,5.524734E-1,1.811187E0,-6.1614014E-2,8.744675E-2,2.3279448E-1,1.2596356E-2,-2.8589105E-3,1.1717659E-1,-1.7645631E-2,8.0621116E-2,-9.924258E-3,5.914521E-2,2.74463E-2,-2.3894353E-2,8.276421E-3,1.18107155E-1,6.8767495E-2,1.6667989E-1],"categories":[],"categories_nodes":[],"categories_segments":[],"categories_sizes":[],"default_left":[0,0,0,0,1,0,1,0,0,0,0,0,0,0,1,0,0,0,0,0,0,0,0,0,0,0,0,0,0,0,0],"id":7,"left_children":[1,3,5,7,9,11,13,15,17,19,21,23,25,27,29,-1,-1,-1,-1,-1,-1,-1,-1,-1,-1,-1,-1,-1,-1,-1,-1],"loss_changes":[6.6191376E2,9.3910095E1,2.3954373E2,1.4178534E2,8.983708E1,1.06003006E2,1.3411188E2,9.071913E1,1.5181615E2,1.3531673E2,7.663342E1,8.159937E1,1.05869446E2,1.1495274E2,1.1064972E2,0E0,0E0,0E0,0E0,0E0,0E0,0E0,0E0,0E0,0E0,0E0,0E0,0E0,0E0,0E0,0E0],"parents":[2147483647,0,0,1,1,2,2,3,3,4,4,5,5,6,6,7,7,8,8,9,9,10,10,11,11,12,12,13,13,14,14],"right_children":[2,4,6,8,10,12,14,16,18,20,22,24,26,28,30,-1,-1,-1,-1,-1,-1,-1,-1,-1,-1,-1,-1,-1,-1,-1,-1],"split_conditions":[9.745449E0,6.0335193E0,1.2607005E1,2.4558823E0,3.0042104E-2,1.2E1,3.796875E0,9.2E0,7.616641E0,6.121E0,7.5E0,1.05E1,9.521739E0,2.4249825E-1,1.45E1,-6.1614014E-2,8.744675E-2,2.3279448E-1,1.2596356E-2,-2.8589105E-3,1.1717659E-1,-1.7645631E-2,8.0621116E-2,-9.924258E-3,5.914521E-2,2.74463E-2,-2.3894353E-2,8.276421E-3,1.18107155E-1,6.8767495E-2,1.6667989E-1],"split_indices":[182,182,182,171,115,134,153,9,126,60,18,36,45,87,50,0,0,0,0,0,0,0,0,0,0,0,0,0,0,0,0],"split_type":[0,0,0,0,0,0,0,0,0,0,0,0,0,0,0,0,0,0,0,0,0,0,0,0,0,0,0,0,0,0,0],"sum_hessian":[6.275E3,4.126E3,2.149E3,7.3E1,4.053E3,1.805E3,3.44E2,4.3E1,3E1,1.1E3,2.953E3,5.16E2,1.289E3,1.64E2,1.8E2,3E1,1.3E1,1.4E1,1.6E1,1.078E3,2.2E1,2.935E3,1.8E1,4.71E2,4.5E1,1.181E3,1.08E2,1.37E2,2.7E1,1.43E2,3.7E1],"tree_param":{"num_deleted":"0","num_feature":"183","num_nodes":"31","size_leaf_vector":"1"}},{"base_weights":[3.9730977E-2,-6.368232E-2,1.0073391E0,-1.7031248E-1,1.9994287E-1,1.4197664E0,2.5400367E-1,1.2746619E-1,-1.7837976E-1,2.9314154E-1,-4.9335188E-1,2.8552034E0,1.0938175E0,6.9603163E-1,-7.980012E-1,-1.5893154E-2,-1.4061672E-3,5.9232753E-2,1.0547417E-2,-4.2726602E-2,2.7447928E-2,1.6421032E-1,9.095198E-3,1.14902794E-1,3.2777093E-2,6.0529616E-2,-1.7800689E-2,5.2193154E-2,-6.2909596E-2],"categories":[],"categories_nodes":[],"categories_segments":[],"categories_sizes":[],"default_left":[0,0,0,0,0,0,0,0,0,0,0,0,0,0,0,0,0,0,0,0,0,0,0,0,0,0,0,0,0],"id":8,"left_children":[1,3,5,7,9,11,13,-1,15,17,19,21,23,25,27,-1,-1,-1,-1,-1,-1,-1,-1,-1,-1,-1,-1,-1,-1],"loss_changes":[6.280157E2,1.5942E2,1.8722583E2,8.90293E1,1.0576413E2,1.7590479E2,1.0199886E2,0E0,8.433281E1,1.04812294E2,7.403291E1,7.9538574E1,1.6634421E2,8.439942E1,5.776418E1,0E0,0E0,0E0,0E0,0E0,0E0,0E0,0E0,0E0,0E0,0E0,0E0,0E0,0E0],"parents":[2147483647,0,0,1,1,2,2,3,3,4,4,5,5,6,6,8,8,9,9,10,10,11,11,12,12,13,13,14,14],"right_children":[2,4,6,8,10,12,14,-1,16,18,20,22,24,26,28,-1,-1,-1,-1,-1,-1,-1,-1,-1,-1,-1,-1,-1,-1],"split_conditions":[1.1942241E1,9.623391E0,2.396E3,-3.8E0,9.456522E0,-2.5717609E-2,1.2742775E-2,1.2746619E-1,4.538005E0,7.5666666E0,9.666667E0,5.351E0,7.027E-2,3.8E1,7.2E0,-1.5893154E-2,-1.4061672E-3,5.9232753E-2,1.0547417E-2,-4.2726602E-2,2.7447928E-2,1.6421032E-1,9.095198E-3,1.14902794E-1,3.2777093E-2,6.0529616E-2,-1.7800689E-2,5.2193154E-2,-6.2909596E-2],"split_indices":[182,182,64,33,45,112,114,0,12,9,23,61,74,125,32,0,0,0,0,0,0,0,0,0,0,0,0,0,0],"split_type":[0,0,0,0,0,0,0,0,0,0,0,0,0,0,0,0,0,0,0,0,0,0,0,0,0,0,0,0,0],"sum_hessian":[6.271E3,5.667E3,6.04E2,4.036E3,1.631E3,3.89E2,2.15E2,1E1,4.026E3,1.439E3,1.92E2,6.9E1,3.2E2,1.52E2,6.3E1,2.086E3,1.94E3,1.19E2,1.32E3,1.43E2,4.9E1,5.9E1,1E1,8.3E1,2.37E2,1.02E2,5E1,1.2E1,5.1E1],"tree_param":{"num_deleted":"0","num_feature":"183","num_nodes":"29","size_leaf_vector":"1"}},{"base_weights":[4.3508494E-3,-8.157039E-2,8.5238993E-1,-1.8025054E-1,1.7986071E-1,1.1109631E0,5.4309256E-2,1.21405005E-1,-2.5194743E-1,2.1630998E-1,-1.1387192E0,1.2237289E0,-1.1029907E0,1.5479629E0,-2.4119739E-1,-1.8246267E-2,2.2141127E-2,-1.3530443E-2,4.8953325E-2,-7.3150718E-3,1.7497605E-2,-9.2303745E-2,5.3465236E-3,2.7569905E-2,8.0040015E-2,-1.2188192E-1,1.9941088E-2,1.3178287E-1,2.1625578E-4,-3.9981E-2,4.0214784E-2],"categories":[],"categories_nodes":[],"categories_segments":[],"categories_sizes":[],"default_left":[0,0,1,1,1,0,0,0,0,1,0,0,0,0,0,0,0,0,0,0,0,0,0,0,0,0,0,0,0,0,0],"id":9,"left_children":[1,3,5,7,9,11,13,15,17,19,21,23,25,27,29,-1,-1,-1,-1,-1,-1,-1,-1,-1,-1,-1,-1,-1,-1,-1,-1],"loss_changes":[4.5540527E2,1.4641733E2,1.18304565E2,8.9193695E1,7.504343E1,1.1107538E2,6.4126076E1,1.2414032E2,7.6886536E1,7.356025E1,3.7749573E1,1.0276013E2,4.6448708E1,3.9745365E1,7.1928375E1,0E0,0E0,0E0,0E0,0E0,0E0,0E0,0E0,0E0,0E0,0E0,0E0,0E0,0E0,0E0,0E0],"parents":[2147483647,0,0,1,1,2,2,3,3,4,4,5,5,6,6,7,7,8,8,9,9,10,10,11,11,12,12,13,13,14,14],"right_children":[2,4,6,8,10,12,14,16,18,20,22,24,26,28,30,-1,-1,-1,-1,-1,-1,-1,-1,-1,-1,-1,-1,-1,-1,-1,-1],"split_conditions":[1.1942241E1,9.72695E0,5.4444447E0,1.54E2,2.7E1,7.280899E0,6.8480927E-1,4.4444445E-1,7.2E0,7.9E1,1.049794E1,-3.5890257E-3,4.6742924E-2,1.38E2,1.1157048E-1,-1.8246267E-2,2.2141127E-2,-1.3530443E-2,4.8953325E-2,-7.3150718E-3,1.7497605E-2,-9.2303745E-2,5.3465236E-3,2.7569905E-2,8.0040015E-2,-1.2188192E-1,1.9941088E-2,1.3178287E-1,2.1625578E-4,-3.9981E-2,4.0214784E-2],"split_indices":[182,182,140,174,143,25,89,20,18,159,41,56,106,0,56,0,0,0,0,0,0,0,0,0,0,0,0,0,0,0,0],"split_type":[0,0,0,0,0,0,0,0,0,0,0,0,0,0,0,0,0,0,0,0,0,0,0,0,0,0,0,0,0,0,0],"sum_hessian":[6.244E3,5.671E3,5.73E2,4.118E3,1.553E3,4.32E2,1.41E2,7.9E2,3.328E3,1.513E3,4E1,4.12E2,2E1,2.2E1,1.19E2,3.14E2,4.76E2,3.28E3,4.8E1,4.07E2,1.106E3,2.5E1,1.5E1,1.5E2,2.62E2,1E1,1E1,1.2E1,1E1,7.8E1,4.1E1],"tree_param":{"num_deleted":"0","num_feature":"183","num_nodes":"31","size_leaf_vector":"1"}},{"base_weights":[-6.5863254E-3,-1.287314E-1,6.1729974E-1,-1.6380829E-1,4.0738848E-1,4.5630857E-1,1.4119226E0,1.2475713E0,-1.7663385E-1,2.7243352E0,1.9115603E-1,9.916335E-1,1.6229026E-1,1.7243596E0,-5.301607E-1,1.7994566E-1,-1.7298747E-2,-9.777263E-3,3.5554934E-2,2.784475E-1,-1.4027509E-2,-3.3388223E-2,2.9187677E-2,2.5486274E-2,7.8579955E-2,1.4887484E-2,-6.652357E-2,1.399948E-1,5.187456E-2,-7.0127815E-2,3.1601366E-2],"categories":[],"categories_nodes":[],"categories_segments":[],"categories_sizes":[],"default_left":[0,0,0,0,0,0,0,0,0,0,1,0,0,0,0,0,0,0,0,0,0,0,0,0,0,0,0,0,0,0,0],"id":10,"left_children":[1,3,5,7,9,11,13,15,17,19,21,23,25,27,29,-1,-1,-1,-1,-1,-1,-1,-1,-1,-1,-1,-1,-1,-1,-1,-1],"loss_changes":[4.7291083E2,9.770368E1,1.2831186E2,8.845436E1,1.5819406E2,1.3291856E2,1.05219604E2,1.6800763E2,8.1295944E1,2.3497148E2,9.9902565E1,8.182861E1,1.1180047E2,1.0201929E2,2.7274208E1,0E0,0E0,0E0,0E0,0E0,0E0,0E0,0E0,0E0,0E0,0E0,0E0,0E0,0E0,0E0,0E0],"parents":[2147483647,0,0,1,1,2,2,3,3,4,4,5,5,6,6,7,7,8,8,9,9,10,10,11,11,12,12,13,13,14,14],"right_children":[2,4,6,8,10,12,14,16,18,20,22,24,26,28,30,-1,-1,-1,-1,-1,-1,-1,-1,-1,-1,-1,-1,-1,-1,-1,-1],"split_conditions":[1.0992753E1,1.0194445E1,1.342614E1,4E1,7.9E0,1.24888885E2,2.968889E2,9E0,1.5991357E1,7.5140367E0,1.0677966E0,5.1936485E-2,2.5622059E-2,7.533E-2,1.5340627E-3,1.7994566E-1,-1.7298747E-2,-9.777263E-3,3.5554934E-2,2.784475E-1,-1.4027509E-2,-3.3388223E-2,2.9187677E-2,2.5486274E-2,7.8579955E-2,1.4887484E-2,-6.652357E-2,1.399948E-1,5.187456E-2,-7.0127815E-2,3.1601366E-2],"split_indices":[182,39,182,52,50,97,97,5,132,126,154,91,114,68,56,0,0,0,0,0,0,0,0,0,0,0,0,0,0,0,0],"split_type":[0,0,0,0,0,0,0,0,0,0,0,0,0,0,0,0,0,0,0,0,0,0,0,0,0,0,0,0,0,0,0],"sum_hessian":[6.203E3,5.189E3,1.014E3,4.872E3,3.17E2,8.46E2,1.68E2,4.2E1,4.83E3,2.5E1,2.92E2,2.98E2,5.48E2,1.45E2,2.3E1,1.6E1,2.6E1,4.731E3,9.9E1,1.2E1,1.3E1,9.1E1,2.01E2,1.65E2,1.33E2,5.04E2,4.4E1,5.4E1,9.1E1,1.3E1,1E1],"tree_param":{"num_deleted":"0","num_feature":"183","num_nodes":"31","size_leaf_vector":"1"}},{"base_weights":[-1.3338954E-2,-1.4028962E-1,5.820777E-1,-3.3362776E-2,-3.3222714E-1,4.6807328E-1,2.0495687E0,-1.4076625E-1,3.9040664E-1,-4.028692E-1,2.1044198E-1,1.1237118E0,2.4284732E-1,2.62221E0,-2.4234647E-2,1.7273951E-3,-1.8517118E-2,6.491434E-2,9.2875315E-3,-3.314979E-2,-1.2103501E-2,-8.428059E-3,7.582798E-2,7.232474E-2,1.127279E-2,-9.951576E-3,3.4846302E-2,2.4873337E-2,1.8160431E-1],"categories":[],"categories_nodes":[],"categories_segments":[],"categories_sizes":[],"default_left":[0,0,0,0,0,0,0,0,0,0,0,0,0,0,0,0,0,0,0,0,0,0,0,0,0,0,0,0,0],"id":11,"left_children":[1,3,5,7,9,11,13,15,17,19,21,23,25,27,-1,-1,-1,-1,-1,-1,-1,-1,-1,-1,-1,-1,-1,-1,-1],"loss_changes":[4.6970654E2,1.0504544E2,1.8026978E2,1.4993858E2,7.043823E1,1.4921039E2,1.16164856E2,1.0590458E2,1.2296575E2,6.734323E1,1.05725655E2,7.410828E1,1.5266867E2,1.3288696E2,0E0,0E0,0E0,0E0,0E0,0E0,0E0,0E0,0E0,0E0,0E0,0E0,0E0,0E0,0E0],"parents":[2147483647,0,0,1,1,2,2,3,3,4,4,5,5,6,6,7,7,8,8,9,9,10,10,11,11,12,12,13,13],"right_children":[2,4,6,8,10,12,14,16,18,20,22,24,26,28,-1,-1,-1,-1,-1,-1,-1,-1,-1,-1,-1,-1,-1,-1,-1],"split_conditions":[1.0920009E1,4.8050847E0,1.4511323E1,9.36E0,3.7037036E-1,7.51E1,9.733334E0,1.3662785E1,4.4E0,9.029166E0,9.538212E-3,5.3228574E0,7.3398476E0,4.420944E-2,-2.4234647E-2,1.7273951E-3,-1.8517118E-2,6.491434E-2,9.2875315E-3,-3.314979E-2,-1.2103501E-2,-8.428059E-3,7.582798E-2,7.232474E-2,1.127279E-2,-9.951576E-3,3.4846302E-2,2.4873337E-2,1.8160431E-1],"split_indices":[182,27,182,62,167,49,35,123,21,36,113,11,117,106,0,0,0,0,0,0,0,0,0,0,0,0,0,0,0],"split_type":[0,0,0,0,0,0,0,0,0,0,0,0,0,0,0,0,0,0,0,0,0,0,0,0,0,0,0,0,0],"sum_hessian":[6.211E3,5.121E3,1.09E3,3.291E3,1.83E3,1.014E3,7.6E1,2.627E3,6.64E2,1.62E3,2.1E2,2.57E2,7.57E2,6.2E1,1.4E1,1.49E3,1.137E3,1.2E2,5.44E2,6.16E2,1.004E3,1.64E2,4.6E1,1.88E2,6.9E1,3.84E2,3.73E2,2.1E1,4.1E1],"tree_param":{"num_deleted":"0","num_feature":"183","num_nodes":"29","size_leaf_vector":"1"}},{"base_weights":[-5.4250923E-3,-8.709265E-2,8.861928E-1,-1.9383524E-1,1.6054016E-1,1.1700991E0,6.1522778E-2,-2.3666109E-1,3.8974586E-1,3.733826E-1,-7.768955E-2,2.376271E0,9.8686653E-1,-1.7209306E-1,1.1658595E-1,3.0662403E-2,-1.3565453E-2,3.2249548E-2,-5.6853432E-2,9.264371E-3,4.807354E-2,2.6803121E-2,-1.3270226E-2,1.7036703E-1,1.6240312E-2,2.9708995E-2,8.479295E-2,-4.1417595E-2,4.272772E-2],"categories":[],"categories_nodes":[],"categories_segments":[],"categories_sizes":[],"default_left":[0,0,0,0,0,0,1,0,0,1,0,0,0,0,0,0,0,0,0,0,0,0,0,0,0,0,0,0,0],"id":12,"left_children":[1,3,5,7,9,11,13,15,17,19,21,23,25,27,-1,-1,-1,-1,-1,-1,-1,-1,-1,-1,-1,-1,-1,-1,-1],"loss_changes":[4.5647968E2,1.519263E2,1.22761566E2,1.0052315E2,8.78882E1,8.1052185E1,7.3892944E1,1.10486755E2,1.0853916E2,1.0062847E2,9.447256E1,1.0280026E2,9.302194E1,8.630254E1,0E0,0E0,0E0,0E0,0E0,0E0,0E0,0E0,0E0,0E0,0E0,0E0,0E0,0E0,0E0],"parents":[2147483647,0,0,1,1,2,2,3,3,4,4,5,5,6,6,7,7,8,8,9,9,10,10,11,11,12,12,13,13],"right_children":[2,4,6,8,10,12,14,16,18,20,22,24,26,28,-1,-1,-1,-1,-1,-1,-1,-1,-1,-1,-1,-1,-1,-1,-1],"split_conditions":[1.2061498E1,9.569194E0,5.09E0,1.0903E-1,7.477251E-1,1.4733333E2,2.0089285E0,2.8E0,3.718889E2,1.8692307E0,3.9716446E0,2.3964472E-2,5.7158475E-3,7.101575E-1,1.1658595E-1,3.0662403E-2,-1.3565453E-2,3.2249548E-2,-5.6853432E-2,9.264371E-3,4.807354E-2,2.6803121E-2,-1.3270226E-2,1.7036703E-1,1.6240312E-2,2.9708995E-2,8.479295E-2,-4.1417595E-2,4.272772E-2],"split_indices":[182,182,61,73,88,173,154,3,97,156,27,107,113,105,0,0,0,0,0,0,0,0,0,0,0,0,0,0,0],"split_type":[0,0,0,0,0,0,0,0,0,0,0,0,0,0,0,0,0,0,0,0,0,0,0,0,0,0,0,0,0],"sum_hessian":[6.267E3,5.743E3,5.24E2,4.014E3,1.729E3,3.89E2,1.35E2,3.741E3,2.73E2,9.13E2,8.16E2,4.8E1,3.41E2,1.24E2,1.1E1,1.45E2,3.596E3,2.35E2,3.8E1,6.94E2,2.19E2,1.9E2,6.26E2,3.1E1,1.7E1,2.22E2,1.19E2,7.6E1,4.8E1],"tree_param":{"num_deleted":"0","num_feature":"183","num_nodes":"29","size_leaf_vector":"1"}},{"base_weights":[-1.1153784E-2,-6.7910835E-2,9.948172E-1,-1.8627186E-1,1.6155797E-1,1.3180746E0,-2.5912714E-1,-6.8465364E-1,-1.3387859E-1,1.4325438E-1,1.2854116E-1,2.3838711E-1,1.6498162E0,9.838787E-2,-6.991998E-1,2.1188796E-2,-4.3838795E-2,7.237893E-2,-7.482114E-3,-6.8466337E-3,1.39566455E-2,-7.388439E-2,6.266352E-2,4.146616E-2,1.095246E-1,2.7744336E-2,-5.5467583E-2],"categories":[],"categories_nodes":[],"categories_segments":[],"categories_sizes":[],"default_left":[0,0,0,0,0,1,1,0,0,0,0,0,0,0,1,0,0,0,0,0,0,0,0,0,0,0,0],"id":13,"left_children":[1,3,5,7,9,11,13,15,17,19,-1,21,23,-1,25,-1,-1,-1,-1,-1,-1,-1,-1,-1,-1,-1,-1],"loss_changes":[3.5708484E2,1.6093477E2,1.3628073E2,1.017242E2,8.762259E1,9.411087E1,7.1097374E1,7.983966E1,8.842441E1,7.636191E1,0E0,1.1686401E2,8.581781E1,0E0,3.2203976E1,0E0,0E0,0E0,0E0,0E0,0E0,0E0,0E0,0E0,0E0,0E0,0E0],"parents":[2147483647,0,0,1,1,2,2,3,3,4,4,5,5,6,6,7,7,8,8,9,9,11,11,12,12,14,14],"right_children":[2,4,6,8,10,12,14,16,18,20,-1,22,24,-1,26,-1,-1,-1,-1,-1,-1,-1,-1,-1,-1,-1,-1],"split_conditions":[1.2607005E1,9.535377E0,8.724771E0,-2.8122751E-2,1.1582721E1,2.5714285E0,4.9E1,1.12E2,-3.2E0,2.14E-1,1.2854116E-1,-7E-1,1.0011806E0,9.838787E-2,7.7E0,2.1188796E-2,-4.3838795E-2,7.237893E-2,-7.482114E-3,-6.8466337E-3,1.39566455E-2,-7.388439E-2,6.266352E-2,4.146616E-2,1.095246E-1,2.7744336E-2,-5.5467583E-2],"split_indices":[182,182,47,114,39,153,142,0,33,70,0,38,44,0,50,0,0,0,0,0,0,0,0,0,0,0,0],"split_type":[0,0,0,0,0,0,0,0,0,0,0,0,0,0,0,0,0,0,0,0,0,0,0,0,0,0,0],"sum_hessian":[6.253E3,5.921E3,3.32E2,3.907E3,2.014E3,2.64E2,6.8E1,3.69E2,3.538E3,2.001E3,1.3E1,6.3E1,2.01E2,1E1,5.8E1,5.4E1,3.15E2,3.3E1,3.505E3,6.53E2,1.348E3,2.3E1,4E1,8.2E1,1.19E2,1.4E1,4.4E1],"tree_param":{"num_deleted":"0","num_feature":"183","num_nodes":"27","size_leaf_vector":"1"}},{"base_weights":[-1.1597951E-2,-1.2777525E-1,5.741315E-1,-2.487829E-1,-3.234613E-3,6.591017E-1,-7.8835255E-1,7.6397516E-2,-3.5247493E-1,4.756588E-1,-8.616583E-2,9.0572816E-1,1.3703232E-1,-1.3728875E0,3.342652E-2,1.2497449E-1,1.5062043E-3,-1.8628215E-2,1.1865806E-1,9.802445E-2,1.3289104E-2,-6.0475958E-3,4.0373065E-2,7.874938E-2,3.35033E-2,2.0672457E-2,-4.742558E-2,-5.2997945E-3,-9.65871E-2],"categories":[],"categories_nodes":[],"categories_segments":[],"categories_sizes":[],"default_left":[0,0,0,0,0,0,0,0,0,0,0,0,0,0,0,0,0,0,0,0,0,0,0,0,0,0,0,0,0],"id":14,"left_children":[1,3,5,7,9,11,13,15,17,19,21,23,25,27,-1,-1,-1,-1,-1,-1,-1,-1,-1,-1,-1,-1,-1,-1,-1],"loss_changes":[4.288308E2,7.921812E1,1.21762085E2,9.003664E1,1.03065056E2,1.26110504E2,5.4775635E1,7.17761E1,1.1214009E2,1.178674E2,6.888196E1,1.0263898E2,9.609722E1,3.1043304E1,0E0,0E0,0E0,0E0,0E0,0E0,0E0,0E0,0E0,0E0,0E0,0E0,0E0,0E0,0E0],"parents":[2147483647,0,0,1,1,2,2,3,3,4,4,5,5,6,6,7,7,8,8,9,9,10,10,11,11,12,12,13,13],"right_children":[2,4,6,8,10,12,14,16,18,20,22,24,26,28,-1,-1,-1,-1,-1,-1,-1,-1,-1,-1,-1,-1,-1,-1,-1],"split_conditions":[1.095689E1,4.538005E0,3.2829195E-1,1.1E1,7.0665497E-1,7.369081E-1,4E-1,3.2333333E0,8.3751446E-1,2.8E0,7.501772E-1,1.3583333E1,1.2742775E-2,3.132953E-2,3.342652E-2,1.2497449E-1,1.5062043E-3,-1.8628215E-2,1.1865806E-1,9.802445E-2,1.3289104E-2,-6.0475958E-3,4.0373065E-2,7.874938E-2,3.35033E-2,2.0672457E-2,-4.742558E-2,-5.2997945E-3,-9.65871E-2],"split_indices":[182,12,99,125,88,89,179,7,89,3,90,54,114,111,0,0,0,0,0,0,0,0,0,0,0,0,0,0,0],"split_type":[0,0,0,0,0,0,0,0,0,0,0,0,0,0,0,0,0,0,0,0,0,0,0,0,0,0,0,0,0],"sum_hessian":[6.299E3,5.258E3,1.041E3,2.665E3,2.593E3,9.81E2,6E1,6.44E2,2.021E3,3.81E2,2.212E3,6.65E2,3.16E2,4.3E1,1.7E1,1E1,6.34E2,2.008E3,1.3E1,4.5E1,3.36E2,2.131E3,8.1E1,1.7E2,4.95E2,2.53E2,6.3E1,1.4E1,2.9E1],"tree_param":{"num_deleted":"0","num_feature":"183","num_nodes":"29","size_leaf_vector":"1"}},{"base_weights":[2.599231E-2,-1.0716306E-1,4.663473E-1,4.2718526E-2,-2.595081E-1,4.2271295E-1,2.6341043E0,-5.6218166E-2,3.4640706E-1,2.650423E-1,-3.3051902E-1,9.704156E-1,2.5904858E-1,1.5565753E-2,1.9394206E-1,6.102256E-2,-4.842153E-3,-4.837384E-3,3.686755E-2,-3.666266E-3,9.439974E-2,-1.755922E-2,5.5124618E-2,6.2824E-2,-3.0591557E-2,6.94693E-2,8.884358E-3],"categories":[],"categories_nodes":[],"categories_segments":[],"categories_sizes":[],"default_left":[0,0,0,0,0,0,1,0,0,0,0,0,0,0,0,0,0,0,0,0,0,0,0,0,0,0,0],"id":15,"left_children":[1,3,5,7,9,11,13,15,17,19,21,23,25,-1,-1,-1,-1,-1,-1,-1,-1,-1,-1,-1,-1,-1,-1],"loss_changes":[3.6441632E2,1.090052E2,1.336532E2,7.238751E1,8.83562E1,1.26270355E2,7.770216E1,9.419769E1,1.0283401E2,1.5605057E2,6.2398254E1,1.4876935E2,9.98035E1,0E0,0E0,0E0,0E0,0E0,0E0,0E0,0E0,0E0,0E0,0E0,0E0,0E0,0E0],"parents":[2147483647,0,0,1,1,2,2,3,3,4,4,5,5,6,6,7,7,8,8,9,9,10,10,11,11,12,12],"right_children":[2,4,6,8,10,12,14,16,18,20,22,24,26,-1,-1,-1,-1,-1,-1,-1,-1,-1,-1,-1,-1,-1,-1],"split_conditions":[1.0397346E1,4.567465E0,1.5426015E1,3.5935807E0,1.5E2,6.950129E-1,7.9411764E0,4.6E1,8.24026E0,5.2E0,7.4E0,1.8907562E0,7.967033E0,1.5565753E-2,1.9394206E-1,6.102256E-2,-4.842153E-3,-4.837384E-3,3.686755E-2,-3.666266E-3,9.439974E-2,-1.755922E-2,5.5124618E-2,6.2824E-2,-3.0591557E-2,6.94693E-2,8.884358E-3],"split_indices":[182,27,182,133,174,89,155,159,170,17,18,137,45,0,0,0,0,0,0,0,0,0,0,0,0,0,0],"split_type":[0,0,0,0,0,0,0,0,0,0,0,0,0,0,0,0,0,0,0,0,0,0,0,0,0,0,0],"sum_hessian":[6.21E3,4.769E3,1.441E3,2.404E3,2.365E3,1.415E3,2.6E1,1.814E3,5.9E2,2.81E2,2.084E3,3.23E2,1.092E3,1E1,1.6E1,5.4E1,1.76E3,2.77E2,3.13E2,2.34E2,4.7E1,2.056E3,2.8E1,2.74E2,4.9E1,7.1E1,1.021E3],"tree_param":{"num_deleted":"0","num_feature":"183","num_nodes":"27","size_leaf_vector":"1"}},{"base_weights":[-7.535048E-3,-1.0682147E-1,4.7635862E-1,-1.4340007E-1,3.7192702E-1,4.3107074E-1,1.4508776E-1,-5.412497E-1,-1.00965515E-1,5.5699426E-1,-1.1638472E0,2.8510892E-1,1.1760969E0,-3.5414614E-2,1.2384313E-2,-7.3371157E-3,1.918317E-2,2.2070544E-2,1.6416328E-1,3.5643292E-4,-9.767126E-2,7.9036854E-2,1.0125576E-2,1.613153E-2,1.0199107E-1],"categories":[],"categories_nodes":[],"categories_segments":[],"categories_sizes":[],"default_left":[0,0,0,0,0,0,0,0,0,1,0,0,1,0,0,0,0,0,0,0,0,0,0,0,0],"id":16,"left_children":[1,3,5,7,9,11,-1,13,15,17,19,21,23,-1,-1,-1,-1,-1,-1,-1,-1,-1,-1,-1,-1],"loss_changes":[2.9915027E2,9.0562744E1,1.13263245E2,8.084928E1,1.05484436E2,1.1245857E2,0E0,6.132805E1,9.641365E1,1.0002824E2,3.7400177E1,9.2641716E1,1.2352846E2,0E0,0E0,0E0,0E0,0E0,0E0,0E0,0E0,0E0,0E0,0E0,0E0],"parents":[2147483647,0,0,1,1,2,2,3,3,4,4,5,5,7,7,8,8,9,9,10,10,11,11,12,12],"right_children":[2,4,6,8,10,12,-1,14,16,18,20,22,24,-1,-1,-1,-1,-1,-1,-1,-1,-1,-1,-1,-1],"split_conditions":[1.0920009E1,1.0903E-1,9E-1,-2.8122751E-2,3.7533334E2,1.342614E1,1.4508776E-1,7.208159E-2,5.4666667E0,1.06E2,3.4722223E2,7.967033E0,3.796875E0,-3.5414614E-2,1.2384313E-2,-7.3371157E-3,1.918317E-2,2.2070544E-2,1.6416328E-1,3.5643292E-4,-9.767126E-2,7.9036854E-2,1.0125576E-2,1.613153E-2,1.0199107E-1],"split_indices":[182,73,6,114,97,182,0,106,22,142,82,45,153,0,0,0,0,0,0,0,0,0,0,0,0],"split_type":[0,0,0,0,0,0,0,0,0,0,0,0,0,0,0,0,0,0,0,0,0,0,0,0,0],"sum_hessian":[6.224E3,5.166E3,1.058E3,4.801E3,3.65E2,1.041E3,1.7E1,4.6E2,4.341E3,3.27E2,3.8E1,8.73E2,1.68E2,3.8E2,8E1,3.968E3,3.73E2,3.16E2,1.1E1,1.6E1,2.2E1,5E1,8.23E2,8.6E1,8.2E1],"tree_param":{"num_deleted":"0","num_feature":"183","num_nodes":"25","size_leaf_vector":"1"}},{"base_weights":[-6.129381E-3,-6.285762E-2,3.3274928E-1,-8.941565E-2,7.9605293E-1,1.4274826E0,2.0067729E-1,2.9018334E-1,-1.4828551E-1,2.7683234E-1,3.0035791E0,4.2833623E-1,2.425405E0,1.1292676E0,6.639513E-2,1.423363E-1,1.123686E-2,-8.237789E-3,7.16765E-2,1.23942114E-1,-1.3660003E-3,2.5586143E-1,2.5099128E-2,6.578755E-2,-3.1717107E-2,1.5314418E-1,1.3577771E-2,3.3491917E-2,1.5034257E-1,-1.9959128E-2,1.7061422E-2],"categories":[],"categories_nodes":[],"categories_segments":[],"categories_sizes":[],"default_left":[0,1,0,0,0,1,0,0,0,0,0,0,0,0,0,0,0,0,0,0,0,0,0,0,0,0,0,0,0,0,0],"id":17,"left_children":[1,3,5,7,9,11,13,15,17,19,21,23,25,27,29,-1,-1,-1,-1,-1,-1,-1,-1,-1,-1,-1,-1,-1,-1,-1,-1],"loss_changes":[1.1892667E2,1.2094481E2,1.27347084E2,1.1503267E2,1.7992566E2,9.2073166E1,9.861724E1,1.1372145E2,1.1631065E2,8.836254E1,1.5236356E2,4.8957363E1,6.220218E1,8.1498146E1,8.931838E1,0E0,0E0,0E0,0E0,0E0,0E0,0E0,0E0,0E0,0E0,0E0,0E0,0E0,0E0,0E0,0E0],"parents":[2147483647,0,0,1,1,2,2,3,3,4,4,5,5,6,6,7,7,8,8,9,9,10,10,11,11,12,12,13,13,14,14],"right_children":[2,4,6,8,10,12,14,16,18,20,22,24,26,28,30,-1,-1,-1,-1,-1,-1,-1,-1,-1,-1,-1,-1,-1,-1,-1,-1],"split_conditions":[1.1157048E-1,1.75E1,8.009E0,-5.323717E-6,5.836266E-2,8.5E1,4.5096154E0,6.5507334E-1,7.4E0,7E1,7.2549784E-1,3.796875E0,9.7612095E0,3.8487655E-1,7.95E1,1.423363E-1,1.123686E-2,-8.237789E-3,7.16765E-2,1.23942114E-1,-1.3660003E-3,2.5586143E-1,2.5099128E-2,6.578755E-2,-3.1717107E-2,1.5314418E-1,1.3577771E-2,3.3491917E-2,1.5034257E-1,-1.9959128E-2,1.7061422E-2],"split_indices":[56,51,62,115,112,141,14,89,18,159,88,153,41,178,49,0,0,0,0,0,0,0,0,0,0,0,0,0,0,0,0],"split_type":[0,0,0,0,0,0,0,0,0,0,0,0,0,0,0,0,0,0,0,0,0,0,0,0,0,0,0,0,0,0,0],"sum_hessian":[6.185E3,5.3E3,8.85E2,5.143E3,1.57E2,9.3E1,7.92E2,6.89E2,4.454E3,1.29E2,2.8E1,4.8E1,4.5E1,9.8E1,6.94E2,1.5E1,6.74E2,4.41E3,4.4E1,1.4E1,1.15E2,1.4E1,1.4E1,2.6E1,2.2E1,3.4E1,1.1E1,8.1E1,1.7E1,2.57E2,4.37E2],"tree_param":{"num_deleted":"0","num_feature":"183","num_nodes":"31","size_leaf_vector":"1"}},{"base_weights":[2.7803915E-2,-1.2593994E-1,3.2203594E-1,3.8698155E-1,-1.7713633E-1,5.8923703E-1,1.2572588E-1,-2.8710416E-1,8.448438E-1,-2.438628E-1,2.6200882E-1,1.3203028E0,4.4179213E-1,8.460085E-2,1.9029475E0,-2.8031915E-2,5.7512093E-2,1.7061774E-1,3.4602046E-2,4.9102884E-2,-1.3181E-2,9.028685E-2,4.596354E-3,3.3170976E-2,1.502179E-1,3.5319593E-2,-9.4868644E-4,3.0760309E-2,-2.1787535E-3,2.414265E-2,1.4475809E-1],"categories":[],"categories_nodes":[],"categories_segments":[],"categories_sizes":[],"default_left":[0,1,0,0,0,1,0,0,0,0,0,0,0,0,0,0,0,0,0,0,0,0,0,0,0,0,0,0,0,0,0],"id":18,"left_children":[1,3,5,7,9,11,13,15,17,19,21,23,25,27,29,-1,-1,-1,-1,-1,-1,-1,-1,-1,-1,-1,-1,-1,-1,-1,-1],"loss_changes":[2.8443088E2,1.0852156E2,1.1290515E2,1.1633606E2,1.1018474E2,9.689502E1,9.042161E1,6.132579E1,8.233653E1,7.938222E1,1.2951822E2,1.6342676E2,9.318811E1,8.320916E1,3.598159E1,0E0,0E0,0E0,0E0,0E0,0E0,0E0,0E0,0E0,0E0,0E0,0E0,0E0,0E0,0E0,0E0],"parents":[2147483647,0,0,1,1,2,2,3,3,4,4,5,5,6,6,7,7,8,8,9,9,10,10,11,11,12,12,13,13,14,14],"right_children":[2,4,6,8,10,12,14,16,18,20,22,24,26,28,30,-1,-1,-1,-1,-1,-1,-1,-1,-1,-1,-1,-1,-1,-1,-1,-1],"split_conditions":[9.72695E0,1.28E2,7.145259E-1,4.4444445E-1,9.797895E0,8.12E0,9E-1,1.0255232E1,3.3204738E-2,6.0335193E0,6.8616853E0,1.1999259E1,5E0,8.5998E0,1.0992753E1,-2.8031915E-2,5.7512093E-2,1.7061774E-1,3.4602046E-2,4.9102884E-2,-1.3181E-2,9.028685E-2,4.596354E-3,3.3170976E-2,1.502179E-1,3.5319593E-2,-9.4868644E-4,3.0760309E-2,-2.1787535E-3,2.414265E-2,1.4475809E-1],"split_indices":[182,174,89,20,39,135,6,43,91,182,117,182,4,47,182,0,0,0,0,0,0,0,0,0,0,0,0,0,0,0,0],"split_type":[0,0,0,0,0,0,0,0,0,0,0,0,0,0,0,0,0,0,0,0,0,0,0,0,0,0,0,0,0,0,0],"sum_hessian":[6.283E3,4.127E3,2.156E3,3.73E2,3.754E3,9.11E2,1.245E3,1.51E2,2.22E2,3.26E3,4.94E2,1.5E2,7.61E2,1.219E3,2.6E1,1.28E2,2.3E1,1E1,2.12E2,5E1,3.21E3,4.7E1,4.47E2,1.1E2,4E1,4.83E2,2.78E2,2.36E2,9.83E2,1.2E1,1.4E1],"tree_param":{"num_deleted":"0","num_feature":"183","num_nodes":"31","size_leaf_vector":"1"}},{"base_weights":[-5.4809107E-3,-5.7737578E-2,7.211478E-1,-1.4790541E-1,1.23771414E-1,1.0981064E0,-2.1749659E-1,-2.181444E-1,2.2731821E-1,3.6413574E-1,-1.1317626E-1,-9.246115E-1,1.2747309E0,-1.5800736E0,3.4902945E-1,1.9896304E-2,-1.3709205E-2,-4.6452987E-3,4.2107802E-2,4.094609E-2,4.8247604E-3,6.872521E-3,-2.1881418E-2,8.102596E-3,-8.4199704E-2,7.645028E-2,9.919786E-3,-1.3204289E-3,-1.0839566E-1,8.548587E-2,-2.9230436E-2],"categories":[],"categories_nodes":[],"categories_segments":[],"categories_sizes":[],"default_left":[0,0,0,0,0,0,0,1,1,0,0,1,0,0,0,0,0,0,0,0,0,0,0,0,0,0,0,0,0,0,0],"id":19,"left_children":[1,3,5,7,9,11,13,15,17,19,21,23,25,27,29,-1,-1,-1,-1,-1,-1,-1,-1,-1,-1,-1,-1,-1,-1,-1,-1],"loss_changes":[2.360175E2,9.499855E1,1.4820091E2,1.0230331E2,1.0982556E2,1.08891205E2,9.475336E1,1.13019226E2,1.2080052E2,1.1614411E2,7.913851E1,2.1480003E1,7.431116E1,3.2325653E1,1.1274799E2,0E0,0E0,0E0,0E0,0E0,0E0,0E0,0E0,0E0,0E0,0E0,0E0,0E0,0E0,0E0,0E0],"parents":[2147483647,0,0,1,1,2,2,3,3,4,4,5,5,6,6,7,7,8,8,9,9,10,10,11,11,12,12,13,13,14,14],"right_children":[2,4,6,8,10,12,14,16,18,20,22,24,26,28,30,-1,-1,-1,-1,-1,-1,-1,-1,-1,-1,-1,-1,-1,-1,-1,-1],"split_conditions":[1.2393525E1,9.515325E0,2.467E-1,4.2495057E-1,8.28E1,5.381E-2,2.5747E-1,1.23E2,1.3783784E0,4.0255103E-2,2.4444444E2,8.02E1,5.226E0,2.1966513E-2,4.0038023E0,1.9896304E-2,-1.3709205E-2,-4.6452987E-3,4.2107802E-2,4.094609E-2,4.8247604E-3,6.872521E-3,-2.1881418E-2,8.102596E-3,-8.4199704E-2,7.645028E-2,9.919786E-3,-1.3204289E-3,-1.0839566E-1,8.548587E-2,-2.9230436E-2],"split_indices":[182,182,69,85,49,67,69,174,137,111,82,49,60,111,26,0,0,0,0,0,0,0,0,0,0,0,0,0,0,0,0],"split_type":[0,0,0,0,0,0,0,0,0,0,0,0,0,0,0,0,0,0,0,0,0,0,0,0,0,0,0,0,0,0,0],"sum_hessian":[6.215E3,5.8E3,4.15E2,3.876E3,1.924E3,2.96E2,1.19E2,3.266E3,6.1E2,9.55E2,9.69E2,2.3E1,2.73E2,3.4E1,8.5E1,2.71E2,2.995E3,4.02E2,2.08E2,3.52E2,6.03E2,5.47E2,4.22E2,1E1,1.3E1,2.2E2,5.3E1,1E1,2.4E1,3.4E1,5.1E1],"tree_param":{"num_deleted":"0","num_feature":"183","num_nodes":"31","size_leaf_vector":"1"}},{"base_weights":[-2.2748583E-3,-5.7578217E-2,7.188541E-1,1.0788047E-1,-6.3753754E-2,9.605194E-1,-6.341529E-2,1.7054353E0,-7.086538E-2,-9.578474E-1,1.0878245E0,1.97576E0,-5.8591557E-1,-5.4335115E-3,1.5665022E-1,4.872904E-3,-6.9674416E-3,-9.240542E-2,3.7694068E-3,1.7970962E-2,7.238465E-2,1.9831342E-1,-1.6368754E-2,-9.006069E-2,4.604287E-3],"categories":[],"categories_nodes":[],"categories_segments":[],"categories_sizes":[],"default_left":[0,0,0,0,0,0,0,0,1,0,0,0,0,0,0,0,0,0,0,0,0,0,0,0,0],"id":20,"left_children":[1,3,5,-1,7,9,11,13,15,17,19,21,23,-1,-1,-1,-1,-1,-1,-1,-1,-1,-1,-1,-1],"loss_changes":[2.4749101E2,7.87487E1,8.386014E1,0E0,7.229796E1,8.465561E1,1.1497707E2,6.085029E1,6.611043E1,2.0869877E1,8.195532E1,1.0418169E2,7.153529E1,0E0,0E0,0E0,0E0,0E0,0E0,0E0,0E0,0E0,0E0,0E0,0E0],"parents":[2147483647,0,0,1,1,2,2,4,4,5,5,6,6,7,7,8,8,9,9,10,10,11,11,12,12],"right_children":[2,4,6,-1,8,10,12,14,16,18,20,22,24,-1,-1,-1,-1,-1,-1,-1,-1,-1,-1,-1,-1],"split_conditions":[1.2321287E1,-4.1E0,5.103539E0,1.0788047E-1,-5.17143E-2,6.5554065E-1,-1.4499751E-2,3.9375E0,1.6374217E-3,4.233333E0,-1.1342306E-2,1.3956314E1,8.393041E0,-5.4335115E-3,1.5665022E-1,4.872904E-3,-6.9674416E-3,-9.240542E-2,3.7694068E-3,1.7970962E-2,7.238465E-2,1.9831342E-1,-1.6368754E-2,-9.006069E-2,4.604287E-3],"split_indices":[182,34,13,0,109,103,107,153,107,7,107,127,39,0,0,0,0,0,0,0,0,0,0,0,0],"split_type":[0,0,0,0,0,0,0,0,0,0,0,0,0,0,0,0,0,0,0,0,0,0,0,0,0],"sum_hessian":[6.205E3,5.765E3,4.4E2,1.4E1,5.751E3,3.36E2,1.04E2,2.1E1,5.73E3,2E1,3.16E2,2E1,8.4E1,1E1,1.1E1,1.656E3,4.074E3,1E1,1E1,1.06E2,2.1E2,1E1,1E1,2.9E1,5.5E1],"tree_param":{"num_deleted":"0","num_feature":"183","num_nodes":"25","size_leaf_vector":"1"}},{"base_weights":[1.567849E-2,4.528644E-1,-2.2606898E-2,7.061346E-1,-4.9343455E-1,1.1226592E-1,-2.978082E-2,2.7917986E0,5.8014816E-1,-1.0750221E0,4.9034157E-1,1.0137221E-2,-3.4153014E-1,5.468254E-2,2.00399E-1,6.1502516E-2,8.580892E-3,-7.307663E-2,3.0515445E-2,7.395413E-2,-8.067639E-2,-4.2903037E-3,1.0784849E-2,-6.042089E-3,-5.428029E-2],"categories":[],"categories_nodes":[],"categories_segments":[],"categories_sizes":[],"default_left":[0,0,0,0,0,0,0,1,0,0,1,0,0,0,0,0,0,0,0,0,0,0,0,0,0],"id":21,"left_children":[1,3,5,7,9,-1,11,13,15,17,19,21,23,-1,-1,-1,-1,-1,-1,-1,-1,-1,-1,-1,-1],"loss_changes":[1.0434975E2,1.2105339E2,9.288472E1,1.0040413E2,6.239145E1,0E0,7.115574E1,3.5648636E1,9.939274E1,4.624929E1,9.0033646E1,9.995532E1,1.06067856E2,0E0,0E0,0E0,0E0,0E0,0E0,0E0,0E0,0E0,0E0,0E0,0E0],"parents":[2147483647,0,0,1,1,2,2,3,3,4,4,6,6,7,7,8,8,9,9,10,10,11,11,12,12],"right_children":[2,4,6,8,10,-1,12,14,16,18,20,22,24,-1,-1,-1,-1,-1,-1,-1,-1,-1,-1,-1,-1],"split_conditions":[8.475628E0,1.0430137E1,-4E0,1.7584E-1,8.493793E-2,1.1226592E-1,9.55914E0,8.1133E0,6.708E-1,8.573E-2,7E1,1.5220588E0,6.54321E-2,5.468254E-2,2.00399E-1,6.1502516E-2,8.580892E-3,-7.307663E-2,3.0515445E-2,7.395413E-2,-8.067639E-2,-4.2903037E-3,1.0784849E-2,-6.042089E-3,-5.428029E-2],"split_indices":[47,41,34,75,101,0,45,170,72,73,52,137,149,0,0,0,0,0,0,0,0,0,0,0,0],"split_type":[0,0,0,0,0,0,0,0,0,0,0,0,0,0,0,0,0,0,0,0,0,0,0,0,0],"sum_hessian":[6.226E3,5E2,5.726E3,3.95E2,1.05E2,1.6E1,5.71E3,2E1,3.75E2,6.6E1,3.9E1,5.063E3,6.47E2,1E1,1E1,1.43E2,2.32E2,5.4E1,1.2E1,2.7E1,1.2E1,3.452E3,1.611E3,5.01E2,1.46E2],"tree_param":{"num_deleted":"0","num_feature":"183","num_nodes":"25","size_leaf_vector":"1"}},{"base_weights":[1.1741888E-2,-7.251642E-2,2.7888566E-1,2.900319E-2,-2.5480366E-1,1.2519275E0,2.0240714E-1,6.2872887E-1,-2.4058927E-2,-1.4209781E-2,-4.8894724E-1,1.8481437E0,-4.147775E-1,3.0754426E-1,-3.6803377E-1,1.1053373E-1,1.8159445E-2,-4.6537057E-3,2.8416654E-2,-6.7042494E-3,5.3707708E-2,6.6561334E-2,-2.7132023E-2,3.1626932E-2,1.23726286E-1,5.0106782E-2,-6.167238E-2,1.9286206E-2,-2.8652271E-2,5.7401084E-3,-5.6594517E-2],"categories":[],"categories_nodes":[],"categories_segments":[],"categories_sizes":[],"default_left":[0,0,0,0,0,0,0,0,0,1,0,0,1,0,1,0,0,0,0,0,0,0,0,0,0,0,0,0,0,0,0],"id":22,"left_children":[1,3,5,7,9,11,13,15,17,19,21,23,25,27,29,-1,-1,-1,-1,-1,-1,-1,-1,-1,-1,-1,-1,-1,-1,-1,-1],"loss_changes":[1.3986313E2,8.7444E1,1.1008338E2,9.67013E1,9.508911E1,1.0914119E2,8.3218994E1,1.0163668E2,1.1403633E2,1.09171165E2,8.494476E1,5.716278E1,3.7317955E1,8.095252E1,8.012785E1,0E0,0E0,0E0,0E0,0E0,0E0,0E0,0E0,0E0,0E0,0E0,0E0,0E0,0E0,0E0,0E0],"parents":[2147483647,0,0,1,1,2,2,3,3,4,4,5,5,6,6,7,7,8,8,9,9,10,10,11,11,12,12,13,13,14,14],"right_children":[2,4,6,8,10,12,14,16,18,20,22,24,26,28,30,-1,-1,-1,-1,-1,-1,-1,-1,-1,-1,-1,-1,-1,-1,-1,-1],"split_conditions":[1.0360457E1,4.8050847E0,8.010527E0,5.7E1,7.2006756E-1,2.3266034E-1,1.7341774E-2,6.7437585E-3,5.048E0,9.8333336E1,2.4555555E1,-2.6052885E-3,6.92E1,7.716319E-1,5.85E1,1.1053373E-1,1.8159445E-2,-4.6537057E-3,2.8416654E-2,-6.7042494E-3,5.3707708E-2,6.6561334E-2,-2.7132023E-2,3.1626932E-2,1.23726286E-1,5.0106782E-2,-6.167238E-2,1.9286206E-2,-2.8652271E-2,5.7401084E-3,-5.6594517E-2],"split_indices":[182,27,45,52,104,102,114,111,60,158,82,113,49,89,53,0,0,0,0,0,0,0,0,0,0,0,0,0,0,0,0],"split_type":[0,0,0,0,0,0,0,0,0,0,0,0,0,0,0,0,0,0,0,0,0,0,0,0,0,0,0,0,0,0,0],"sum_hessian":[6.208E3,4.72E3,1.488E3,3.032E3,1.688E3,1.06E2,1.382E3,2.45E2,2.787E3,8.34E2,8.54E2,7.8E1,2.8E1,1.168E3,2.14E2,3.3E1,2.12E2,2.498E3,2.89E2,7.53E2,8.1E1,2.3E1,8.31E2,2.8E1,5E1,1E1,1.8E1,1.074E3,9.4E1,1.32E2,8.2E1],"tree_param":{"num_deleted":"0","num_feature":"183","num_nodes":"31","size_leaf_vector":"1"}},{"base_weights":[-1.1525966E-2,-1.0559264E-1,3.0649802E-1,-1.3935384E-1,3.7099048E-1,7.3751944E-1,1.6525744E-1,-1.5496458E0,-1.2732497E-1,1.5258657E0,3.5958633E-2,1.5766832E0,3.73558E-1,2.9446226E-1,-5.358203E-1,-1.0088594E-1,-9.126731E-3,-6.762889E-3,8.2558416E-2,4.8576776E-2,2.0594637E-1,-1.011757E-2,6.9383115E-2,2.1379277E-2,1.0887869E-1,7.0042334E-2,-3.7852556E-3,4.0588915E-2,4.0539657E-3,1.2647389E-2,-6.436853E-2],"categories":[],"categories_nodes":[],"categories_segments":[],"categories_sizes":[],"default_left":[0,0,0,0,0,0,0,0,0,0,1,0,0,0,1,0,0,0,0,0,0,0,0,0,0,0,0,0,0,0,0],"id":23,"left_children":[1,3,5,7,9,11,13,15,17,19,21,23,25,27,29,-1,-1,-1,-1,-1,-1,-1,-1,-1,-1,-1,-1,-1,-1,-1,-1],"loss_changes":[1.8795346E2,7.809366E1,8.687433E1,7.613492E1,1.2377922E2,1.062464E2,9.836827E1,2.313984E1,6.356102E1,9.447226E1,8.165191E1,7.080783E1,1.1539633E2,1.0080375E2,1.0104117E2,0E0,0E0,0E0,0E0,0E0,0E0,0E0,0E0,0E0,0E0,0E0,0E0,0E0,0E0,0E0,0E0],"parents":[2147483647,0,0,1,1,2,2,3,3,4,4,5,5,6,6,7,7,8,8,9,9,10,10,11,11,12,12,13,13,14,14],"right_children":[2,4,6,8,10,12,14,16,18,20,22,24,26,28,30,-1,-1,-1,-1,-1,-1,-1,-1,-1,-1,-1,-1,-1,-1,-1,-1],"split_conditions":[1.0397346E1,1.0961E-1,6.973049E-1,-4.6451587E-2,6.5666664E1,1.0681365E1,1.8828586E-2,9.4E1,1.19E1,5.993166E-2,1.7578125E0,6.612972E-1,6.797738E0,4.032618E0,1.5756757E1,-1.0088594E-1,-9.126731E-3,-6.762889E-3,8.2558416E-2,4.8576776E-2,2.0594637E-1,-1.011757E-2,6.9383115E-2,2.1379277E-2,1.0887869E-1,7.0042334E-2,-3.7852556E-3,4.0588915E-2,4.0539657E-3,1.2647389E-2,-6.436853E-2],"split_indices":[182,73,89,114,97,132,109,141,35,91,137,90,117,12,172,0,0,0,0,0,0,0,0,0,0,0,0,0,0,0,0],"split_type":[0,0,0,0,0,0,0,0,0,0,0,0,0,0,0,0,0,0,0,0,0,0,0,0,0,0,0,0,0,0,0],"sum_hessian":[6.28E3,4.848E3,1.432E3,4.529E3,3.19E2,3.51E2,1.081E3,3.6E1,4.493E3,7E1,2.49E2,1.04E2,2.47E2,9.14E2,1.67E2,2.6E1,1E1,4.475E3,1.8E1,6E1,1E1,2.13E2,3.6E1,3.7E1,6.7E1,7.4E1,1.73E2,2.65E2,6.49E2,8.2E1,8.5E1],"tree_param":{"num_deleted":"0","num_feature":"183","num_nodes":"31","size_leaf_vector":"1"}},{"base_weights":[6.064371E-3,-2.1173522E-1,8.127469E-2,-2.5565708E-1,1.050683E0,4.4419788E-2,7.23543E-1,-3.0823186E-1,7.817636E-1,1.303638E-1,3.1315872E-1,1.8792324E-1,-9.0772495E-2,2.788868E0,5.1971513E-1,-1.8026618E-2,2.3256365E-2,-2.0354368E-2,1.2054875E-1,-2.6444003E-2,6.8270646E-2,3.893847E-3,3.1796325E-2,-1.5185746E-2,5.8839316E-3,2.9166645E-1,-3.5186876E-2,4.9807664E-2,-1.9235248E-2],"categories":[],"categories_nodes":[],"categories_segments":[],"categories_sizes":[],"default_left":[0,1,0,0,0,1,0,0,0,0,0,0,0,0,0,0,0,0,0,0,0,0,0,0,0,0,0,0,0],"id":24,"left_children":[1,3,5,7,9,11,13,15,17,-1,19,21,23,25,27,-1,-1,-1,-1,-1,-1,-1,-1,-1,-1,-1,-1,-1,-1],"loss_changes":[1.0206056E2,8.903917E1,1.0944865E2,8.476396E1,5.9776287E1,8.5105606E1,1.0210309E2,5.993344E1,1.4763046E2,0E0,3.616709E1,1.0467094E2,1.00337006E2,2.431644E2,1.004267E2,0E0,0E0,0E0,0E0,0E0,0E0,0E0,0E0,0E0,0E0,0E0,0E0,0E0,0E0],"parents":[2147483647,0,0,1,1,2,2,3,3,4,4,5,5,6,6,7,7,8,8,10,10,11,11,12,12,13,13,14,14],"right_children":[2,4,6,8,10,12,14,16,18,-1,20,22,24,26,28,-1,-1,-1,-1,-1,-1,-1,-1,-1,-1,-1,-1,-1,-1],"split_conditions":[2E0,1.8E1,1.0194445E1,1.9063367E-1,8.5E0,7.465896E-1,7.9E0,5.6E0,2.3333334E1,1.303638E-1,1E0,2.1891892E0,4.57365E0,4.3231673E0,1.8816668E1,-1.8026618E-2,2.3256365E-2,-2.0354368E-2,1.2054875E-1,-2.6444003E-2,6.8270646E-2,3.893847E-3,3.1796325E-2,-1.5185746E-2,5.8839316E-3,2.9166645E-1,-3.5186876E-2,4.9807664E-2,-1.9235248E-2],"split_indices":[134,51,39,56,31,103,50,8,143,0,121,139,12,13,54,0,0,0,0,0,0,0,0,0,0,0,0,0,0],"split_type":[0,0,0,0,0,0,0,0,0,0,0,0,0,0,0,0,0,0,0,0,0,0,0,0,0,0,0,0,0],"sum_hessian":[6.228E3,1.597E3,4.631E3,1.545E3,5.2E1,4.382E3,2.49E2,1.472E3,7.3E1,1.5E1,3.7E1,2.126E3,2.256E3,2E1,2.29E2,1.38E3,9.2E1,4.3E1,3E1,2.1E1,1.6E1,1.709E3,4.17E2,1.116E3,1.14E3,1E1,1E1,1.5E2,7.9E1],"tree_param":{"num_deleted":"0","num_feature":"183","num_nodes":"29","size_leaf_vector":"1"}},{"base_weights":[9.150476E-3,-9.4945446E-2,3.5104957E-1,-1.2684484E-1,4.0726742E-1,5.2816886E-1,-2.5455682E-2,1.0402147E0,-1.4099167E-1,-7.1782224E-2,1.3156093E0,7.1774095E-1,-4.7436967E-3,9.884296E-1,-1.8276247E-1,1.3407998E-2,1.5967456E-1,-1.2146124E-2,1.7540551E-3,1.7810081E-1,-1.5785204E-2,-2.884762E-2,9.212515E-2,1.6314653E-1,3.329898E-2,-1.46487085E-2,5.4353412E-2,1.4770444E-2,1.2194417E-1,3.591152E-2,-1.939487E-2],"categories":[],"categories_nodes":[],"categories_segments":[],"categories_sizes":[],"default_left":[0,0,0,0,0,0,0,0,1,0,0,0,0,0,0,0,0,0,0,0,0,0,0,0,0,0,0,0,0,0,0],"id":25,"left_children":[1,3,5,7,9,11,13,15,17,19,21,23,25,27,29,-1,-1,-1,-1,-1,-1,-1,-1,-1,-1,-1,-1,-1,-1,-1,-1],"loss_changes":[2.223081E2,7.673635E1,9.7356125E1,7.4458855E1,1.24887924E2,1.0036655E2,7.484197E1,8.7367065E1,7.994177E1,1.6912239E2,1.0109985E2,9.130347E1,8.292783E1,6.133947E1,7.571495E1,0E0,0E0,0E0,0E0,0E0,0E0,0E0,0E0,0E0,0E0,0E0,0E0,0E0,0E0,0E0,0E0],"parents":[2147483647,0,0,1,1,2,2,3,3,4,4,5,5,6,6,7,7,8,8,9,9,10,10,11,11,12,12,13,13,14,14],"right_children":[2,4,6,8,10,12,14,16,18,20,22,24,26,28,30,-1,-1,-1,-1,-1,-1,-1,-1,-1,-1,-1,-1,-1,-1,-1,-1],"split_conditions":[1.0397346E1,1.024E1,7.372891E-1,-3.2E0,4.2899526E-3,1.4300377E1,7.885987E0,1.6304348E0,7.68E1,-6E-1,4.15E1,2.9954863E0,9.704E0,9.34375E0,5.785714E0,1.3407998E-2,1.5967456E-1,-1.2146124E-2,1.7540551E-3,1.7810081E-1,-1.5785204E-2,-2.884762E-2,9.212515E-2,1.6314653E-1,3.329898E-2,-1.46487085E-2,5.4353412E-2,1.4770444E-2,1.2194417E-1,3.591152E-2,-1.939487E-2],"split_indices":[182,39,89,33,114,132,43,137,49,38,175,170,62,135,138,0,0,0,0,0,0,0,0,0,0,0,0,0,0,0,0],"split_type":[0,0,0,0,0,0,0,0,0,0,0,0,0,0,0,0,0,0,0,0,0,0,0,0,0,0,0,0,0,0,0],"sum_hessian":[6.241E3,4.785E3,1.456E3,4.501E3,2.84E2,9.9E2,4.66E2,5.2E1,4.449E3,1.87E2,9.7E1,7.3E2,2.6E2,6.1E1,4.05E2,4E1,1.2E1,2.818E3,1.631E3,1E1,1.77E2,2.1E1,7.6E1,1.2E1,7.18E2,2.07E2,5.3E1,4.3E1,1.8E1,7.4E1,3.31E2],"tree_param":{"num_deleted":"0","num_feature":"183","num_nodes":"31","size_leaf_vector":"1"}},{"base_weights":[-8.611877E-3,-3.142822E-2,1.1253399E0,2.6611365E-2,-2.775063E-1,-3.6450908E-1,1.8023196E0,-3.7857085E-1,6.681168E-2,1.5180373E0,-3.244049E-1,4.4205612E-1,-8.2105696E-2,9.04784E-1,3.0895183E0,7.264099E-2,-2.2688158E-2,2.3992048E-3,5.0466042E-2,1.3364409E-1,-3.215213E-2,1.2379962E-2,-2.1791164E-2,6.32348E-2,-3.5590317E-2,1.8024537E-3,1.2894373E-1,5.144875E-2,2.633254E-1],"categories":[],"categories_nodes":[],"categories_segments":[],"categories_sizes":[],"default_left":[0,1,0,0,0,0,1,0,1,0,0,0,0,0,0,0,0,0,0,0,0,0,0,0,0,0,0,0,0],"id":26,"left_children":[1,3,5,7,9,11,13,15,17,19,21,23,-1,25,27,-1,-1,-1,-1,-1,-1,-1,-1,-1,-1,-1,-1,-1,-1],"loss_changes":[1.6134894E2,8.748672E1,1.25658966E2,8.068124E1,9.918588E1,4.2910686E1,9.181152E1,6.2673477E1,7.970468E1,7.871485E1,7.297142E1,2.6590559E1,0E0,7.637113E1,1.4041922E2,0E0,0E0,0E0,0E0,0E0,0E0,0E0,0E0,0E0,0E0,0E0,0E0,0E0,0E0],"parents":[2147483647,0,0,1,1,2,2,3,3,4,4,5,5,6,6,7,7,8,8,9,9,10,10,11,11,13,13,14,14],"right_children":[2,4,6,8,10,12,14,16,18,20,22,24,-1,26,28,-1,-1,-1,-1,-1,-1,-1,-1,-1,-1,-1,-1,-1,-1],"split_conditions":[1.3845509E1,9.135551E-2,5.35E1,2.0480537E-1,7.804348E0,3.5501027E0,2.8800976E0,-6.1195053E-2,7.6272E-1,4.5E0,6.8336186E0,2.3585878E-2,-8.2105696E-2,7.00156E-2,1.34E2,7.264099E-2,-2.2688158E-2,2.3992048E-3,5.0466042E-2,1.3364409E-1,-3.215213E-2,1.2379962E-2,-2.1791164E-2,6.32348E-2,-3.5590317E-2,1.8024537E-3,1.2894373E-1,5.144875E-2,2.633254E-1],"split_indices":[182,110,53,87,45,133,171,107,90,136,117,116,0,91,0,0,0,0,0,0,0,0,0,0,0,0,0,0,0],"split_type":[0,0,0,0,0,0,0,0,0,0,0,0,0,0,0,0,0,0,0,0,0,0,0,0,0,0,0,0,0],"sum_hessian":[6.24E3,6.119E3,1.21E2,4.952E3,1.167E3,3.8E1,8.3E1,4.45E2,4.507E3,2.8E1,1.139E3,2.4E1,1.4E1,5.1E1,3.2E1,1.6E1,4.29E2,4.421E3,8.6E1,1.8E1,1E1,1.85E2,9.54E2,1.4E1,1E1,3.5E1,1.6E1,1.8E1,1.4E1],"tree_param":{"num_deleted":"0","num_feature":"183","num_nodes":"29","size_leaf_vector":"1"}},{"base_weights":[-1.4646032E-3,-3.9172392E-2,5.8870447E-1,8.933064E-1,-5.1764112E-2,-2.6778825E-2,1.0346836E0,1.12429194E-1,2.7761004E0,-1.2601915E-1,1.1929459E-1,4.748216E-1,-1.4299996E0,2.1625764E0,6.21957E-1,5.695165E-2,-6.629052E-2,3.001073E-2,2.3269801E-1,-4.4570067E-3,-3.272452E-2,4.318129E-3,6.1228584E-2,1.1130694E-1,3.9017682E-3,-6.4031444E-3,-9.316432E-2,1.3559604E-1,1.0643323E-2,1.0429325E-1,7.288235E-3],"categories":[],"categories_nodes":[],"categories_segments":[],"categories_sizes":[],"default_left":[0,0,0,0,0,0,0,0,0,1,0,0,0,0,0,0,0,0,0,0,0,0,0,0,0,0,0,0,0,0,0],"id":27,"left_children":[1,3,5,7,9,11,13,15,17,19,21,23,25,27,29,-1,-1,-1,-1,-1,-1,-1,-1,-1,-1,-1,-1,-1,-1,-1,-1],"loss_changes":[1.4044778E2,6.963352E1,1.0428972E2,1.14946304E2,7.4464966E1,1.1486986E2,9.916553E1,8.8620056E1,8.734062E1,7.940767E1,6.409813E1,8.257956E1,2.338131E1,6.038211E1,1.1327027E2,0E0,0E0,0E0,0E0,0E0,0E0,0E0,0E0,0E0,0E0,0E0,0E0,0E0,0E0,0E0,0E0],"parents":[2147483647,0,0,1,1,2,2,3,3,4,4,5,5,6,6,7,7,8,8,9,9,10,10,11,11,12,12,13,13,14,14],"right_children":[2,4,6,8,10,12,14,16,18,20,22,24,26,28,30,-1,-1,-1,-1,-1,-1,-1,-1,-1,-1,-1,-1,-1,-1,-1,-1],"split_conditions":[1.2532812E1,6.0335193E0,-2.755262E-3,9.388889E0,9.72695E0,1.2742775E-2,6.950129E-1,2.4E1,8.967723E0,1.2789474E1,7E0,3.690936E0,1.3042078E1,1.4496259E1,-6.333333E-1,5.695165E-2,-6.629052E-2,3.001073E-2,2.3269801E-1,-4.4570067E-3,-3.272452E-2,4.318129E-3,6.1228584E-2,1.1130694E-1,3.9017682E-3,-6.4031444E-3,-9.316432E-2,1.3559604E-1,1.0643323E-2,1.0429325E-1,7.288235E-3],"split_indices":[182,182,58,135,182,114,89,160,40,138,4,13,172,132,38,0,0,0,0,0,0,0,0,0,0,0,0,0,0,0,0],"split_type":[0,0,0,0,0,0,0,0,0,0,0,0,0,0,0,0,0,0,0,0,0,0,0,0,0,0,0,0,0,0,0],"sum_hessian":[6.312E3,5.935E3,3.77E2,7.7E1,5.858E3,1.59E2,2.18E2,5.6E1,2.1E1,4.086E3,1.772E3,1.18E2,4.1E1,5.6E1,1.62E2,3.3E1,2.3E1,1.1E1,1E1,3.822E3,2.64E2,1.723E3,4.9E1,2E1,9.8E1,1.1E1,3E1,4.3E1,1.3E1,3.8E1,1.24E2],"tree_param":{"num_deleted":"0","num_feature":"183","num_nodes":"31","size_leaf_vector":"1"}},{"base_weights":[2.9466813E-4,-2.0831117E-1,7.156224E-2,2.8591678E-2,-3.599108E-1,7.8553736E-1,4.0589076E-2,-5.126382E-2,1.4161712E0,8.254429E-2,-3.9305523E-1,2.1542478E0,4.429764E-1,-4.6998195E-2,2.525675E-1,3.1137386E-2,-1.2265478E-2,1.1724021E-1,3.29293E-3,-2.2086916E-2,4.5307126E-2,1.4428392E-2,1.813777E-1,1.0141566E-3,8.801715E-2,2.4677541E-2,-5.156497E-3,3.319251E-2,-6.346387E-4],"categories":[],"categories_nodes":[],"categories_segments":[],"categories_sizes":[],"default_left":[0,0,0,1,0,0,0,0,0,0,1,0,1,0,0,0,0,0,0,0,0,0,0,0,0,0,0,0,0],"id":28,"left_children":[1,3,5,7,9,11,13,15,17,-1,19,21,23,25,27,-1,-1,-1,-1,-1,-1,-1,-1,-1,-1,-1,-1,-1,-1],"loss_changes":[9.272689E1,5.711889E1,1.0262354E2,6.9228615E1,6.562686E1,8.8063286E1,8.287193E1,7.72648E1,4.184314E1,0E0,6.1110428E1,1.0157442E2,8.6996666E1,9.5813286E1,1.4251865E2,0E0,0E0,0E0,0E0,0E0,0E0,0E0,0E0,0E0,0E0,0E0,0E0,0E0,0E0],"parents":[2147483647,0,0,1,1,2,2,3,3,4,4,5,5,6,6,7,7,8,8,10,10,11,11,12,12,13,13,14,14],"right_children":[2,4,6,8,10,12,14,16,18,-1,20,22,24,26,28,-1,-1,-1,-1,-1,-1,-1,-1,-1,-1,-1,-1,-1,-1],"split_conditions":[1E0,1.1911764E0,2.7E0,7.05E1,2.670448E-2,-1.721454E-2,1.0278221E0,8.1E1,8.194613E-2,8.254429E-2,1.53E1,3.4785275E0,6.428571E0,3.6785715E0,5.186211E-2,3.1137386E-2,-1.2265478E-2,1.1724021E-1,3.29293E-3,-2.2086916E-2,4.5307126E-2,1.4428392E-2,1.813777E-1,1.0141566E-3,8.801715E-2,2.4677541E-2,-5.156497E-3,3.319251E-2,-6.346387E-4],"split_indices":[134,154,3,53,106,112,44,159,86,0,51,153,153,29,116,0,0,0,0,0,0,0,0,0,0,0,0,0,0],"split_type":[0,0,0,0,0,0,0,0,0,0,0,0,0,0,0,0,0,0,0,0,0,0,0,0,0,0,0,0,0],"sum_hessian":[6.235E3,1.586E3,4.649E3,6.19E2,9.67E2,1.91E2,4.458E3,5.87E2,3.2E1,1.4E1,9.53E2,3.6E1,1.55E2,3.155E3,1.303E3,1.3E2,4.57E2,1.8E1,1.4E1,9.2E2,3.3E1,1.7E1,1.9E1,1.19E2,3.6E1,2.95E2,2.86E3,5.1E2,7.93E2],"tree_param":{"num_deleted":"0","num_feature":"183","num_nodes":"29","size_leaf_vector":"1"}},{"base_weights":[8.296827E-3,-6.8937935E-2,2.5819987E-1,1.237789E-1,-1.4549942E-1,2.2664294E-1,2.1322849E0,-8.279753E-2,4.8102695E-1,-5.2178454E-1,-9.29825E-2,-6.1819017E-1,2.863554E-1,1.6723512E-2,1.7933355E-1,4.4914316E-2,-8.692197E-3,3.2060925E-2,-3.6191147E-2,-3.5973597E-2,1.04024615E-2,-7.39466E-3,1.8516814E-2,1.1866505E-2,-5.9516776E-2,3.8763985E-2,5.937375E-3],"categories":[],"categories_nodes":[],"categories_segments":[],"categories_sizes":[],"default_left":[0,1,0,0,0,0,0,1,0,0,0,0,0,0,0,0,0,0,0,0,0,0,0,0,0,0,0],"id":29,"left_children":[1,3,5,7,9,11,13,15,17,19,21,23,25,-1,-1,-1,-1,-1,-1,-1,-1,-1,-1,-1,-1,-1,-1],"loss_changes":[1.20165535E2,7.018415E1,8.549803E1,9.993558E1,6.704759E1,7.333503E1,5.956971E1,7.680756E1,9.664309E1,6.04217E1,7.61341E1,4.7745865E1,1.1059409E2,0E0,0E0,0E0,0E0,0E0,0E0,0E0,0E0,0E0,0E0,0E0,0E0,0E0,0E0],"parents":[2147483647,0,0,1,1,2,2,3,3,4,4,5,5,6,6,7,7,8,8,9,9,10,10,11,11,12,12],"right_children":[2,4,6,8,10,12,14,16,18,20,22,24,26,-1,-1,-1,-1,-1,-1,-1,-1,-1,-1,-1,-1,-1,-1],"split_conditions":[1.0379211E1,3.0042104E-2,1.5426015E1,1.4464285E0,6.681E-2,-4.430543E-2,4.14E0,1.37E2,6E1,1.87E2,5.4666667E0,1.277027E0,-7.245118E-3,1.6723512E-2,1.7933355E-1,4.4914316E-2,-8.692197E-3,3.2060925E-2,-3.6191147E-2,-3.5973597E-2,1.04024615E-2,-7.39466E-3,1.8516814E-2,1.1866505E-2,-5.9516776E-2,3.8763985E-2,5.937375E-3],"split_indices":[182,115,182,139,68,110,61,174,125,174,22,154,107,0,0,0,0,0,0,0,0,0,0,0,0,0,0],"split_type":[0,0,0,0,0,0,0,0,0,0,0,0,0,0,0,0,0,0,0,0,0,0,0,0,0,0,0],"sum_hessian":[6.22E3,4.752E3,1.468E3,1.35E3,3.402E3,1.446E3,2.2E1,8.56E2,4.94E2,4.14E2,2.988E3,9.4E1,1.352E3,1.1E1,1.1E1,7.1E1,7.85E2,4.37E2,5.7E1,3.26E2,8.8E1,2.673E3,3.15E2,3.8E1,5.6E1,3.43E2,1.009E3],"tree_param":{"num_deleted":"0","num_feature":"183","num_nodes":"27","size_leaf_vector":"1"}},{"base_weights":[-7.792286E-3,-6.515132E-2,2.920835E-1,1.15079515E-1,-7.053939E-2,9.9531573E-1,1.554785E-1,-9.838366E-2,3.9367598E-1,1.6626482E0,-1.5296173E-1,2.344734E-1,-1.3333083E0,-5.310219E-3,7.596964E-2,5.266599E-2,-1.6003026E-2,2.6766319E-2,1.4273714E-1,-7.98602E-2,3.877753E-2,1.4126092E-2,-6.7616075E-2,-9.2860935E-3,-9.338053E-2],"categories":[],"categories_nodes":[],"categories_segments":[],"categories_sizes":[],"default_left":[0,0,1,0,0,0,1,1,0,0,0,0,1,0,0,0,0,0,0,0,0,0,0,0,0],"id":30,"left_children":[1,3,5,-1,7,9,11,13,15,17,19,21,23,-1,-1,-1,-1,-1,-1,-1,-1,-1,-1,-1,-1],"loss_changes":[1.0842517E2,6.738856E1,9.667816E1,0E0,6.831798E1,1.2648096E2,1.0037107E2,6.313648E1,1.4159364E2,1.3602847E2,8.5783554E1,6.223079E1,2.5261421E1,0E0,0E0,0E0,0E0,0E0,0E0,0E0,0E0,0E0,0E0,0E0,0E0],"parents":[2147483647,0,0,1,1,2,2,4,4,5,5,6,6,7,7,8,8,9,9,10,10,11,11,12,12],"right_children":[2,4,6,-1,8,10,12,14,16,18,20,22,24,-1,-1,-1,-1,-1,-1,-1,-1,-1,-1,-1,-1],"split_conditions":[1.0992753E1,1.1045766E1,8.1E0,1.15079515E-1,1.024E1,1.6418918E0,9.41E1,1.9014737E-1,1.08E1,2.2093E-1,2.059322E0,7.878601E-1,3.796875E0,-5.310219E-3,7.596964E-2,5.266599E-2,-1.6003026E-2,2.6766319E-2,1.4273714E-1,-7.98602E-2,3.877753E-2,1.4126092E-2,-6.7616075E-2,-9.2860935E-3,-9.338053E-2],"split_indices":[182,118,135,0,39,156,49,115,31,70,156,179,136,0,0,0,0,0,0,0,0,0,0,0,0],"split_type":[0,0,0,0,0,0,0,0,0,0,0,0,0,0,0,0,0,0,0,0,0,0,0,0,0],"sum_hessian":[6.302E3,5.292E3,1.01E3,1E1,5.282E3,1.62E2,8.48E2,4.985E3,2.97E2,1.02E2,6E1,8.07E2,4.1E1,4.963E3,2.2E1,1.54E2,1.43E2,5.4E1,4.8E1,2.3E1,3.7E1,7.85E2,2.2E1,1.4E1,2.7E1],"tree_param":{"num_deleted":"0","num_feature":"183","num_nodes":"25","size_leaf_vector":"1"}},{"base_weights":[-1.4799331E-2,-6.1965313E-2,4.3056563E-1,-1.9460605E-1,4.4965293E-2,1.088623E0,2.0300566E-1,5.3919977E-1,-2.343984E-1,-4.5487024E-2,4.2361787E-1,1.4233513E0,-3.8314372E-1,-7.0322037E-1,4.565761E-1,-1.3125064E-2,8.129265E-2,-2.2603743E-2,-6.0444833E-3,3.4791353E-4,-3.2894563E-2,1.1743238E-1,1.611209E-2,1.0254388E-1,2.3892866E-2,5.8029544E-2,-6.4053506E-2,5.9085965E-2,-5.62631E-2,-1.2790929E-2,4.4264946E-2],"categories":[],"categories_nodes":[],"categories_segments":[],"categories_sizes":[],"default_left":[0,0,0,0,0,0,0,0,0,1,0,0,1,0,0,0,0,0,0,0,0,0,0,0,0,0,0,0,0,0,0],"id":31,"left_children":[1,3,5,7,9,11,13,15,17,19,21,23,25,27,29,-1,-1,-1,-1,-1,-1,-1,-1,-1,-1,-1,-1,-1,-1,-1,-1],"loss_changes":[1.3206584E2,8.072235E1,8.94477E1,7.435945E1,1.0800167E2,7.716559E1,1.0399928E2,1.1524964E2,5.934752E1,8.184682E1,1.1660457E2,7.229283E1,4.4582493E1,8.140497E1,1.0839205E2,0E0,0E0,0E0,0E0,0E0,0E0,0E0,0E0,0E0,0E0,0E0,0E0,0E0,0E0,0E0,0E0],"parents":[2147483647,0,0,1,1,2,2,3,3,4,4,5,5,6,6,7,7,8,8,9,9,10,10,11,11,12,12,13,13,14,14],"right_children":[2,4,6,8,10,12,14,16,18,20,22,24,26,28,30,-1,-1,-1,-1,-1,-1,-1,-1,-1,-1,-1,-1,-1,-1,-1,-1],"split_conditions":[1.1942241E1,1.0588236E0,3.8666666E0,1.1362934E1,9.704E0,5.324E0,8.3E0,4.9442006E-3,1.1524301E1,4.0244446E2,6.637288E0,7.360199E-1,7.8333335E0,2.2025585E-1,2.1290667E-1,-1.3125064E-2,8.129265E-2,-2.2603743E-2,-6.0444833E-3,3.4791353E-4,-3.2894563E-2,1.1743238E-1,1.611209E-2,1.0254388E-1,2.3892866E-2,5.8029544E-2,-6.4053506E-2,5.9085965E-2,-5.62631E-2,-1.2790929E-2,4.4264946E-2],"split_indices":[182,156,28,172,62,60,35,108,123,97,182,88,2,87,70,0,0,0,0,0,0,0,0,0,0,0,0,0,0,0,0],"split_type":[0,0,0,0,0,0,0,0,0,0,0,0,0,0,0,0,0,0,0,0,0,0,0,0,0,0,0,0,0,0,0],"sum_hessian":[6.286E3,5.686E3,6E2,2.538E3,3.148E3,1.52E2,4.48E2,1.29E2,2.409E3,2.542E3,6.06E2,1.24E2,2.8E1,9.7E1,3.51E2,7.5E1,5.4E1,8.23E2,1.586E3,2.343E3,1.99E2,2.8E1,5.78E2,7.3E1,5.1E1,1E1,1.8E1,1.7E1,8E1,1.32E2,2.19E2],"tree_param":{"num_deleted":"0","num_feature":"183","num_nodes":"31","size_leaf_vector":"1"}}]},"name":"gbtree"},"learner_model_param":{"base_score":"[3.678204E0]","boost_from_average":"1","num_class":"0","num_feature":"183","num_target":"1"},"objective":{"name":"reg:squarederror","reg_loss_param":{"scale_pos_weight":"1"}}},"version":[3,2,0]}