{"learner":{"attributes":{"best_iteration":"9","best_score":"0.6589221234154712","scikit_learn":"{\"_estimator_type\": \"classifier\"}"},"feature_names":["away_team_id","home_team_id","h2h_avg_total_runs","home_avg_runs_scored_10g","home_avg_runs_allowed_10g","home_avg_total_runs_10g","home_win_pct_10g","home_avg_runs_scored_30g","home_avg_runs_allowed_30g","home_avg_total_runs_30g","home_win_pct_30g","home_bullpen_era_10g","home_bullpen_era_30g","home_bullpen_era_season","home_season_avg_scored","home_season_avg_allowed","home_days_rest","away_avg_runs_scored_10g","away_avg_runs_allowed_10g","away_avg_total_runs_10g","away_win_pct_10g","away_avg_runs_scored_30g","away_avg_runs_allowed_30g","away_avg_total_runs_30g","away_win_pct_30g","away_bullpen_era_10g","away_bullpen_era_30g","away_bullpen_era_season","away_season_avg_scored","away_season_avg_allowed","away_days_rest","combined_scoring_10g","combined_allowed_10g","home_offense_vs_away_pitching_10g","away_offense_vs_home_pitching_10g","combined_scoring_30g","combined_allowed_30g","home_offense_vs_away_pitching_30g","away_offense_vs_home_pitching_30g","combined_season_scoring","combined_season_allowed","combined_bullpen_era_10g","combined_bullpen_era_30g","combined_bullpen_era_season","park_factor","league_avg_total_runs_7d","league_avg_total_runs_30d","league_avg_total_runs_season","is_dome","temp_f","wind_mph","precip_mm","humidity_pct","dew_point_f","first_pitch_local_hour","is_night_game","home_dc_attack","home_dc_defense","away_dc_attack","away_dc_defense","dc_lambda_home","dc_lambda_away","dc_expected_total","dc_home_edge","dc_fit_n_games","home_rolling_ops_10g","home_rolling_ops_30g","home_rolling_bb_pct_10g","home_rolling_bb_pct_30g","home_rolling_k_pct_10g","home_rolling_k_pct_30g","away_rolling_ops_10g","away_rolling_ops_30g","away_rolling_bb_pct_10g","away_rolling_bb_pct_30g","away_rolling_k_pct_10g","away_rolling_k_pct_30g","home_lineup_confirmed","home_lineup_batters_known","home_lineup_batters_with_sample","home_lineup_low_pa_batters","home_lineup_platoon_adv_batters","home_lineup_avg_pre_pa","home_lineup_avg_ops","home_lineup_avg_obp","home_lineup_avg_slg","home_lineup_avg_bb_pct","home_lineup_avg_k_pct","home_lineup_top3_avg_ops","home_lineup_mid3_avg_ops","home_lineup_bottom3_avg_ops","home_lineup_std_ops","away_lineup_confirmed","away_lineup_batters_known","away_lineup_batters_with_sample","away_lineup_low_pa_batters","away_lineup_platoon_adv_batters","away_lineup_avg_pre_pa","away_lineup_avg_ops","away_lineup_avg_obp","away_lineup_avg_slg","away_lineup_avg_bb_pct","away_lineup_avg_k_pct","away_lineup_top3_avg_ops","away_lineup_mid3_avg_ops","away_lineup_bottom3_avg_ops","away_lineup_std_ops","home_lineup_delta_ops_30g","home_lineup_delta_bb_pct_30g","home_lineup_delta_k_pct_30g","home_lineup_top3_delta_ops_30g","home_lineup_depth_gap_ops","away_lineup_delta_ops_30g","away_lineup_delta_bb_pct_30g","away_lineup_delta_k_pct_30g","away_lineup_top3_delta_ops_30g","away_lineup_depth_gap_ops","home_bullpen_top2_quality_score","home_bullpen_top4_quality_score","home_bullpen_top2_used_yesterday","home_bullpen_top2_b2b","home_bullpen_top4_used_yesterday","home_bullpen_top4_b2b","home_bullpen_top4_available_score","home_bullpen_top4_burned_score","home_bullpen_top4_pitches_3d","away_bullpen_top2_quality_score","away_bullpen_top4_quality_score","away_bullpen_top2_used_yesterday","away_bullpen_top2_b2b","away_bullpen_top4_used_yesterday","away_bullpen_top4_b2b","away_bullpen_top4_available_score","away_bullpen_top4_burned_score","away_bullpen_top4_pitches_3d","ump_avg_total_runs","home_pitcher_era_3g","home_pitcher_whip_3g","home_pitcher_k9_3g","home_pitcher_hr9_3g","home_pitcher_ip_3g","home_pitcher_avg_pitches_3g","home_pitcher_prev_pitches","home_pitcher_avg_bf_3g","home_pitcher_prev_bf","home_pitcher_days_rest","home_pitcher_short_rest","home_pitcher_long_rest","home_pitcher_offseason_gap","home_pitcher_short_leash_score","home_pitcher_workhorse_score","home_pitcher_opener_flag","home_pitcher_bulk_flag","away_pitcher_era_3g","away_pitcher_whip_3g","away_pitcher_k9_3g","away_pitcher_hr9_3g","away_pitcher_ip_3g","away_pitcher_avg_pitches_3g","away_pitcher_prev_pitches","away_pitcher_avg_bf_3g","away_pitcher_prev_bf","away_pitcher_days_rest","away_pitcher_short_rest","away_pitcher_long_rest","away_pitcher_offseason_gap","away_pitcher_short_leash_score","away_pitcher_workhorse_score","away_pitcher_opener_flag","away_pitcher_bulk_flag","combined_pitcher_era","combined_pitcher_whip","combined_pitcher_k9","combined_pitcher_avg_pitches_3g","combined_pitcher_prev_pitches","combined_pitcher_avg_bf_3g","combined_pitcher_short_rest_flags","combined_pitcher_offseason_gap_flags","combined_pitcher_short_leash_score","combined_pitcher_workhorse_score","combined_pitcher_opener_flags","combined_pitcher_bulk_flags","point_prediction"],"feature_types":["int","int","float","float","float","float","float","float","float","float","float","float","float","float","float","float","float","float","float","float","float","float","float","float","float","float","float","float","float","float","float","float","float","float","float","float","float","float","float","float","float","float","float","float","float","float","float","float","int","float","float","float","float","float","float","float","float","float","float","float","float","float","float","float","int","float","float","float","float","float","float","float","float","float","float","float","float","float","float","float","float","float","float","float","float","float","float","float","float","float","float","float","float","float","float","float","float","float","float","float","float","float","float","float","float","float","float","float","float","float","float","float","float","float","float","float","float","float","float","float","float","float","float","float","float","float","float","float","float","float","float","float","float","float","float","float","float","float","float","float","float","float","float","float","float","float","float","float","float","float","float","float","float","float","float","float","float","float","float","float","float","float","float","float","float","float","float","float","float","float","float","float","float","float","float","float","float","float","float","float","float","float","float"],"gradient_booster":{"model":{"cats":{"enc":[],"feature_segments":[],"sorted_idx":[]},"gbtree_model_param":{"num_parallel_tree":"1","num_trees":"30"},"iteration_indptr":[0,1,2,3,4,5,6,7,8,9,10,11,12,13,14,15,16,17,18,19,20,21,22,23,24,25,26,27,28,29,30],"tree_info":[0,0,0,0,0,0,0,0,0,0,0,0,0,0,0,0,0,0,0,0,0,0,0,0,0,0,0,0,0,0],"trees":[{"base_weights":[1.4426808E-3,-4.2818555E-1,1.3524704E0,-8.145003E-1,8.289085E-2,8.543282E-1,1.9209337E0,-1.0702989E0,-5.725907E-1,3.7408847E-1,-3.9966995E-1,1.3034912E0,3.980645E-1,1.5816253E0,1.11850515E-1,-6.58579E-2,-4.873734E-2,-3.242081E-2,1.6134934E-3,-5.464747E-3,3.2905117E-2,-9.744714E-3,-3.792316E-2,7.213693E-2,9.490272E-3,3.2697357E-2,-1.3536245E-2,9.8626606E-2,4.6774175E-2],"categories":[],"categories_nodes":[],"categories_segments":[],"categories_sizes":[],"default_left":[0,0,0,0,0,0,0,0,0,0,0,0,0,0,0,0,0,0,0,0,0,0,0,0,0,0,0,0,0],"id":0,"left_children":[1,3,5,7,9,11,13,15,17,19,21,23,25,27,-1,-1,-1,-1,-1,-1,-1,-1,-1,-1,-1,-1,-1,-1,-1],"loss_changes":[1.0300162E3,2.6603894E2,1.17415405E2,4.5907623E1,8.1942726E1,4.6167114E1,1.3415405E1,5.7035522E0,1.8460327E1,5.018034E1,1.5632011E1,1.7085205E1,2.0656767E1,2.1671448E1,0E0,0E0,0E0,0E0,0E0,0E0,0E0,0E0,0E0,0E0,0E0,0E0,0E0,0E0,0E0],"parents":[2147483647,0,0,1,1,2,2,3,3,4,4,5,5,6,6,7,7,8,8,9,9,10,10,11,11,12,12,13,13],"right_children":[2,4,6,8,10,12,14,16,18,20,22,24,26,28,-1,-1,-1,-1,-1,-1,-1,-1,-1,-1,-1,-1,-1,-1,-1],"split_conditions":[9.245728E0,8.4509945E0,9.945667E0,8.018628E0,9.255E0,4.831E0,1.0530708E1,7.402959E0,1.6243897E-1,-4.761265E-2,4.7894735E0,1.0191E1,1.02E1,5.212E0,1.11850515E-1,-6.58579E-2,-4.873734E-2,-3.242081E-2,1.6134934E-3,-5.464747E-3,3.2905117E-2,-9.744714E-3,-3.792316E-2,7.213693E-2,9.490272E-3,3.2697357E-2,-1.3536245E-2,9.8626606E-2,4.6774175E-2],"split_indices":[182,182,182,182,62,61,182,182,57,57,15,62,9,61,0,0,0,0,0,0,0,0,0,0,0,0,0,0,0],"split_type":[0,0,0,0,0,0,0,0,0,0,0,0,0,0,0,0,0,0,0,0,0,0,0,0,0,0,0,0,0],"sum_hessian":[1.7702311E3,1.3440424E3,4.261888E2,7.64997E2,5.7904535E2,2.299991E2,1.961897E2,3.6809378E2,3.969032E2,3.6166525E2,2.173801E2,1.13809074E2,1.1619002E2,1.0071389E2,9.5475815E1,9.4999626E1,2.7309418E2,3.5285574E2,4.4047447E1,1.3404709E2,2.2761815E2,1.4071373E2,7.666637E1,1.0047579E2,1.3333281E1,8.4285385E1,3.1904636E1,5.9999763E1,4.0714127E1],"tree_param":{"num_deleted":"0","num_feature":"183","num_nodes":"29","size_leaf_vector":"1"}},{"base_weights":[-8.815479E-3,-5.173344E-1,1.0259124E0,-1.0296592E0,-2.4500257E-1,6.57792E-1,1.7533317E0,-1.2823853E0,-9.056003E-1,-4.268018E-1,1.18941836E-1,1.0793734E0,2.672907E-1,1.5167521E0,1.0843535E-1,-6.634577E-2,-3.343406E-2,-4.0279888E-2,-6.792565E-2,-4.5087254E-3,-3.0128835E-2,2.7872205E-2,-1.2805541E-2,3.5688777E-2,7.049843E-2,1.6956524E-3,3.1629495E-2,8.118992E-2,1.1251368E-2],"categories":[],"categories_nodes":[],"categories_segments":[],"categories_sizes":[],"default_left":[0,0,0,0,0,0,0,1,0,0,0,0,0,0,0,0,0,0,0,0,0,0,0,0,0,0,0,0,0],"id":1,"left_children":[1,3,5,7,9,11,13,15,17,19,21,23,25,27,-1,-1,-1,-1,-1,-1,-1,-1,-1,-1,-1,-1,-1,-1,-1],"loss_changes":[9.451745E2,1.6731369E2,1.5569354E2,1.0320648E1,5.239482E1,6.4405075E1,1.2090942E1,1.4345398E0,1.0385468E1,3.0950378E1,4.3791634E1,2.0489197E1,1.7613262E1,1.7259888E1,0E0,0E0,0E0,0E0,0E0,0E0,0E0,0E0,0E0,0E0,0E0,0E0,0E0,0E0,0E0],"parents":[2147483647,0,0,1,1,2,2,3,3,4,4,5,5,6,6,7,7,8,8,9,9,10,10,11,11,12,12,13,13],"right_children":[2,4,6,8,10,12,14,16,18,20,22,24,26,28,-1,-1,-1,-1,-1,-1,-1,-1,-1,-1,-1,-1,-1,-1,-1],"split_conditions":[9.000687E0,8.083888E0,9.976321E0,7.562972E0,8.659797E0,9.263E0,1.0910357E1,7.3384655E-1,9.035E0,8.412E0,4.397E0,-4.4018574E-2,-5.0206576E-2,6.9E0,1.0843535E-1,-6.634577E-2,-3.343406E-2,-4.0279888E-2,-6.792565E-2,-4.5087254E-3,-3.0128835E-2,2.7872205E-2,-1.2805541E-2,3.5688777E-2,7.049843E-2,1.6956524E-3,3.1629495E-2,8.118992E-2,1.1251368E-2],"split_indices":[182,182,182,182,182,62,182,105,62,62,61,57,57,4,0,0,0,0,0,0,0,0,0,0,0,0,0,0,0],"split_type":[0,0,0,0,0,0,0,0,0,0,0,0,0,0,0,0,0,0,0,0,0,0,0,0,0,0,0,0,0],"sum_hessian":[1.7924753E3,1.2026326E3,5.898427E2,4.1521414E2,7.8741846E2,3.9435666E2,1.9548604E2,1.3003262E2,2.8518152E2,5.2524817E2,2.6217032E2,1.8768907E2,2.066676E2,1.3078256E2,6.470348E1,1.1876492E2,1.1267696E1,2.3851637E2,4.6665157E1,1.8160994E2,3.436382E2,1.2065921E2,1.4151112E2,9.24138E1,9.527527E1,1.27771645E2,7.889595E1,1.2015612E2,1.0626435E1],"tree_param":{"num_deleted":"0","num_feature":"183","num_nodes":"29","size_leaf_vector":"1"}},{"base_weights":[-1.0483422E-2,-4.959841E-1,9.7580165E-1,-8.4336966E-1,-1.4633177E-1,6.346424E-1,1.6254021E0,-1.1986371E0,-7.343448E-1,7.819903E-2,-5.542219E-1,1.0016183E0,2.8280136E-1,1.7912419E0,9.450149E-1,-6.3364334E-2,-4.129069E-2,-2.5284383E-2,-4.5102503E-2,2.5727367E-2,-2.699475E-3,-1.9721774E-2,-5.128954E-2,5.553126E-2,1.0326131E-2,-4.548106E-3,2.9364673E-2,7.049432E-2,9.818385E-2,1.3738302E-2,7.046802E-2],"categories":[],"categories_nodes":[],"categories_segments":[],"categories_sizes":[],"default_left":[0,0,0,0,0,0,0,1,0,0,0,0,0,0,0,0,0,0,0,0,0,0,0,0,0,0,0,0,0,0,0],"id":2,"left_children":[1,3,5,7,9,11,13,15,17,19,21,23,25,27,29,-1,-1,-1,-1,-1,-1,-1,-1,-1,-1,-1,-1,-1,-1,-1,-1],"loss_changes":[8.501893E2,1.4410507E2,1.2727026E2,2.0947876E1,5.4747795E1,4.9203766E1,1.8653809E1,9.798279E-1,1.6516327E1,2.2395454E1,1.4888054E1,1.5622543E1,2.306693E1,4.2092896E0,1.2488945E1,0E0,0E0,0E0,0E0,0E0,0E0,0E0,0E0,0E0,0E0,0E0,0E0,0E0,0E0,0E0,0E0],"parents":[2147483647,0,0,1,1,2,2,3,3,4,4,5,5,6,6,7,7,8,8,9,9,10,10,11,11,12,12,13,13,14,14],"right_children":[2,4,6,8,10,12,14,16,18,20,22,24,26,28,30,-1,-1,-1,-1,-1,-1,-1,-1,-1,-1,-1,-1,-1,-1,-1,-1],"split_conditions":[9.000687E0,8.28278E0,9.945667E0,7.5827928E0,9.132E0,9.263E0,1.049E1,9.7666664E1,8.323E0,3.323077E0,4.882353E0,5.875E0,9.3317375E0,1.0273726E1,1.040544E1,-6.3364334E-2,-4.129069E-2,-2.5284383E-2,-4.5102503E-2,2.5727367E-2,-2.699475E-3,-1.9721774E-2,-5.128954E-2,5.553126E-2,1.0326131E-2,-4.548106E-3,2.9364673E-2,7.049432E-2,9.818385E-2,1.3738302E-2,7.046802E-2],"split_indices":[182,182,182,182,62,62,62,141,62,11,15,4,182,182,182,0,0,0,0,0,0,0,0,0,0,0,0,0,0,0,0],"split_type":[0,0,0,0,0,0,0,0,0,0,0,0,0,0,0,0,0,0,0,0,0,0,0,0,0,0,0,0,0,0,0],"sum_hessian":[1.7716898E3,1.1880614E3,5.836284E2,5.942589E2,5.938024E2,3.854555E2,1.9817293E2,1.3441922E2,4.598397E2,3.837089E2,2.1009354E2,1.865837E2,1.988718E2,1.564741E2,4.1698826E1,1.0901166E2,2.540756E1,1.9846571E2,2.61374E2,8.822154E1,2.9548737E2,1.5998215E2,5.011139E1,1.6316826E2,2.3415442E1,8.961511E1,1.0925669E2,5.4797363E1,1.0167674E2,1.8544853E1,2.3153973E1],"tree_param":{"num_deleted":"0","num_feature":"183","num_nodes":"31","size_leaf_vector":"1"}},{"base_weights":[1.1440843E-2,-6.289399E-1,7.1944785E-1,-8.7435484E-1,-3.0721605E-1,3.5081595E-1,1.4371598E0,-1.1823766E0,-7.7074826E-1,7.962447E-2,-4.589361E-1,6.7604655E-1,-4.5124505E-2,1.6230289E0,9.0452605E-1,-6.232589E-2,-2.5664544E-2,-1.3486067E-2,-4.1820332E-2,-2.2730334E-2,1.4728847E-2,-1.6387016E-2,-4.066054E-2,4.8010226E-2,1.8945662E-2,-2.2309592E-2,7.985745E-3,6.671898E-2,9.382507E-2,2.2065172E-2,7.4085586E-2],"categories":[],"categories_nodes":[],"categories_segments":[],"categories_sizes":[],"default_left":[0,0,0,0,0,0,0,0,0,0,0,0,0,0,0,0,0,0,0,0,0,0,0,0,0,0,0,0,0,0,0],"id":3,"left_children":[1,3,5,7,9,11,13,15,17,19,21,23,25,27,29,-1,-1,-1,-1,-1,-1,-1,-1,-1,-1,-1,-1,-1,-1,-1,-1],"loss_changes":[8.0697076E2,7.300314E1,2.2230386E2,1.4656921E1,2.4081902E1,7.2474686E1,2.4876648E1,3.8970337E0,1.2545563E1,1.3580623E1,1.288356E1,2.5060745E1,2.112927E1,9.659668E0,1.9374008E1,0E0,0E0,0E0,0E0,0E0,0E0,0E0,0E0,0E0,0E0,0E0,0E0,0E0,0E0,0E0,0E0],"parents":[2147483647,0,0,1,1,2,2,3,3,4,4,5,5,6,6,7,7,8,8,9,9,10,10,11,11,12,12,13,13,14,14],"right_children":[2,4,6,8,10,12,14,16,18,20,22,24,26,28,30,-1,-1,-1,-1,-1,-1,-1,-1,-1,-1,-1,-1,-1,-1,-1,-1],"split_conditions":[8.669057E0,8.213141E0,9.589821E0,7.562972E0,4.0542636E0,9.255E0,1.027E1,1.0609E-1,7.495E0,1.394445E-3,9.366667E0,4.405E0,8.980274E0,1.02238865E1,1.0530708E1,-6.232589E-2,-2.5664544E-2,-1.3486067E-2,-4.1820332E-2,-2.2730334E-2,1.4728847E-2,-1.6387016E-2,-4.066054E-2,4.8010226E-2,1.8945662E-2,-2.2309592E-2,7.985745E-3,6.671898E-2,9.382507E-2,2.2065172E-2,7.4085586E-2],"split_indices":[182,182,182,182,15,62,62,73,62,112,9,61,182,182,182,0,0,0,0,0,0,0,0,0,0,0,0,0,0,0,0],"split_type":[0,0,0,0,0,0,0,0,0,0,0,0,0,0,0,0,0,0,0,0,0,0,0,0,0,0,0,0,0,0,0],"sum_hessian":[1.7758083E3,9.3240454E2,8.4340375E2,5.2662866E2,4.0577588E2,5.5936066E2,2.8404312E2,1.26824715E2,3.9980392E2,1.1420912E2,2.9156677E2,3.0660312E2,2.5275752E2,2.0725063E2,7.679248E1,1.13882545E2,1.2942171E1,4.7859447E1,3.519445E2,3.1861649E1,8.234747E1,2.159941E2,7.557267E1,1.5409805E2,1.5250507E2,8.498337E1,1.6777415E2,1.031282E2,1.0412243E2,4.4752136E1,3.2040344E1],"tree_param":{"num_deleted":"0","num_feature":"183","num_nodes":"31","size_leaf_vector":"1"}},{"base_weights":[-6.5937145E-3,-7.860473E-2,2.4312322E-1,4.2611265E-1,-1.14015914E-1,9.4843787E-1,1.8472582E-1,5.61865E-1,-1.3144483E-2,-1.5302412E-1,1.8677907E-1,6.2282264E-2,2.5734847E-2,1.2773176E-1,8.097236E-1,3.6314107E-2,-1.1852389E-2,-1.7135385E-3,-1.2385063E-2,2.0666039E-2,-5.9983726E-3,-1.4120236E-2,1.0757062E-2,1.4334537E-2,6.319561E-2],"categories":[],"categories_nodes":[],"categories_segments":[],"categories_sizes":[],"default_left":[1,0,0,0,0,0,0,0,0,0,0,0,0,0,0,0,0,0,0,0,0,0,0,0,0],"id":4,"left_children":[1,3,5,7,9,11,13,15,-1,17,19,-1,-1,21,23,-1,-1,-1,-1,-1,-1,-1,-1,-1,-1],"loss_changes":[3.1883596E1,2.4664986E1,1.576059E1,8.810734E0,1.5183033E1,2.1794567E0,1.2752356E1,1.0477844E1,0E0,1.2781368E1,1.04678335E1,0E0,0E0,1.2329069E1,6.1334953E0,0E0,0E0,0E0,0E0,0E0,0E0,0E0,0E0,0E0,0E0],"parents":[2147483647,0,0,1,1,2,2,3,3,4,4,5,5,6,6,7,7,9,9,10,10,13,13,14,14],"right_children":[2,4,6,8,10,12,14,16,-1,18,20,-1,-1,22,24,-1,-1,-1,-1,-1,-1,-1,-1,-1,-1],"split_conditions":[8.32E1,-2.0228487E-2,4.88E1,1.3788794E-1,1.1161958E0,7.578843E-1,1.1222222E1,4.8461537E0,-1.3144483E-2,4.643318E-2,5.350797E0,6.2282264E-2,2.5734847E-2,6.617E-1,6.862471E-1,3.6314107E-2,-1.1852389E-2,-1.7135385E-3,-1.2385063E-2,2.0666039E-2,-5.9983726E-3,-1.4120236E-2,1.0757062E-2,1.4334537E-2,6.319561E-2],"split_indices":[49,110,53,57,44,103,19,15,0,115,11,0,0,66,90,0,0,0,0,0,0,0,0,0,0],"split_type":[0,0,0,0,0,0,0,0,0,0,0,0,0,0,0,0,0,0,0,0,0,0,0,0,0],"sum_hessian":[1.7707518E3,1.3760973E3,3.946546E2,8.840086E1,1.2876964E3,2.7584637E1,3.6706998E2,7.440113E1,1.3999737E1,1.1413317E3,1.463647E2,1.3873451E1,1.3711185E1,3.3889462E2,2.8175339E1,6.2061054E1,1.2340074E1,5.0843674E2,6.328949E2,8.4164085E1,6.220061E1,5.8351612E1,2.80543E2,1.4816166E1,1.3359172E1],"tree_param":{"num_deleted":"0","num_feature":"183","num_nodes":"25","size_leaf_vector":"1"}},{"base_weights":[-3.4156495E-3,-5.489806E-1,6.9005346E-1,-8.8322675E-1,-3.16613E-1,3.382182E-1,1.3274654E0,-1.1540836E0,-7.613877E-1,-1.8238397E-1,-6.548529E-1,-9.638322E-3,6.761017E-1,1.4366497E0,4.7010225E-1,-6.0186315E-2,-3.1579196E-2,-7.980805E-3,-4.2775244E-2,-1.6163653E-2,5.142181E-3,-3.691869E-2,-3.78283E-3,1.1798695E-2,-2.5618507E-2,4.2266753E-2,5.384331E-3,5.073306E-2,8.022442E-2,-1.3070777E-2,5.940166E-2],"categories":[],"categories_nodes":[],"categories_segments":[],"categories_sizes":[],"default_left":[0,0,0,0,0,0,0,0,0,0,0,0,0,0,0,0,0,0,0,0,0,0,0,0,0,0,0,0,0,0,0],"id":5,"left_children":[1,3,5,7,9,11,13,15,17,19,21,23,25,27,29,-1,-1,-1,-1,-1,-1,-1,-1,-1,-1,-1,-1,-1,-1,-1,-1],"loss_changes":[6.736299E2,7.6614685E1,1.7456195E2,1.13003235E1,2.6446106E1,5.984974E1,2.4282654E1,1.2763367E0,1.5796127E1,1.7254013E1,7.7960663E0,3.1409348E1,2.4445084E1,1.3595978E1,1.8963247E1,0E0,0E0,0E0,0E0,0E0,0E0,0E0,0E0,0E0,0E0,0E0,0E0,0E0,0E0,0E0,0E0],"parents":[2147483647,0,0,1,1,2,2,3,3,4,4,5,5,6,6,7,7,8,8,9,9,10,10,11,11,12,12,13,13,14,14],"right_children":[2,4,6,8,10,12,14,16,18,20,22,24,26,28,30,-1,-1,-1,-1,-1,-1,-1,-1,-1,-1,-1,-1,-1,-1,-1,-1],"split_conditions":[8.740893E0,8.083888E0,9.60991E0,7.562972E0,9.139E0,-4.4018574E-2,1.0849E1,5E0,7.495E0,3.206558E-1,9.344059E0,9.2E0,9.711E0,9.976321E0,1.0346416E1,-6.0186315E-2,-3.1579196E-2,-7.980805E-3,-4.2775244E-2,-1.6163653E-2,5.142181E-3,-3.691869E-2,-3.78283E-3,1.1798695E-2,-2.5618507E-2,4.2266753E-2,5.384331E-3,5.073306E-2,8.022442E-2,-1.3070777E-2,5.940166E-2],"split_indices":[182,182,182,182,62,57,62,4,62,99,46,35,62,182,182,0,0,0,0,0,0,0,0,0,0,0,0,0,0,0,0],"split_type":[0,0,0,0,0,0,0,0,0,0,0,0,0,0,0,0,0,0,0,0,0,0,0,0,0,0,0,0,0,0,0],"sum_hessian":[1.7765955E3,9.9472894E2,7.818665E2,4.052868E2,5.8944214E2,5.0596286E2,2.7590366E2,1.1997904E2,2.8530777E2,4.2460806E2,1.6483409E2,2.499679E2,2.5599498E2,2.4333112E2,3.257254E1,1.0683803E2,1.3141015E1,3.9603794E1,2.4570398E2,2.8450858E2,1.4009949E2,1.4327823E2,2.1555857E1,1.683722E2,8.1595695E1,1.9624196E2,5.975302E1,7.358998E1,1.6974113E2,1.6625538E1,1.5947003E1],"tree_param":{"num_deleted":"0","num_feature":"183","num_nodes":"31","size_leaf_vector":"1"}},{"base_weights":[-4.707175E-3,-1.888675E-1,8.3142385E-2,-1.3822792E-1,-7.9271203E-1,-8.310821E-3,2.807541E-1,-1.7545758E-1,3.6102894E-1,-1.8138755E-2,-1.0441133E0,1.5989657E-1,-1.6334647E-1,9.6165884E-1,2.3242036E-1,-1.1409822E-2,9.33682E-3,-7.4958713E-3,3.553715E-2,-6.4071715E-2,-2.7388586E-2,-2.191267E-2,1.1582965E-2,2.9622298E-3,-1.42063815E-2,2.3692586E-2,6.1967302E-2,1.5100616E-2,-1.02129495E-2],"categories":[],"categories_nodes":[],"categories_segments":[],"categories_sizes":[],"default_left":[0,0,0,0,0,0,0,0,0,0,0,0,0,0,1,0,0,0,0,0,0,0,0,0,0,0,0,0,0],"id":6,"left_children":[1,3,5,7,9,11,13,15,17,-1,19,21,23,25,27,-1,-1,-1,-1,-1,-1,-1,-1,-1,-1,-1,-1,-1,-1],"loss_changes":[2.8598576E1,1.706113E1,2.165999E1,9.935837E0,3.6593552E0,2.1394037E1,1.1783949E1,9.542972E0,6.9441957E0,0E0,1.3012047E0,1.7026688E1,1.1570761E1,1.7611217E0,1.098271E1,0E0,0E0,0E0,0E0,0E0,0E0,0E0,0E0,0E0,0E0,0E0,0E0,0E0,0E0],"parents":[2147483647,0,0,1,1,2,2,3,3,4,4,5,5,6,6,7,7,8,8,10,10,11,11,12,12,13,13,14,14],"right_children":[2,4,6,8,10,12,14,16,18,-1,20,22,24,26,28,-1,-1,-1,-1,-1,-1,-1,-1,-1,-1,-1,-1,-1,-1],"split_conditions":[7.65E1,3.8133334E2,4.743E0,3E0,4.4E0,7.4649596E-1,7.0996845E-1,7.909E-1,9.5920515E-1,-1.8138755E-2,9.0718575E-2,-2.7384687E-2,1.6079649E1,6.737E-1,2.3823528E0,-1.1409822E-2,9.33682E-3,-7.4958713E-3,3.553715E-2,-6.4071715E-2,-2.7388586E-2,-2.191267E-2,1.1582965E-2,2.9622298E-3,-1.42063815E-2,2.3692586E-2,6.1967302E-2,1.5100616E-2,-1.02129495E-2],"split_indices":[49,82,61,80,18,103,103,71,44,0,116,109,172,65,156,0,0,0,0,0,0,0,0,0,0,0,0,0,0],"split_type":[0,0,0,0,0,0,0,0,0,0,0,0,0,0,0,0,0,0,0,0,0,0,0,0,0,0,0,0,0],"sum_hessian":[1.7624526E3,5.6920233E2,1.1932504E3,5.277345E2,4.14678E1,8.163524E2,3.7689792E2,4.926921E2,3.50424E1,1.7397245E1,2.4070553E1,3.9089474E2,4.254577E2,2.220157E1,3.5469635E2,4.3119778E2,6.1494328E1,1.447076E1,2.0571638E1,1.387154E1,1.0199013E1,4.0480934E1,3.5041382E2,1.494307E2,2.76027E2,1.0278549E1,1.1923021E1,3.0686688E2,4.7829464E1],"tree_param":{"num_deleted":"0","num_feature":"183","num_nodes":"29","size_leaf_vector":"1"}},{"base_weights":[-8.98285E-3,-4.3860003E-1,8.024383E-1,-7.886079E-1,-1.5502052E-1,5.122374E-1,1.3865092E0,-1.1426545E0,-6.7404354E-1,6.965845E-2,-4.1546214E-1,2.154691E-1,8.5767287E-1,1.5113496E0,8.3839774E-1,-5.9371054E-2,-2.9730076E-2,-2.5903258E-2,-4.495757E-2,-5.9896256E-3,1.7559651E-2,8.037333E-3,-2.6024958E-2,-3.2938715E-2,1.6462756E-2,4.9941972E-2,1.12066595E-2,7.814923E-2,4.030494E-2,-2.4376814E-4,6.229167E-2],"categories":[],"categories_nodes":[],"categories_segments":[],"categories_sizes":[],"default_left":[0,0,0,0,0,0,0,1,0,0,0,0,1,0,0,0,0,0,0,0,0,0,0,0,0,0,0,0,0,0,0],"id":7,"left_children":[1,3,5,7,9,11,13,15,17,19,21,23,25,27,29,-1,-1,-1,-1,-1,-1,-1,-1,-1,-1,-1,-1,-1,-1,-1,-1],"loss_changes":[6.1797E2,1.1463481E2,1.0220212E2,1.9110077E1,3.7766552E1,4.178688E1,1.0836487E1,1.2579651E0,1.2714706E1,1.861855E1,1.8312057E1,2.2780294E1,1.6301682E1,2.9042053E0,1.4798058E1,0E0,0E0,0E0,0E0,0E0,0E0,0E0,0E0,0E0,0E0,0E0,0E0,0E0,0E0,0E0,0E0],"parents":[2147483647,0,0,1,1,2,2,3,3,4,4,5,5,6,6,7,7,8,8,9,9,10,10,11,11,12,12,13,13,14,14],"right_children":[2,4,6,8,10,12,14,16,18,20,22,24,26,28,30,-1,-1,-1,-1,-1,-1,-1,-1,-1,-1,-1,-1,-1,-1,-1,-1],"split_conditions":[8.980274E0,8.213141E0,9.976321E0,7.562972E0,8.933333E0,-4.911646E-2,1.05E1,7.3384655E-1,9.68004E-1,8.6161175E0,4.00641E0,-6.9553815E-3,1.0333333E1,1.1428572E1,1.0312183E1,-5.9371054E-2,-2.9730076E-2,-2.5903258E-2,-4.495757E-2,-5.9896256E-3,1.7559651E-2,8.037333E-3,-2.6024958E-2,-3.2938715E-2,1.6462756E-2,4.9941972E-2,1.12066595E-2,7.814923E-2,4.030494E-2,-2.4376814E-4,6.229167E-2],"split_indices":[182,182,182,182,9,57,9,105,44,182,15,115,2,5,182,0,0,0,0,0,0,0,0,0,0,0,0,0,0,0,0],"split_type":[0,0,0,0,0,0,0,0,0,0,0,0,0,0,0,0,0,0,0,0,0,0,0,0,0,0,0,0,0,0,0],"sum_hessian":[1.7689066E3,1.1573163E3,6.1159033E2,5.16079E2,6.4123724E2,4.1131915E2,2.0027116E2,1.2135458E2,3.9472443E2,3.446286E2,2.9660864E2,2.2330298E2,1.8801617E2,1.5995863E2,4.0312534E1,1.0969611E2,1.1658465E1,2.3758908E2,1.5713535E2,2.062661E2,1.383625E2,4.5275093E1,2.5133354E2,2.441099E1,1.9889198E2,1.5255473E2,3.546144E1,1.4651546E2,1.3443172E1,1.3616188E1,2.6696348E1],"tree_param":{"num_deleted":"0","num_feature":"183","num_nodes":"31","size_leaf_vector":"1"}},{"base_weights":[8.7566493E-4,-5.024001E-1,6.217284E-1,-7.378389E-1,-2.2624362E-1,3.5859427E-1,1.3664047E0,-1.0615296E0,-6.370482E-1,2.7688602E-1,-3.667775E-1,1.1143688E-2,7.059546E-1,1.4908923E0,7.9031914E-1,-5.6875873E-2,-3.5139956E-2,-1.5751658E-2,-3.862511E-2,-9.896035E-3,3.674783E-2,-2.462475E-2,-1.7642409E-3,-1.272101E-2,1.863027E-2,4.7797862E-2,1.7866625E-2,8.288986E-2,6.252313E-2,5.7884555E-2,8.661274E-3],"categories":[],"categories_nodes":[],"categories_segments":[],"categories_sizes":[],"default_left":[0,0,0,0,0,0,0,1,0,0,0,0,0,0,0,0,0,0,0,0,0,0,0,0,0,0,0,0,0,0,0],"id":8,"left_children":[1,3,5,7,9,11,13,15,17,19,21,23,25,27,29,-1,-1,-1,-1,-1,-1,-1,-1,-1,-1,-1,-1,-1,-1,-1,-1],"loss_changes":[5.509287E2,6.277414E1,1.5338342E2,1.5411926E1,3.213294E1,7.060155E1,1.1905548E1,1.3316956E0,1.6972153E1,2.201061E1,1.4610672E1,2.8572014E1,2.4579437E1,1.942627E0,8.629875E0,0E0,0E0,0E0,0E0,0E0,0E0,0E0,0E0,0E0,0E0,0E0,0E0,0E0,0E0,0E0,0E0],"parents":[2147483647,0,0,1,1,2,2,3,3,4,4,5,5,6,6,7,7,8,8,9,9,10,10,11,11,12,12,13,13,14,14],"right_children":[2,4,6,8,10,12,14,16,18,20,22,24,26,28,30,-1,-1,-1,-1,-1,-1,-1,-1,-1,-1,-1,-1,-1,-1,-1,-1],"split_conditions":[8.740893E0,8.225805E0,9.945667E0,7.562972E0,8.189E0,-4.761265E-2,1.0563E1,9.7666664E1,8.035E0,3.9404127E-1,7.450641E-2,9.274111E0,9.246E0,5.024E0,1.05E1,-5.6875873E-2,-3.5139956E-2,-1.5751658E-2,-3.862511E-2,-9.896035E-3,3.674783E-2,-2.462475E-2,-1.7642409E-3,-1.272101E-2,1.863027E-2,4.7797862E-2,1.7866625E-2,8.288986E-2,6.252313E-2,5.7884555E-2,8.661274E-3],"split_indices":[182,182,182,182,62,57,62,141,62,100,57,182,62,61,9,0,0,0,0,0,0,0,0,0,0,0,0,0,0,0,0],"split_type":[0,0,0,0,0,0,0,0,0,0,0,0,0,0,0,0,0,0,0,0,0,0,0,0,0,0,0,0,0,0,0],"sum_hessian":[1.7591211E3,9.715901E2,7.8753107E2,5.222634E2,4.493267E2,5.8429865E2,2.0323244E2,1.1901071E2,4.032527E2,9.736907E1,3.519576E2,2.9343115E2,2.9086746E2,1.642222E2,3.9010235E1,9.416486E1,2.4845844E1,1.2180751E2,2.814452E2,4.8154465E1,4.9214603E1,2.5403934E2,9.7918274E1,1.6917685E2,1.2425432E2,1.6702979E2,1.23837685E2,8.948211E1,7.474009E1,2.3151417E1,1.5858819E1],"tree_param":{"num_deleted":"0","num_feature":"183","num_nodes":"31","size_leaf_vector":"1"}},{"base_weights":[-2.1540845E-2,-3.2870653E-1,8.9812756E-1,-8.224594E-1,-1.22042455E-1,6.619476E-1,1.3977448E0,-1.0555922E0,-7.130482E-1,9.935846E-2,-3.317925E-1,1.0391632E0,3.3259627E-1,7.473437E-2,9.14543E-1,-2.7674515E-2,-5.4968096E-2,-2.5837718E-2,-4.654107E-2,-5.9546446E-3,2.5221113E-2,-3.558483E-3,-2.5530457E-2,6.242908E-2,1.624844E-2,2.1982709E-2,-2.9028583E-2,6.1658174E-2,1.4351244E-2],"categories":[],"categories_nodes":[],"categories_segments":[],"categories_sizes":[],"default_left":[0,0,0,0,0,0,0,0,0,0,0,0,0,0,0,0,0,0,0,0,0,0,0,0,0,0,0,0,0],"id":9,"left_children":[1,3,5,7,9,11,13,15,17,19,21,23,25,-1,27,-1,-1,-1,-1,-1,-1,-1,-1,-1,-1,-1,-1,-1,-1],"loss_changes":[4.926641E2,1.3305077E2,4.9256317E1,7.9667664E0,4.3044933E1,3.6371124E1,3.251892E0,1.0522003E0,1.0244308E1,4.008985E1,2.1978668E1,1.9642609E1,1.6482851E1,0E0,4.700222E0,0E0,0E0,0E0,0E0,0E0,0E0,0E0,0E0,0E0,0E0,0E0,0E0,0E0,0E0],"parents":[2147483647,0,0,1,1,2,2,3,3,4,4,5,5,6,6,7,7,8,8,9,9,10,10,11,11,12,12,14,14],"right_children":[2,4,6,8,10,12,14,16,18,20,22,24,26,-1,28,-1,-1,-1,-1,-1,-1,-1,-1,-1,-1,-1,-1,-1,-1],"split_conditions":[9.245728E0,8.083888E0,1.02238865E1,7.562972E0,8.812E0,4.803E0,1.11E1,7.207547E0,2.5977213E0,8.669057E0,9.787573E-1,7.1769226E-1,1.0918E1,7.473437E-2,2.4000333E-1,-2.7674515E-2,-5.4968096E-2,-2.5837718E-2,-4.654107E-2,-5.9546446E-3,2.5221113E-2,-3.558483E-3,-2.5530457E-2,6.242908E-2,1.624844E-2,2.1982709E-2,-2.9028583E-2,6.1658174E-2,1.4351244E-2],"split_indices":[182,182,182,182,62,61,32,40,171,182,44,90,62,0,70,0,0,0,0,0,0,0,0,0,0,0,0,0,0],"split_type":[0,0,0,0,0,0,0,0,0,0,0,0,0,0,0,0,0,0,0,0,0,0,0,0,0,0,0,0,0],"sum_hessian":[1.7403148E3,1.305714E3,4.346008E2,3.8321832E2,9.2249567E2,2.985295E2,1.3607127E2,1.1629455E2,2.6692377E2,4.4883185E2,4.7366382E2,1.3686102E2,1.6166849E2,1.0950193E2,2.656935E1,1.1879531E1,1.0441502E2,1.4441594E2,1.2250783E2,2.921781E2,1.5665375E2,1.943361E2,2.793277E2,1.0445567E2,3.2405346E1,1.4582802E2,1.5840475E1,1.6130255E1,1.0439095E1],"tree_param":{"num_deleted":"0","num_feature":"183","num_nodes":"29","size_leaf_vector":"1"}},{"base_weights":[-2.3698911E-2,-3.2473245E-1,8.3816314E-1,-7.254233E-1,-7.77067E-2,6.21466E-1,1.3242977E0,-1.0430841E0,-6.237668E-1,9.1733746E-2,-4.0926588E-1,9.871365E-1,2.8279987E-1,1.3925834E0,1.9899214E-2,-2.4362212E-2,-5.522581E-2,-1.9253982E-2,-3.6945593E-2,-7.1983077E-3,1.9525358E-2,-1.3466678E-2,-3.962152E-2,6.1142226E-3,5.4649957E-2,1.9918285E-2,-3.3162832E-2,7.7195786E-2,5.539323E-2],"categories":[],"categories_nodes":[],"categories_segments":[],"categories_sizes":[],"default_left":[0,0,0,0,0,0,0,0,0,0,0,0,0,0,0,0,0,0,0,0,0,0,0,0,0,0,0,0,0],"id":10,"left_children":[1,3,5,7,9,11,13,15,17,19,21,23,25,27,-1,-1,-1,-1,-1,-1,-1,-1,-1,-1,-1,-1,-1,-1,-1],"loss_changes":[4.5091345E2,1.27255325E2,4.535327E1,1.42152405E1,4.5059174E1,3.822229E1,7.1766663E0,2.5506134E0,9.575317E0,3.7512924E1,1.3901234E1,1.3266098E1,1.8704365E1,1.4889526E0,0E0,0E0,0E0,0E0,0E0,0E0,0E0,0E0,0E0,0E0,0E0,0E0,0E0,0E0,0E0],"parents":[2147483647,0,0,1,1,2,2,3,3,4,4,5,5,6,6,7,7,8,8,9,9,10,10,11,11,12,12,13,13],"right_children":[2,4,6,8,10,12,14,16,18,20,22,24,26,28,-1,-1,-1,-1,-1,-1,-1,-1,-1,-1,-1,-1,-1,-1,-1],"split_conditions":[9.2320175E0,8.213141E0,1.02238865E1,7.562972E0,9.206E0,4.831E0,5.6419754E0,3.6168225E0,2.7E0,8.669057E0,4.882353E0,-4.426922E-2,1.0918E1,5.4444447E0,1.9899214E-2,-2.4362212E-2,-5.522581E-2,-1.9253982E-2,-3.6945593E-2,-7.1983077E-3,1.9525358E-2,-1.3466678E-2,-3.962152E-2,6.1142226E-3,5.4649957E-2,1.9918285E-2,-3.3162832E-2,7.7195786E-2,5.539323E-2],"split_indices":[182,182,182,182,62,61,14,28,136,182,15,107,62,4,0,0,0,0,0,0,0,0,0,0,0,0,0,0,0],"split_type":[0,0,0,0,0,0,0,0,0,0,0,0,0,0,0,0,0,0,0,0,0,0,0,0,0,0,0,0,0],"sum_hessian":[1.734261E3,1.2864165E3,4.4784457E2,4.8882678E2,7.975897E2,3.1320148E2,1.346431E2,1.1354061E2,3.7528616E2,5.283993E2,2.6919043E2,1.4847131E2,1.6473015E2,1.24260284E2,1.0382812E1,1.3401521E1,1.0013909E2,1.2551939E2,2.4976677E2,2.9558307E2,2.328162E2,2.0005707E2,6.913337E1,1.6867836E1,1.3160349E2,1.4801819E2,1.6711962E1,7.4901405E1,4.9358875E1],"tree_param":{"num_deleted":"0","num_feature":"183","num_nodes":"29","size_leaf_vector":"1"}},{"base_weights":[-1.088015E-2,-3.7840757E-1,6.6048723E-1,-6.427646E-1,-6.720665E-2,3.651779E-1,1.0829316E0,-1.0347061E0,-5.3739107E-1,1.5888697E-1,-4.7251782E-1,4.9478063E-1,-3.2926404E-1,9.3034196E-1,7.758232E-2,-1.6620763E-2,-5.4496128E-2,-1.7320927E-2,-3.7555806E-2,2.5771841E-2,-9.359751E-4,1.74425E-2,-2.8377747E-2,2.826797E-2,-2.1883769E-2,4.7770883E-3,-3.214111E-2,6.1514314E-2,3.1480175E-2],"categories":[],"categories_nodes":[],"categories_segments":[],"categories_sizes":[],"default_left":[0,0,0,0,0,0,0,0,0,0,0,0,1,0,0,0,0,0,0,0,0,0,0,0,0,0,0,0,0],"id":11,"left_children":[1,3,5,7,9,11,13,15,17,19,21,23,25,27,-1,-1,-1,-1,-1,-1,-1,-1,-1,-1,-1,-1,-1,-1,-1],"loss_changes":[4.2625085E2,9.1637344E1,7.5146484E1,2.3485474E1,4.7449677E1,3.302292E1,1.450412E1,3.8476105E0,1.8849442E1,2.1147186E1,1.4912106E1,2.0717255E1,7.96302E0,1.5578171E1,0E0,0E0,0E0,0E0,0E0,0E0,0E0,0E0,0E0,0E0,0E0,0E0,0E0,0E0,0E0],"parents":[2147483647,0,0,1,1,2,2,3,3,4,4,5,5,6,6,7,7,8,8,9,9,10,10,11,11,12,12,13,13],"right_children":[2,4,6,8,10,12,14,16,18,20,22,24,26,28,-1,-1,-1,-1,-1,-1,-1,-1,-1,-1,-1,-1,-1,-1,-1],"split_conditions":[8.980274E0,8.339361E0,9.716024E0,7.603767E0,9.132E0,1.0233334E1,1.103284E1,3.4074075E0,8.62963E0,3.952E0,1.1E2,1.0419E1,7.73E1,9.699E0,7.758232E-2,-1.6620763E-2,-5.4496128E-2,-1.7320927E-2,-3.7555806E-2,2.5771841E-2,-9.359751E-4,1.74425E-2,-2.8377747E-2,2.826797E-2,-2.1883769E-2,4.7770883E-3,-3.214111E-2,6.1514314E-2,3.1480175E-2],"split_indices":[182,182,182,182,62,9,182,157,40,61,0,62,49,62,0,0,0,0,0,0,0,0,0,0,0,0,0,0,0],"split_type":[0,0,0,0,0,0,0,0,0,0,0,0,0,0,0,0,0,0,0,0,0,0,0,0,0,0,0,0,0],"sum_hessian":[1.7236918E3,1.1146617E3,6.090299E2,6.011916E2,5.134702E2,3.6092676E2,2.481032E2,1.2324386E2,4.7794775E2,3.3007043E2,1.8339975E2,3.048888E2,5.6037945E1,1.9199565E2,5.6107536E1,1.0270988E1,1.1297287E2,2.556716E2,2.2227615E2,1.0885761E2,2.2121283E2,1.8247566E1,1.6515219E2,2.843666E2,2.0522202E1,2.4117086E1,3.1920858E1,9.269682E1,9.929882E1],"tree_param":{"num_deleted":"0","num_feature":"183","num_nodes":"29","size_leaf_vector":"1"}},{"base_weights":[9.840016E-3,-3.2497546E-1,6.270213E-1,-6.0034764E-1,-5.5773962E-2,3.2718223E-1,9.596045E-1,-9.347884E-1,-5.117848E-1,1.2318243E-1,-4.2689952E-1,6.935864E-1,-2.705E-2,8.238234E-1,7.32574E-2,-4.9630515E-2,-1.7848698E-2,-2.0970387E-2,-4.237022E-2,2.4217974E-2,-2.2609092E-3,-1.4161582E-2,-4.3951727E-2,-1.4032351E-2,3.870966E-2,2.967906E-2,-1.4078694E-2,4.807035E-2,6.2430506E-3],"categories":[],"categories_nodes":[],"categories_segments":[],"categories_sizes":[],"default_left":[0,0,0,0,0,0,0,0,0,0,0,0,0,0,0,0,0,0,0,0,0,0,0,0,0,0,0,0,0],"id":12,"left_children":[1,3,5,7,9,11,13,15,17,19,21,23,25,27,-1,-1,-1,-1,-1,-1,-1,-1,-1,-1,-1,-1,-1,-1,-1],"loss_changes":[3.5675644E2,8.2746445E1,5.9674026E1,1.5119507E1,3.7913757E1,4.2056667E1,1.6799286E1,2.7897797E0,1.2731552E1,2.3526756E1,1.1333111E1,1.3018272E1,2.6451513E1,2.1735657E1,0E0,0E0,0E0,0E0,0E0,0E0,0E0,0E0,0E0,0E0,0E0,0E0,0E0,0E0,0E0],"parents":[2147483647,0,0,1,1,2,2,3,3,4,4,5,5,6,6,7,7,8,8,9,9,10,10,11,11,12,12,13,13],"right_children":[2,4,6,8,10,12,14,16,18,20,22,24,26,28,-1,-1,-1,-1,-1,-1,-1,-1,-1,-1,-1,-1,-1,-1,-1],"split_conditions":[8.980274E0,8.28278E0,9.589821E0,7.562972E0,9.176E0,9.263E0,1.103284E1,1.07E-1,1.0176171E0,3.936E0,1.0076E1,3.4042993E0,9.780804E-1,1.0533334E1,7.32574E-2,-4.9630515E-2,-1.7848698E-2,-2.0970387E-2,-4.237022E-2,2.4217974E-2,-2.2609092E-3,-1.4161582E-2,-4.3951727E-2,-1.4032351E-2,3.870966E-2,2.967906E-2,-1.4078694E-2,4.807035E-2,6.2430506E-3],"split_indices":[182,182,182,182,62,62,182,73,44,61,62,27,44,9,0,0,0,0,0,0,0,0,0,0,0,0,0,0,0],"split_type":[0,0,0,0,0,0,0,0,0,0,0,0,0,0,0,0,0,0,0,0,0,0,0,0,0,0,0,0,0],"sum_hessian":[1.7221836E3,1.1168987E3,6.052849E2,5.5053796E2,5.663607E2,3.2071466E2,2.8457025E2,1.1079048E2,4.3974747E2,3.826463E2,1.8371442E2,1.5698451E2,1.6373015E2,2.2877863E2,5.5791615E1,9.909243E1,1.1698052E1,3.4882965E2,9.091782E1,1.2086226E2,2.6178403E2,1.4221893E2,4.1495483E1,1.1427255E1,1.4555725E2,4.661473E1,1.1711541E2,1.9028574E2,3.8492897E1],"tree_param":{"num_deleted":"0","num_feature":"183","num_nodes":"29","size_leaf_vector":"1"}},{"base_weights":[8.613863E-3,-3.0656824E-1,6.3471615E-1,-6.4146876E-1,-8.91584E-2,4.1491884E-1,1.0726106E0,-9.9810624E-1,-5.523872E-1,2.4774325E-1,-2.138435E-1,9.240986E-1,2.3833942E-1,8.977043E-1,7.247254E-2,-5.3943872E-2,-1.8916184E-2,-4.014973E-2,-2.0107549E-2,2.4389008E-3,3.0561421E-2,-4.130635E-3,-2.6951635E-2,1.3516455E-2,5.226602E-2,1.6909631E-2,-2.085627E-2,5.2290738E-2,8.990644E-3],"categories":[],"categories_nodes":[],"categories_segments":[],"categories_sizes":[],"default_left":[0,0,0,0,0,0,0,0,1,0,0,0,0,0,0,0,0,0,0,0,0,0,0,0,0,0,0,0,0],"id":13,"left_children":[1,3,5,7,9,11,13,15,17,19,21,23,25,27,-1,-1,-1,-1,-1,-1,-1,-1,-1,-1,-1,-1,-1,-1,-1],"loss_changes":[3.3911807E2,8.293747E1,5.42043E1,1.2855331E1,2.931699E1,3.4099472E1,9.502029E0,3.2390823E0,1.282827E1,1.3432034E1,2.1515564E1,6.985718E0,1.9256521E1,1.3829674E1,0E0,0E0,0E0,0E0,0E0,0E0,0E0,0E0,0E0,0E0,0E0,0E0,0E0,0E0,0E0],"parents":[2147483647,0,0,1,1,2,2,3,3,4,4,5,5,6,6,7,7,8,8,9,9,10,10,11,11,12,12,13,13],"right_children":[2,4,6,8,10,12,14,16,18,20,22,24,26,28,-1,-1,-1,-1,-1,-1,-1,-1,-1,-1,-1,-1,-1,-1,-1],"split_conditions":[9.029406E0,8.18548E0,9.976321E0,7.42903E0,4.0542636E0,4.2580647E0,1.103284E1,1.5015323E1,2.2E1,8.659797E0,9.466666E0,9.6E0,1.0133333E1,1.05E1,7.247254E-2,-5.3943872E-2,-1.8916184E-2,-4.014973E-2,-2.0107549E-2,2.4389008E-3,3.0561421E-2,-4.130635E-3,-2.6951635E-2,1.3516455E-2,5.226602E-2,1.6909631E-2,-2.085627E-2,5.2290738E-2,8.990644E-3],"split_indices":[182,182,182,182,15,15,182,123,144,182,9,50,35,9,0,0,0,0,0,0,0,0,0,0,0,0,0,0,0],"split_type":[0,0,0,0,0,0,0,0,0,0,0,0,0,0,0,0,0,0,0,0,0,0,0,0,0,0,0,0,0],"sum_hessian":[1.7141738E3,1.1406619E3,5.7351196E2,4.471091E2,6.9355273E2,3.8474457E2,1.8876738E2,8.483176E1,3.6227734E2,1.8637791E2,5.0717484E2,9.6597946E1,2.881466E2,1.3390974E2,5.485764E1,7.345483E1,1.1376929E1,1.3202573E2,2.3025163E2,1.2226881E2,6.4109116E1,3.6357605E2,1.4359877E2,1.6378096E1,8.021985E1,2.5115848E2,3.6988148E1,1.1001917E2,2.3890572E1],"tree_param":{"num_deleted":"0","num_feature":"183","num_nodes":"29","size_leaf_vector":"1"}},{"base_weights":[2.307305E-2,-2.1097578E-1,8.119761E-1,-6.6625494E-1,-3.9850324E-2,1.1593865E0,5.42247E-1,-5.860633E-1,-1.1305512E0,-3.0430722E-1,1.344941E-1,1.2294295E0,2.6135212E-2,2.860279E-1,1.1753197E0,-4.556569E-2,-2.3782274E-2,-3.204168E-2,-6.0726847E-2,-7.719415E-3,-3.579701E-2,1.0401491E-2,-2.7268404E-2,5.241548E-2,7.391965E-2,-2.1725094E-2,2.2075597E-2,3.819656E-2,6.636198E-2],"categories":[],"categories_nodes":[],"categories_segments":[],"categories_sizes":[],"default_left":[0,0,0,0,0,0,0,0,0,0,0,0,0,0,0,0,0,0,0,0,0,0,0,0,0,0,0,0,0],"id":14,"left_children":[1,3,5,7,9,11,13,15,17,19,21,23,-1,25,27,-1,-1,-1,-1,-1,-1,-1,-1,-1,-1,-1,-1,-1,-1],"loss_changes":[3.18094E2,1.0327445E2,3.534134E1,1.1823181E1,4.4732986E1,5.9547577E0,3.569217E1,1.0115036E1,1.6364288E-1,2.3397991E1,2.9363155E1,3.22995E0,0E0,1.8729782E1,1.5689926E0,0E0,0E0,0E0,0E0,0E0,0E0,0E0,0E0,0E0,0E0,0E0,0E0,0E0,0E0],"parents":[2147483647,0,0,1,1,2,2,3,3,4,4,5,5,6,6,7,7,8,8,9,9,10,10,11,11,13,13,14,14],"right_children":[2,4,6,8,10,12,14,16,18,20,22,24,-1,26,28,-1,-1,-1,-1,-1,-1,-1,-1,-1,-1,-1,-1,-1,-1],"split_conditions":[9.3317375E0,8.083888E0,4.812E0,9.052E0,-3.792652E-2,5.5921054E0,1.0530708E1,7.42903E0,8.398058E0,9.2E0,9.832E0,4.7345486E-2,2.6135212E-2,-2.4648322E-1,1.0910357E1,-4.556569E-2,-2.3782274E-2,-3.204168E-2,-6.0726847E-2,-7.719415E-3,-3.579701E-2,1.0401491E-2,-2.7268404E-2,5.241548E-2,7.391965E-2,-2.1725094E-2,2.2075597E-2,3.819656E-2,6.636198E-2],"split_indices":[182,182,61,62,57,29,182,182,45,35,62,115,0,57,182,0,0,0,0,0,0,0,0,0,0,0,0,0,0],"split_type":[0,0,0,0,0,0,0,0,0,0,0,0,0,0,0,0,0,0,0,0,0,0,0,0,0,0,0,0,0],"sum_hessian":[1.7182557E3,1.3260575E3,3.921982E2,3.603612E2,9.656963E2,1.682082E2,2.2399E2,3.1151306E2,4.8848167E1,3.8355365E2,5.8214264E2,1.495768E2,1.8631409E1,1.6174686E2,6.2243145E1,7.481567E1,2.3669739E2,1.0026415E1,3.8821754E1,2.8352744E2,1.0002619E2,5.268404E2,5.5302273E1,9.308359E1,5.6493217E1,2.7843185E1,1.3390367E2,2.0393217E1,4.1849926E1],"tree_param":{"num_deleted":"0","num_feature":"183","num_nodes":"29","size_leaf_vector":"1"}},{"base_weights":[6.7183906E-3,-2.3558383E-1,7.1060693E-1,-4.8442733E-1,5.1651467E-2,4.7085777E-1,1.0084901E0,-6.821053E-1,-3.1866175E-1,-2.566548E-1,2.6502094E-1,-0E0,6.258816E-1,8.703667E-1,6.7108214E-2,-4.124571E-2,-2.5624929E-2,-4.335332E-3,-2.7811754E-2,1.2624371E-2,-1.9194731E-2,-2.7051622E-2,1.6369108E-2,3.246208E-2,-1.8400086E-2,3.7461717E-2,2.512479E-3,2.2486453E-3,4.658901E-2],"categories":[],"categories_nodes":[],"categories_segments":[],"categories_sizes":[],"default_left":[0,0,0,0,0,0,0,1,0,0,0,1,0,0,0,0,0,0,0,0,0,0,0,0,0,0,0,0,0],"id":15,"left_children":[1,3,5,7,9,11,13,15,17,19,21,23,25,27,-1,-1,-1,-1,-1,-1,-1,-1,-1,-1,-1,-1,-1,-1,-1],"loss_changes":[2.893347E2,9.029941E1,2.9784653E1,2.1531174E1,3.8751118E1,1.7936966E1,6.0530853E0,6.304123E0,2.0287022E1,1.5814236E1,1.781772E1,1.537875E1,1.2856384E1,6.9007797E0,0E0,0E0,0E0,0E0,0E0,0E0,0E0,0E0,0E0,0E0,0E0,0E0,0E0,0E0,0E0],"parents":[2147483647,0,0,1,1,2,2,3,3,4,4,5,5,6,6,7,7,8,8,9,9,10,10,11,11,12,12,13,13],"right_children":[2,4,6,8,10,12,14,16,18,20,22,24,26,28,-1,-1,-1,-1,-1,-1,-1,-1,-1,-1,-1,-1,-1,-1,-1],"split_conditions":[9.2320175E0,8.444162E0,9.945667E0,8.018628E0,-4.761265E-2,4.400055E-3,1.103284E1,9.0666664E1,9.699442E-1,7.428571E0,-1.7434081E-2,8.4E1,1.04E1,-6.32983E-2,6.7108214E-2,-4.124571E-2,-2.5624929E-2,-4.335332E-3,-2.7811754E-2,1.2624371E-2,-1.9194731E-2,-2.7051622E-2,1.6369108E-2,3.246208E-2,-1.8400086E-2,3.7461717E-2,2.512479E-3,2.2486453E-3,4.658901E-2],"split_indices":[182,182,182,182,57,115,182,141,44,31,110,158,36,112,0,0,0,0,0,0,0,0,0,0,0,0,0,0,0],"split_type":[0,0,0,0,0,0,0,0,0,0,0,0,0,0,0,0,0,0,0,0,0,0,0,0,0,0,0,0,0],"sum_hessian":[1.6919225E3,1.2594304E3,4.32492E2,6.7445026E2,5.849802E2,2.4286034E2,1.8963168E2,3.042232E2,3.7022705E2,2.3871217E2,3.4626804E2,6.048683E1,1.823735E2,1.396431E2,4.9988583E1,1.603239E2,1.438993E2,1.891358E2,1.8109126E2,4.70208E1,1.9169136E2,2.3532942E1,3.2273508E2,2.1229122E1,3.925771E1,1.4940645E2,3.2967052E1,1.0136072E1,1.2950702E2],"tree_param":{"num_deleted":"0","num_feature":"183","num_nodes":"29","size_leaf_vector":"1"}},{"base_weights":[-3.146997E-4,-2.3781164E-1,6.706631E-1,-5.599165E-1,-4.573092E-2,4.9629194E-1,1.10954E0,-6.730146E-1,-3.440323E-1,5.7802725E-1,-1.1283357E-1,9.491731E-1,2.676199E-1,8.693684E-1,6.872377E-2,-1.843937E-2,-3.8339358E-2,-3.5431813E-3,-3.2020353E-2,7.913799E-3,5.2814376E-2,-3.1544536E-3,-3.429083E-2,1.839412E-2,6.075746E-2,2.6905272E-2,2.3749685E-3,5.10221E-2,1.0288562E-2],"categories":[],"categories_nodes":[],"categories_segments":[],"categories_sizes":[],"default_left":[0,0,0,0,0,0,0,0,0,0,0,0,0,0,0,0,0,0,0,0,0,0,0,0,0,0,0,0,0],"id":16,"left_children":[1,3,5,7,9,11,13,15,17,19,21,23,25,27,-1,-1,-1,-1,-1,-1,-1,-1,-1,-1,-1,-1,-1,-1,-1],"loss_changes":[2.6942722E2,7.712544E1,3.2396576E1,1.0714996E1,3.2902977E1,3.2409866E1,5.033127E0,7.8568726E0,1.312154E1,1.4740728E1,2.0026445E1,1.5233055E1,1.2683498E1,6.4252625E0,0E0,0E0,0E0,0E0,0E0,0E0,0E0,0E0,0E0,0E0,0E0,0E0,0E0,0E0,0E0],"parents":[2147483647,0,0,1,1,2,2,3,3,4,4,5,5,6,6,7,7,8,8,9,9,10,10,11,11,12,12,13,13],"right_children":[2,4,6,8,10,12,14,16,18,20,22,24,26,28,-1,-1,-1,-1,-1,-1,-1,-1,-1,-1,-1,-1,-1,-1,-1],"split_conditions":[9.2320175E0,8.225805E0,1.0273726E1,8.018628E0,7.84E0,9.071E0,1.103284E1,7.638E0,9.663582E-1,3.9461556E-1,1.0144E1,9.212111E-3,9.666667E0,1.0563E1,6.872377E-2,-1.843937E-2,-3.8339358E-2,-3.5431813E-3,-3.2020353E-2,7.913799E-3,5.2814376E-2,-3.1544536E-3,-3.429083E-2,1.839412E-2,6.075746E-2,2.6905272E-2,2.3749685E-3,5.10221E-2,1.0288562E-2],"split_indices":[182,182,182,182,62,62,182,62,44,100,62,115,9,62,0,0,0,0,0,0,0,0,0,0,0,0,0,0,0],"split_type":[0,0,0,0,0,0,0,0,0,0,0,0,0,0,0,0,0,0,0,0,0,0,0,0,0,0,0,0,0],"sum_hessian":[1.6872755E3,1.2473553E3,4.3992026E2,4.6414612E2,7.8320917E2,3.1820914E2,1.217111E2,3.0119418E2,1.6295192E2,7.4303764E1,7.089054E2,1.0435654E2,2.1385262E2,6.87264E1,5.298469E1,7.379116E1,2.2740303E2,8.6436455E1,7.6515465E1,4.121285E1,3.3090916E1,6.546409E2,5.426449E1,3.449216E1,6.986437E1,9.424543E1,1.1960718E2,5.4860146E1,1.386626E1],"tree_param":{"num_deleted":"0","num_feature":"183","num_nodes":"29","size_leaf_vector":"1"}},{"base_weights":[-3.7718394E-3,-5.9921525E-2,1.0559668E-1,-4.4825548E-1,-2.8832104E-2,-2.0766672E-1,1.7097388E-1,-6.392556E-1,-2.8265309E-2,-2.7723062E-1,1.5365351E-2,3.3936325E-1,-3.738929E-1,5.555917E-1,1.0803866E-1,-4.470467E-2,-6.228197E-3,2.7273774E-2,-2.1708496E-2,-1.968464E-2,8.958391E-3,3.1427648E-2,-1.1567116E-4,4.2906698E-2,-9.45137E-3,6.368447E-3,-2.627786E-2,4.3278757E-2,4.2434814E-3,2.4398435E-2,1.8617859E-3],"categories":[],"categories_nodes":[],"categories_segments":[],"categories_sizes":[],"default_left":[0,0,0,0,1,0,0,0,0,0,0,0,0,0,0,0,0,0,0,0,0,0,0,0,0,0,0,0,0,0,0],"id":17,"left_children":[1,3,5,7,9,11,13,15,17,19,21,23,25,27,29,-1,-1,-1,-1,-1,-1,-1,-1,-1,-1,-1,-1,-1,-1,-1,-1],"loss_changes":[1.02743025E1,1.3250959E1,1.1673631E1,6.3670273E0,1.1348199E1,9.195061E0,1.1139289E1,6.8652782E0,6.94724E0,8.480609E0,9.603014E0,6.945566E0,6.036031E0,9.184099E0,1.0817183E1,0E0,0E0,0E0,0E0,0E0,0E0,0E0,0E0,0E0,0E0,0E0,0E0,0E0,0E0,0E0,0E0],"parents":[2147483647,0,0,1,1,2,2,3,3,4,4,5,5,6,6,7,7,8,8,9,9,10,10,11,11,12,12,13,13,14,14],"right_children":[2,4,6,8,10,12,14,16,18,20,22,24,26,28,30,-1,-1,-1,-1,-1,-1,-1,-1,-1,-1,-1,-1,-1,-1,-1,-1],"split_conditions":[8.998948E0,8.096154E0,3.7334669E0,8.639E-2,3.7833332E1,3.1277594E-1,7.1E1,5.25187E0,8.604321E0,1.4254399E1,3.1E0,2.4997128E-2,8E0,9.104348E0,8.278744E0,-4.470467E-2,-6.228197E-3,2.7273774E-2,-2.1708496E-2,-1.968464E-2,8.958391E-3,3.1427648E-2,-1.1567116E-4,4.2906698E-2,-9.45137E-3,6.368447E-3,-2.627786E-2,4.3278757E-2,4.2434814E-3,2.4398435E-2,1.8617859E-3],"split_indices":[47,135,12,73,175,99,159,25,47,123,8,112,40,135,42,0,0,0,0,0,0,0,0,0,0,0,0,0,0,0,0],"split_type":[0,0,0,0,0,0,0,0,0,0,0,0,0,0,0,0,0,0,0,0,0,0,0,0,0,0,0,0,0,0,0],"sum_hessian":[1.6704915E3,1.1056069E3,5.648846E2,7.9486145E1,1.0261207E3,9.625486E1,4.686297E2,5.359311E1,2.5893036E1,1.5408914E2,8.720316E2,2.1666553E1,7.45883E1,6.325061E1,4.053791E2,3.4599224E1,1.8993883E1,1.023938E1,1.5653656E1,1.2333096E2,3.0758171E1,2.2817354E1,8.4921423E2,1.0494006E1,1.1172547E1,1.709378E1,5.7494526E1,3.68689E1,2.638171E1,6.1383797E1,3.439953E2],"tree_param":{"num_deleted":"0","num_feature":"183","num_nodes":"31","size_leaf_vector":"1"}},{"base_weights":[-6.777697E-3,-3.8903263E-1,3.7968165E-1,-6.27642E-1,-2.4625383E-1,1.9450091E-1,8.545245E-1,-9.196063E-1,-5.062332E-1,-3.2366392E-1,3.5620904E-1,-9.551059E-2,4.524479E-1,2.2765233E-1,9.42729E-1,-5.3548247E-2,-2.6878402E-2,-2.012507E-2,-5.035909E-2,-6.560145E-4,-2.2077238E-2,-5.174523E-3,3.7297215E-2,4.2585726E-3,-2.6340514E-2,2.8735155E-2,-5.286764E-3,-1.681798E-2,4.4543263E-2,5.6889564E-2,3.6834214E-2],"categories":[],"categories_nodes":[],"categories_segments":[],"categories_sizes":[],"default_left":[0,0,0,0,0,0,0,0,0,0,0,0,0,0,0,0,0,0,0,0,0,0,0,0,0,0,0,0,0,0,0],"id":18,"left_children":[1,3,5,7,9,11,13,15,17,19,21,23,25,27,29,-1,-1,-1,-1,-1,-1,-1,-1,-1,-1,-1,-1,-1,-1,-1,-1],"loss_changes":[2.5051057E2,2.8568344E1,7.358451E1,1.0035706E1,2.528352E1,4.574382E1,1.2365173E1,3.7482605E0,1.0814018E1,1.7377193E1,1.1361944E1,2.2632706E1,2.227288E1,1.2672965E1,6.213928E0,0E0,0E0,0E0,0E0,0E0,0E0,0E0,0E0,0E0,0E0,0E0,0E0,0E0,0E0,0E0,0E0],"parents":[2147483647,0,0,1,1,2,2,3,3,4,4,5,5,6,6,7,7,8,8,9,9,10,10,11,11,12,12,13,13,14,14],"right_children":[2,4,6,8,10,12,14,16,18,20,22,24,26,28,30,-1,-1,-1,-1,-1,-1,-1,-1,-1,-1,-1,-1,-1,-1,-1,-1],"split_conditions":[8.659797E0,8.035649E0,9.736554E0,7.519362E0,1.46E2,-4.761265E-2,-2.4648322E-1,4.6932297E0,9.027E0,8.233334E0,6.9296664E-1,9.223703E0,9.832E0,1.0346416E1,9.140845E0,-5.3548247E-2,-2.6878402E-2,-2.012507E-2,-5.035909E-2,-6.560145E-4,-2.2077238E-2,-5.174523E-3,3.7297215E-2,4.2585726E-3,-2.6340514E-2,2.8735155E-2,-5.286764E-3,-1.681798E-2,4.4543263E-2,5.6889564E-2,3.6834214E-2],"split_indices":[182,182,182,182,1,57,57,12,62,36,72,35,62,182,40,0,0,0,0,0,0,0,0,0,0,0,0,0,0,0,0],"split_type":[0,0,0,0,0,0,0,0,0,0,0,0,0,0,0,0,0,0,0,0,0,0,0,0,0,0,0,0,0,0,0],"sum_hessian":[1.6917662E3,8.5076306E2,8.410032E2,3.1542984E2,5.353332E2,6.073768E2,2.3362634E2,8.8296875E1,2.2713298E2,4.754947E2,5.983851E1,2.8614557E2,3.2123123E2,2.9980865E1,2.036455E2,6.0283318E1,2.8013556E1,1.9148767E2,3.56453E1,1.3191058E2,3.435841E2,2.7893454E1,3.1945057E1,2.0246805E2,8.3677505E1,2.637606E2,5.747064E1,1.6571865E1,1.3409E1,9.94662E1,1.0417928E2],"tree_param":{"num_deleted":"0","num_feature":"183","num_nodes":"31","size_leaf_vector":"1"}},{"base_weights":[-2.024093E-2,-3.9609206E-1,3.5593045E-1,-8.793646E-1,-3.2888776E-1,1.9438225E-1,8.9591295E-1,-2.0279529E-2,-9.5584285E-1,1.4567404E-4,-4.6373108E-1,3.5755503E-1,-1.756185E-1,7.437593E-1,6.289573E-2,-5.15028E-2,-2.553675E-2,-8.48711E-3,3.215632E-2,-3.156903E-2,-1.6708817E-2,1.3219676E-2,4.324922E-2,-1.7365275E-2,9.67743E-3,4.454873E-2,1.0756199E-2],"categories":[],"categories_nodes":[],"categories_segments":[],"categories_sizes":[],"default_left":[0,0,0,0,0,0,0,0,0,0,0,0,0,0,0,0,0,0,0,0,0,0,0,0,0,0,0],"id":19,"left_children":[1,3,5,7,9,11,13,-1,15,17,19,21,23,25,-1,-1,-1,-1,-1,-1,-1,-1,-1,-1,-1,-1,-1],"loss_changes":[2.3532484E2,2.6226212E1,7.197889E1,2.579605E0,3.2687744E1,3.8979916E1,8.230408E0,0E0,1.4262009E0,2.381176E1,1.0712364E1,2.045811E1,1.2698013E1,1.0253731E1,0E0,0E0,0E0,0E0,0E0,0E0,0E0,0E0,0E0,0E0,0E0,0E0,0E0],"parents":[2147483647,0,0,1,1,2,2,3,3,4,4,5,5,6,6,8,8,9,9,10,10,11,11,12,12,13,13],"right_children":[2,4,6,8,10,12,14,-1,16,18,20,22,24,26,-1,-1,-1,-1,-1,-1,-1,-1,-1,-1,-1,-1,-1],"split_conditions":[8.659797E0,7.5827928E0,9.945667E0,7.162E0,8.168E0,9.666667E0,1.103284E1,-2.0279529E-2,4.7E0,7.32434E-1,1.25E1,1.04085766E-1,-3.792652E-2,6.2664757E0,6.289573E-2,-5.15028E-2,-2.553675E-2,-8.48711E-3,3.215632E-2,-3.156903E-2,-1.6708817E-2,1.3219676E-2,4.324922E-2,-1.7365275E-2,9.67743E-3,4.454873E-2,1.0756199E-2],"split_indices":[182,182,182,62,62,9,182,0,4,98,50,57,57,11,0,0,0,0,0,0,0,0,0,0,0,0,0],"split_type":[0,0,0,0,0,0,0,0,0,0,0,0,0,0,0,0,0,0,0,0,0,0,0,0,0,0,0],"sum_hessian":[1.6603815E3,8.3075726E2,8.296242E2,9.81079E1,7.3264935E2,6.4095734E2,1.8866682E2,1.5751427E1,8.2356476E1,2.1312183E2,5.195275E2,4.4522015E2,1.9573721E2,1.3752501E2,5.1141815E1,6.7949524E1,1.4406951E1,1.6949812E2,4.36237E1,2.2241812E2,2.971094E2,3.790624E2,6.6157745E1,1.3405363E2,6.168358E1,1.0620081E2,3.132419E1],"tree_param":{"num_deleted":"0","num_feature":"183","num_nodes":"27","size_leaf_vector":"1"}},{"base_weights":[6.890878E-4,-3.5464075E-1,3.482074E-1,-6.192439E-1,-2.3849218E-1,1.5375517E-1,7.5955445E-1,-2.5549236E-1,-7.258425E-1,2.2964034E-2,-3.9526892E-1,3.8175088E-1,-1.3906133E-1,8.5922694E-1,2.138407E-1,-4.1021574E-2,6.5438375E-3,-1.1831972E-2,-3.970512E-2,-4.2992006E-3,4.5392137E-2,-2.3881406E-2,3.9766355E-6,-7.5345407E-3,2.3870202E-2,6.86231E-3,-1.9087307E-2,3.266012E-2,5.529595E-2,-8.084002E-3,3.4447744E-2],"categories":[],"categories_nodes":[],"categories_segments":[],"categories_sizes":[],"default_left":[0,0,0,0,0,0,0,1,0,0,0,0,1,0,0,0,0,0,0,0,0,0,0,0,0,0,0,0,0,0,0],"id":20,"left_children":[1,3,5,7,9,11,13,15,17,19,21,23,25,27,29,-1,-1,-1,-1,-1,-1,-1,-1,-1,-1,-1,-1,-1,-1,-1,-1],"loss_changes":[2.0477692E2,2.4724327E1,6.666674E1,9.05938E0,2.3596813E1,3.836247E1,1.4014832E1,1.3400555E1,5.778923E0,2.1178604E1,1.178653E1,1.664357E1,1.702627E1,9.686951E0,8.253087E0,0E0,0E0,0E0,0E0,0E0,0E0,0E0,0E0,0E0,0E0,0E0,0E0,0E0,0E0,0E0,0E0],"parents":[2147483647,0,0,1,1,2,2,3,3,4,4,5,5,6,6,7,7,8,8,9,9,10,10,11,11,12,12,13,13,14,14],"right_children":[2,4,6,8,10,12,14,16,18,20,22,24,26,28,30,-1,-1,-1,-1,-1,-1,-1,-1,-1,-1,-1,-1,-1,-1,-1,-1],"split_conditions":[8.659797E0,7.9475327E0,9.589821E0,7.572E0,8.412E0,9.263E0,1.0647E1,6.806723E-1,4.3692307E0,3.2692444E-1,7.651602E-2,2.5112233E-3,7.36E1,1.02238865E1,1.040544E1,-4.1021574E-2,6.5438375E-3,-1.1831972E-2,-3.970512E-2,-4.2992006E-3,4.5392137E-2,-2.3881406E-2,3.9766355E-6,-7.5345407E-3,2.3870202E-2,6.86231E-3,-1.9087307E-2,3.266012E-2,5.529595E-2,-8.084002E-3,3.4447744E-2],"split_indices":[182,182,182,62,62,62,62,156,170,99,106,110,49,182,182,0,0,0,0,0,0,0,0,0,0,0,0,0,0,0,0],"split_type":[0,0,0,0,0,0,0,0,0,0,0,0,0,0,0,0,0,0,0,0,0,0,0,0,0,0,0,0,0,0,0],"sum_hessian":[1.6543429E3,8.176734E2,8.3666956E2,2.4626392E2,5.714095E2,5.703073E2,2.6636224E2,5.7777306E1,1.884866E2,2.1435744E2,3.5705203E2,3.2068665E2,2.4962065E2,2.2394423E2,4.2418022E1,2.2763643E1,3.5013664E1,2.453235E1,1.6395425E2,1.9226501E2,2.2092419E1,2.9556866E2,6.1483383E1,4.834399E1,2.7234265E2,1.1674549E2,1.3287517E2,1.2644786E2,9.749636E1,2.4194012E1,1.8224009E1],"tree_param":{"num_deleted":"0","num_feature":"183","num_nodes":"31","size_leaf_vector":"1"}},{"base_weights":[1.6149944E-2,-1.0159569E-1,7.7499054E-2,1.4056459E-1,-1.941594E-1,2.4272795E-1,2.8077312E-2,3.7288088E-3,5.983209E-1,3.036345E-2,-2.2303337E-1,3.6557734E-1,-1.2813684E-1,-9.4416216E-2,1.5005054E-1,-6.4047626E-3,2.3339033E-2,4.645774E-2,-0E0,2.9901979E-3,-1.5028544E-2,-1.782329E-2,2.299151E-2,-1.7680844E-2,2.9134665E-2,-1.1299937E-2,4.4731195E-3,1.5910848E-3,1.5798813E-2],"categories":[],"categories_nodes":[],"categories_segments":[],"categories_sizes":[],"default_left":[1,0,0,0,0,1,0,0,0,0,0,0,0,0,0,0,0,0,0,0,0,0,0,0,0,0,0,0,0],"id":21,"left_children":[1,3,5,7,9,11,13,15,17,-1,19,21,23,25,27,-1,-1,-1,-1,-1,-1,-1,-1,-1,-1,-1,-1,-1,-1],"loss_changes":[1.1952151E1,1.2752686E1,8.825457E0,9.714662E0,9.703086E0,1.1511138E1,1.2612463E1,7.7128043E0,7.2033424E0,0E0,8.819942E0,1.3168968E1,1.0491435E1,1.0236286E1,8.213178E0,0E0,0E0,0E0,0E0,0E0,0E0,0E0,0E0,0E0,0E0,0E0,0E0,0E0,0E0],"parents":[2147483647,0,0,1,1,2,2,3,3,4,4,5,5,6,6,7,7,8,8,10,10,11,11,12,12,13,13,14,14],"right_children":[2,4,6,8,10,12,14,16,18,-1,20,22,24,26,28,-1,-1,-1,-1,-1,-1,-1,-1,-1,-1,-1,-1,-1,-1],"split_conditions":[6.806723E-1,7.0574266E-1,7.8607485E-2,8.275192E-3,3.1E0,1.9276745E1,5.1724136E-1,9.24468E0,1.35E2,3.036345E-2,1.14E2,7.407992E-2,1.6923077E0,3.1894028E-1,6.456527E-2,-6.4047626E-3,2.3339033E-2,4.645774E-2,-0E0,2.9901979E-3,-1.5028544E-2,-1.782329E-2,2.299151E-2,-1.7680844E-2,2.9134665E-2,-1.1299937E-2,4.4731195E-3,1.5910848E-3,1.5798813E-2],"split_indices":[139,98,101,109,8,172,24,45,0,0,0,86,137,99,110,0,0,0,0,0,0,0,0,0,0,0,0,0,0],"split_type":[0,0,0,0,0,0,0,0,0,0,0,0,0,0,0,0,0,0,0,0,0,0,0,0,0,0,0,0,0],"sum_hessian":[1.6510868E3,5.640155E2,1.0870713E3,1.550871E2,4.0892844E2,2.4755737E2,8.395139E2,1.2128494E2,3.380215E1,1.258649E1,3.9634195E2,1.8638495E2,6.1172432E1,4.1827094E2,4.21243E2,9.519823E1,2.6086718E1,2.1189407E1,1.2612743E1,8.481956E1,3.115224E2,2.0633308E1,1.6575163E2,4.7417656E1,1.3754773E1,2.441722E2,1.7409872E2,2.4807115E2,1.7317186E2],"tree_param":{"num_deleted":"0","num_feature":"183","num_nodes":"29","size_leaf_vector":"1"}},{"base_weights":[-1.5005547E-2,-2.6228616E-1,4.4843456E-1,-6.110574E-1,-1.3371906E-1,2.542023E-1,8.623052E-1,-5.41245E-1,-5.3003173E-2,1.533558E-1,-2.761922E-1,5.168013E-1,-7.7486974E-3,9.926223E-1,3.3331418E-1,-4.0525746E-2,-1.9409508E-2,-2.2895345E-3,2.6856536E-2,-5.4989746E-3,-2.4335375E-2,-1.7108133E-2,2.9806832E-2,1.5117987E-2,-1.2608751E-2,5.33247E-2,2.3825007E-2,3.989174E-2,-1.0506417E-2],"categories":[],"categories_nodes":[],"categories_segments":[],"categories_sizes":[],"default_left":[0,0,0,0,0,0,0,0,0,0,0,0,1,0,0,0,0,0,0,0,0,0,0,0,0,0,0,0,0],"id":22,"left_children":[1,3,5,7,9,11,13,15,-1,17,19,21,23,25,27,-1,-1,-1,-1,-1,-1,-1,-1,-1,-1,-1,-1,-1,-1],"loss_changes":[1.8899461E2,4.7926727E1,4.5452362E1,7.584282E0,3.23804E1,2.7183954E1,1.1623901E1,9.615204E0,0E0,2.0211374E1,1.826577E1,1.3880924E1,1.51980505E1,4.1943817E0,1.0373875E1,0E0,0E0,0E0,0E0,0E0,0E0,0E0,0E0,0E0,0E0,0E0,0E0,0E0,0E0],"parents":[2147483647,0,0,1,1,2,2,3,3,4,4,5,5,6,6,7,7,9,9,10,10,11,11,12,12,13,13,14,14],"right_children":[2,4,6,8,10,12,14,16,-1,18,20,22,24,26,28,-1,-1,-1,-1,-1,-1,-1,-1,-1,-1,-1,-1,-1,-1],"split_conditions":[9.000687E0,8.018628E0,9.945667E0,9.052E0,8.412E0,1.0241629E0,1.0563E1,7.562972E0,-5.3003173E-2,7.2090876E-1,4.445122E0,-4.426922E-2,7.72E1,6.7972026E0,1.0571428E1,-4.0525746E-2,-1.9409508E-2,-2.2895345E-3,2.6856536E-2,-5.4989746E-3,-2.4335375E-2,-1.7108133E-2,2.9806832E-2,1.5117987E-2,-1.2608751E-2,5.33247E-2,2.3825007E-2,3.989174E-2,-1.0506417E-2],"split_indices":[182,182,182,62,62,44,62,182,0,98,136,107,49,11,5,0,0,0,0,0,0,0,0,0,0,0,0,0,0],"split_type":[0,0,0,0,0,0,0,0,0,0,0,0,0,0,0,0,0,0,0,0,0,0,0,0,0,0,0,0,0],"sum_hessian":[1.6454435E3,1.0737928E3,5.716507E2,2.8677658E2,7.8701624E2,3.9158768E2,1.8006302E2,2.5239062E2,3.438596E1,2.6052246E2,5.264938E2,1.9496156E2,1.9662611E2,1.4276248E2,3.730054E1,8.788186E1,1.6450876E2,1.7233533E2,8.8187126E1,2.9643668E2,2.3005711E2,1.5711066E1,1.7925049E2,8.609872E1,1.105274E2,1.2268288E2,2.0079603E1,1.9804213E1,1.7496326E1],"tree_param":{"num_deleted":"0","num_feature":"183","num_nodes":"29","size_leaf_vector":"1"}},{"base_weights":[6.929968E-3,-2.413143E-1,4.683546E-1,-4.5496726E-1,-4.485085E-2,3.0137098E-1,8.311064E-1,-7.843745E-1,-3.816325E-1,4.7390096E-2,-5.542063E-1,9.078171E-2,5.5224323E-1,9.223409E-1,-2.0944828E-3,-2.8156364E-2,-4.7470357E-2,-2.4259793E-2,-1.6639077E-3,-1.1634333E-2,9.482472E-3,-3.6821406E-2,-1.6807177E-3,1.3142914E-2,-1.4570785E-2,1.2963208E-2,4.1153606E-2,5.849061E-2,3.3038538E-2],"categories":[],"categories_nodes":[],"categories_segments":[],"categories_sizes":[],"default_left":[0,0,0,0,0,0,0,0,1,0,1,0,0,0,0,0,0,0,0,0,0,0,0,0,0,0,0,0,0],"id":23,"left_children":[1,3,5,7,9,11,13,15,17,19,21,23,25,27,-1,-1,-1,-1,-1,-1,-1,-1,-1,-1,-1,-1,-1,-1,-1],"loss_changes":[1.8938734E2,4.4962032E1,3.431366E1,1.1585609E1,2.6581264E1,2.0885132E1,1.4656494E1,1.9584961E0,1.5190319E1,1.9114859E1,8.024324E0,1.462262E1,1.3762653E1,8.705109E0,0E0,0E0,0E0,0E0,0E0,0E0,0E0,0E0,0E0,0E0,0E0,0E0,0E0,0E0,0E0],"parents":[2147483647,0,0,1,1,2,2,3,3,4,4,5,5,6,6,7,7,8,8,9,9,10,10,11,11,12,12,13,13],"right_children":[2,4,6,8,10,12,14,16,18,20,22,24,26,28,-1,-1,-1,-1,-1,-1,-1,-1,-1,-1,-1,-1,-1,-1,-1],"split_conditions":[9.000687E0,8.302647E0,9.945667E0,7.562972E0,9.766666E0,-4.911646E-2,1.1085E1,7.2882694E-1,2.0080423E1,7.334666E-1,9.2666664E1,1.0520608E-2,5.4947577E-2,5.024E0,-2.0944828E-3,-2.8156364E-2,-4.7470357E-2,-2.4259793E-2,-1.6639077E-3,-1.1634333E-2,9.482472E-3,-3.6821406E-2,-1.6807177E-3,1.3142914E-2,-1.4570785E-2,1.2963208E-2,4.1153606E-2,5.849061E-2,3.3038538E-2],"split_indices":[182,182,182,182,9,57,62,104,172,103,141,56,116,61,0,0,0,0,0,0,0,0,0,0,0,0,0,0,0],"split_type":[0,0,0,0,0,0,0,0,0,0,0,0,0,0,0,0,0,0,0,0,0,0,0,0,0,0,0,0,0],"sum_hessian":[1.6490037E3,1.0725159E3,5.7648785E2,5.12033E2,5.604828E2,3.976518E2,1.7883604E2,8.9207855E1,4.2282516E2,4.7574902E2,8.473377E1,2.1809642E2,1.7955536E2,1.6201982E2,1.6816216E1,4.2400692E1,4.6807163E1,3.248806E2,9.794455E1,1.5934914E2,3.163999E2,6.1865673E1,2.2868101E1,1.5117897E2,6.691746E1,8.848574E1,9.106962E1,7.929231E1,8.2727516E1],"tree_param":{"num_deleted":"0","num_feature":"183","num_nodes":"29","size_leaf_vector":"1"}},{"base_weights":[1.3037645E-2,-5.3501483E-2,1.1120567E-1,1.1239031E-1,-1.1660324E-1,5.9366214E-1,8.3448425E-2,7.019463E-1,3.8067188E-2,-7.120586E-1,-8.9146964E-2,-1.7198311E-3,9.4533986E-1,6.7285526E-1,5.7353918E-2,5.6797978E-2,9.2477705E-3,-1.3853055E-2,8.552767E-3,-5.247703E-2,-1.2429363E-2,-2.820485E-3,-2.6184807E-2,2.0101922E-2,6.4697154E-2,5.27653E-2,5.5283187E-3,1.212223E-2,-8.4319507E-4],"categories":[],"categories_nodes":[],"categories_segments":[],"categories_sizes":[],"default_left":[0,0,0,0,0,0,0,0,0,0,1,0,0,0,0,0,0,0,0,0,0,0,0,0,0,0,0,0,0],"id":24,"left_children":[1,3,5,7,9,11,13,15,17,19,21,-1,23,25,27,-1,-1,-1,-1,-1,-1,-1,-1,-1,-1,-1,-1,-1,-1],"loss_changes":[1.0694059E1,1.0220641E1,8.628206E0,1.156276E1,1.1276421E1,8.040848E0,9.443632E0,5.966544E0,1.0166776E1,3.9998922E0,9.480478E0,0E0,2.9564152E0,5.1537905E0,8.355779E0,0E0,0E0,0E0,0E0,0E0,0E0,0E0,0E0,0E0,0E0,0E0,0E0,0E0,0E0],"parents":[2147483647,0,0,1,1,2,2,3,3,4,4,5,5,6,6,7,7,8,8,9,9,10,10,12,12,13,13,14,14],"right_children":[2,4,6,8,10,12,14,16,18,20,22,-1,24,26,28,-1,-1,-1,-1,-1,-1,-1,-1,-1,-1,-1,-1,-1,-1],"split_conditions":[7.281615E-1,3.0795577E-1,5.977E-2,1.539E3,-4.0037114E-2,8.18E1,3.3666666E0,2.3E1,7.6E1,5.904497E-2,9.75E0,-1.7198311E-3,2.2582E-1,1.2461538E0,7.326447E-1,5.6797978E-2,9.2477705E-3,-1.3853055E-2,8.552767E-3,-5.247703E-2,-1.2429363E-2,-2.820485E-3,-2.6184807E-2,2.0101922E-2,6.4697154E-2,5.27653E-2,5.5283187E-3,1.212223E-2,-8.4319507E-4],"split_indices":[98,99,73,64,114,49,7,160,49,112,135,0,69,156,104,0,0,0,0,0,0,0,0,0,0,0,0,0,0],"split_type":[0,0,0,0,0,0,0,0,0,0,0,0,0,0,0,0,0,0,0,0,0,0,0,0,0,0,0,0,0],"sum_hessian":[1.6315876E3,9.717797E2,6.59808E2,2.6648102E2,7.052987E2,3.3285347E1,6.265226E2,2.7641256E1,2.3883975E2,2.8568533E1,6.7673016E2,1.2391371E1,2.0893976E1,2.413525E1,6.023873E2,1.3514497E1,1.41267605E1,6.979149E1,1.6904826E2,1.481804E1,1.3750493E1,6.31849E2,4.488121E1,1.00739355E1,1.0820041E1,1.3109379E1,1.1025872E1,1.718857E2,4.3050165E2],"tree_param":{"num_deleted":"0","num_feature":"183","num_nodes":"29","size_leaf_vector":"1"}},{"base_weights":[-9.901004E-3,-3.5057607E-1,3.3076048E-1,-6.083128E-1,-2.405064E-1,2.2708377E-1,9.643121E-1,-8.450602E-1,-4.5840046E-1,1.18176475E-1,-3.6620012E-1,5.643032E-1,1.0161967E-1,1.0811796E0,4.8249066E-1,-1.3264971E-2,-4.5520373E-2,-1.6857952E-2,-4.4542085E-2,-1.0733395E-2,2.823309E-2,-9.957592E-3,-2.7763998E-2,2.2406338E-2,6.873077E-2,9.585937E-3,-1.4107262E-2,2.8083071E-2,5.6984603E-2,1.0662943E-3,4.674616E-2],"categories":[],"categories_nodes":[],"categories_segments":[],"categories_sizes":[],"default_left":[0,0,0,1,0,0,0,0,0,0,0,0,0,0,0,0,0,0,0,0,0,0,0,0,0,0,0,0,0,0,0],"id":25,"left_children":[1,3,5,7,9,11,13,15,17,19,21,23,25,27,29,-1,-1,-1,-1,-1,-1,-1,-1,-1,-1,-1,-1,-1,-1,-1,-1],"loss_changes":[1.891138E2,2.2658142E1,5.2823532E1,7.554985E0,2.6057281E1,2.9488548E1,5.0438156E0,2.7276764E0,7.180092E0,2.2647957E1,1.3103981E1,1.6263073E1,1.7901514E1,1.100853E0,5.2212315E0,0E0,0E0,0E0,0E0,0E0,0E0,0E0,0E0,0E0,0E0,0E0,0E0,0E0,0E0,0E0,0E0],"parents":[2147483647,0,0,1,1,2,2,3,3,4,4,5,5,6,6,7,7,8,8,9,9,10,10,11,11,12,12,13,13,14,14],"right_children":[2,4,6,8,10,12,14,16,18,20,22,24,26,28,30,-1,-1,-1,-1,-1,-1,-1,-1,-1,-1,-1,-1,-1,-1,-1,-1],"split_conditions":[8.659797E0,7.9475327E0,1.0273726E1,8.6333336E1,8.156E0,8.678E0,1.11E1,1.11E2,9.5E0,7.160178E-1,9.8168737E-1,4.152175E-1,1.0233334E1,6.8537873E-1,1.103284E1,-1.3264971E-2,-4.5520373E-2,-1.6857952E-2,-4.4542085E-2,-1.0733395E-2,2.823309E-2,-9.957592E-3,-2.7763998E-2,2.2406338E-2,6.873077E-2,9.585937E-3,-1.4107262E-2,2.8083071E-2,5.6984603E-2,1.0662943E-3,4.674616E-2],"split_indices":[182,182,182,141,62,62,32,0,23,104,44,100,9,88,182,0,0,0,0,0,0,0,0,0,0,0,0,0,0,0,0],"split_type":[0,0,0,0,0,0,0,0,0,0,0,0,0,0,0,0,0,0,0,0,0,0,0,0,0,0,0,0,0,0,0],"sum_hessian":[1.6254882E3,8.129923E2,8.124958E2,2.4004292E2,5.7294934E2,7.008403E2,1.1165554E2,8.895441E1,1.5108852E2,1.4829614E2,4.2465323E2,1.8771495E2,5.131253E2,8.752344E1,2.4132103E1,1.0345886E1,7.860852E1,1.211454E2,2.994312E1,8.529854E1,6.29976E1,2.282039E2,1.9644933E2,1.67109E2,2.060596E1,4.1679385E2,9.6331474E1,1.1351575E1,7.617186E1,1.3206765E1,1.0925338E1],"tree_param":{"num_deleted":"0","num_feature":"183","num_nodes":"31","size_leaf_vector":"1"}},{"base_weights":[-2.605917E-3,-3.134442E-1,2.943328E-1,-5.861324E-1,-1.9519462E-1,1.7176014E-1,7.175321E-1,-2.758138E-1,-6.7778194E-1,-3.687452E-1,1.3627097E-2,-4.7677312E-2,3.737438E-1,9.8293906E-1,4.6641275E-1,-3.949621E-2,2.2478055E-3,-4.032017E-2,-1.7780539E-2,-1.1119149E-2,-3.396059E-2,-1.0578445E-2,1.0425254E-2,-4.016176E-2,4.4018766E-4,2.1549573E-2,-2.2644663E-2,5.390581E-2,1.842197E-2,4.6618365E-2,9.736933E-3],"categories":[],"categories_nodes":[],"categories_segments":[],"categories_sizes":[],"default_left":[0,0,0,0,0,0,0,0,1,0,0,0,0,0,0,0,0,0,0,0,0,0,0,0,0,0,0,0,0,0,0],"id":26,"left_children":[1,3,5,7,9,11,13,15,17,19,21,23,25,27,29,-1,-1,-1,-1,-1,-1,-1,-1,-1,-1,-1,-1,-1,-1,-1,-1],"loss_changes":[1.504516E2,2.5303963E1,4.280181E1,6.245941E0,2.03475E1,2.8873352E1,1.120018E1,9.862135E0,6.77713E0,1.3422012E1,1.1288105E1,1.3506118E1,1.641539E1,4.0811462E0,1.2050589E1,0E0,0E0,0E0,0E0,0E0,0E0,0E0,0E0,0E0,0E0,0E0,0E0,0E0,0E0,0E0,0E0],"parents":[2147483647,0,0,1,1,2,2,3,3,4,4,5,5,6,6,7,7,8,8,9,9,10,10,11,11,12,12,13,13,14,14],"right_children":[2,4,6,8,10,12,14,16,18,20,22,24,26,28,30,-1,-1,-1,-1,-1,-1,-1,-1,-1,-1,-1,-1,-1,-1,-1,-1],"split_conditions":[8.659797E0,7.9475327E0,9.894544E0,7.546E0,4.529826E-2,-4.761265E-2,9.711E0,5.037037E0,2.0080423E1,9.1875E0,7.1732914E-1,-1.1785519E-2,1.0419E1,6.3737707E0,8.6E1,-3.949621E-2,2.2478055E-3,-4.032017E-2,-1.7780539E-2,-1.1119149E-2,-3.396059E-2,-1.0578445E-2,1.0425254E-2,-4.016176E-2,4.4018766E-4,2.1549573E-2,-2.2644663E-2,5.390581E-2,1.842197E-2,4.6618365E-2,9.736933E-3],"split_indices":[182,182,182,62,57,57,62,140,172,9,98,110,62,11,159,0,0,0,0,0,0,0,0,0,0,0,0,0,0,0,0],"split_type":[0,0,0,0,0,0,0,0,0,0,0,0,0,0,0,0,0,0,0,0,0,0,0,0,0,0,0,0,0,0,0],"sum_hessian":[1.6259891E3,7.946766E2,8.313126E2,2.374659E2,5.572107E2,6.4715826E2,1.8415436E2,5.646856E1,1.8099733E2,3.039913E2,2.532194E2,3.1043533E2,3.367229E2,8.630942E1,9.784494E1,2.0811493E1,3.565707E1,1.2676264E2,5.4234688E1,2.093669E2,9.462439E1,1.1691632E2,1.3630309E2,1.99993E1,2.9043604E2,3.160355E2,2.068742E1,7.314579E1,1.3163627E1,3.397448E1,6.387046E1],"tree_param":{"num_deleted":"0","num_feature":"183","num_nodes":"31","size_leaf_vector":"1"}},{"base_weights":[-4.021051E-3,-1.8055059E-1,5.2916425E-1,-4.3316075E-1,-1.1648708E-2,7.9374313E-1,3.153719E-1,-8.026753E-1,-3.4185198E-1,2.1505101E-1,-2.0139489E-1,8.72562E-1,6.6640167E-3,1.972643E-1,9.9651074E-1,-4.451944E-2,-1.07251685E-2,-1.2383987E-2,-3.2203283E-2,1.2765307E-3,2.8713781E-2,-4.2940164E-3,-2.3256434E-2,1.280686E-2,4.7095176E-2,-9.2407E-3,2.1156399E-2,2.876826E-2,5.6677926E-2],"categories":[],"categories_nodes":[],"categories_segments":[],"categories_sizes":[],"default_left":[0,0,0,0,0,0,0,0,0,0,0,0,0,0,1,0,0,0,0,0,0,0,0,0,0,0,0,0,0],"id":27,"left_children":[1,3,5,7,9,11,13,15,17,19,21,23,-1,25,27,-1,-1,-1,-1,-1,-1,-1,-1,-1,-1,-1,-1,-1,-1],"loss_changes":[1.5353853E2,5.2223194E1,2.2223274E1,1.5783852E1,3.1805721E1,8.913406E0,1.7717926E1,4.315819E0,1.081599E1,2.2759373E1,1.2086081E1,6.1075745E0,0E0,1.7216227E1,2.563095E-1,0E0,0E0,0E0,0E0,0E0,0E0,0E0,0E0,0E0,0E0,0E0,0E0,0E0,0E0],"parents":[2147483647,0,0,1,1,2,2,3,3,4,4,5,5,6,6,7,7,8,8,9,9,10,10,11,11,13,13,14,14],"right_children":[2,4,6,8,10,12,14,16,18,20,22,24,-1,26,28,-1,-1,-1,-1,-1,-1,-1,-1,-1,-1,-1,-1,-1,-1],"split_conditions":[9.274111E0,8.289634E0,4.812E0,7.603767E0,8.812E0,1.0352E1,1.0910357E1,5.578512E0,4.633333E0,7.5691926E-1,4.811111E0,9.342803E0,6.6640167E-3,4.060861E-1,8.9E0,-4.451944E-2,-1.07251685E-2,-1.2383987E-2,-3.2203283E-2,1.2765307E-3,2.8713781E-2,-4.2940164E-3,-2.3256434E-2,1.280686E-2,4.7095176E-2,-9.2407E-3,2.1156399E-2,2.876826E-2,5.6677926E-2],"split_indices":[182,182,61,182,62,62,182,11,8,103,15,182,0,100,50,0,0,0,0,0,0,0,0,0,0,0,0,0,0],"split_type":[0,0,0,0,0,0,0,0,0,0,0,0,0,0,0,0,0,0,0,0,0,0,0,0,0,0,0,0,0],"sum_hessian":[1.6279655E3,1.2243121E3,4.036533E2,4.8885934E2,7.354528E2,1.7755681E2,2.2609647E2,9.3342545E1,3.955168E2,3.3449423E2,4.009586E2,1.5778218E2,1.9774633E1,1.9513367E2,3.09628E1,8.0038765E1,1.3303783E1,3.0483014E2,9.068666E1,2.2073653E2,1.1375771E2,2.8120242E2,1.1975616E2,1.7195072E1,1.4058711E2,7.2302475E1,1.228312E2,1.0512859E1,2.044994E1],"tree_param":{"num_deleted":"0","num_feature":"183","num_nodes":"29","size_leaf_vector":"1"}},{"base_weights":[1.7293112E-2,-1.8680526E-1,4.6179555E-2,8.313583E-2,-3.2964003E-1,-4.5829228E-1,6.0208734E-2,3.0366367E-1,-2.937598E-2,2.871654E-2,-4.4071674E-1,-7.185171E-1,9.349696E-3,8.131778E-2,-2.0588386E-1,3.3776682E-2,-1.3226568E-2,-3.428473E-2,-7.996219E-3,-1.1375684E-2,-4.8062578E-2,-4.343367E-4,8.2322275E-3,1.211141E-2,-1.9794727E-2],"categories":[],"categories_nodes":[],"categories_segments":[],"categories_sizes":[],"default_left":[0,1,0,0,0,0,1,0,0,0,0,0,0,0,0,0,0,0,0,0,0,0,0,0,0],"id":28,"left_children":[1,3,5,7,9,11,13,15,-1,-1,17,19,-1,21,23,-1,-1,-1,-1,-1,-1,-1,-1,-1,-1],"loss_changes":[9.432427E0,7.7433133E0,9.923497E0,1.0604366E1,1.3578605E1,6.735518E0,7.7022767E0,1.1844023E1,0E0,0E0,7.694742E0,2.6174984E0,0E0,9.567655E0,8.783415E0,0E0,0E0,0E0,0E0,0E0,0E0,0E0,0E0,0E0,0E0],"parents":[2147483647,0,0,1,1,2,2,3,3,4,4,5,5,6,6,7,7,10,10,11,11,13,13,14,14],"right_children":[2,4,6,8,10,12,14,16,-1,-1,18,20,-1,22,24,-1,-1,-1,-1,-1,-1,-1,-1,-1,-1],"split_conditions":[3.7846153E0,8.3529415E0,6.248727E-1,8.787327E-2,-2.4071929E-1,1.7663708E-3,1.15E1,6.9997585E-1,-2.937598E-2,2.871654E-2,7.9666543E0,2.2644444E2,9.349696E-3,4.0312922E-1,1.1445087E0,3.3776682E-2,-1.3226568E-2,-3.428473E-2,-7.996219E-3,-1.1375684E-2,-4.8062578E-2,-4.343367E-4,8.2322275E-3,1.211141E-2,-1.9794727E-2],"split_indices":[27,135,90,110,56,114,2,90,0,0,43,82,0,100,154,0,0,0,0,0,0,0,0,0,0],"split_type":[0,0,0,0,0,0,0,0,0,0,0,0,0,0,0,0,0,0,0,0,0,0,0,0,0],"sum_hessian":[1.5997332E3,1.9612766E2,1.4036056E3,6.767171E1,1.2845595E2,3.5878246E1,1.3677273E3,5.1974022E1,1.5697683E1,1.294713E1,1.1550881E2,2.5626717E1,1.0251531E1,1.2691837E3,9.854356E1,3.1398577E1,2.0575445E1,5.976791E1,5.5740902E1,1.0032168E1,1.5594548E1,6.0985095E2,6.593328E2,2.8865751E1,6.967781E1],"tree_param":{"num_deleted":"0","num_feature":"183","num_nodes":"25","size_leaf_vector":"1"}},{"base_weights":[2.6986133E-2,-1.7310351E-1,3.997936E-1,-5.1620173E-1,-7.6352015E-2,3.015436E-1,9.6571493E-1,-7.457638E-1,-3.5335284E-1,2.4455978E-1,-1.8033493E-1,3.812577E-1,-5.4833454E-1,1.0697303E0,2.5869846E-2,-5.3242403E-3,-4.112376E-2,8.71067E-3,-2.4216224E-2,5.9326217E-3,4.4868972E-2,-3.2769345E-2,-5.802251E-3,2.8007818E-2,7.9444265E-3,-4.7960367E-2,2.6200002E-3,2.8496606E-2,5.7321418E-2],"categories":[],"categories_nodes":[],"categories_segments":[],"categories_sizes":[],"default_left":[0,0,0,1,0,0,0,0,0,0,0,1,0,0,0,0,0,0,0,0,0,0,0,0,0,0,0,0,0],"id":29,"left_children":[1,3,5,7,9,11,13,15,17,19,21,23,25,27,-1,-1,-1,-1,-1,-1,-1,-1,-1,-1,-1,-1,-1,-1,-1],"loss_changes":[1.1977229E2,3.4468353E1,3.0349854E1,7.81057E0,2.7351116E1,3.2978996E1,2.3882828E0,4.1842995E0,9.781389E0,1.6056902E1,1.8597748E1,1.7231964E1,1.0614403E1,8.0820465E-1,0E0,0E0,0E0,0E0,0E0,0E0,0E0,0E0,0E0,0E0,0E0,0E0,0E0,0E0,0E0],"parents":[2147483647,0,0,1,1,2,2,3,3,4,4,5,5,6,6,7,7,8,8,9,9,10,10,11,11,12,12,13,13],"right_children":[2,4,6,8,10,12,14,16,18,20,22,24,26,28,-1,-1,-1,-1,-1,-1,-1,-1,-1,-1,-1,-1,-1,-1,-1],"split_conditions":[9.000687E0,7.9475327E0,1.0530708E1,5.2222223E0,8.189E0,1.0713E1,1.11E1,3.7469175E-2,7.546E0,7.7867967E-1,7.146869E-1,8E1,7.1479115E0,3.8494098E-1,2.5869846E-2,-5.3242403E-3,-4.112376E-2,8.71067E-3,-2.4216224E-2,5.9326217E-3,4.4868972E-2,-3.2769345E-2,-5.802251E-3,2.8007818E-2,7.9444265E-3,-4.7960367E-2,2.6200002E-3,2.8496606E-2,5.7321418E-2],"split_indices":[182,182,182,140,62,62,32,91,62,103,103,49,117,85,0,0,0,0,0,0,0,0,0,0,0,0,0,0,0],"split_type":[0,0,0,0,0,0,0,0,0,0,0,0,0,0,0,0,0,0,0,0,0,0,0,0,0,0,0,0,0],"sum_hessian":[1.6011727E3,1.0422964E3,5.588764E2,2.2690668E2,8.1538965E2,4.7911588E2,7.976055E1,9.068469E1,1.3622198E2,1.9841489E2,6.169748E2,4.3925424E2,3.986163E1,6.212782E1,1.7632734E1,1.0507046E1,8.017765E1,2.6657133E1,1.0956486E2,1.6857265E2,2.9842228E1,7.0981064E1,5.459937E2,2.4123798E2,1.9801627E2,2.316048E1,1.6701147E1,1.0855822E1,5.1271996E1],"tree_param":{"num_deleted":"0","num_feature":"183","num_nodes":"29","size_leaf_vector":"1"}}]},"name":"gbtree"},"learner_model_param":{"base_score":"[3.9088678E-1]","boost_from_average":"1","num_class":"0","num_feature":"183","num_target":"1"},"objective":{"name":"binary:logistic","reg_loss_param":{"scale_pos_weight":"1"}}},"version":[3,2,0]}