{"learner":{"attributes":{"best_iteration":"72","best_score":"4.188328801786931","scikit_learn":"{\"_estimator_type\": \"regressor\"}"},"feature_names":["away_team_id","home_team_id","h2h_avg_total_runs","home_avg_runs_scored_10g","home_avg_runs_allowed_10g","home_avg_total_runs_10g","home_win_pct_10g","home_avg_runs_scored_30g","home_avg_runs_allowed_30g","home_avg_total_runs_30g","home_win_pct_30g","home_bullpen_era_10g","home_bullpen_era_30g","home_bullpen_era_season","home_season_avg_scored","home_season_avg_allowed","home_days_rest","away_avg_runs_scored_10g","away_avg_runs_allowed_10g","away_avg_total_runs_10g","away_win_pct_10g","away_avg_runs_scored_30g","away_avg_runs_allowed_30g","away_avg_total_runs_30g","away_win_pct_30g","away_bullpen_era_10g","away_bullpen_era_30g","away_bullpen_era_season","away_season_avg_scored","away_season_avg_allowed","away_days_rest","combined_scoring_10g","combined_allowed_10g","home_offense_vs_away_pitching_10g","away_offense_vs_home_pitching_10g","combined_scoring_30g","combined_allowed_30g","home_offense_vs_away_pitching_30g","away_offense_vs_home_pitching_30g","combined_season_scoring","combined_season_allowed","combined_bullpen_era_10g","combined_bullpen_era_30g","combined_bullpen_era_season","park_factor","is_dome","temp_f","wind_mph","precip_mm","home_dc_attack","home_dc_defense","away_dc_attack","away_dc_defense","dc_lambda_home","dc_lambda_away","dc_expected_total","dc_home_edge","dc_fit_n_games","home_rolling_ops_10g","home_rolling_ops_30g","home_rolling_bb_pct_10g","home_rolling_bb_pct_30g","home_rolling_k_pct_10g","home_rolling_k_pct_30g","away_rolling_ops_10g","away_rolling_ops_30g","away_rolling_bb_pct_10g","away_rolling_bb_pct_30g","away_rolling_k_pct_10g","away_rolling_k_pct_30g","home_lineup_confirmed","home_lineup_batters_known","home_lineup_batters_with_sample","home_lineup_low_pa_batters","home_lineup_platoon_adv_batters","home_lineup_avg_pre_pa","home_lineup_avg_ops","home_lineup_avg_obp","home_lineup_avg_slg","home_lineup_avg_bb_pct","home_lineup_avg_k_pct","home_lineup_top3_avg_ops","home_lineup_mid3_avg_ops","home_lineup_bottom3_avg_ops","home_lineup_std_ops","away_lineup_confirmed","away_lineup_batters_known","away_lineup_batters_with_sample","away_lineup_low_pa_batters","away_lineup_platoon_adv_batters","away_lineup_avg_pre_pa","away_lineup_avg_ops","away_lineup_avg_obp","away_lineup_avg_slg","away_lineup_avg_bb_pct","away_lineup_avg_k_pct","away_lineup_top3_avg_ops","away_lineup_mid3_avg_ops","away_lineup_bottom3_avg_ops","away_lineup_std_ops","home_lineup_delta_ops_30g","home_lineup_delta_bb_pct_30g","home_lineup_delta_k_pct_30g","home_lineup_top3_delta_ops_30g","home_lineup_depth_gap_ops","away_lineup_delta_ops_30g","away_lineup_delta_bb_pct_30g","away_lineup_delta_k_pct_30g","away_lineup_top3_delta_ops_30g","away_lineup_depth_gap_ops","ump_avg_total_runs","home_pitcher_era_3g","home_pitcher_whip_3g","home_pitcher_k9_3g","home_pitcher_hr9_3g","home_pitcher_ip_3g","away_pitcher_era_3g","away_pitcher_whip_3g","away_pitcher_k9_3g","away_pitcher_hr9_3g","away_pitcher_ip_3g","combined_pitcher_era","combined_pitcher_whip","combined_pitcher_k9"],"feature_types":["int","int","float","float","float","float","float","float","float","float","float","float","float","float","float","float","float","float","float","float","float","float","float","float","float","float","float","float","float","float","float","float","float","float","float","float","float","float","float","float","float","float","float","float","float","int","float","float","float","float","float","float","float","float","float","float","float","int","float","float","float","float","float","float","float","float","float","float","float","float","float","float","float","float","float","float","float","float","float","float","float","float","float","float","float","float","float","float","float","float","float","float","float","float","float","float","float","float","float","float","float","float","float","float","float","float","float","float","float","float","float","float","float","float","float","float","float","float","float","float","float","float","float","float"],"gradient_booster":{"model":{"cats":{"enc":[],"feature_segments":[],"sorted_idx":[]},"gbtree_model_param":{"num_parallel_tree":"1","num_trees":"103"},"iteration_indptr":[0,1,2,3,4,5,6,7,8,9,10,11,12,13,14,15,16,17,18,19,20,21,22,23,24,25,26,27,28,29,30,31,32,33,34,35,36,37,38,39,40,41,42,43,44,45,46,47,48,49,50,51,52,53,54,55,56,57,58,59,60,61,62,63,64,65,66,67,68,69,70,71,72,73,74,75,76,77,78,79,80,81,82,83,84,85,86,87,88,89,90,91,92,93,94,95,96,97,98,99,100,101,102,103],"tree_info":[0,0,0,0,0,0,0,0,0,0,0,0,0,0,0,0,0,0,0,0,0,0,0,0,0,0,0,0,0,0,0,0,0,0,0,0,0,0,0,0,0,0,0,0,0,0,0,0,0,0,0,0,0,0,0,0,0,0,0,0,0,0,0,0,0,0,0,0,0,0,0,0,0,0,0,0,0,0,0,0,0,0,0,0,0,0,0,0,0,0,0,0,0,0,0,0,0,0,0,0,0,0,0],"trees":[{"base_weights":[1.4904072E-2,7.4639636E-1,-5.5546427E-1,1.0496827E0,3.739061E-2,-4.262132E-1,-2.5160394E0,1.4555573E0,3.4299222E-1,-3.4843773E-1,8.8804334E-1,6.278774E-1,-6.029477E-1,-2.9397748E0,1.8261715E0,4.417152E0,1.3676918E0,1.7875686E0,9.175571E-2,6.0166043E-1,-6.3332677E-1,2.759496E-1,2.4438772E0,-6.4197356E-1,1.4105786E0,-3.5242237E-2,-9.711439E-1,-7.495016E0,-2.5319552E0,4.2736597E0,-6.7849986E-2,4.1855827E-2,3.3486596E-1,9.772557E-2,4.9941033E-2,1.5432237E-1,-5.1264238E-2,1.0242955E-1,-4.170596E-3,6.643862E-2,-6.5158196E-2,-4.0248625E-2,5.4632425E-2,9.951987E-2,-1.1113337E-2,8.6544506E-2,3.2337067E-1,-9.573965E-2,1.3090034E-2,-1.5442826E-2,1.20673195E-1,-6.1261375E-2,1.00535005E-2,-3.4776997E-2,-8.3853565E-2,-2.3036952E-1,-4.716633E-1,-1.4112741E-1,5.0216537E-2,1.0626357E-1,2.8465524E-1],"categories":[],"categories_nodes":[],"categories_segments":[],"categories_sizes":[],"default_left":[0,0,0,0,1,0,0,0,0,0,0,0,0,0,0,0,0,0,0,0,0,1,0,0,0,0,0,0,0,0,0,0,0,0,0,0,0,0,0,0,0,0,0,0,0,0,0,0,0,0,0,0,0,0,0,0,0,0,0,0,0],"id":0,"left_children":[1,3,5,7,9,11,13,15,17,19,21,23,25,27,29,31,33,35,37,39,41,43,45,47,49,51,53,55,57,59,-1,-1,-1,-1,-1,-1,-1,-1,-1,-1,-1,-1,-1,-1,-1,-1,-1,-1,-1,-1,-1,-1,-1,-1,-1,-1,-1,-1,-1,-1,-1],"loss_changes":[2.4883167E3,5.617301E2,8.477981E2,5.242158E2,2.5767682E2,5.8627136E2,3.8634924E2,2.9575854E2,2.4244846E2,1.4654738E2,2.323711E2,4.502315E2,5.629839E2,3.3112854E2,1.541157E2,2.6302173E2,2.4235303E2,3.6507254E2,1.9609145E2,1.7486176E2,1.2409343E2,1.5180658E2,1.8592816E2,1.9967563E2,4.837868E2,2.9871057E2,3.1650134E2,3.908728E1,1.828501E2,2.0663483E1,0E0,0E0,0E0,0E0,0E0,0E0,0E0,0E0,0E0,0E0,0E0,0E0,0E0,0E0,0E0,0E0,0E0,0E0,0E0,0E0,0E0,0E0,0E0,0E0,0E0,0E0,0E0,0E0,0E0,0E0,0E0],"parents":[2147483647,0,0,1,1,2,2,3,3,4,4,5,5,6,6,7,7,8,8,9,9,10,10,11,11,12,12,13,13,14,14,15,15,16,16,17,17,18,18,19,19,20,20,21,21,22,22,23,23,24,24,25,25,26,26,27,27,28,28,29,29],"right_children":[2,4,6,8,10,12,14,16,18,20,22,24,26,28,30,32,34,36,38,40,42,44,46,48,50,52,54,56,58,60,-1,-1,-1,-1,-1,-1,-1,-1,-1,-1,-1,-1,-1,-1,-1,-1,-1,-1,-1,-1,-1,-1,-1,-1,-1,-1,-1,-1,-1,-1,-1],"split_conditions":[8.718E0,4.1041797E-1,1.0862E1,4.322E0,1.4615384E0,-2.3189643E-3,1.04922585E-1,6E0,5.1790047E-3,6.644358E-1,7.334E-1,-9.360033E-3,8.933333E0,1.98E2,6.878E-1,7.703333E-2,3.854443E-2,9.209335E0,-1.8E0,4.4E0,1.658675E-2,6.2E0,4.695E0,8.931818E0,2.185375E-1,7.5333336E1,7.5450253E-1,1E1,2.4467298E-1,8.910714E0,-6.7849986E-2,4.1855827E-2,3.3486596E-1,9.772557E-2,4.9941033E-2,1.5432237E-1,-5.1264238E-2,1.0242955E-1,-4.170596E-3,6.643862E-2,-6.5158196E-2,-4.0248625E-2,5.4632425E-2,9.951987E-2,-1.1113337E-2,8.6544506E-2,3.2337067E-1,-9.573965E-2,1.3090034E-2,-1.5442826E-2,1.20673195E-1,-6.1261375E-2,1.00535005E-2,-3.4776997E-2,-8.3853565E-2,-2.3036952E-1,-4.716633E-1,-1.4112741E-1,5.0216537E-2,1.0626357E-1,2.8465524E-1],"split_indices":[55,93,55,53,112,108,108,72,105,83,58,102,23,57,64,61,108,43,34,22,102,47,54,110,80,90,97,5,80,31,0,0,0,0,0,0,0,0,0,0,0,0,0,0,0,0,0,0,0,0,0,0,0,0,0,0,0,0,0,0,0],"split_type":[0,0,0,0,0,0,0,0,0,0,0,0,0,0,0,0,0,0,0,0,0,0,0,0,0,0,0,0,0,0,0,0,0,0,0,0,0,0,0,0,0,0,0,0,0,0,0,0,0,0,0,0,0,0,0,0,0,0,0,0,0],"sum_hessian":[5.962E3,2.612E3,3.35E3,1.829E3,7.83E2,3.144E3,2.06E2,1.161E3,6.68E2,5.39E2,2.44E2,4.51E2,2.693E3,1.88E2,1.8E1,3.2E1,1.129E3,9.8E1,5.7E2,1.24E2,4.15E2,1.76E2,6.8E1,1.72E2,2.79E2,1.06E3,1.633E3,1.4E1,1.74E2,1E1,8E0,1.3E1,1.9E1,4.34E2,6.95E2,6.7E1,3.1E1,4.6E1,5.24E2,9E1,3.4E1,3.78E2,3.7E1,3.9E1,1.37E2,5.9E1,9E0,7.1E1,1.01E2,1.03E2,1.76E2,1.75E2,8.85E2,1.176E3,4.57E2,7E0,7E0,1.61E2,1.3E1,5E0,5E0],"tree_param":{"num_deleted":"0","num_feature":"124","num_nodes":"61","size_leaf_vector":"1"}},{"base_weights":[-2.4627818E-2,4.844319E-1,-5.4710925E-1,1.2781069E0,2.4485734E-1,-1.4752958E0,-2.8826684E-1,2.4131029E0,7.7161974E-1,6.257878E-1,-2.3939785E-1,-1.2394563E0,-3.3368568E0,7.2300464E-2,-8.5181874E-1,3.774571E-1,3.4417465E0,1.4003776E0,-3.0549514E-1,4.927271E-1,2.4002407E0,-3.1748778E-1,2.562873E0,9.9913543E-1,-1.4270216E0,-3.549202E-1,-2.3860347E0,5.0664806E-1,-7.7998054E-1,-1.6367656E0,-4.358994E-1,-5.8994096E-2,1.07467294E-1,2.2851558E-1,1.0375164E-1,1.8552364E-1,4.6448078E-2,1.8816125E-1,-2.7042696E-2,1.2298669E-2,7.2629355E-2,2.0154662E-1,-2.2459082E-2,-7.76679E-3,-7.898744E-2,-2.8815478E-2,2.4797645E-1,1.6105351E-1,-3.723136E-2,1.3544948E-1,-7.5589955E-2,1.9561479E-2,-2.0253287E-1,4.898598E-2,-3.274579E-2,1.01786375E-1,-4.8664983E-2,4.2198174E-2,-9.8637365E-2,2.2060154E-1,-2.676398E-2],"categories":[],"categories_nodes":[],"categories_segments":[],"categories_sizes":[],"default_left":[0,0,0,0,0,0,0,0,0,1,1,0,0,0,1,0,0,0,0,0,0,1,0,0,0,0,0,0,0,0,0,0,0,0,0,0,0,0,0,0,0,0,0,0,0,0,0,0,0,0,0,0,0,0,0,0,0,0,0,0,0],"id":1,"left_children":[1,3,5,7,9,11,13,15,17,19,21,23,25,27,29,31,33,35,37,39,41,43,45,47,49,-1,51,53,55,57,59,-1,-1,-1,-1,-1,-1,-1,-1,-1,-1,-1,-1,-1,-1,-1,-1,-1,-1,-1,-1,-1,-1,-1,-1,-1,-1,-1,-1,-1,-1],"loss_changes":[1.5974467E3,5.779538E2,7.1151135E2,4.0309644E2,4.3147363E2,2.7901965E2,4.713567E2,4.5270703E2,3.3170984E2,3.07596E2,2.259831E2,2.4290088E2,2.3962701E2,5.241813E2,2.9453876E2,2.0683086E2,2.1196118E2,3.3259503E2,1.7504031E2,2.881918E2,4.2500293E2,2.0487325E2,2.139557E2,1.7699985E2,1.901659E2,0E0,2.747134E2,5.161078E2,2.6206497E2,2.626568E2,2.8767435E2,0E0,0E0,0E0,0E0,0E0,0E0,0E0,0E0,0E0,0E0,0E0,0E0,0E0,0E0,0E0,0E0,0E0,0E0,0E0,0E0,0E0,0E0,0E0,0E0,0E0,0E0,0E0,0E0,0E0,0E0],"parents":[2147483647,0,0,1,1,2,2,3,3,4,4,5,5,6,6,7,7,8,8,9,9,10,10,11,11,12,12,13,13,14,14,15,15,16,16,17,17,18,18,19,19,20,20,21,21,22,22,23,23,24,24,26,26,27,27,28,28,29,29,30,30],"right_children":[2,4,6,8,10,12,14,16,18,20,22,24,26,28,30,32,34,36,38,40,42,44,46,48,50,-1,52,54,56,58,60,-1,-1,-1,-1,-1,-1,-1,-1,-1,-1,-1,-1,-1,-1,-1,-1,-1,-1,-1,-1,-1,-1,-1,-1,-1,-1,-1,-1,-1,-1],"split_conditions":[8.933333E0,3.2133944E-2,7.01E1,7.262446E-1,8.566667E0,5.843E0,7.3670036E-1,4.740741E0,4.2444444E0,9E0,9.39E1,-1.2555056E-2,3.18E2,5.3878356E-2,6.328125E-1,1.4488157E-2,1.3583204E-2,6.512E-1,3.056311E-1,1.0565017E-1,1.5096774E0,1.2176471E1,1.0367883E-3,8.7E0,6.5507334E-1,-3.549202E-1,8.414177E-2,3.2563856E-1,3.55501E0,5.5384617E0,9.88966E0,-5.8994096E-2,1.07467294E-1,2.2851558E-1,1.0375164E-1,1.8552364E-1,4.6448078E-2,1.8816125E-1,-2.7042696E-2,1.2298669E-2,7.2629355E-2,2.0154662E-1,-2.2459082E-2,-7.76679E-3,-7.898744E-2,-2.8815478E-2,2.4797645E-1,1.6105351E-1,-3.723136E-2,1.3544948E-1,-7.5589955E-2,1.9561479E-2,-2.0253287E-1,4.898598E-2,-3.274579E-2,1.01786375E-1,-4.8664983E-2,4.2198174E-2,-9.8637365E-2,2.2060154E-1,-2.676398E-2],"split_indices":[23,108,46,81,35,54,76,120,29,111,46,106,57,108,114,108,108,64,77,52,117,113,51,5,82,0,94,92,13,118,123,0,0,0,0,0,0,0,0,0,0,0,0,0,0,0,0,0,0,0,0,0,0,0,0,0,0,0,0,0,0],"split_type":[0,0,0,0,0,0,0,0,0,0,0,0,0,0,0,0,0,0,0,0,0,0,0,0,0,0,0,0,0,0,0,0,0,0,0,0,0,0,0,0,0,0,0,0,0,0,0,0,0,0,0,0,0,0,0,0,0,0,0,0,0],"sum_hessian":[6.004E3,3.041E3,2.963E3,7.04E2,2.337E3,6.45E2,2.318E3,2.16E2,4.88E2,1.308E3,1.029E3,5.74E2,7.1E1,1.414E3,9.04E2,7.3E1,1.43E2,3.08E2,1.8E2,1.218E3,9E1,1.002E3,2.7E1,4.4E1,5.3E2,1.3E1,5.8E1,9.37E2,4.77E2,3.12E2,5.92E2,3.9E1,3.4E1,7.7E1,6.6E1,5.1E1,2.57E2,9E0,1.71E2,9.7E2,2.48E2,5.7E1,3.3E1,8.89E2,1.13E2,1.2E1,1.5E1,1.9E1,2.5E1,1E1,5.2E2,2.2E1,3.6E1,6.66E2,2.71E2,3E1,4.47E2,3.7E1,2.75E2,1.1E1,5.81E2],"tree_param":{"num_deleted":"0","num_feature":"124","num_nodes":"61","size_leaf_vector":"1"}},{"base_weights":[2.0306325E-2,6.746586E-1,-3.6294845E-1,9.377824E-1,1.1659973E-2,-1.244354E0,-1.3519333E-1,1.418679E-1,1.2194058E0,-1.1596958E-1,2.989808E0,7.6225325E-2,-1.48345E0,1.4272012E0,-2.5958946E-1,1.5419846E0,-1.9062825E-1,1.6982192E0,7.8431094E-1,2.9523167E-1,-1.7604886E-1,3.9822586E0,-4.8270147E-2,-4.75074E-1,4.658079E0,-1.1355014E0,-2.7504992E0,2.679897E0,3.3924377E-1,2.7793512E-1,-5.8355707E-1,3.0374242E-2,3.1519154E-1,1.4791043E-3,-1.2669411E-1,3.2569817E-1,8.0352955E-2,6.6497095E-2,8.896649E-3,-1.5573898E-2,1.0806906E-1,2.7508843E-1,1.1879059E-1,-1.5478052E-1,2.397794E-2,7.477937E-2,4.040861E-1,-4.2437147E-2,-1.1773926E-1,-6.1606783E-2,-2.0157857E-1,2.177134E-1,5.081296E-2,3.520402E-2,-1.497313E-1,1.6968583E-1,5.5961367E-3,2.9903298E-2,-3.8245216E-2],"categories":[],"categories_nodes":[],"categories_segments":[],"categories_sizes":[],"default_left":[0,0,0,0,0,0,0,0,0,0,0,0,0,0,0,1,0,0,0,0,0,0,0,0,0,0,0,0,0,0,0,0,0,0,0,0,0,0,0,0,0,0,0,0,0,0,0,0,0,0,0,0,0,0,0,0,0,0,0],"id":2,"left_children":[1,3,5,7,9,11,13,15,17,19,21,23,25,27,29,31,33,35,37,-1,39,41,-1,43,45,47,49,51,53,55,57,-1,-1,-1,-1,-1,-1,-1,-1,-1,-1,-1,-1,-1,-1,-1,-1,-1,-1,-1,-1,-1,-1,-1,-1,-1,-1,-1,-1],"loss_changes":[1.5052285E3,3.866515E2,7.595122E2,3.5541394E2,2.4047704E2,2.4558789E2,5.850704E2,1.9409099E2,2.4258167E2,2.1966504E2,1.0620528E2,3.05748E2,2.8657947E2,3.0134827E2,4.8569666E2,3.5147495E2,1.742203E2,2.3324438E2,2.0342148E2,0E0,1.907384E2,3.7402313E1,0E0,2.7192435E2,1.277095E2,1.787945E2,2.6877002E2,2.8194928E2,1.4783751E2,5.418736E2,3.733285E2,0E0,0E0,0E0,0E0,0E0,0E0,0E0,0E0,0E0,0E0,0E0,0E0,0E0,0E0,0E0,0E0,0E0,0E0,0E0,0E0,0E0,0E0,0E0,0E0,0E0,0E0,0E0,0E0],"parents":[2147483647,0,0,1,1,2,2,3,3,4,4,5,5,6,6,7,7,8,8,9,9,10,10,11,11,12,12,13,13,14,14,15,15,16,16,17,17,18,18,20,20,21,21,23,23,24,24,25,25,26,26,27,27,28,28,29,29,30,30],"right_children":[2,4,6,8,10,12,14,16,18,20,22,24,26,28,30,32,34,36,38,-1,40,42,-1,44,46,48,50,52,54,56,58,-1,-1,-1,-1,-1,-1,-1,-1,-1,-1,-1,-1,-1,-1,-1,-1,-1,-1,-1,-1,-1,-1,-1,-1,-1,-1,-1,-1],"split_conditions":[8.539E0,7.717011E-1,7.01E1,-3.543335E-2,8.397E-1,7.1286213E-1,7.015459E-1,-1.8E0,9E0,1.4160839E0,2.4087666E-1,9.8973334E-2,5.1666665E0,4.732143E0,4.465E0,6.428571E0,8.703448E0,-2.2230022E-1,8.321428E0,2.9523167E-1,2.944658E-1,5.740741E0,-4.8270147E-2,1.0526316E0,8.645205E-2,1.527359E-1,8.941176E0,1.37E2,1.3044642E1,-1.2825268E-2,5.912409E0,3.0374242E-2,3.1519154E-1,1.4791043E-3,-1.2669411E-1,3.2569817E-1,8.0352955E-2,6.6497095E-2,8.896649E-3,-1.5573898E-2,1.0806906E-1,2.7508843E-1,1.1879059E-1,-1.5478052E-1,2.397794E-2,7.477937E-2,4.040861E-1,-4.2437147E-2,-1.1773926E-1,-6.1606783E-2,-2.0157857E-1,2.177134E-1,5.081296E-2,3.520402E-2,-1.497313E-1,1.6968583E-1,5.5961367E-3,2.9903298E-2,-3.8245216E-2],"split_indices":[55,96,46,52,58,96,96,33,87,11,63,67,22,29,53,111,39,50,31,0,52,120,0,117,94,51,39,0,41,103,113,0,0,0,0,0,0,0,0,0,0,0,0,0,0,0,0,0,0,0,0,0,0,0,0,0,0,0,0],"split_type":[0,0,0,0,0,0,0,0,0,0,0,0,0,0,0,0,0,0,0,0,0,0,0,0,0,0,0,0,0,0,0,0,0,0,0,0,0,0,0,0,0,0,0,0,0,0,0,0,0,0,0,0,0,0,0,0,0,0,0],"sum_hessian":[6E3,2.216E3,3.784E3,1.586E3,6.3E2,7.76E2,3.008E3,4.15E2,1.171E3,6.05E2,2.5E1,1.19E2,6.57E2,2.21E2,2.787E3,7.9E1,3.36E2,5.56E2,6.15E2,5E0,6E2,2E1,5E0,1.07E2,1.2E1,5.17E2,1.4E2,1.02E2,1.19E2,1.048E3,1.739E3,6.7E1,1.2E1,3.08E2,2.8E1,9E0,5.47E2,3.23E2,2.92E2,5.68E2,3.2E1,9E0,1.1E1,2.8E1,7.9E1,7E0,5E0,4.2E2,9.7E1,6.5E1,7.5E1,5E1,5.2E1,1.08E2,1.1E1,5.2E1,9.96E2,2.31E2,1.508E3],"tree_param":{"num_deleted":"0","num_feature":"124","num_nodes":"59","size_leaf_vector":"1"}},{"base_weights":[1.656002E-2,4.746299E-1,-4.915895E-1,8.667708E-1,-3.2895783E-1,-4.154169E-1,-3.2211738E0,5.9041256E-1,2.1064465E0,1.2699463E-2,-1.3583393E0,5.328709E-1,-5.7828283E-1,-5.9793196E0,-2.3383772E0,1.4111774E0,2.7165848E-1,8.973096E-1,3.1802974E0,-2.4424393E-1,1.1273055E0,9.258067E-1,-1.7333621E0,2.0784633E0,1.8180968E-1,4.547434E0,-6.0643435E-1,-3.380289E0,-4.3965355E-1,8.752354E-2,-2.9133282E0,8.258607E-2,-7.296064E-2,2.1951869E-1,1.0224728E-2,6.343505E-2,-1.09398246E-1,2.150514E-1,5.759868E-2,3.509132E-3,-5.913307E-2,1.1473825E-1,-6.841933E-3,-2.9740391E-2,2.866904E-1,1.5474039E-2,-1.0461078E-1,1.586204E-1,-7.781921E-2,6.1633863E-2,-2.3322618E-2,-9.148947E-2,4.3872115E-1,-5.9538223E-2,-1.9325629E-2,-2.3593536E-1,-7.309114E-2,7.900061E-2,-1.7613457E-1],"categories":[],"categories_nodes":[],"categories_segments":[],"categories_sizes":[],"default_left":[0,0,0,0,0,0,0,0,0,0,0,0,0,0,0,0,0,1,0,0,0,0,0,1,0,0,0,0,0,0,0,0,0,0,0,0,0,0,0,0,0,0,0,0,0,0,0,0,0,0,0,0,0,0,0,0,0,0,0],"id":3,"left_children":[1,3,5,7,9,11,13,15,17,19,21,23,25,27,29,31,33,35,37,39,41,43,45,47,49,51,53,55,-1,-1,57,-1,-1,-1,-1,-1,-1,-1,-1,-1,-1,-1,-1,-1,-1,-1,-1,-1,-1,-1,-1,-1,-1,-1,-1,-1,-1,-1,-1],"loss_changes":[1.3959086E3,9.942262E2,5.8941345E2,7.247871E2,3.6415683E2,4.2765866E2,1.7267224E2,4.533628E2,4.9793384E2,2.2317557E2,2.2269006E2,2.196907E2,3.4319238E2,1.0069397E2,1.4626923E2,3.373001E2,3.4470572E2,2.1237343E2,4.582334E2,1.869694E2,2.1600204E2,2.7443573E2,1.6356982E2,3.0332327E2,2.2682246E2,3.6718365E2,3.0137317E2,2.0728844E1,0E0,0E0,1.5087808E2,0E0,0E0,0E0,0E0,0E0,0E0,0E0,0E0,0E0,0E0,0E0,0E0,0E0,0E0,0E0,0E0,0E0,0E0,0E0,0E0,0E0,0E0,0E0,0E0,0E0,0E0,0E0,0E0],"parents":[2147483647,0,0,1,1,2,2,3,3,4,4,5,5,6,6,7,7,8,8,9,9,10,10,11,11,12,12,13,13,14,14,15,15,16,16,17,17,18,18,19,19,20,20,21,21,22,22,23,23,24,24,25,25,26,26,27,27,30,30],"right_children":[2,4,6,8,10,12,14,16,18,20,22,24,26,28,30,32,34,36,38,40,42,44,46,48,50,52,54,56,-1,-1,58,-1,-1,-1,-1,-1,-1,-1,-1,-1,-1,-1,-1,-1,-1,-1,-1,-1,-1,-1,-1,-1,-1,-1,-1,-1,-1,-1,-1],"split_conditions":[4.465E0,7.793593E-1,5.805E0,7.197E-1,9.5E0,6.931636E-1,5.26E2,7.190052E-1,8.138686E0,9.742667E-2,7.4598245E-2,6.7471254E-1,7.8694425E0,9.9E0,1.076E3,5.009901E0,2.9825583E0,9.638555E0,4.225806E0,4.4805818E0,1.43E1,4.2857143E-1,6.1875E0,1.34E1,4.814815E0,9.3E0,2.1481544E-1,1.98E1,-4.3965355E-1,8.752354E-2,5.370166E0,8.258607E-2,-7.296064E-2,2.1951869E-1,1.0224728E-2,6.343505E-2,-1.09398246E-1,2.150514E-1,5.759868E-2,3.509132E-3,-5.913307E-2,1.1473825E-1,-6.841933E-3,-2.9740391E-2,2.866904E-1,1.5474039E-2,-1.0461078E-1,1.586204E-1,-7.781921E-2,6.1633863E-2,-2.3322618E-2,-9.148947E-2,4.3872115E-1,-5.9538223E-2,-1.9325629E-2,-2.3593536E-1,-7.309114E-2,7.900061E-2,-1.7613457E-1],"split_indices":[53,96,54,59,23,91,57,96,121,67,79,96,123,9,57,29,13,110,29,27,47,6,118,47,115,23,80,123,0,0,118,0,0,0,0,0,0,0,0,0,0,0,0,0,0,0,0,0,0,0,0,0,0,0,0,0,0,0,0],"split_type":[0,0,0,0,0,0,0,0,0,0,0,0,0,0,0,0,0,0,0,0,0,0,0,0,0,0,0,0,0,0,0,0,0,0,0,0,0,0,0,0,0,0,0,0,0,0,0,0,0,0,0,0,0,0,0,0,0,0,0],"sum_hessian":[5.995E3,3.153E3,2.842E3,2.119E3,1.034E3,2.766E3,7.6E1,1.734E3,3.85E2,7.77E2,2.57E2,4.05E2,2.361E3,1.7E1,5.9E1,4.84E2,1.25E3,1.82E2,2.03E2,6.32E2,1.45E2,3.6E1,2.21E2,7.4E1,3.31E2,1.2E1,2.349E3,1E1,7E0,7E0,5.2E1,4.47E2,3.7E1,1.9E1,1.231E3,1.63E2,1.9E1,1.3E2,7.3E1,4.74E2,1.58E2,7.5E1,7E1,2.8E1,8E0,3.3E1,1.88E2,5.7E1,1.7E1,1.26E2,2.05E2,5E0,7E0,6.41E2,1.708E3,5E0,5E0,6E0,4.6E1],"tree_param":{"num_deleted":"0","num_feature":"124","num_nodes":"59","size_leaf_vector":"1"}},{"base_weights":[4.1535337E-2,5.117627E-1,-4.8840916E-1,1.5939018E0,2.637015E-1,-3.176941E-1,-1.7439771E0,1.2622479E0,3.1016521E0,5.2726406E-1,-4.156632E-1,7.3305404E-1,-4.394358E-1,-2.146138E0,1.2093337E0,1.5266497E0,-8.842828E-1,4.89738E0,1.2798891E0,3.083763E-1,1.4094019E0,2.904755E-1,-9.5266014E-1,-5.11212E-1,1.1995957E0,-9.855083E-2,-7.494268E-1,-4.7822485E0,-1.7981308E0,3.2761475E-1,1.0333201E-1,2.0162514E-1,6.4824045E-2,-1.0145762E-1,5.792266E-2,4.781528E-1,1.861711E-1,2.5697473E-1,2.6197424E-3,1.335326E-2,2.4932146E-1,5.807909E-2,3.4067863E-1,2.585813E-1,6.431342E-3,4.3359276E-2,-6.1239015E-2,6.89631E-2,-9.6528254E-2,-4.1599862E-2,7.879997E-2,-1.2595388E-2,8.919438E-2,6.9902013E-3,-4.9324676E-2,-1.21128045E-1,-3.2561967E-1,7.393048E-2,-1.0586995E-1,-8.675524E-2,1.4960329E-1],"categories":[],"categories_nodes":[],"categories_segments":[],"categories_sizes":[],"default_left":[0,0,0,0,0,0,0,0,0,0,0,1,0,0,0,0,1,0,0,0,0,0,0,0,0,0,0,0,0,0,0,0,0,0,0,0,0,0,0,0,0,0,0,0,0,0,0,0,0,0,0,0,0,0,0,0,0,0,0,0,0],"id":4,"left_children":[1,3,5,7,9,11,13,15,17,19,21,23,25,27,29,31,33,35,37,39,41,43,45,47,49,51,53,55,57,-1,59,-1,-1,-1,-1,-1,-1,-1,-1,-1,-1,-1,-1,-1,-1,-1,-1,-1,-1,-1,-1,-1,-1,-1,-1,-1,-1,-1,-1,-1,-1],"loss_changes":[1.4936743E3,8.519487E2,6.032622E2,2.9167896E2,4.6308774E2,3.1778992E2,4.0294592E2,2.7780945E2,3.3988147E2,3.591187E2,2.7450043E2,1.5045155E2,2.349599E2,2.6320642E2,2.4093964E2,2.4455695E2,1.2872572E2,2.5336133E2,2.5504427E2,2.868667E2,4.8681488E2,2.4607713E2,2.0463193E2,1.9322865E2,1.4514905E2,3.0659097E2,2.458128E2,1.22138306E2,2.793806E2,0E0,1.9119365E2,0E0,0E0,0E0,0E0,0E0,0E0,0E0,0E0,0E0,0E0,0E0,0E0,0E0,0E0,0E0,0E0,0E0,0E0,0E0,0E0,0E0,0E0,0E0,0E0,0E0,0E0,0E0,0E0,0E0,0E0],"parents":[2147483647,0,0,1,1,2,2,3,3,4,4,5,5,6,6,7,7,8,8,9,9,10,10,11,11,12,12,13,13,14,14,15,15,16,16,17,17,18,18,19,19,20,20,21,21,22,22,23,23,24,24,25,25,26,26,27,27,28,28,30,30],"right_children":[2,4,6,8,10,12,14,16,18,20,22,24,26,28,30,32,34,36,38,40,42,44,46,48,50,52,54,56,58,-1,60,-1,-1,-1,-1,-1,-1,-1,-1,-1,-1,-1,-1,-1,-1,-1,-1,-1,-1,-1,-1,-1,-1,-1,-1,-1,-1,-1,-1,-1,-1],"split_conditions":[4.465E0,7.2085375E-1,1.0479E1,1.2555555E1,3.271617E-1,3.04622E-1,5.7102804E0,3.191339E-1,-1.14E-1,7.197E-1,8.933333E0,2.368421E0,1.7166183E1,3.68E2,7.1995157E-1,-1.2924678E-2,5.6511626E0,8.020728E0,6.558E-1,4.4815832E-1,2.487132E-1,7.018618E0,6.554E-2,4.090909E0,2.2348964E-1,7.9915464E-1,8.466666E0,2.260608E-1,6.658E-1,3.2761475E-1,8.211E-1,2.0162514E-1,6.4824045E-2,-1.0145762E-1,5.792266E-2,4.781528E-1,1.861711E-1,2.5697473E-1,2.6197424E-3,1.335326E-2,2.4932146E-1,5.807909E-2,3.4067863E-1,2.585813E-1,6.431342E-3,4.3359276E-2,-6.1239015E-2,6.89631E-2,-9.6528254E-2,-4.1599862E-2,7.879997E-2,-1.2595388E-2,8.919438E-2,6.9902013E-3,-4.9324676E-2,-1.21128045E-1,-3.2561967E-1,7.393048E-2,-1.0586995E-1,-8.675524E-2,1.4960329E-1],"split_indices":[53,96,55,2,92,92,14,92,56,59,23,111,123,57,82,104,111,43,59,93,80,40,61,116,95,82,35,80,65,0,58,0,0,0,0,0,0,0,0,0,0,0,0,0,0,0,0,0,0,0,0,0,0,0,0,0,0,0,0,0,0],"split_type":[0,0,0,0,0,0,0,0,0,0,0,0,0,0,0,0,0,0,0,0,0,0,0,0,0,0,0,0,0,0,0,0,0,0,0,0,0,0,0,0,0,0,0,0,0,0,0,0,0,0,0,0,0,0,0,0,0,0,0,0,0],"sum_hessian":[5.992E3,3.175E3,2.817E3,5.91E2,2.584E3,2.481E3,3.36E2,4.86E2,1.05E2,1.862E3,7.22E2,2.57E2,2.224E3,2.96E2,4E1,4.33E2,5.3E1,5.2E1,5.3E1,1.493E3,3.69E2,3.12E2,4.1E2,7E1,1.87E2,1.06E3,1.164E3,3.3E1,2.63E2,6E0,3.4E1,3.5E1,3.98E2,3.4E1,1.9E1,9E0,4.3E1,1.2E1,4.1E1,1.481E3,1.2E1,3.54E2,1.5E1,9E0,3.03E2,5.3E1,3.57E2,3E1,4E1,2.9E1,1.58E2,9.81E2,7.9E1,2.45E2,9.19E2,1.5E1,1.8E1,2.3E1,2.4E2,2.1E1,1.3E1],"tree_param":{"num_deleted":"0","num_feature":"124","num_nodes":"61","size_leaf_vector":"1"}},{"base_weights":[1.8553555E-2,6.737817E-1,-3.72611E-1,1.0947833E0,3.3615804E-1,-1.6093022E-1,-1.2805955E0,4.2198763E0,9.768391E-1,5.869052E-1,-4.3400472E-1,2.6115695E-1,-6.07738E-1,-1.1385882E0,-4.255109E0,7.2138536E-1,5.9348974E0,1.3702555E0,2.471769E-1,8.4484184E-1,-3.3255506E-1,1.0415319E0,-8.350436E-1,2.0499625E0,9.545996E-2,3.7108055E-1,-6.45448E-1,-2.0900838E0,-8.674716E-1,-5.4583926E0,1.2270687E-3,1.5073226E-1,-8.303219E-2,3.7211013E-1,9.8875575E-2,8.521059E-2,1.6301816E-2,1.1182821E-1,-5.220036E-3,6.110294E-3,6.652369E-2,-1.22755304E-1,-2.6674878E-3,2.2408192E-1,9.61093E-3,-6.6941105E-2,4.3017145E-2,1.711869E-1,-4.318635E-3,-1.1590126E-2,4.5841005E-2,3.161426E-2,-4.2597387E-2,-4.1675583E-2,-1.4946428E-1,-3.7395142E-2,-2.1140383E-1,-3.2485268E-1,-9.2255674E-2],"categories":[],"categories_nodes":[],"categories_segments":[],"categories_sizes":[],"default_left":[0,0,0,0,0,0,0,0,0,0,0,0,0,0,0,0,0,0,0,0,0,0,1,0,1,0,0,0,0,0,0,0,0,0,0,0,0,0,0,0,0,0,0,0,0,0,0,0,0,0,0,0,0,0,0,0,0,0,0],"id":5,"left_children":[1,3,5,7,9,11,13,15,17,19,21,23,25,27,29,31,33,35,37,39,41,43,45,47,49,-1,51,53,55,57,-1,-1,-1,-1,-1,-1,-1,-1,-1,-1,-1,-1,-1,-1,-1,-1,-1,-1,-1,-1,-1,-1,-1,-1,-1,-1,-1,-1,-1],"loss_changes":[1.5398873E3,3.187354E2,7.22717E2,3.6357593E2,2.4127892E2,5.7577563E2,2.949442E2,2.1105243E2,2.7622644E2,2.2373923E2,1.8251556E2,4.649373E2,4.531457E2,1.7330823E2,1.6546564E2,7.615561E1,1.2750079E2,2.1754224E2,2.3755147E2,2.5798035E2,1.2229206E2,1.915052E2,2.0789175E2,3.9096375E2,3.8681592E2,0E0,3.902693E2,1.666128E2,2.097085E2,8.100226E1,0E0,0E0,0E0,0E0,0E0,0E0,0E0,0E0,0E0,0E0,0E0,0E0,0E0,0E0,0E0,0E0,0E0,0E0,0E0,0E0,0E0,0E0,0E0,0E0,0E0,0E0,0E0,0E0,0E0],"parents":[2147483647,0,0,1,1,2,2,3,3,4,4,5,5,6,6,7,7,8,8,9,9,10,10,11,11,12,12,13,13,14,14,15,15,16,16,17,17,18,18,19,19,20,20,21,21,22,22,23,23,24,24,26,26,27,27,28,28,29,29],"right_children":[2,4,6,8,10,12,14,16,18,20,22,24,26,28,30,32,34,36,38,40,42,44,46,48,50,-1,52,54,56,58,-1,-1,-1,-1,-1,-1,-1,-1,-1,-1,-1,-1,-1,-1,-1,-1,-1,-1,-1,-1,-1,-1,-1,-1,-1,-1,-1,-1,-1],"split_conditions":[8.55E0,5.0740743E0,5.1666665E0,-2.4100825E-2,4.618335E-2,1.21E2,1.1607E1,5.522222E1,4.4E0,2.9222223E2,7.2786884E0,-1.4360856E-2,7.8694425E0,7.02E1,1.0167E-1,-1.0786743E-1,8.7E0,9.8129705E-2,-1.4666667E0,2.2317906E-1,-9E-1,4.2857143E-1,8.73466E0,5.062E0,8.34E1,3.7108055E-1,-1.0648917E-2,3.9793766E-1,6.1E0,7.148029E-1,1.2270687E-3,1.5073226E-1,-8.303219E-2,3.7211013E-1,9.8875575E-2,8.521059E-2,1.6301816E-2,1.1182821E-1,-5.220036E-3,6.110294E-3,6.652369E-2,-1.22755304E-1,-2.6674878E-3,2.2408192E-1,9.61093E-3,-6.6941105E-2,4.3017145E-2,1.711869E-1,-4.318635E-3,-1.1590126E-2,4.5841005E-2,3.161426E-2,-4.2597387E-2,-4.1675583E-2,-1.4946428E-1,-3.7395142E-2,-2.1140383E-1,-3.2485268E-1,-9.2255674E-2],"split_indices":[55,115,29,103,51,1,55,90,22,75,40,103,123,46,60,51,23,109,37,80,38,114,121,53,46,0,108,78,17,98,0,0,0,0,0,0,0,0,0,0,0,0,0,0,0,0,0,0,0,0,0,0,0,0,0,0,0,0,0],"split_type":[0,0,0,0,0,0,0,0,0,0,0,0,0,0,0,0,0,0,0,0,0,0,0,0,0,0,0,0,0,0,0,0,0,0,0,0,0,0,0,0,0,0,0,0,0,0,0,0,0,0,0,0,0,0,0,0,0,0,0],"sum_hessian":[6.006E3,2.245E3,3.761E3,9.98E2,1.247E3,3.051E3,7.1E2,3.5E1,9.63E2,9.41E2,3.06E2,1.569E3,1.482E3,6.79E2,3.1E1,1.2E1,2.3E1,6.25E2,3.38E2,7.35E2,2.06E2,6.5E1,2.41E2,1.32E2,1.437E3,6E0,1.476E3,1.49E2,5.3E2,2.4E1,7E0,6E0,6E0,1.6E1,7E0,4.73E2,1.52E2,5E1,2.88E2,2.96E2,4.39E2,2.3E1,1.83E2,1.2E1,5.3E1,1.86E2,5.5E1,8E1,5.2E1,1.028E3,4.09E2,2.05E2,1.271E3,6.3E1,8.6E1,5.13E2,1.7E1,1.8E1,6E0],"tree_param":{"num_deleted":"0","num_feature":"124","num_nodes":"59","size_leaf_vector":"1"}},{"base_weights":[-1.7861918E-2,5.12379E-1,-4.4673923E-1,7.741713E-1,-8.9282826E-2,-9.8834604E-1,-4.4604186E-2,1.10342E0,2.7868074E-1,-5.464691E-1,8.3699113E-1,-9.151855E-1,-3.3992963E0,1.6408561E0,-2.1386713E-1,1.6351862E0,6.2378037E-1,-5.233215E-1,6.3650954E-1,-6.63905E-1,2.3995056E0,-1.9905122E-1,1.7312155E0,-5.327095E-1,-1.3583891E0,-2.2321901E0,-3.012727E-1,4.0422496E-1,1.3198321E0,-4.8506606E-1,7.4239016E-1,5.627272E-3,1.0833957E-1,-3.8875725E-2,4.391387E-2,8.499115E-2,-4.3289613E-2,9.5537886E-2,1.754635E-2,-8.432976E-3,-5.7811745E-2,-3.3965196E-2,2.6346347E-1,6.1478033E-3,-1.9622153E-1,1.8877037E-2,1.4352553E-1,7.909478E-2,-3.3164717E-2,3.0172272E-3,-8.017387E-2,7.726472E-2,-1.5267494E-1,4.100382E-3,1.3570093E-1,-1.8264584E-2,-1.1373583E-1,1.15340166E-1,1.9977046E-3],"categories":[],"categories_nodes":[],"categories_segments":[],"categories_sizes":[],"default_left":[0,0,1,0,0,0,0,0,1,0,0,1,0,0,0,0,1,0,0,0,0,0,0,0,0,0,0,0,0,0,0,0,0,0,0,0,0,0,0,0,0,0,0,0,0,0,0,0,0,0,0,0,0,0,0,0,0,0,0],"id":6,"left_children":[1,3,5,7,9,11,13,15,17,19,21,23,25,27,29,31,33,35,37,39,41,43,45,47,49,51,-1,-1,53,55,57,-1,-1,-1,-1,-1,-1,-1,-1,-1,-1,-1,-1,-1,-1,-1,-1,-1,-1,-1,-1,-1,-1,-1,-1,-1,-1,-1,-1],"loss_changes":[1.357395E3,4.205329E2,7.185896E2,3.0299402E2,3.4344696E2,2.4445691E2,5.408252E2,2.8365186E2,2.1385716E2,1.8927757E2,2.4878754E2,2.3064441E2,1.11389435E2,3.4625107E2,4.4717023E2,4.27724E2,2.1074536E2,1.7650156E2,1.8651335E2,1.2719255E2,1.8958301E2,1.5081259E2,2.2067325E2,2.0391693E2,2.2000684E2,9.79438E1,0E0,0E0,2.8597372E2,2.8678284E2,4.1835413E2,0E0,0E0,0E0,0E0,0E0,0E0,0E0,0E0,0E0,0E0,0E0,0E0,0E0,0E0,0E0,0E0,0E0,0E0,0E0,0E0,0E0,0E0,0E0,0E0,0E0,0E0,0E0,0E0],"parents":[2147483647,0,0,1,1,2,2,3,3,4,4,5,5,6,6,7,7,8,8,9,9,10,10,11,11,12,12,13,13,14,14,15,15,16,16,17,17,18,18,19,19,20,20,21,21,22,22,23,23,24,24,25,25,28,28,29,29,30,30],"right_children":[2,4,6,8,10,12,14,16,18,20,22,24,26,28,30,32,34,36,38,40,42,44,46,48,50,52,-1,-1,54,56,58,-1,-1,-1,-1,-1,-1,-1,-1,-1,-1,-1,-1,-1,-1,-1,-1,-1,-1,-1,-1,-1,-1,-1,-1,-1,-1,-1,-1],"split_conditions":[8.739E0,4.1064093E-1,7.2E1,4.3333335E0,1.4615384E0,1.1607E1,7.1118927E-1,9E0,5.869565E-1,5.188E0,7.1865946E-1,1.7229866E1,2.5882334E-1,3.6963022E0,1.1447577E0,2.1969457E-1,8.888889E-1,7.9E0,6.559082E-1,6.8707913E-1,1.6888266E1,6.250804E0,7.97E1,-2.2380525E-2,7.127988E-1,8.100608E-2,-3.012727E-1,4.0422496E-1,6.804E-1,1.0659E1,1.4934793E1,5.627272E-3,1.0833957E-1,-3.8875725E-2,4.391387E-2,8.499115E-2,-4.3289613E-2,9.5537886E-2,1.754635E-2,-8.432976E-3,-5.7811745E-2,-3.3965196E-2,2.6346347E-1,6.1478033E-3,-1.9622153E-1,1.8877037E-2,1.4352553E-1,7.909478E-2,-3.3164717E-2,3.0172272E-3,-8.017387E-2,7.726472E-2,-1.5267494E-1,4.100382E-3,1.3570093E-1,-1.8264584E-2,-1.1373583E-1,1.15340166E-1,1.9977046E-3],"split_indices":[55,93,46,29,112,55,81,87,114,54,82,123,63,27,44,95,112,23,83,83,123,11,46,103,81,94,0,0,59,55,123,0,0,0,0,0,0,0,0,0,0,0,0,0,0,0,0,0,0,0,0,0,0,0,0,0,0,0,0],"split_type":[0,0,0,0,0,0,0,0,0,0,0,0,0,0,0,0,0,0,0,0,0,0,0,0,0,0,0,0,0,0,0,0,0,0,0,0,0,0,0,0,0,0,0,0,0,0,0,0,0,0,0,0,0,0,0,0,0,0,0],"sum_hessian":[5.967E3,2.668E3,3.299E3,1.859E3,8.09E2,1.405E3,1.894E3,1.116E3,7.43E2,5.42E2,2.67E2,1.365E3,4E1,1.72E2,1.722E3,5.28E2,5.88E2,2.29E2,5.14E2,5.22E2,2E1,1.24E2,1.43E2,7.34E2,6.31E2,2.9E1,1.1E1,7E0,1.65E2,1.342E3,3.8E2,1.37E2,3.91E2,9E1,4.98E2,3E1,1.99E2,9.3E1,4.21E2,2.61E2,2.61E2,1E1,1E1,1.15E2,9E0,6.6E1,7.7E1,4.2E1,6.92E2,9.3E1,5.38E2,5E0,2.4E1,8.8E1,7.7E1,1.259E3,8.3E1,1.17E2,2.63E2],"tree_param":{"num_deleted":"0","num_feature":"124","num_nodes":"59","size_leaf_vector":"1"}},{"base_weights":[3.9700396E-2,4.7503397E-1,-4.0112728E-1,1.102382E0,5.094535E-3,1.0506944E-1,-6.682479E-1,4.5430517E0,1.0063868E0,-4.722337E-1,5.0789464E-1,3.685484E-1,-7.952653E-1,3.1582382E-1,-6.965103E-1,1.5727974E0,7.5896273E0,1.1058725E0,-1.2913783E0,4.5876783E-1,-7.31794E-1,9.292598E-1,-5.994818E-1,6.274362E-1,-4.637385E-1,-6.3406366E-1,-2.6388022E-1,-4.7236645E-1,-1.5513742E0,-9.390237E-2,1.4732656E-1,1.856957E-1,5.3054684E-1,6.99407E-2,1.706752E-2,1.16888754E-1,-1.2658988E-1,1.0269729E-1,-1.0713451E-2,2.4261169E-1,-4.0596124E-2,1.3707717E-2,8.785174E-2,2.1647778E-1,-3.8549602E-2,1.5726857E-1,2.2064058E-2,3.5120011E-3,-1.3090923E-1,-4.0850602E-2,1.7129557E-1,6.553009E-2,-2.9938092E-2,-1.17870115E-1,-3.2894652E-2],"categories":[],"categories_nodes":[],"categories_segments":[],"categories_sizes":[],"default_left":[0,0,0,0,0,0,0,0,0,0,0,0,0,0,0,0,0,0,0,0,0,0,0,0,0,1,0,0,0,0,0,0,0,0,0,0,0,0,0,0,0,0,0,0,0,0,0,0,0,0,0,0,0,0,0],"id":7,"left_children":[1,3,5,7,9,11,13,15,17,19,21,23,25,-1,27,29,31,33,35,37,39,41,43,45,47,49,-1,51,53,-1,-1,-1,-1,-1,-1,-1,-1,-1,-1,-1,-1,-1,-1,-1,-1,-1,-1,-1,-1,-1,-1,-1,-1,-1,-1],"loss_changes":[1.1587411E3,8.955333E2,4.0577325E2,4.2457715E2,4.1736462E2,2.462468E2,3.915412E2,3.0386554E2,2.9103906E2,2.159157E2,3.958086E2,1.7332892E2,1.6586417E2,0E0,3.7405048E2,9.571088E1,1.582248E2,2.7146033E2,2.445268E2,2.0997871E2,3.158483E2,3.3227502E2,2.008012E2,2.855827E2,2.2017047E2,1.7188866E2,0E0,3.5047073E2,2.90537E2,0E0,0E0,0E0,0E0,0E0,0E0,0E0,0E0,0E0,0E0,0E0,0E0,0E0,0E0,0E0,0E0,0E0,0E0,0E0,0E0,0E0,0E0,0E0,0E0,0E0,0E0],"parents":[2147483647,0,0,1,1,2,2,3,3,4,4,5,5,6,6,7,7,8,8,9,9,10,10,11,11,12,12,14,14,15,15,16,16,17,17,18,18,19,19,20,20,21,21,22,22,23,23,24,24,25,25,27,27,28,28],"right_children":[2,4,6,8,10,12,14,16,18,20,22,24,26,-1,28,30,32,34,36,38,40,42,44,46,48,50,-1,52,54,-1,-1,-1,-1,-1,-1,-1,-1,-1,-1,-1,-1,-1,-1,-1,-1,-1,-1,-1,-1,-1,-1,-1,-1,-1,-1],"split_conditions":[4.423E0,7.225786E-1,7.089941E-1,-5.4743927E-2,8.12E1,1.0894737E1,7.8694425E0,7.83E1,1.0829886E1,7.056614E0,8.072712E-1,5.536E0,6.320528E0,3.1582382E-1,5.1666665E0,2.5555556E0,1.3909091E0,7.247505E-1,7.8266253E0,7.8E0,3.188889E1,4.7647057E0,3.1779867E-1,-1.0648917E-2,9.138463E-2,2.02E1,-2.6388022E-1,7.63723E-2,1.8436225E-2,-9.390237E-2,1.4732656E-1,1.856957E-1,5.3054684E-1,6.99407E-2,1.706752E-2,1.16888754E-1,-1.2658988E-1,1.0269729E-1,-1.0713451E-2,2.4261169E-1,-4.0596124E-2,1.3707717E-2,8.785174E-2,2.1647778E-1,-3.8549602E-2,1.5726857E-1,2.2064058E-2,3.5120011E-3,-1.3090923E-1,-4.0850602E-2,1.7129557E-1,6.553009E-2,-2.9938092E-2,-1.17870115E-1,-3.2894652E-2],"split_indices":[53,91,91,108,46,113,123,46,43,41,96,53,13,0,29,18,112,76,39,118,90,111,92,108,79,47,0,79,50,0,0,0,0,0,0,0,0,0,0,0,0,0,0,0,0,0,0,0,0,0,0,0,0,0,0],"split_type":[0,0,0,0,0,0,0,0,0,0,0,0,0,0,0,0,0,0,0,0,0,0,0,0,0,0,0,0,0,0,0,0,0,0,0,0,0,0,0,0,0,0,0,0,0,0,0,0,0,0,0,0,0,0,0],"sum_hessian":[6.036E3,3.037E3,2.999E3,1.3E3,1.737E3,1.036E3,1.963E3,3.4E1,1.266E3,8.91E2,8.46E2,8.02E2,2.34E2,7E0,1.956E3,1.8E1,1.6E1,1.214E3,5.2E1,1.94E2,6.97E2,6.13E2,2.33E2,6.12E2,1.9E2,2.27E2,7E0,1.551E3,4.05E2,5E0,1.3E1,8E0,8E0,8.77E2,3.37E2,1.3E1,3.9E1,5.7E1,1.37E2,9E0,6.88E2,3.43E2,2.7E2,7E0,2.26E2,4.1E1,5.71E2,1.53E2,3.7E1,2.18E2,9E0,1.02E2,1.449E3,2.12E2,1.93E2],"tree_param":{"num_deleted":"0","num_feature":"124","num_nodes":"55","size_leaf_vector":"1"}},{"base_weights":[-2.0744758E-2,3.74225E-1,-4.4614515E-1,7.7522093E-1,-2.2700685E-1,-3.2932603E-1,-2.062637E0,2.7390072E-1,1.1963172E0,1.0475769E0,-3.585155E-1,3.007528E-1,-5.0127345E-1,-3.0993872E0,-6.545579E-1,1.419419E0,-1.818436E-2,2.322882E0,8.2985294E-1,6.638529E0,4.6208107E-1,3.6490977E-2,-8.311036E-1,2.9874525E0,1.741673E-1,2.829383E-1,-5.3020924E-1,-2.1593823E0,-5.021081E0,-5.3603377E-2,-3.6483588E0,-7.500404E-2,9.1529645E-2,-7.053841E-2,8.964556E-3,4.8416164E-2,1.9088091E-1,7.8502044E-2,1.3034785E-2,1.8434136E-1,4.2335716E-1,1.5685047E-1,-1.7399134E-2,-4.2460435E-3,1.3007082E-1,-6.1987467E-2,1.16239665E-2,-1.53357955E-2,2.5358638E-1,3.145093E-2,-2.8780377E-2,5.2972484E-2,-3.0649796E-2,-1.4272408E-1,4.4866353E-2,-3.0993292E-1,-1.2265811E-1,8.03503E-2,-6.2042873E-2,-4.1703936E-2,-2.5540307E-1],"categories":[],"categories_nodes":[],"categories_segments":[],"categories_sizes":[],"default_left":[0,0,0,0,0,0,0,0,0,0,0,0,0,0,0,0,0,0,0,1,0,1,0,0,0,0,0,0,0,0,0,0,0,0,0,0,0,0,0,0,0,0,0,0,0,0,0,0,0,0,0,0,0,0,0,0,0,0,0,0,0],"id":8,"left_children":[1,3,5,7,9,11,13,15,17,19,21,23,25,27,29,31,33,35,37,39,41,43,45,47,49,-1,51,53,55,57,59,-1,-1,-1,-1,-1,-1,-1,-1,-1,-1,-1,-1,-1,-1,-1,-1,-1,-1,-1,-1,-1,-1,-1,-1,-1,-1,-1,-1,-1,-1],"loss_changes":[1.0109842E3,7.524364E2,5.461428E2,3.9471216E2,2.0966252E2,2.93015E2,2.8226196E2,2.8657397E2,4.176211E2,3.7921942E2,2.11613E2,1.9641989E2,3.810807E2,1.9075647E2,1.5056184E2,2.1165237E2,1.8820187E2,4.9997693E2,3.2337445E2,2.694046E1,2.3322482E2,1.9292538E2,2.2465726E2,1.8054684E2,1.8964243E2,0E0,2.789442E2,1.6636035E2,9.278967E1,1.4193857E2,5.265741E1,0E0,0E0,0E0,0E0,0E0,0E0,0E0,0E0,0E0,0E0,0E0,0E0,0E0,0E0,0E0,0E0,0E0,0E0,0E0,0E0,0E0,0E0,0E0,0E0,0E0,0E0,0E0,0E0,0E0,0E0],"parents":[2147483647,0,0,1,1,2,2,3,3,4,4,5,5,6,6,7,7,8,8,9,9,10,10,11,11,12,12,13,13,14,14,15,15,16,16,17,17,18,18,19,19,20,20,21,21,22,22,23,23,24,24,26,26,27,27,28,28,29,29,30,30],"right_children":[2,4,6,8,10,12,14,16,18,20,22,24,26,28,30,32,34,36,38,40,42,44,46,48,50,-1,52,54,56,58,60,-1,-1,-1,-1,-1,-1,-1,-1,-1,-1,-1,-1,-1,-1,-1,-1,-1,-1,-1,-1,-1,-1,-1,-1,-1,-1,-1,-1,-1,-1],"split_conditions":[4.443E0,7.6963824E-1,1.0789E1,8.138686E0,3.7878788E0,6.98358E-1,5.4E0,7.6E0,1.16E2,6.6E-1,4.3301888E0,6.578398E-1,7.8694425E0,2.2806907E-1,9.9083334E-2,1.9694E-1,-9.6666664E-1,4.179059E0,7.304765E-1,6.857143E0,3.4416995E0,2.2118645E0,2.601465E-3,5.148148E0,7.0063883E-1,2.829383E-1,6.8247986E-1,9.58092E-2,7.214E-1,-1.2135215E-3,-2.3504406E-2,-7.500404E-2,9.1529645E-2,-7.053841E-2,8.964556E-3,4.8416164E-2,1.9088091E-1,7.8502044E-2,1.3034785E-2,1.8434136E-1,4.2335716E-1,1.5685047E-1,-1.7399134E-2,-4.2460435E-3,1.3007082E-1,-6.1987467E-2,1.16239665E-2,-1.53357955E-2,2.5358638E-1,3.145093E-2,-2.8780377E-2,5.2972484E-2,-3.0649796E-2,-1.4272408E-1,4.4866353E-2,-3.0993292E-1,-1.2265811E-1,8.03503E-2,-6.2042873E-2,-4.1703936E-2,-2.5540307E-1],"split_indices":[53,96,55,121,15,91,3,36,1,59,27,96,123,80,61,63,37,26,96,2,12,112,102,115,83,0,97,108,59,101,107,0,0,0,0,0,0,0,0,0,0,0,0,0,0,0,0,0,0,0,0,0,0,0,0,0,0,0,0,0,0],"split_type":[0,0,0,0,0,0,0,0,0,0,0,0,0,0,0,0,0,0,0,0,0,0,0,0,0,0,0,0,0,0,0,0,0,0,0,0,0,0,0,0,0,0,0,0,0,0,0,0,0,0,0,0,0,0,0,0,0,0,0,0,0],"sum_hessian":[6.015E3,3.119E3,2.896E3,1.871E3,1.248E3,2.702E3,1.94E2,8.55E2,1.016E3,1.16E2,1.132E3,5.79E2,2.123E3,1.11E2,8.3E1,1.73E2,6.82E2,2.48E2,7.68E2,1E1,1.06E2,6.17E2,5.15E2,2.5E1,5.54E2,9E0,2.114E3,7.6E1,3.5E1,7E1,1.3E1,2.1E1,1.52E2,8.4E1,5.98E2,1.31E2,1.17E2,3.33E2,4.35E2,5E0,5E0,2.4E1,8.2E1,5.9E2,2.7E1,3.72E2,1.43E2,1E1,1.5E1,3.45E2,2.09E2,1.04E2,2.01E3,6.2E1,1.4E1,2.3E1,1.2E1,2.9E1,4.1E1,5E0,8E0],"tree_param":{"num_deleted":"0","num_feature":"124","num_nodes":"61","size_leaf_vector":"1"}},{"base_weights":[8.649904E-3,6.091001E-1,-3.460578E-1,3.075934E-1,1.1266799E0,-2.4730274E-1,-1.931717E0,-1.897554E-1,6.657953E-1,1.0424597E0,4.815683E0,-4.1891247E-1,6.168231E-1,5.4474694E-1,-2.4494786E0,-4.0581174E-2,-2.1874442E0,3.945995E0,5.787328E-1,1.9670748E0,6.3517326E-1,6.7661147E0,-9.809986E-3,7.917474E-1,-5.750201E-1,1.194829E0,-3.57627E-1,-2.0851429E0,2.676259E0,-2.0045743E0,-5.1770916E0,2.088133E-2,-3.7681196E-2,-1.5035562E-1,3.2211937E-2,2.2049217E-2,2.6559672E-1,4.811141E-2,2.2991297E-3,1.3859679E-1,1.8076994E-2,-3.5609633E-2,4.7981247E-2,4.4556603E-1,1.8200174E-1,1.04637146E-1,9.113386E-3,-5.246789E-2,-1.9645931E-2,7.1432956E-2,-1.0425865E-1,-3.287943E-2,1.6285333E-1,-1.7525141E-1,6.610663E-2,2.4302939E-1,2.0484107E-3,-1.1372222E-1,1.367434E-1,-8.497759E-2,-2.9782495E-1],"categories":[],"categories_nodes":[],"categories_segments":[],"categories_sizes":[],"default_left":[0,1,0,0,0,0,0,0,0,0,0,0,0,0,0,1,0,0,0,0,0,0,0,0,0,0,0,0,0,0,0,0,0,0,0,0,0,0,0,0,0,0,0,0,0,0,0,0,0,0,0,0,0,0,0,0,0,0,0,0,0],"id":9,"left_children":[1,3,5,7,9,11,13,15,17,19,21,23,25,27,29,31,33,35,37,39,41,43,-1,45,47,49,51,53,55,57,59,-1,-1,-1,-1,-1,-1,-1,-1,-1,-1,-1,-1,-1,-1,-1,-1,-1,-1,-1,-1,-1,-1,-1,-1,-1,-1,-1,-1,-1,-1],"loss_changes":[1.2783561E3,3.473537E2,5.9012555E2,2.5136725E2,2.4915833E2,5.2712146E2,2.8489496E2,1.758086E2,2.314414E2,3.0088666E2,1.7794052E2,5.6079865E2,3.3225818E2,2.2425955E2,2.1097949E2,1.8037201E2,9.733623E1,9.762244E1,1.6330072E2,3.1528137E2,2.450779E2,5.348645E1,0E0,2.6819446E2,2.2635736E2,2.8668964E2,2.4042108E2,9.193533E1,1.25950226E2,2.0954071E2,5.687152E1,0E0,0E0,0E0,0E0,0E0,0E0,0E0,0E0,0E0,0E0,0E0,0E0,0E0,0E0,0E0,0E0,0E0,0E0,0E0,0E0,0E0,0E0,0E0,0E0,0E0,0E0,0E0,0E0,0E0,0E0],"parents":[2147483647,0,0,1,1,2,2,3,3,4,4,5,5,6,6,7,7,8,8,9,9,10,10,11,11,12,12,13,13,14,14,15,15,16,16,17,17,18,18,19,19,20,20,21,21,23,23,24,24,25,25,26,26,27,27,28,28,29,29,30,30],"right_children":[2,4,6,8,10,12,14,16,18,20,22,24,26,28,30,32,34,36,38,40,42,44,-1,46,48,50,52,54,56,58,60,-1,-1,-1,-1,-1,-1,-1,-1,-1,-1,-1,-1,-1,-1,-1,-1,-1,-1,-1,-1,-1,-1,-1,-1,-1,-1,-1,-1,-1,-1],"split_conditions":[8.559E0,1.3846154E0,1.0862E1,2.2204661E-1,8.304E-1,1.1352546E0,5.890909E0,1.0326812E1,2.1444445E1,7.8E0,5.3293955E-2,-1.0648917E-2,9.72E0,2.3067667E-1,1.2388E1,5.5555553E0,9.763082E0,-3.33E-1,6.788489E-2,7.6963824E-1,3.7666667E0,5.9064828E-2,-9.809986E-3,7.185522E-1,1.4044444E2,1.24E1,7.2E0,1.11E1,5.417197E0,1.14499524E-1,1.16E2,2.088133E-2,-3.7681196E-2,-1.5035562E-1,3.2211937E-2,2.2049217E-2,2.6559672E-1,4.811141E-2,2.2991297E-3,1.3859679E-1,1.8076994E-2,-3.5609633E-2,4.7981247E-2,4.4556603E-1,1.8200174E-1,1.04637146E-1,9.113386E-3,-5.246789E-2,-1.9645931E-2,7.1432956E-2,-1.0425865E-1,-3.287943E-2,1.6285333E-1,-1.7525141E-1,6.610663E-2,2.4302939E-1,2.0484107E-3,-1.1372222E-1,1.367434E-1,-8.497759E-2,-2.9782495E-1],"split_indices":[55,112,55,80,58,44,118,42,75,5,105,108,113,63,55,120,43,56,108,96,8,84,0,96,75,32,4,5,26,108,1,0,0,0,0,0,0,0,0,0,0,0,0,0,0,0,0,0,0,0,0,0,0,0,0,0,0,0,0,0,0],"split_type":[0,0,0,0,0,0,0,0,0,0,0,0,0,0,0,0,0,0,0,0,0,0,0,0,0,0,0,0,0,0,0,0,0,0,0,0,0,0,0,0,0,0,0,0,0,0,0,0,0,0,0,0,0,0,0,0,0,0,0,0,0],"sum_hessian":[6E3,2.228E3,3.772E3,1.409E3,8.19E2,3.552E3,2.2E2,5.9E2,8.19E2,8.02E2,1.7E1,2.964E3,5.88E2,3.8E1,1.82E2,5.5E2,4E1,2E1,7.99E2,2.44E2,5.58E2,1.2E1,5E0,3.38E2,2.626E3,3.69E2,2.19E2,1.7E1,2.1E1,1.58E2,2.4E1,3.35E2,2.15E2,3.1E1,9E0,6E0,1.4E1,4.64E2,3.35E2,1.62E2,8.2E1,1.08E2,4.5E2,6E0,6E0,1.07E2,2.31E2,7.27E2,1.899E3,3.45E2,2.4E1,2.03E2,1.6E1,1.2E1,5E0,1.1E1,1E1,1.5E2,8E0,5E0,1.9E1],"tree_param":{"num_deleted":"0","num_feature":"124","num_nodes":"61","size_leaf_vector":"1"}},{"base_weights":[3.7397493E-3,5.62978E-1,-3.0789846E-1,1.8448374E-1,9.730438E-1,-4.899688E-1,3.539861E-1,5.267053E-1,-4.5507872E-1,1.6529874E0,5.3476053E-1,-1.8073255E-1,-9.6883595E-1,2.4781406E0,1.9594869E-1,7.8075933E-1,-5.748424E-1,-3.2472064E0,-3.0980635E-1,1.2343642E0,3.6418264E0,2.8073971E0,3.9453998E-1,1.0299412E0,-3.5798347E-1,-3.905971E-1,-1.3436382E0,5.6705084E0,9.771215E-1,2.6058333E0,6.349481E-2,1.3291617E-2,8.633781E-2,8.340899E-2,-6.8481706E-2,-9.60394E-2,-2.4092166E-1,1.3832875E-1,-2.2868317E-2,1.0174841E-1,2.3860188E-2,1.17157415E-1,4.2846328E-1,4.0373173E-2,2.2745252E-1,7.8617625E-2,8.635155E-3,2.0151947E-1,2.5710762E-2,-2.0331684E-2,2.0822452E-1,-3.947276E-2,3.8577493E-2,4.3754432E-2,-7.6164305E-2,5.40034E-1,1.4294259E-1,-9.5151044E-2,1.2190213E-1,7.175783E-2,3.2337955E-1,1.9831186E-2,-4.165385E-2],"categories":[],"categories_nodes":[],"categories_segments":[],"categories_sizes":[],"default_left":[0,0,1,0,0,0,0,0,0,0,0,0,0,0,0,0,0,1,0,0,0,0,0,0,0,0,0,0,0,0,0,0,0,0,0,0,0,0,0,0,0,0,0,0,0,0,0,0,0,0,0,0,0,0,0,0,0,0,0,0,0,0,0],"id":10,"left_children":[1,3,5,7,9,11,13,15,17,19,21,23,25,27,29,31,33,35,37,39,41,43,45,47,49,51,53,55,57,59,61,-1,-1,-1,-1,-1,-1,-1,-1,-1,-1,-1,-1,-1,-1,-1,-1,-1,-1,-1,-1,-1,-1,-1,-1,-1,-1,-1,-1,-1,-1,-1,-1],"loss_changes":[1.0373392E3,3.3029675E2,4.607745E2,2.4297595E2,3.0346136E2,4.4366296E2,2.761961E2,2.0280289E2,1.5561285E2,3.2804675E2,1.971038E2,3.9150464E2,2.5417065E2,2.6692734E2,2.450313E2,2.857679E2,2.4470695E2,2.9668869E1,1.6854225E2,2.0003131E2,4.2037146E2,1.21186066E2,1.531879E2,3.580194E2,3.5136832E2,2.1568958E2,2.855923E2,2.2739355E2,1.7299957E2,1.7076251E2,2.1831877E2,0E0,0E0,0E0,0E0,0E0,0E0,0E0,0E0,0E0,0E0,0E0,0E0,0E0,0E0,0E0,0E0,0E0,0E0,0E0,0E0,0E0,0E0,0E0,0E0,0E0,0E0,0E0,0E0,0E0,0E0,0E0,0E0],"parents":[2147483647,0,0,1,1,2,2,3,3,4,4,5,5,6,6,7,7,8,8,9,9,10,10,11,11,12,12,13,13,14,14,15,15,16,16,17,17,18,18,19,19,20,20,21,21,22,22,23,23,24,24,25,25,26,26,27,27,28,28,29,29,30,30],"right_children":[2,4,6,8,10,12,14,16,18,20,22,24,26,28,30,32,34,36,38,40,42,44,46,48,50,52,54,56,58,60,62,-1,-1,-1,-1,-1,-1,-1,-1,-1,-1,-1,-1,-1,-1,-1,-1,-1,-1,-1,-1,-1,-1,-1,-1,-1,-1,-1,-1,-1,-1,-1,-1],"split_conditions":[8.566667E0,6.653358E-2,8.4E1,4.894884E-2,7.143058E-1,4.8035326E0,7.015459E-1,7.686106E-1,3.211111E1,4.453704E0,6.217E-1,7.204742E-1,8.733334E0,4.5894824E-2,2.8333333E0,5.8272637E-2,3.342233E0,1.1E0,7.124521E0,8.756757E0,1.6758621E0,6.8771297E-1,4.2857143E-1,7.024278E-1,3.452956E-2,1.0027778E1,6.9719476E-1,2.391E3,8.211111E0,1.5714285E0,5.085E0,1.3291617E-2,8.633781E-2,8.340899E-2,-6.8481706E-2,-9.60394E-2,-2.4092166E-1,1.3832875E-1,-2.2868317E-2,1.0174841E-1,2.3860188E-2,1.17157415E-1,4.2846328E-1,4.0373173E-2,2.2745252E-1,7.8617625E-2,8.635155E-3,2.0151947E-1,2.5710762E-2,-2.0331684E-2,2.0822452E-1,-3.947276E-2,3.8577493E-2,4.3754432E-2,-7.6164305E-2,5.40034E-1,1.4294259E-1,-9.5151044E-2,1.2190213E-1,7.175783E-2,3.2337955E-1,1.9831186E-2,-4.165385E-2],"split_indices":[23,52,46,49,91,27,96,96,75,28,59,96,9,84,4,84,25,48,40,113,119,98,20,81,102,32,76,57,39,117,53,0,0,0,0,0,0,0,0,0,0,0,0,0,0,0,0,0,0,0,0,0,0,0,0,0,0,0,0,0,0,0,0],"split_type":[0,0,0,0,0,0,0,0,0,0,0,0,0,0,0,0,0,0,0,0,0,0,0,0,0,0,0,0,0,0,0,0,0,0,0,0,0,0,0,0,0,0,0,0,0,0,0,0,0,0,0,0,0,0,0,0,0,0,0,0,0,0,0],"sum_hessian":[5.95E3,2.129E3,3.821E3,1.108E3,1.021E3,2.997E3,8.24E2,7.22E2,3.86E2,3.99E2,6.22E2,1.822E3,1.175E3,5.6E1,7.68E2,5.87E2,1.35E2,1.8E1,3.68E2,3.31E2,6.8E1,3.5E1,5.87E2,2.32E2,1.59E3,4.63E2,7.12E2,1.7E1,3.9E1,3.9E1,7.29E2,3.81E2,2.06E2,3.5E1,1E2,1.1E1,7E0,1.6E1,3.52E2,1.6E2,1.71E2,5.5E1,1.3E1,1.7E1,1.8E1,9.2E1,4.95E2,3.3E1,1.99E2,1.574E3,1.6E1,3.45E2,1.18E2,5.3E1,6.59E2,5E0,1.2E1,1.3E1,2.6E1,3.1E1,8E0,5.32E2,1.97E2],"tree_param":{"num_deleted":"0","num_feature":"124","num_nodes":"63","size_leaf_vector":"1"}},{"base_weights":[3.1562094E-2,1.5518922E-1,-1.0743634E0,1.5049783E0,8.465544E-2,5.0484824E-1,-1.3695133E0,7.3934574E0,1.2456882E0,4.4713774E-1,-2.0939691E-1,2.3874538E0,-1.0959113E0,-1.1620007E0,-3.5697184E0,5.615515E-1,1.1534872E-1,3.4632616E0,7.429662E-1,8.7747025E-1,-7.855721E-2,-2.8803068E-1,1.6204591E0,-1.2000501E0,4.104957E0,-3.2872257E0,4.913413E-1,-6.5870744E-1,-2.0579007E0,-1.0694674E-2,-4.2135205E0,8.9081265E-2,3.034015E-1,2.0796458E-1,2.0025093E-2,6.1122626E-2,5.0147185E-3,1.8249134E-2,-2.5302773E-2,-1.9554174E-2,4.017276E-2,5.3665217E-2,2.932677E-1,8.867859E-2,-2.0180829E-1,2.5809237E-1,2.7038887E-2,-2.506688E-1,-3.522541E-2,2.4234724E-1,-3.719407E-2,9.437635E-2,-4.862466E-2,-1.4675681E-1,-3.581932E-2,-2.585189E-1,-1.0576028E-1],"categories":[],"categories_nodes":[],"categories_segments":[],"categories_sizes":[],"default_left":[0,0,0,0,0,0,0,0,0,0,1,0,0,0,0,0,0,0,0,0,0,0,0,0,1,0,0,0,0,0,0,0,0,0,0,0,0,0,0,0,0,0,0,0,0,0,0,0,0,0,0,0,0,0,0,0,0],"id":11,"left_children":[1,3,5,7,9,11,13,15,17,19,21,23,25,27,29,-1,-1,31,33,35,37,39,41,43,45,47,49,51,53,-1,55,-1,-1,-1,-1,-1,-1,-1,-1,-1,-1,-1,-1,-1,-1,-1,-1,-1,-1,-1,-1,-1,-1,-1,-1,-1,-1],"loss_changes":[8.1453E2,5.0992108E2,2.7997437E2,3.9606134E2,5.430807E2,2.8903745E2,2.2594672E2,1.8745367E2,2.82401E2,5.163911E2,4.050918E2,2.7632483E2,1.8275955E2,2.0713965E2,9.155701E1,0E0,0E0,1.9427692E2,2.4357184E2,3.362256E2,1.9512048E2,3.0374582E2,2.6243414E2,1.3388774E2,1.0964679E2,9.397571E1,1.708002E2,2.3983783E2,1.9288495E2,0E0,6.0615356E1,0E0,0E0,0E0,0E0,0E0,0E0,0E0,0E0,0E0,0E0,0E0,0E0,0E0,0E0,0E0,0E0,0E0,0E0,0E0,0E0,0E0,0E0,0E0,0E0,0E0,0E0],"parents":[2147483647,0,0,1,1,2,2,3,3,4,4,5,5,6,6,7,7,8,8,9,9,10,10,11,11,12,12,13,13,14,14,17,17,18,18,19,19,20,20,21,21,22,22,23,23,24,24,25,25,26,26,27,27,28,28,30,30],"right_children":[2,4,6,8,10,12,14,16,18,20,22,24,26,28,30,-1,-1,32,34,36,38,40,42,44,46,48,50,52,54,-1,56,-1,-1,-1,-1,-1,-1,-1,-1,-1,-1,-1,-1,-1,-1,-1,-1,-1,-1,-1,-1,-1,-1,-1,-1,-1,-1],"split_conditions":[1.0227E1,-2.4100825E-2,5.890909E0,-3.8056273E-2,4.234E0,1.0222222E1,1.1607E1,7.4981534E-1,3.5714285E0,4.096043E-1,9.17E1,4.27694E0,5E0,6.014264E-2,-1.1957192E-2,5.615515E-1,1.1534872E-1,-3.2471936E-2,1.1E2,4.486343E0,4.0840335E0,1.1549131E0,9.987E0,8.901576E-2,1.02E1,5.4074073E0,4.866667E0,8.733334E0,4.990909E0,-1.0694674E-2,4.703704E0,8.9081265E-2,3.034015E-1,2.0796458E-1,2.0025093E-2,6.1122626E-2,5.0147185E-3,1.8249134E-2,-2.5302773E-2,-1.9554174E-2,4.017276E-2,5.3665217E-2,2.932677E-1,8.867859E-2,-2.0180829E-1,2.5809237E-1,2.7038887E-2,-2.506688E-1,-3.522541E-2,2.4234724E-1,-3.719407E-2,9.437635E-2,-4.862466E-2,-1.4675681E-1,-3.581932E-2,-2.585189E-1,-1.0576028E-1],"split_indices":[55,103,118,108,53,2,55,97,18,93,46,12,74,108,51,0,0,103,0,27,26,44,55,79,113,115,22,35,14,0,115,0,0,0,0,0,0,0,0,0,0,0,0,0,0,0,0,0,0,0,0,0,0,0,0,0,0],"split_type":[0,0,0,0,0,0,0,0,0,0,0,0,0,0,0,0,0,0,0,0,0,0,0,0,0,0,0,0,0,0,0,0,0,0,0,0,0,0,0,0,0,0,0,0,0,0,0,0,0,0,0,0,0,0,0,0,0],"sum_hessian":[5.956E3,5.358E3,5.98E2,2.65E2,5.093E3,9.4E1,5.04E2,1E1,2.55E2,2.281E3,2.812E3,4.3E1,5.1E1,4.62E2,4.2E1,5E0,5E0,4.6E1,2.09E2,1.254E3,1.027E3,2.697E3,1.15E2,1.4E1,2.9E1,2.1E1,3E1,2.97E2,1.65E2,7E0,3.5E1,2.9E1,1.7E1,1.8E1,1.91E2,8.68E2,3.86E2,5.04E2,5.23E2,2.465E3,2.32E2,1.03E2,1.2E1,7E0,7E0,2.2E1,7E0,1.2E1,9E0,6E0,2.4E1,3.2E1,2.65E2,9.9E1,6.6E1,2.3E1,1.2E1],"tree_param":{"num_deleted":"0","num_feature":"124","num_nodes":"57","size_leaf_vector":"1"}},{"base_weights":[-4.427507E-3,1.7379291E-1,-9.2150396E-1,-4.789684E-1,3.743495E-1,-1.4232858E-1,-1.3515209E0,6.9021183E-1,-7.7892876E-1,5.350349E-1,-4.984773E-1,2.5450256E0,-4.1262105E-1,3.348286E-1,-1.4267802E0,1.6330391E0,-1.8995482E-1,-3.8313136E-1,-1.408911E0,1.6256657E0,4.174747E-1,-3.3449733E-1,-2.608672E0,1.5433301E-1,4.6394997E0,2.0021963E-1,-5.5455476E-1,-2.5754285E0,-1.1313792E0,3.437328E-1,6.434368E-2,1.611977E-1,-3.0606044E-2,2.397372E-1,-2.3205323E-2,-8.405918E-2,3.8399484E-2,1.079682E-1,-2.1356063E-2,1.4523073E-1,1.8316273E-2,2.1873188E-1,-2.0563457E-2,-1.5221111E-1,2.8396344E-2,-1.2599419E-1,1.0104258E-1,2.8739613E-1,8.163685E-2,-5.886543E-3,-9.572711E-2,-1.3956277E-1,1.11281E-1,-7.580757E-2,-8.109141E-3],"categories":[],"categories_nodes":[],"categories_segments":[],"categories_sizes":[],"default_left":[0,0,0,0,0,0,0,1,0,0,0,0,0,0,0,0,0,0,0,0,0,0,0,0,0,0,0,0,0,0,0,0,0,0,0,0,0,0,0,0,0,0,0,0,0,0,0,0,0,0,0,0,0,0,0],"id":12,"left_children":[1,3,5,7,9,11,13,15,17,19,21,23,25,-1,27,29,31,33,35,37,39,41,43,45,47,-1,49,51,53,-1,-1,-1,-1,-1,-1,-1,-1,-1,-1,-1,-1,-1,-1,-1,-1,-1,-1,-1,-1,-1,-1,-1,-1,-1,-1],"loss_changes":[9.8235645E2,6.5893604E2,3.2734558E2,4.1543375E2,5.402348E2,2.5434059E2,3.906145E2,2.0127704E2,2.341643E2,4.160714E2,2.0610483E2,1.5903638E2,2.0123721E2,0E0,2.0878528E2,2.0262967E2,1.8330806E2,2.4497397E2,2.1653625E2,3.472953E2,3.7224045E2,2.0277435E2,6.147E1,8.490601E1,4.653409E1,0E0,1.8314056E2,1.3786554E2,1.8567334E2,0E0,0E0,0E0,0E0,0E0,0E0,0E0,0E0,0E0,0E0,0E0,0E0,0E0,0E0,0E0,0E0,0E0,0E0,0E0,0E0,0E0,0E0,0E0,0E0,0E0,0E0],"parents":[2147483647,0,0,1,1,2,2,3,3,4,4,5,5,6,6,7,7,8,8,9,9,10,10,11,11,12,12,14,14,15,15,16,16,17,17,18,18,19,19,20,20,21,21,22,22,23,23,24,24,26,26,27,27,28,28],"right_children":[2,4,6,8,10,12,14,16,18,20,22,24,26,-1,28,30,32,34,36,38,40,42,44,46,48,-1,50,52,54,-1,-1,-1,-1,-1,-1,-1,-1,-1,-1,-1,-1,-1,-1,-1,-1,-1,-1,-1,-1,-1,-1,-1,-1,-1,-1],"split_conditions":[5.283E0,7.01E1,7.089941E-1,7.736E0,7.575493E-1,3.325E0,7.8694425E0,7.1E0,4.100214E-1,8E0,5.1636267E0,2.2264E-1,5.901333E-1,3.348286E-1,4.0110332E-1,1.7625E-1,2.7777777E0,5.8756668E-2,2.03E1,3.2082745E-1,-5.4743927E-2,1.7037038E0,3.22E2,1.4444445E-1,1.0971E-1,2.0021963E-1,2.449E-1,7.241456E-1,5E-1,3.437328E-1,6.434368E-2,1.611977E-1,-3.0606044E-2,2.397372E-1,-2.3205323E-2,-8.405918E-2,3.8399484E-2,1.079682E-1,-2.1356063E-2,1.4523073E-1,1.8316273E-2,2.1873188E-1,-2.0563457E-2,-1.5221111E-1,2.8396344E-2,-1.2599419E-1,1.0104258E-1,2.8739613E-1,8.163685E-2,-5.886543E-3,-9.572711E-2,-1.3956277E-1,1.11281E-1,-7.580757E-2,-8.109141E-3],"split_indices":[53,46,91,55,91,15,123,2,93,72,27,62,65,0,93,68,28,61,47,77,108,115,90,34,60,0,62,91,37,0,0,0,0,0,0,0,0,0,0,0,0,0,0,0,0,0,0,0,0,0,0,0,0,0,0],"split_type":[0,0,0,0,0,0,0,0,0,0,0,0,0,0,0,0,0,0,0,0,0,0,0,0,0,0,0,0,0,0,0,0,0,0,0,0,0,0,0,0,0,0,0,0,0,0,0,0,0,0,0,0,0,0,0],"sum_hessian":[6.008E3,5.031E3,9.77E2,1.182E3,3.849E3,3.48E2,6.29E2,2.41E2,9.41E2,3.251E3,5.98E2,3.1E1,3.17E2,5E0,6.24E2,1.16E2,1.25E2,5.79E2,3.62E2,3.15E2,2.936E3,5.56E2,4.2E1,1.5E1,1.6E1,9E0,3.08E2,1.26E2,4.98E2,6E0,1.1E2,1.3E1,1.12E2,8E0,5.71E2,3.22E2,4E1,2.5E2,6.5E1,5.8E1,2.878E3,8E0,5.48E2,3.7E1,5E0,6E0,9E0,1.1E1,5E0,2.34E2,7.4E1,1.21E2,5E0,3.56E2,1.42E2],"tree_param":{"num_deleted":"0","num_feature":"124","num_nodes":"55","size_leaf_vector":"1"}},{"base_weights":[2.0056091E-2,1.5469846E-1,-9.0383136E-1,1.454297E0,8.244728E-2,-8.023529E-1,-3.7495527E0,5.750568E-1,2.156725E0,-2.2921238E-2,8.956643E-1,-1.0214823E0,4.7262886E-1,-1.33535145E-2,-5.5716276E0,2.9302844E-1,2.0675412E-1,3.6380117E0,1.2872478E0,2.4761193E-1,-3.1022453E-1,1.0501443E0,-2.6583462E0,-1.5368193E0,-3.8199788E-1,2.316685E0,-7.164314E-1,-1.673493E-1,-3.821738E-1,1.06037356E-1,-1.9866241E-2,7.73904E-2,2.6352522E-1,1.2032404E-1,-1.9665105E-2,1.1295462E-2,2.8269765E-1,7.5692646E-2,-1.9102758E-2,6.748886E-2,-4.116174E-2,-1.8118659E-1,-5.8945764E-2,-6.8054E-2,-2.4414802E-1,1.7387898E-1,-2.7561832E-2,2.7956116E-1,3.5400536E-2,-7.18398E-2,1.5362029E-1],"categories":[],"categories_nodes":[],"categories_segments":[],"categories_sizes":[],"default_left":[0,0,0,0,0,0,0,0,0,0,0,0,0,0,0,0,0,0,0,0,0,0,0,0,0,0,0,0,0,0,0,0,0,0,0,0,0,0,0,0,0,0,0,0,0,0,0,0,0,0,0],"id":13,"left_children":[1,3,5,7,9,11,13,15,17,19,21,23,25,-1,27,29,-1,31,33,35,37,39,41,43,45,47,49,-1,-1,-1,-1,-1,-1,-1,-1,-1,-1,-1,-1,-1,-1,-1,-1,-1,-1,-1,-1,-1,-1,-1,-1],"loss_changes":[7.471777E2,4.920312E2,2.1716382E2,1.6894507E2,4.2580316E2,2.0700394E2,1.6290704E2,1.2284497E2,1.9188E2,3.4199567E2,3.1557434E2,2.0716711E2,2.4082336E2,0E0,5.16734E1,1.4738046E2,0E0,1.8224603E2,1.8547864E2,2.6400934E2,2.800716E2,3.0820898E2,2.9524979E1,1.979585E2,1.864771E2,2.2192108E2,1.871169E2,0E0,0E0,0E0,0E0,0E0,0E0,0E0,0E0,0E0,0E0,0E0,0E0,0E0,0E0,0E0,0E0,0E0,0E0,0E0,0E0,0E0,0E0,0E0,0E0],"parents":[2147483647,0,0,1,1,2,2,3,3,4,4,5,5,6,6,7,7,8,8,9,9,10,10,11,11,12,12,14,14,15,15,17,17,18,18,19,19,20,20,21,21,22,22,23,23,24,24,25,25,26,26],"right_children":[2,4,6,8,10,12,14,16,18,20,22,24,26,-1,28,30,-1,32,34,36,38,40,42,44,46,48,50,-1,-1,-1,-1,-1,-1,-1,-1,-1,-1,-1,-1,-1,-1,-1,-1,-1,-1,-1,-1,-1,-1,-1,-1],"split_conditions":[1.0066E1,7.238E0,1.2388E1,1.34E2,1.1196305E0,2.0076923E0,6.639E-1,4.866667E0,7E0,8.727E0,1.24E1,0E0,7.4608546E-1,-1.33535145E-2,4.866667E0,7.1666665E0,2.0675412E-1,3.4666667E0,7.1331525E-1,3.2722E-1,6.885429E-1,4.2914003E-1,-3.2857144E0,-1.1083744E-1,3.3333335E-2,-1.9822933E-3,1.4531048E-2,-1.673493E-1,-3.821738E-1,1.06037356E-1,-1.9866241E-2,7.73904E-2,2.6352522E-1,1.2032404E-1,-1.9665105E-2,1.1295462E-2,2.8269765E-1,7.5692646E-2,-1.9102758E-2,6.748886E-2,-4.116174E-2,-1.8118659E-1,-5.8945764E-2,-6.8054E-2,-2.4414802E-1,1.7387898E-1,-2.7561832E-2,2.7956116E-1,3.5400536E-2,-7.18398E-2,1.5362029E-1],"split_indices":[55,55,55,1,44,112,58,22,32,55,32,37,81,0,8,36,0,8,76,68,96,78,34,37,37,101,102,0,0,0,0,0,0,0,0,0,0,0,0,0,0,0,0,0,0,0,0,0,0,0,0],"split_type":[0,0,0,0,0,0,0,0,0,0,0,0,0,0,0,0,0,0,0,0,0,0,0,0,0,0,0,0,0,0,0,0,0,0,0,0,0,0,0,0,0,0,0,0,0,0,0,0,0,0,0],"sum_hessian":[6.005E3,5.242E3,7.63E2,2.75E2,4.967E3,7.38E2,2.5E1,1.23E2,1.52E2,4.398E3,5.69E2,6.3E2,1.08E2,9E0,1.6E1,1.15E2,8E0,5.5E1,9.7E1,2.265E3,2.133E3,5.46E2,2.3E1,3.48E2,2.82E2,4.2E1,6.6E1,9E0,7E0,3.1E1,8.4E1,2.5E1,3E1,5.8E1,3.9E1,2.257E3,8E0,8E1,2.053E3,4.71E2,7.5E1,1.3E1,1E1,3.32E2,1.6E1,1.1E1,2.71E2,1.3E1,2.9E1,5.6E1,1E1],"tree_param":{"num_deleted":"0","num_feature":"124","num_nodes":"51","size_leaf_vector":"1"}},{"base_weights":[6.355425E-3,4.653791E-1,-2.5627777E-1,6.045422E-1,-4.901873E-1,-1.0341506E0,-6.1946638E-2,4.914554E0,5.7708037E-1,1.559913E0,-9.430783E-1,-8.917583E-1,-2.6395884E0,2.0776138E0,-1.18338674E-1,4.3604276E-1,-1.642779E-2,5.373618E-1,3.429105E0,3.3618298E0,-4.4455373E-1,2.8168936E0,-1.1452545E0,-9.400435E-1,2.0283829E-1,1.5964152E-2,-3.1499493E0,1.4170502E-1,3.7773023E0,3.1019961E-2,-8.849478E-1,1.4116478E-2,4.7973912E-2,2.4005745E-1,-9.639495E-2,2.4298215E-1,-8.132259E-3,-8.792012E-2,8.4602974E-2,-5.933536E-3,2.472482E-1,5.5554225E-3,-7.9958424E-2,-1.637131E-2,-6.660753E-2,-1.0808839E-1,-2.2740233E-1,-1.0953491E-1,7.230913E-2,2.5046143E-1,-6.426158E-2,-2.2628848E-3,6.715819E-2,-1.555391E-1,-3.3703864E-2],"categories":[],"categories_nodes":[],"categories_segments":[],"categories_sizes":[],"default_left":[0,0,0,0,0,0,0,0,0,1,0,0,0,1,0,0,0,1,0,0,0,0,0,0,0,0,0,0,0,1,0,0,0,0,0,0,0,0,0,0,0,0,0,0,0,0,0,0,0,0,0,0,0,0,0],"id":14,"left_children":[1,3,5,7,9,11,13,15,17,19,21,23,25,27,29,-1,-1,31,33,35,37,39,41,43,-1,-1,45,47,49,51,53,-1,-1,-1,-1,-1,-1,-1,-1,-1,-1,-1,-1,-1,-1,-1,-1,-1,-1,-1,-1,-1,-1,-1,-1],"loss_changes":[7.28412E2,2.9272998E2,5.807529E2,2.2386761E2,2.613816E2,1.7285925E2,3.7118216E2,2.431868E2,2.1400885E2,1.8599225E2,1.7789952E2,1.7243268E2,9.491449E1,2.5901776E2,3.4338293E2,0E0,0E0,2.0242383E2,2.0064459E2,1.4379318E2,7.316162E1,7.603451E1,1.2521799E2,1.677862E2,0E0,0E0,6.2720642E1,1.18711266E2,2.6875055E2,2.514096E2,2.27043E2,0E0,0E0,0E0,0E0,0E0,0E0,0E0,0E0,0E0,0E0,0E0,0E0,0E0,0E0,0E0,0E0,0E0,0E0,0E0,0E0,0E0,0E0,0E0,0E0],"parents":[2147483647,0,0,1,1,2,2,3,3,4,4,5,5,6,6,7,7,8,8,9,9,10,10,11,11,12,12,13,13,14,14,17,17,18,18,19,19,20,20,21,21,22,22,23,23,26,26,27,27,28,28,29,29,30,30],"right_children":[2,4,6,8,10,12,14,16,18,20,22,24,26,28,30,-1,-1,32,34,36,38,40,42,44,-1,-1,46,48,50,52,54,-1,-1,-1,-1,-1,-1,-1,-1,-1,-1,-1,-1,-1,-1,-1,-1,-1,-1,-1,-1,-1,-1,-1,-1],"split_conditions":[8.539E0,1.22413464E-1,7.01E1,4.04E-2,7.210452E0,1.0433333E1,-5.4743927E-2,5.6842103E0,1.1979031E-1,1.6983318E1,6.6575724E-1,2.8E0,8.545455E0,5.0625E0,1.0166667E1,4.3604276E-1,-1.642779E-2,1.375E0,1.2153299E-2,9.055453E-2,6.946607E-1,3.9975765E-1,7.3333335E0,8.2526155E-2,2.0283829E-1,1.5964152E-2,1.11E1,-6.416767E-3,1.1E1,9.2E1,-1.851138E-1,1.4116478E-2,4.7973912E-2,2.4005745E-1,-9.639495E-2,2.4298215E-1,-8.132259E-3,-8.792012E-2,8.4602974E-2,-5.933536E-3,2.472482E-1,5.5554225E-3,-7.9958424E-2,-1.637131E-2,-6.660753E-2,-1.0808839E-1,-2.2740233E-1,-1.0953491E-1,7.230913E-2,2.5046143E-1,-6.426158E-2,-2.2628848E-3,6.715819E-2,-1.555391E-1,-3.3703864E-2],"split_indices":[55,109,46,60,42,23,108,116,109,123,97,34,110,111,23,0,0,112,106,103,83,78,2,94,0,0,19,109,35,46,50,0,0,0,0,0,0,0,0,0,0,0,0,0,0,0,0,0,0,0,0,0,0,0,0],"split_type":[0,0,0,0,0,0,0,0,0,0,0,0,0,0,0,0,0,0,0,0,0,0,0,0,0,0,0,0,0,0,0,0,0,0,0,0,0,0,0,0,0,0,0,0,0,0,0,0,0,0,0,0,0,0,0],"sum_hessian":[6.04E3,2.198E3,3.842E3,1.919E3,2.79E2,7.67E2,3.075E3,1.1E1,1.908E3,5E1,2.29E2,7.06E2,6.1E1,7.8E1,2.997E3,6E0,5E0,1.883E3,2.5E1,2.6E1,2.4E1,1.1E1,2.18E2,7E2,6E0,9E0,5.2E1,3.7E1,4.1E1,2.509E3,4.88E2,1.175E3,7.08E2,2E1,5E0,1.8E1,8E0,1.5E1,9E0,5E0,6E0,5.8E1,1.6E2,2.74E2,4.26E2,3.2E1,2E1,1.3E1,2.4E1,3.3E1,8E0,2.372E3,1.37E2,4.1E1,4.47E2],"tree_param":{"num_deleted":"0","num_feature":"124","num_nodes":"55","size_leaf_vector":"1"}},{"base_weights":[-8.307763E-4,1.5383987E-1,-7.9788554E-1,3.8118744E-1,-3.4181783E-1,-1.14641435E-1,-1.308393E0,1.5769823E0,2.7591407E-1,-3.789497E-1,4.5085697E0,-2.6675212E-1,5.0203147E0,-5.7577877E0,-1.2076557E0,3.5830107E0,6.390481E-1,1.4242287E-1,1.2604772E0,-2.0446926E-1,-1.3240557E0,2.5831796E-3,3.8352042E-1,4.064288E-1,-9.0048367E-1,4.0299916E-1,3.1032426E-2,-3.699511E-1,-1.4333582E-1,-4.353371E0,-1.0977305E0,6.7232355E-2,2.4181393E-1,9.324639E-2,-3.2926764E-2,1.31809665E-2,-4.0248405E-2,3.2957215E-2,1.3825722E-1,-4.3360967E-2,6.351225E-3,7.765188E-2,-7.602941E-2,5.219562E-2,-3.949147E-2,-8.417834E-2,1.9101623E-2,-2.9722363E-1,-4.9478665E-2,-1.0353533E-1,-3.734907E-2],"categories":[],"categories_nodes":[],"categories_segments":[],"categories_sizes":[],"default_left":[0,0,0,0,0,0,0,0,0,0,0,0,0,1,0,0,0,0,1,0,0,0,0,0,0,0,0,0,0,0,0,0,0,0,0,0,0,0,0,0,0,0,0,0,0,0,0,0,0,0,0],"id":15,"left_children":[1,3,5,7,9,11,13,15,17,19,21,23,25,27,29,31,33,35,37,39,41,-1,-1,43,45,-1,-1,-1,-1,47,49,-1,-1,-1,-1,-1,-1,-1,-1,-1,-1,-1,-1,-1,-1,-1,-1,-1,-1,-1,-1],"loss_changes":[7.358048E2,5.6334174E2,3.3804486E2,4.3078867E2,2.844189E2,3.2579382E2,2.411123E2,5.184698E2,4.1381775E2,2.5698923E2,1.6793571E2,1.7319485E2,1.5461185E2,3.470166E1,1.8278748E2,2.3974255E2,3.035782E2,3.1889966E2,3.38042E2,2.899652E2,1.3976083E2,0E0,0E0,1.5108113E2,2.1067555E2,0E0,0E0,0E0,0E0,8.9762695E1,1.7802106E2,0E0,0E0,0E0,0E0,0E0,0E0,0E0,0E0,0E0,0E0,0E0,0E0,0E0,0E0,0E0,0E0,0E0,0E0,0E0,0E0],"parents":[2147483647,0,0,1,1,2,2,3,3,4,4,5,5,6,6,7,7,8,8,9,9,10,10,11,11,12,12,13,13,14,14,15,15,16,16,17,17,18,18,19,19,20,20,23,23,24,24,29,29,30,30],"right_children":[2,4,6,8,10,12,14,16,18,20,22,24,26,28,30,32,34,36,38,40,42,-1,-1,44,46,-1,-1,-1,-1,48,50,-1,-1,-1,-1,-1,-1,-1,-1,-1,-1,-1,-1,-1,-1,-1,-1,-1,-1,-1,-1],"split_conditions":[5.283E0,7.76896E-1,3.888E0,-1.017384E-2,3.452956E-2,2.5306618E-1,-5.8E-1,1.3583204E-2,1.1352546E0,1.0066667E1,9.125E0,7.093584E-1,4.2290077E0,4.2E0,2.7777777E0,4.314815E0,4.4E0,5.385246E0,8.29E1,2.3739161E0,1.9234E-1,2.5831796E-3,3.8352042E-1,2.888889E2,5.944954E0,4.0299916E-1,3.1032426E-2,-3.699511E-1,-1.4333582E-1,1.0166667E1,-2.2648516E-1,6.7232355E-2,2.4181393E-1,9.324639E-2,-3.2926764E-2,1.31809665E-2,-4.0248405E-2,3.2957215E-2,1.3825722E-1,-4.3360967E-2,6.351225E-3,7.765188E-2,-7.602941E-2,5.219562E-2,-3.949147E-2,-8.417834E-2,1.9101623E-2,-2.9722363E-1,-4.9478665E-2,-1.0353533E-1,-3.734907E-2],"split_indices":[53,96,54,103,102,95,56,108,44,23,110,91,15,111,17,28,18,13,46,122,63,0,0,75,116,0,0,0,0,9,52,0,0,0,0,0,0,0,0,0,0,0,0,0,0,0,0,0,0,0,0],"split_type":[0,0,0,0,0,0,0,0,0,0,0,0,0,0,0,0,0,0,0,0,0,0,0,0,0,0,0,0,0,0,0,0,0,0,0,0,0,0,0,0,0,0,0,0,0,0,0,0,0,0,0],"sum_hessian":[5.966E3,4.997E3,9.69E2,3.426E3,1.571E3,4.15E2,5.54E2,2.76E2,3.15E3,1.56E3,1.1E1,4.04E2,1.1E1,1.1E1,5.43E2,8.7E1,1.89E2,2.775E3,3.75E2,1.318E3,2.42E2,5E0,6E0,1.96E2,2.08E2,6E0,5E0,6E0,5E0,1.7E1,5.26E2,3.2E1,5.5E1,9.7E1,9.2E1,2.461E3,3.14E2,2.69E2,1.06E2,4.39E2,8.79E2,1.5E1,2.27E2,1.28E2,6.8E1,1.29E2,7.9E1,1.1E1,6E0,1.38E2,3.88E2],"tree_param":{"num_deleted":"0","num_feature":"124","num_nodes":"51","size_leaf_vector":"1"}},{"base_weights":[7.3956484E-3,4.308829E-1,-2.3544766E-1,3.9250857E-1,3.3640058E0,-1.2711984E0,-8.6492665E-2,2.5550387E0,3.4090808E-1,4.2922134E0,-3.690618E-2,1.5391488E-1,-1.575674E0,4.7596404E-1,-3.1395024E-1,3.3118436E0,-1.7650858E-1,9.13799E-1,1.641411E-1,2.427153E0,3.4563118E-1,-3.738639E-1,2.8643548E0,-1.7550454E0,1.3896215E0,-2.7393806E-1,1.19596E0,7.269195E-1,-4.322193E-1,-2.3349721E-2,2.2755425E-1,6.8412594E-2,-1.1201857E-3,1.719553E-2,-2.1019878E-2,2.8936474E-2,1.7920105E-1,-3.5266813E-2,1.6866103E-1,2.642872E-1,-6.1422754E-2,-9.610013E-2,3.7087485E-2,-2.575635E-2,2.5189582E-1,2.4245275E-2,-5.9222337E-2,1.4924078E-1,3.7272003E-2,2.635063E-2,3.247909E-1,-1.6212612E-2,-7.055613E-2],"categories":[],"categories_nodes":[],"categories_segments":[],"categories_sizes":[],"default_left":[0,0,0,0,0,0,0,1,0,0,0,0,0,1,0,0,0,0,0,0,0,0,0,0,0,1,0,0,0,0,0,0,0,0,0,0,0,0,0,0,0,0,0,0,0,0,0,0,0,0,0,0,0],"id":16,"left_children":[1,3,5,7,9,11,13,15,17,19,-1,21,23,25,27,29,-1,31,33,35,-1,37,39,41,43,45,47,49,51,-1,-1,-1,-1,-1,-1,-1,-1,-1,-1,-1,-1,-1,-1,-1,-1,-1,-1,-1,-1,-1,-1,-1,-1],"loss_changes":[6.154189E2,2.4379001E2,5.86482E2,2.391991E2,1.10137146E2,2.077948E2,4.2564517E2,2.419354E2,2.1291176E2,9.469409E1,0E0,1.22913506E2,2.1203949E2,5.1766943E2,2.9191492E2,2.1326395E2,0E0,2.1119336E2,1.693193E2,2.9585281E1,0E0,9.15404E1,1.4564304E2,1.5661487E2,1.6287637E2,3.2538312E2,3.914945E2,2.7495895E2,2.242757E2,0E0,0E0,0E0,0E0,0E0,0E0,0E0,0E0,0E0,0E0,0E0,0E0,0E0,0E0,0E0,0E0,0E0,0E0,0E0,0E0,0E0,0E0,0E0,0E0],"parents":[2147483647,0,0,1,1,2,2,3,3,4,4,5,5,6,6,7,7,8,8,9,9,11,11,12,12,13,13,14,14,15,15,17,17,18,18,19,19,21,21,22,22,23,23,24,24,25,25,26,26,27,27,28,28],"right_children":[2,4,6,8,10,12,14,16,18,20,-1,22,24,26,28,30,-1,32,34,36,-1,38,40,42,44,46,48,50,52,-1,-1,-1,-1,-1,-1,-1,-1,-1,-1,-1,-1,-1,-1,-1,-1,-1,-1,-1,-1,-1,-1,-1,-1],"split_conditions":[8.539E0,1.1780733E0,6.47E1,-2.7904326E-2,1.0551257E1,3.9666667E0,3.9328475E-2,2.6E0,7.549E0,3.9512196E0,-3.690618E-2,9.320667E-2,2.6181817E0,7.68E1,7.127988E-1,7.494E0,-1.7650858E-1,4.0337765E-1,9.8129705E-2,8.328125E0,3.4563118E-1,2.3392856E0,2.4057667E-1,8.110785E-2,3.25585E-2,8.804348E0,7.2720516E-1,1.2382576E0,1.45E2,-2.3349721E-2,2.2755425E-1,6.8412594E-2,-1.1201857E-3,1.719553E-2,-2.1019878E-2,2.8936474E-2,1.7920105E-1,-3.5266813E-2,1.6866103E-1,2.642872E-1,-6.1422754E-2,-9.610013E-2,3.7087485E-2,-2.575635E-2,2.5189582E-1,2.4245275E-2,-5.9222337E-2,1.4924078E-1,3.7272003E-2,2.635063E-2,3.247909E-1,-1.6212612E-2,-7.055613E-2],"split_indices":[55,44,46,103,43,8,109,48,55,25,0,67,112,46,81,55,0,93,109,121,0,34,63,100,50,113,81,44,0,0,0,0,0,0,0,0,0,0,0,0,0,0,0,0,0,0,0,0,0,0,0,0,0],"split_type":[0,0,0,0,0,0,0,0,0,0,0,0,0,0,0,0,0,0,0,0,0,0,0,0,0,0,0,0,0,0,0,0,0,0,0,0,0,0,0,0,0,0,0,0,0,0,0,0,0,0,0,0,0],"sum_hessian":[5.982E3,2.18E3,3.802E3,2.153E3,2.7E1,4.77E2,3.325E3,4.9E1,2.104E3,2.2E1,5E0,8.4E1,3.93E2,9.57E2,2.368E3,4.4E1,5E0,4.95E2,1.609E3,1.4E1,8E0,7.1E1,1.3E1,3.71E2,2.2E1,4.69E2,4.88E2,2.41E2,2.127E3,1.1E1,3.3E1,3.33E2,1.62E2,1.231E3,3.78E2,6E0,8E0,6.6E1,5E0,8E0,5E0,3.48E2,2.3E1,1.5E1,7E0,2.56E2,2.13E2,9.7E1,3.91E2,2.34E2,7E0,1.917E3,2.1E2],"tree_param":{"num_deleted":"0","num_feature":"124","num_nodes":"53","size_leaf_vector":"1"}},{"base_weights":[-2.8433576E-3,2.9955077E-1,-3.388236E-1,-3.626898E-1,5.239007E-1,1.4188233E-1,-5.72321E-1,4.4236757E-2,-1.320268E0,9.5516825E-1,-2.4825584E-2,6.5711844E-1,-3.3364215E-1,6.269809E-1,-7.240039E-1,-5.6626713E-1,7.1232843E-1,-7.385396E-1,-2.9044027E0,4.7318106E0,8.505039E-1,1.4418948E0,-1.4021258E-1,9.444059E-1,-1.6121037E0,-6.439636E-1,1.1978626E0,-1.3094658E-1,2.1786177E0,-8.619462E-2,-9.6485955E-1,2.5112566E-1,-3.6102787E-2,2.8830005E-2,3.240562E-1,-5.3636868E-2,1.0195035E-1,-1.7748521E-1,2.2986207E-2,1.5118437E-1,4.344875E-1,-8.3421685E-2,4.7425624E-2,-8.455431E-3,1.4291252E-1,-1.1501815E-1,-2.6443012E-3,-2.2667287E-2,7.346379E-2,-1.2178427E-1,1.1996444E-1,3.6880445E-2,-4.831786E-2,9.084668E-2,-1.6846177E-1,2.1909109E-1,-3.0649547E-2,2.5019735E-1,4.7320362E-2,-1.9209003E-2,6.922269E-2,2.8371373E-2,-5.3290527E-2],"categories":[],"categories_nodes":[],"categories_segments":[],"categories_sizes":[],"default_left":[0,0,0,0,0,0,0,0,0,0,0,0,0,0,0,0,0,0,0,0,0,0,0,0,1,0,0,0,0,1,0,0,0,0,0,0,0,0,0,0,0,0,0,0,0,0,0,0,0,0,0,0,0,0,0,0,0,0,0,0,0,0,0],"id":17,"left_children":[1,3,5,7,9,11,13,15,17,19,21,23,25,27,29,31,33,35,37,39,41,43,45,47,49,51,53,55,57,59,61,-1,-1,-1,-1,-1,-1,-1,-1,-1,-1,-1,-1,-1,-1,-1,-1,-1,-1,-1,-1,-1,-1,-1,-1,-1,-1,-1,-1,-1,-1,-1,-1],"loss_changes":[6.0309216E2,4.6435007E2,3.1575323E2,3.0841025E2,5.5245276E2,2.2565839E2,3.448261E2,2.2719511E2,2.1497327E2,5.120477E2,1.7405121E2,2.8960397E2,2.283649E2,2.5098404E2,2.5804688E2,2.5656097E2,2.0383232E2,1.6360614E2,1.3870612E2,2.0917621E2,3.1578564E2,1.7188379E2,1.7960416E2,2.8908728E2,1.7103304E2,1.7845435E2,2.3498245E2,3.1556012E2,2.3836716E2,2.0289494E2,1.8937146E2,0E0,0E0,0E0,0E0,0E0,0E0,0E0,0E0,0E0,0E0,0E0,0E0,0E0,0E0,0E0,0E0,0E0,0E0,0E0,0E0,0E0,0E0,0E0,0E0,0E0,0E0,0E0,0E0,0E0,0E0,0E0,0E0],"parents":[2147483647,0,0,1,1,2,2,3,3,4,4,5,5,6,6,7,7,8,8,9,9,10,10,11,11,12,12,13,13,14,14,15,15,16,16,17,17,18,18,19,19,20,20,21,21,22,22,23,23,24,24,25,25,26,26,27,27,28,28,29,29,30,30],"right_children":[2,4,6,8,10,12,14,16,18,20,22,24,26,28,30,32,34,36,38,40,42,44,46,48,50,52,54,56,58,60,62,-1,-1,-1,-1,-1,-1,-1,-1,-1,-1,-1,-1,-1,-1,-1,-1,-1,-1,-1,-1,-1,-1,-1,-1,-1,-1,-1,-1,-1,-1,-1,-1],"split_conditions":[4.465E0,7.01E1,3.9503914E-1,9.133333E0,7.647254E-2,8.317E-2,7.5E0,6.653568E-4,1.0370411E1,-2.6013874E-2,8E0,3.5813823E-2,7.0206666E-1,7.555E-1,1.2793878E-2,2.5371397E-2,1.06E1,1.93E1,2.3101014E-1,4.9736843E0,2.0120928E-1,8.775676E-2,6.1E0,4E0,1.16E1,3.9658496E-1,5E0,3.2333333E0,4.102503E-1,1.7333333E0,5.0625E0,2.5112566E-1,-3.6102787E-2,2.8830005E-2,3.240562E-1,-5.3636868E-2,1.0195035E-1,-1.7748521E-1,2.2986207E-2,1.5118437E-1,4.344875E-1,-8.3421685E-2,4.7425624E-2,-8.455431E-3,1.4291252E-1,-1.1501815E-1,-2.6443012E-3,-2.2667287E-2,7.346379E-2,-1.2178427E-1,1.1996444E-1,3.6880445E-2,-4.831786E-2,9.084668E-2,-1.6846177E-1,2.1909109E-1,-3.0649547E-2,2.5019735E-1,4.7320362E-2,-1.9209003E-2,6.922269E-2,2.8371373E-2,-5.3290527E-2],"split_indices":[53,46,93,23,109,60,2,50,42,103,72,51,65,64,103,84,19,47,95,116,95,94,2,74,2,78,21,8,93,112,113,0,0,0,0,0,0,0,0,0,0,0,0,0,0,0,0,0,0,0,0,0,0,0,0,0,0,0,0,0,0,0,0],"split_type":[0,0,0,0,0,0,0,0,0,0,0,0,0,0,0,0,0,0,0,0,0,0,0,0,0,0,0,0,0,0,0,0,0,0,0,0,0,0,0,0,0,0,0,0,0,0,0,0,0,0,0,0,0,0,0,0,0,0,0,0,0,0,0],"sum_hessian":[5.934E3,3.123E3,2.811E3,7.9E2,2.333E3,9.19E2,1.892E3,5.55E2,2.35E2,1.306E3,1.027E3,4.41E2,4.78E2,2.12E2,1.68E3,2.9E2,2.65E2,1.73E2,6.2E1,3.4E1,1.272E3,7.4E1,9.53E2,3.92E2,4.9E1,3.98E2,8E1,1.43E2,6.9E1,4.61E2,1.219E3,7E0,2.83E2,2.6E2,5E0,1.55E2,1.8E1,5.2E1,1E1,2.5E1,9E0,4.7E1,1.225E3,3.5E1,3.9E1,3.6E1,9.17E2,1.07E2,2.85E2,4.1E1,8E0,7.5E1,3.23E2,7.1E1,9E0,1.3E1,1.3E2,2E1,4.9E1,3.84E2,7.7E1,7.5E1,1.144E3],"tree_param":{"num_deleted":"0","num_feature":"124","num_nodes":"63","size_leaf_vector":"1"}},{"base_weights":[-2.169078E-3,1.4051649E-1,-6.7153746E-1,8.4557706E-1,-2.9031746E-2,1.8483661E0,-7.903764E-1,1.5851519E0,3.1581745E-1,3.0403538E-2,-1.3476685E0,5.374341E0,7.764163E-1,3.471092E0,-8.536714E-1,-1.491074E-1,2.1756303E0,-8.768559E-1,6.654651E-1,1.2449493E0,-4.4499397E-2,-2.928369E0,-6.804863E-1,4.2193785E-1,6.987678E-2,2.061373E0,-7.6027846E-1,-2.034816E-3,2.9139587E-1,2.4457557E-1,-8.992437E-1,8.460106E-2,-6.0420353E-2,8.7958835E-2,2.5889906E-1,-6.786089E-2,7.4738026E-2,1.6319564E-2,1.0620359E-1,1.6883932E-1,4.0797487E-2,4.054108E-2,-6.463421E-3,-7.978241E-2,-2.1232866E-1,9.9077776E-2,-5.6352746E-2,-2.0587828E-2,1.5423709E-1,9.355331E-2,-9.619773E-2,-4.0458795E-2,-1.7864335E-1],"categories":[],"categories_nodes":[],"categories_segments":[],"categories_sizes":[],"default_left":[0,0,0,0,0,0,0,0,0,0,1,0,0,0,0,0,0,0,0,0,0,0,1,0,0,0,0,0,0,0,0,0,0,0,0,0,0,0,0,0,0,0,0,0,0,0,0,0,0,0,0,0,0],"id":18,"left_children":[1,3,5,7,9,11,13,15,17,19,21,23,25,27,29,31,33,35,37,39,41,43,45,-1,-1,47,49,-1,-1,-1,51,-1,-1,-1,-1,-1,-1,-1,-1,-1,-1,-1,-1,-1,-1,-1,-1,-1,-1,-1,-1,-1,-1],"loss_changes":[5.761635E2,5.9446796E2,3.187855E2,3.770014E2,3.1437222E2,1.7663628E2,2.7593726E2,4.1219226E2,2.3534207E2,3.49239E2,1.8009485E2,1.2127533E2,7.6731606E1,1.2496596E2,2.655592E2,2.0287788E2,3.6529956E2,1.4783688E2,2.1469656E2,2.007717E2,2.6214124E2,8.223645E1,1.4836832E2,0E0,0E0,5.4686844E1,5.8721725E1,0E0,0E0,0E0,2.3555176E2,0E0,0E0,0E0,0E0,0E0,0E0,0E0,0E0,0E0,0E0,0E0,0E0,0E0,0E0,0E0,0E0,0E0,0E0,0E0,0E0,0E0,0E0],"parents":[2147483647,0,0,1,1,2,2,3,3,4,4,5,5,6,6,7,7,8,8,9,9,10,10,11,11,12,12,13,13,14,14,15,15,16,16,17,17,18,18,19,19,20,20,21,21,22,22,25,25,26,26,30,30],"right_children":[2,4,6,8,10,12,14,16,18,20,22,24,26,28,30,32,34,36,38,40,42,44,46,-1,-1,48,50,-1,-1,-1,52,-1,-1,-1,-1,-1,-1,-1,-1,-1,-1,-1,-1,-1,-1,-1,-1,-1,-1,-1,-1,-1,-1],"split_conditions":[5.032258E0,7.194474E-1,2.3333333E-1,3.9951867E-1,2.0893036E-1,9.278901E0,7E0,6.602E-2,5.2597404E-1,-1.7753387E-2,1.0451612E0,8.604E-2,1.6288889E2,1.0451612E0,2.510907E0,3.3327546E-2,3.9758497E-1,3.171314E0,9.311282E0,1.3621589E1,8E0,7.804611E-1,5.108108E0,4.2193785E-1,6.987678E-2,3.8686663E-1,4E0,-2.034816E-3,2.9139587E-1,2.4457557E-1,5.901E0,8.460106E-2,-6.0420353E-2,8.7958835E-2,2.5889906E-1,-6.786089E-2,7.4738026E-2,1.6319564E-2,1.0620359E-1,1.6883932E-1,4.0797487E-2,4.054108E-2,-6.463421E-3,-7.978241E-2,-2.1232866E-1,9.9077776E-2,-5.6352746E-2,-2.0587828E-2,1.5423709E-1,9.355331E-2,-9.619773E-2,-4.0458795E-2,-1.7864335E-1],"split_indices":[29,96,24,78,49,40,32,66,119,103,112,60,75,112,12,108,78,122,39,123,72,81,118,0,0,78,89,0,0,0,54,0,0,0,0,0,0,0,0,0,0,0,0,0,0,0,0,0,0,0,0,0,0],"split_type":[0,0,0,0,0,0,0,0,0,0,0,0,0,0,0,0,0,0,0,0,0,0,0,0,0,0,0,0,0,0,0,0,0,0,0,0,0,0,0,0,0,0,0,0,0,0,0,0,0,0,0,0,0],"sum_hessian":[6.03E3,4.971E3,1.059E3,9.63E2,4.008E3,4.7E1,1.012E3,4.01E2,5.62E2,3.836E3,1.72E2,1E1,3.7E1,1.4E1,9.98E2,1.02E2,2.99E2,1.27E2,4.35E2,2.22E2,3.614E3,5E1,1.22E2,5E0,5E0,2E1,1.7E1,6E0,8E0,7E0,9.91E2,3.7E1,6.5E1,2.64E2,3.5E1,1.06E2,2.1E1,3.54E2,8.1E1,3.6E1,1.86E2,3.25E2,3.289E3,2.6E1,2.4E1,1.7E1,1.05E2,6E0,1.4E1,5E0,1.2E1,9.6E2,3.1E1],"tree_param":{"num_deleted":"0","num_feature":"124","num_nodes":"53","size_leaf_vector":"1"}},{"base_weights":[3.0310217E-3,5.775685E-1,-1.7691715E-1,2.568624E-1,1.0702823E0,-2.5893918E-1,8.5127246E-1,2.8692043E0,1.4955017E-1,3.4053633E0,7.783917E-1,4.5344684E-1,-3.5681808E-1,6.205189E-1,4.4611526E0,8.3224124E-1,5.7125626E0,-1.7312463E-1,9.360319E-1,-4.5501735E-2,4.712257E0,3.714325E-1,1.8112068E0,1.0505936E0,-6.623182E-1,-7.200177E-1,-1.3541815E-1,-2.4943128E-1,1.4871954E0,5.625726E-1,1.4409561E0,1.1144793E-1,-1.5071894E-1,4.1667548E-1,1.3463317E-1,-1.4963931E-2,1.1370873E-1,1.1051812E-1,1.7494662E-2,-1.08927526E-1,9.3439616E-2,1.7831622E-1,3.9604643E-1,5.8484256E-2,-1.7023757E-2,5.6557637E-2,1.8110563E-1,6.774282E-2,-6.6823035E-2,1.9854268E-1,-4.5214802E-2,-3.3493634E-2,-2.0732716E-1,-1.4286997E-2,3.3800017E-2,1.6057676E-1,-2.7724331E-2,4.502743E-2,2.547463E-1,-9.937389E-2,2.3508854E-1],"categories":[],"categories_nodes":[],"categories_segments":[],"categories_sizes":[],"default_left":[0,0,1,0,0,0,0,0,1,0,0,0,1,0,0,0,0,0,1,1,0,0,0,0,0,0,0,0,0,0,0,0,0,0,0,0,0,0,0,0,0,0,0,0,0,0,0,0,0,0,0,0,0,0,0,0,0,0,0,0,0],"id":19,"left_children":[1,3,5,7,9,11,13,15,17,19,21,23,25,27,29,31,33,35,37,39,41,43,45,47,49,51,53,55,57,-1,59,-1,-1,-1,-1,-1,-1,-1,-1,-1,-1,-1,-1,-1,-1,-1,-1,-1,-1,-1,-1,-1,-1,-1,-1,-1,-1,-1,-1,-1,-1],"loss_changes":[6.1725903E2,2.2460757E2,3.835445E2,2.4147955E2,3.7930188E2,2.9377487E2,2.7660913E2,1.9151303E2,2.111277E2,2.8029578E2,2.0926581E2,3.3986893E2,2.9758392E2,2.3950175E2,3.9267865E2,1.1946585E2,8.7268005E1,1.826377E2,1.7972873E2,7.760131E1,1.3606415E2,2.0506271E2,1.6907095E2,2.4294125E2,2.0284436E2,2.3763666E2,2.8093805E2,1.6938506E2,3.3132983E2,0E0,1.7730838E2,0E0,0E0,0E0,0E0,0E0,0E0,0E0,0E0,0E0,0E0,0E0,0E0,0E0,0E0,0E0,0E0,0E0,0E0,0E0,0E0,0E0,0E0,0E0,0E0,0E0,0E0,0E0,0E0,0E0,0E0],"parents":[2147483647,0,0,1,1,2,2,3,3,4,4,5,5,6,6,7,7,8,8,9,9,10,10,11,11,12,12,13,13,14,14,15,15,16,16,17,17,18,18,19,19,20,20,21,21,22,22,23,23,24,24,25,25,26,26,27,27,28,28,30,30],"right_children":[2,4,6,8,10,12,14,16,18,20,22,24,26,28,30,32,34,36,38,40,42,44,46,48,50,52,54,56,58,-1,60,-1,-1,-1,-1,-1,-1,-1,-1,-1,-1,-1,-1,-1,-1,-1,-1,-1,-1,-1,-1,-1,-1,-1,-1,-1,-1,-1,-1,-1,-1],"split_conditions":[8.161E0,1.0726957E-1,8.99E1,2.9825583E0,3.7E0,3.0825388E-1,2.4969587E-1,1.4E0,1.00017395E1,-5.5287364E-3,7.912E0,6.503854E-2,8.019802E-1,-2.745068E-3,2.278E3,8.333333E0,7E0,2.9437E-1,6.4E0,5.294118E-1,3.6333334E0,3.150007E-1,5.758062E-3,1.952781E-1,1.9741E-1,1.1607E1,1.1447577E0,3.7766222E-2,2E0,5.625726E-1,5.246656E0,1.1144793E-1,-1.5071894E-1,4.1667548E-1,1.3463317E-1,-1.4963931E-2,1.1370873E-1,1.1051812E-1,1.7494662E-2,-1.08927526E-1,9.3439616E-2,1.7831622E-1,3.9604643E-1,5.8484256E-2,-1.7023757E-2,5.6557637E-2,1.8110563E-1,6.774282E-2,-6.6823035E-2,1.9854268E-1,-4.5214802E-2,-3.3493634E-2,-2.0732716E-1,-1.4286997E-2,3.3800017E-2,1.6057676E-1,-2.7724331E-2,4.502743E-2,2.547463E-1,-9.937389E-2,2.3508854E-1],"split_indices":[55,52,46,13,21,77,80,48,121,106,55,108,114,102,57,36,5,68,2,119,21,77,102,51,63,55,44,84,30,0,13,0,0,0,0,0,0,0,0,0,0,0,0,0,0,0,0,0,0,0,0,0,0,0,0,0,0,0,0,0,0],"split_type":[0,0,0,0,0,0,0,0,0,0,0,0,0,0,0,0,0,0,0,0,0,0,0,0,0,0,0,0,0,0,0,0,0,0,0,0,0,0,0,0,0,0,0,0,0,0,0,0,0,0,0,0,0,0,0,0,0,0,0,0,0],"sum_hessian":[5.968E3,1.423E3,4.545E3,8.63E2,5.6E2,4.21E3,3.35E2,3.3E1,8.3E2,6.1E1,4.99E2,5.08E2,3.702E3,3.16E2,1.9E1,2E1,1.3E1,5.89E2,2.41E2,1.7E1,4.4E1,3.59E2,1.4E2,3.31E2,1.77E2,1.401E3,2.301E3,1.58E2,1.58E2,5E0,1.4E1,1.5E1,5E0,6E0,7E0,5.61E2,2.8E1,7.5E1,1.66E2,8E0,9E0,3.4E1,1E1,1.69E2,1.9E2,1.03E2,3.7E1,2.94E2,3.7E1,8E0,1.69E2,1.382E3,1.9E1,1.942E3,3.59E2,1.2E1,1.46E2,1.37E2,2.1E1,7E0,7E0],"tree_param":{"num_deleted":"0","num_feature":"124","num_nodes":"61","size_leaf_vector":"1"}},{"base_weights":[1.57909E-2,3.41274E-1,-2.418335E-1,1.86563E0,2.897115E-1,-4.7992268E-1,2.092319E-1,7.001255E-2,3.4233408E0,4.7154832E-1,-1.5579933E-1,-8.422831E-4,-7.5105375E-1,4.6065688E-1,-1.0643475E0,-1.7816643E0,2.1083565E0,4.1802177E-1,1.9937652E0,7.1497077E-1,2.7728962E-2,-1.0428066E-2,-2.0005078E0,9.5043606E-1,-4.8120025E-1,-8.330919E-1,1.2565473E0,7.289362E-1,-6.8479943E-1,-1.6922991E0,5.059393E-1,-1.9857375E-2,-1.350967E-1,-2.8052961E-2,1.7982924E-1,1.7330474E-1,-7.452402E-3,2.966325E-2,1.1822732E-1,-6.0011294E-2,1.3217891E-2,1.572968E-2,-5.4617643E-2,-1.947515E-2,-1.303787E-1,1.3787773E-1,1.1766746E-2,2.1900615E-2,-4.5200024E-2,-3.3654314E-2,-9.714077E-2,1.4104389E-1,-2.3324734E-2,1.8599007E-1,3.1036843E-2,-1.1801108E-2,-1.821974E-1,-1.1077719E-1,-2.7230463E-3,1.0374802E-1,-7.279423E-2],"categories":[],"categories_nodes":[],"categories_segments":[],"categories_sizes":[],"default_left":[0,0,0,0,0,0,0,1,0,0,0,0,0,0,1,0,0,0,0,0,0,0,0,0,1,0,0,0,0,0,0,0,0,0,0,0,0,0,0,0,0,0,0,0,0,0,0,0,0,0,0,0,0,0,0,0,0,0,0,0,0],"id":20,"left_children":[1,3,5,7,9,11,13,15,17,19,21,23,25,27,29,31,33,-1,35,37,39,41,43,45,47,49,51,53,55,57,59,-1,-1,-1,-1,-1,-1,-1,-1,-1,-1,-1,-1,-1,-1,-1,-1,-1,-1,-1,-1,-1,-1,-1,-1,-1,-1,-1,-1,-1,-1],"loss_changes":[5.0027194E2,2.0643246E2,3.577488E2,2.3995749E2,2.0676224E2,2.830922E2,3.6899127E2,1.5853758E2,3.0696155E2,1.9566644E2,1.9822209E2,3.6094727E2,2.302666E2,2.9612836E2,1.8832704E2,2.664785E1,8.177545E1,0E0,1.1758061E2,2.3319391E2,1.8705989E2,2.4200429E2,5.1495865E1,3.4150397E2,2.0448029E2,2.3600873E2,1.4979877E2,2.4967236E2,2.417757E2,1.16203E2,1.7238069E2,0E0,0E0,0E0,0E0,0E0,0E0,0E0,0E0,0E0,0E0,0E0,0E0,0E0,0E0,0E0,0E0,0E0,0E0,0E0,0E0,0E0,0E0,0E0,0E0,0E0,0E0,0E0,0E0,0E0,0E0],"parents":[2147483647,0,0,1,1,2,2,3,3,4,4,5,5,6,6,7,7,8,8,9,9,10,10,11,11,12,12,13,13,14,14,15,15,16,16,18,18,19,19,20,20,21,21,22,22,23,23,24,24,25,25,26,26,27,27,28,28,29,29,30,30],"right_children":[2,4,6,8,10,12,14,16,18,20,22,24,26,28,30,32,34,-1,36,38,40,42,44,46,48,50,52,54,56,58,60,-1,-1,-1,-1,-1,-1,-1,-1,-1,-1,-1,-1,-1,-1,-1,-1,-1,-1,-1,-1,-1,-1,-1,-1,-1,-1,-1,-1,-1,-1],"split_conditions":[8.727E0,-2.7904326E-2,2.2947486E-1,2.2504246E-1,4.5939274E0,2.052E-1,3.2914197E-1,3.2142856E0,9.8E0,4.1041797E-1,1.246445E1,1.5058474E-3,6.6843696E0,9.2486665E-2,1.15E1,7.944616E0,1.2755905E0,4.1802177E-1,5.3070154E-2,5.0491657E0,7.3400694E-1,2.79E2,8.266666E0,8.0033705E-2,7.0948906E0,1.0333333E1,7.5377196E-1,3.035556E-1,1.12E1,1.05735354E-1,8.3270565E-2,-1.9857375E-2,-1.350967E-1,-2.8052961E-2,1.7982924E-1,1.7330474E-1,-7.452402E-3,2.966325E-2,1.1822732E-1,-6.0011294E-2,1.3217891E-2,1.572968E-2,-5.4617643E-2,-1.947515E-2,-1.303787E-1,1.3787773E-1,1.1766746E-2,2.1900615E-2,-4.5200024E-2,-3.3654314E-2,-9.714077E-2,1.4104389E-1,-2.3324734E-2,1.8599007E-1,3.1036843E-2,-1.1801108E-2,-1.821974E-1,-1.1077719E-1,-2.7230463E-3,1.0374802E-1,-7.279423E-2],"split_indices":[55,103,95,80,27,68,77,111,47,93,41,100,26,67,47,41,119,0,99,26,91,75,9,94,113,23,81,77,32,109,94,0,0,0,0,0,0,0,0,0,0,0,0,0,0,0,0,0,0,0,0,0,0,0,0,0,0,0,0,0,0],"split_type":[0,0,0,0,0,0,0,0,0,0,0,0,0,0,0,0,0,0,0,0,0,0,0,0,0,0,0,0,0,0,0,0,0,0,0,0,0,0,0,0,0,0,0,0,0,0,0,0,0,0,0,0,0,0,0,0,0,0,0,0,0],"sum_hessian":[5.964E3,2.635E3,3.329E3,8.5E1,2.55E3,2.179E3,1.15E3,4E1,4.5E1,1.811E3,7.39E2,7.88E2,1.391E3,9.61E2,1.89E2,2.1E1,1.9E1,9E0,3.6E1,1.169E3,6.42E2,6.86E2,5.3E1,2.64E2,5.24E2,1.337E3,5.4E1,7.79E2,1.82E2,1.35E2,5.4E1,9E0,1.2E1,7E0,1.2E1,2.1E1,1.5E1,1.09E3,7.9E1,1.03E2,5.39E2,5.28E2,1.58E2,1.5E1,3.8E1,7.4E1,1.9E2,1.65E2,3.59E2,1.17E3,1.67E2,2.8E1,2.6E1,2.6E1,7.53E2,1.59E2,2.3E1,1.02E2,3.3E1,3E1,2.4E1],"tree_param":{"num_deleted":"0","num_feature":"124","num_nodes":"61","size_leaf_vector":"1"}},{"base_weights":[-2.4992643E-2,4.430609E-1,-2.3311007E-1,1.1723776E0,2.8438523E-1,-8.753936E-1,-6.5830804E-2,1.0068185E0,4.806573E0,8.910707E-1,3.9778676E-2,-9.644275E-1,2.2397113E0,-9.5293544E-2,3.6224968E0,1.741478E0,5.1193938E-2,3.7956953E-1,-7.7541578E-3,2.1453247E0,2.734358E-1,7.0645463E-1,-2.6162496E-1,2.0975497E-1,-1.1291413E0,2.3442459E-1,4.5121008E-1,-2.2663468E-1,6.1213666E-1,5.4210396E0,-1.00970566E-1,2.577597E-1,6.859407E-2,7.821611E-2,-5.1583905E-2,2.7042506E-2,1.7370854E-1,-2.6509006E-2,5.352025E-2,6.0190775E-2,-1.841532E-2,-1.571046E-2,2.2981635E-1,-1.2061292E-2,2.4789564E-1,5.1375028E-2,-6.181342E-2,1.0544045E-1,-8.650808E-2,3.3259526E-2,-1.7773567E-2,5.0537657E-2,-6.958305E-2,4.098772E-1,1.6438632E-1],"categories":[],"categories_nodes":[],"categories_segments":[],"categories_sizes":[],"default_left":[0,0,0,0,0,0,0,0,1,0,0,0,0,0,0,0,0,0,0,0,1,0,0,1,0,0,0,0,0,0,0,0,0,0,0,0,0,0,0,0,0,0,0,0,0,0,0,0,0,0,0,0,0,0,0],"id":21,"left_children":[1,3,5,7,9,11,13,15,17,19,21,23,25,27,29,31,33,-1,-1,35,37,39,41,43,45,-1,47,49,51,53,-1,-1,-1,-1,-1,-1,-1,-1,-1,-1,-1,-1,-1,-1,-1,-1,-1,-1,-1,-1,-1,-1,-1,-1,-1],"loss_changes":[5.8171796E2,2.1222311E2,4.4400818E2,1.9192838E2,2.2410274E2,2.3888922E2,3.56533E2,2.2088007E2,1.9536319E2,3.353788E2,2.1684108E2,1.6104749E2,1.02482086E2,3.026304E2,2.7511502E2,2.1685712E2,2.2778348E2,0E0,0E0,3.026098E2,1.8763503E2,1.8013371E2,1.9081654E2,2.2222446E2,1.6971558E2,0E0,5.7924034E1,3.1583505E2,4.087295E2,9.036328E1,0E0,0E0,0E0,0E0,0E0,0E0,0E0,0E0,0E0,0E0,0E0,0E0,0E0,0E0,0E0,0E0,0E0,0E0,0E0,0E0,0E0,0E0,0E0,0E0,0E0],"parents":[2147483647,0,0,1,1,2,2,3,3,4,4,5,5,6,6,7,7,8,8,9,9,10,10,11,11,12,12,13,13,14,14,15,15,16,16,19,19,20,20,21,21,22,22,23,23,24,24,26,26,27,27,28,28,29,29],"right_children":[2,4,6,8,10,12,14,16,18,20,22,24,26,28,30,32,34,-1,-1,36,38,40,42,44,46,-1,48,50,52,54,-1,-1,-1,-1,-1,-1,-1,-1,-1,-1,-1,-1,-1,-1,-1,-1,-1,-1,-1,-1,-1,-1,-1,-1,-1],"split_conditions":[8.386E0,6.8666664E1,7.01E1,7.892234E-2,3.519767E-2,2.4957591E-1,2.9297727E-1,3.824E0,1E-1,7.6E0,1.2457767E-2,8.085956E0,8.259608E-2,1.1447577E0,7.5988823E-1,-3.83E-1,-4.9433196E-3,3.7956953E-1,-7.7541578E-3,4.280752E0,3.457317E0,2.6044446E2,1.1780733E0,1.134E1,1.83029E0,2.3442459E-1,3E-1,7.15259E-1,1.1343055E1,4.59375E0,-1.00970566E-1,2.577597E-1,6.859407E-2,7.821611E-2,-5.1583905E-2,2.7042506E-2,1.7370854E-1,-2.6509006E-2,5.352025E-2,6.0190775E-2,-1.841532E-2,-1.571046E-2,2.2981635E-1,-1.2061292E-2,2.4789564E-1,5.1375028E-2,-6.181342E-2,1.0544045E-1,-8.650808E-2,3.3259526E-2,-1.7773567E-2,5.0537657E-2,-6.958305E-2,4.098772E-1,1.6438632E-1],"split_indices":[55,75,46,99,108,52,63,54,48,5,100,42,79,44,91,56,106,0,0,13,111,75,44,118,122,0,48,81,42,29,0,0,0,0,0,0,0,0,0,0,0,0,0,0,0,0,0,0,0,0,0,0,0,0,0],"split_type":[0,0,0,0,0,0,0,0,0,0,0,0,0,0,0,0,0,0,0,0,0,0,0,0,0,0,0,0,0,0,0,0,0,0,0,0,0,0,0,0,0,0,0,0,0,0,0,0,0,0,0,0,0,0,0],"sum_hessian":[5.97E3,1.837E3,4.133E3,3.27E2,1.51E3,8.53E2,3.28E3,3.14E2,1.3E1,4.33E2,1.077E3,8.3E2,2.3E1,3.255E3,2.5E1,1.77E2,1.37E2,8E0,5E0,1.42E2,2.91E2,3.35E2,7.42E2,1.02E2,7.28E2,9E0,1.4E1,2.746E3,5.09E2,1.9E1,6E0,1.6E1,1.61E2,5.7E1,8E1,6.5E1,7.7E1,1.45E2,1.46E2,2.29E2,1.06E2,7.35E2,7E0,9.4E1,8E0,3.4E1,6.94E2,8E0,6E0,3.46E2,2.4E3,4.25E2,8.4E1,7E0,1.2E1],"tree_param":{"num_deleted":"0","num_feature":"124","num_nodes":"55","size_leaf_vector":"1"}},{"base_weights":[1.4567158E-2,3.1694528E-1,-2.2862813E-1,2.6115644E-1,1.682445E0,-4.1431332E-1,5.42702E-1,4.4458976E-1,-1.4049125E-1,-1.7623205E0,2.3769662E0,7.063622E-1,-5.1310843E-1,-2.8285663E0,6.729087E-1,3.374801E-1,1.8604538E0,-1.9831653E-1,4.021353E0,7.91128E-2,-3.1781003E0,4.8363442E0,1.1879736E0,1.4539292E0,-7.765969E-1,1.3688442E0,-5.6022066E-1,-3.8918223E-2,-4.0001297E0,9.1172165E-1,-8.549228E-1,2.9633803E-2,-7.773494E-3,2.1738458E-1,4.684726E-2,7.6883346E-2,-1.5138112E-2,7.2305605E-2,2.9548505E-1,-8.3359145E-2,-2.1103589E-1,1.0922717E-1,3.662482E-1,2.7743062E-1,3.4442496E-2,9.403405E-2,-8.161303E-2,1.5967626E-2,-1.1807181E-1,-9.7006224E-2,1.21013604E-1,-2.3989506E-2,-9.1414995E-2,-1.0932197E-1,-2.3391655E-1,3.8614858E-2,1.921978E-1,-1.03569224E-1,7.600693E-2],"categories":[],"categories_nodes":[],"categories_segments":[],"categories_sizes":[],"default_left":[0,1,0,0,1,0,0,0,0,0,0,0,0,0,0,0,1,0,0,0,0,0,0,0,0,0,0,0,1,0,0,0,0,0,0,0,0,0,0,0,0,0,0,0,0,0,0,0,0,0,0,0,0,0,0,0,0,0,0],"id":22,"left_children":[1,3,5,7,9,11,13,15,17,19,21,23,25,27,29,31,33,35,37,-1,39,41,43,45,47,49,51,-1,53,55,57,-1,-1,-1,-1,-1,-1,-1,-1,-1,-1,-1,-1,-1,-1,-1,-1,-1,-1,-1,-1,-1,-1,-1,-1,-1,-1,-1,-1],"loss_changes":[4.381408E2,2.016994E2,4.731396E2,1.881866E2,2.5306656E2,2.950724E2,2.8306226E2,2.649996E2,1.9318367E2,9.042146E1,2.4805597E2,2.4065688E2,2.1764441E2,5.4055206E1,2.2627231E2,2.0531377E2,2.7792722E2,1.4376303E2,4.42108E1,0E0,1.2853531E1,1.6782837E2,1.2614398E2,1.9274796E2,1.2775231E2,2.1349216E2,2.4244958E2,0E0,7.5353394E0,2.1529126E2,2.458943E2,0E0,0E0,0E0,0E0,0E0,0E0,0E0,0E0,0E0,0E0,0E0,0E0,0E0,0E0,0E0,0E0,0E0,0E0,0E0,0E0,0E0,0E0,0E0,0E0,0E0,0E0,0E0,0E0],"parents":[2147483647,0,0,1,1,2,2,3,3,4,4,5,5,6,6,7,7,8,8,9,9,10,10,11,11,12,12,13,13,14,14,15,15,16,16,17,17,18,18,20,20,21,21,22,22,23,23,24,24,25,25,26,26,28,28,29,29,30,30],"right_children":[2,4,6,8,10,12,14,16,18,20,22,24,26,28,30,32,34,36,38,-1,40,42,44,46,48,50,52,-1,54,56,58,-1,-1,-1,-1,-1,-1,-1,-1,-1,-1,-1,-1,-1,-1,-1,-1,-1,-1,-1,-1,-1,-1,-1,-1,-1,-1,-1,-1],"split_conditions":[8.739E0,9.4921875E0,1.1352546E0,4.5829225E0,1.1758064E1,-2.4100825E-2,2.36E2,9.440726E0,8.4945476E-1,9.0056664E-1,3.1401804E-1,9.461E-2,6.1903334E-1,4.074074E-1,1.16E1,7.717011E-1,6.27907E-1,3.090909E0,4.402174E-1,7.91128E-2,8.566667E0,3.672544E0,8E0,9.0230435E-2,6.086956E-1,2.691192E-2,1.0659E1,-3.8918223E-2,1.069307E0,1.1222222E1,2.2989006E-1,2.9633803E-2,-7.773494E-3,2.1738458E-1,4.684726E-2,7.6883346E-2,-1.5138112E-2,7.2305605E-2,2.9548505E-1,-8.3359145E-2,-2.1103589E-1,1.0922717E-1,3.662482E-1,2.7743062E-1,3.4442496E-2,9.403405E-2,-8.161303E-2,1.5967626E-2,-1.1807181E-1,-9.7006224E-2,1.21013604E-1,-2.3989506E-2,-9.1414995E-2,-1.0932197E-1,-2.3391655E-1,3.8614858E-2,1.921978E-1,-1.03569224E-1,7.600693E-2],"split_indices":[55,111,44,27,121,103,57,43,81,44,77,60,65,10,32,96,119,28,119,0,23,11,47,79,10,103,55,0,117,32,80,0,0,0,0,0,0,0,0,0,0,0,0,0,0,0,0,0,0,0,0,0,0,0,0,0,0,0,0],"split_type":[0,0,0,0,0,0,0,0,0,0,0,0,0,0,0,0,0,0,0,0,0,0,0,0,0,0,0,0,0,0,0,0,0,0,0,0,0,0,0,0,0,0,0,0,0,0,0,0,0,0,0,0,0,0,0,0,0,0,0],"sum_hessian":[5.956E3,2.655E3,3.301E3,2.552E3,1.03E2,2.661E3,6.4E2,1.752E3,8E2,1.7E1,8.6E1,2.15E2,2.446E3,2.3E1,6.17E2,1.63E3,1.22E2,7.9E2,1E1,5E0,1.2E1,2.7E1,5.9E1,1.43E2,7.2E1,5.9E1,2.387E3,9E0,1.4E1,5.34E2,8.3E1,1.074E3,5.56E2,3.2E1,9E1,4.4E1,7.46E2,5E0,5E0,6E0,6E0,1.4E1,1.3E1,5E0,5.4E1,1.26E2,1.7E1,4.3E1,2.9E1,1.4E1,4.5E1,2.246E3,1.41E2,5E0,9E0,5.11E2,2.3E1,5.5E1,2.8E1],"tree_param":{"num_deleted":"0","num_feature":"124","num_nodes":"59","size_leaf_vector":"1"}},{"base_weights":[-3.743096E-3,2.4585147E-1,-2.70525E-1,5.1153773E-1,-2.757916E-1,-1.2999117E-1,-1.1943753E0,-1.0520291E-1,7.6734865E-1,-1.0457107E0,-2.3538023E-2,-2.1899024E-1,1.271206E0,-4.024747E0,-9.857846E-1,-1.467517E0,1.9693369E-1,4.8627064E-1,1.399093E0,2.2348573E0,-1.2145433E0,3.9703684E0,-9.54137E-2,-1.9479075E-1,-4.596898E0,7.6686835E-1,4.189056E0,-9.884468E-2,-4.669909E0,-1.7909919E0,-2.6763892E-1,3.812841E-2,-9.863378E-2,1.18089914E-1,-2.5417719E-3,1.9330887E-2,1.8088382E-1,3.65783E-1,6.2354047E-2,3.0684826E-1,-4.7929045E-2,-7.7580884E-2,3.1020358E-2,-4.4302315E-2,3.3889684E-1,2.1275964E-2,-2.2509845E-2,-3.8461294E-3,-4.4574387E-2,-1.24398604E-1,-3.3129916E-1,-4.2186286E-2,8.764147E-2,1.05919324E-1,4.154646E-1,-1.6913335E-1,-3.0022666E-1,-9.902086E-2,8.9275196E-2,1.9579881E-1,-2.4829341E-2],"categories":[],"categories_nodes":[],"categories_segments":[],"categories_sizes":[],"default_left":[0,0,0,0,0,1,0,0,0,0,0,0,0,0,0,1,0,0,0,0,0,0,0,0,0,0,0,0,0,0,0,0,0,0,0,0,0,0,0,0,0,0,0,0,0,0,0,0,0,0,0,0,0,0,0,0,0,0,0,0,0],"id":23,"left_children":[1,3,5,7,9,11,13,15,17,19,21,23,25,27,29,31,33,35,37,39,41,43,45,47,49,51,53,-1,55,57,59,-1,-1,-1,-1,-1,-1,-1,-1,-1,-1,-1,-1,-1,-1,-1,-1,-1,-1,-1,-1,-1,-1,-1,-1,-1,-1,-1,-1,-1,-1],"loss_changes":[4.0085806E2,4.3119003E2,3.775241E2,3.2530884E2,2.0379407E2,3.153033E2,2.2224072E2,2.4943707E2,2.5784998E2,1.4606384E2,2.2734657E2,2.5045227E2,2.185008E2,2.445456E1,2.0690878E2,1.25545425E2,2.6639893E2,3.1337512E2,3.9294727E2,1.6839545E2,1.5382886E2,1.9748085E2,1.4416745E2,1.9404456E2,3.823282E1,2.0800757E2,1.6905112E2,0E0,1.1391632E1,1.1804944E2,1.8454819E2,0E0,0E0,0E0,0E0,0E0,0E0,0E0,0E0,0E0,0E0,0E0,0E0,0E0,0E0,0E0,0E0,0E0,0E0,0E0,0E0,0E0,0E0,0E0,0E0,0E0,0E0,0E0,0E0,0E0,0E0],"parents":[2147483647,0,0,1,1,2,2,3,3,4,4,5,5,6,6,7,7,8,8,9,9,10,10,11,11,12,12,13,13,14,14,15,15,16,16,17,17,18,18,19,19,20,20,21,21,22,22,23,23,24,24,25,25,26,26,28,28,29,29,30,30],"right_children":[2,4,6,8,10,12,14,16,18,20,22,24,26,28,30,32,34,36,38,40,42,44,46,48,50,52,54,-1,56,58,60,-1,-1,-1,-1,-1,-1,-1,-1,-1,-1,-1,-1,-1,-1,-1,-1,-1,-1,-1,-1,-1,-1,-1,-1,-1,-1,-1,-1,-1,-1],"split_conditions":[4.443E0,8.73606E-2,4.9183674E0,7.05E1,5.625E-1,9.06E1,1.1E2,1.4120065E1,1.5416838E-3,1.971565E-1,5.9E0,5.954E0,1.44E2,3.151205E-1,4.818182E0,6.8E0,3.5616438E0,8.17E-1,7.652174E0,1.4210526E0,6.191083E0,1.18E2,3.210147E-1,9.170018E-2,6.703E-1,5.037037E0,6E0,-9.884468E-2,9.700046E0,1.1362157E1,3.1450108E-1,3.812841E-2,-9.863378E-2,1.18089914E-1,-2.5417719E-3,1.9330887E-2,1.8088382E-1,3.65783E-1,6.2354047E-2,3.0684826E-1,-4.7929045E-2,-7.7580884E-2,3.1020358E-2,-4.4302315E-2,3.3889684E-1,2.1275964E-2,-2.2509845E-2,-3.8461294E-3,-4.4574387E-2,-1.24398604E-1,-3.3129916E-1,-4.2186286E-2,8.764147E-2,1.05919324E-1,4.154646E-1,-1.6913335E-1,-3.0022666E-1,-9.902086E-2,8.9275196E-2,1.9579881E-1,-2.4829341E-2],"split_indices":[53,109,28,46,114,46,1,123,107,95,32,54,1,77,14,2,28,58,110,111,11,0,92,103,58,115,111,0,42,43,92,0,0,0,0,0,0,0,0,0,0,0,0,0,0,0,0,0,0,0,0,0,0,0,0,0,0,0,0,0,0],"split_type":[0,0,0,0,0,0,0,0,0,0,0,0,0,0,0,0,0,0,0,0,0,0,0,0,0,0,0,0,0,0,0,0,0,0,0,0,0,0,0,0,0,0,0,0,0,0,0,0,0,0,0,0,0,0,0,0,0,0,0,0,0],"sum_hessian":[6.018E3,3.109E3,2.909E3,2.06E3,1.049E3,2.526E3,3.83E2,6.04E2,1.456E3,2.58E2,7.91E2,2.376E3,1.5E2,2.5E1,3.58E2,1.09E2,4.95E2,1.009E3,4.47E2,1.2E1,2.46E2,1.3E1,7.78E2,2.364E3,1.2E1,1.29E2,2.1E1,7E0,1.8E1,1.68E2,1.9E2,2E1,8.9E1,5E1,4.45E2,9.79E2,3E1,1E1,4.37E2,5E0,7E0,2.08E2,3.8E1,5E0,8E0,3.15E2,4.63E2,2.023E3,3.41E2,7E0,5E0,4.9E1,8E1,1.5E1,6E0,1.1E1,7E0,1.6E2,8E0,9E0,1.81E2],"tree_param":{"num_deleted":"0","num_feature":"124","num_nodes":"61","size_leaf_vector":"1"}},{"base_weights":[1.2324104E-2,8.8484496E-2,-1.0654609E0,3.754338E-2,1.2489232E0,-1.35145E0,1.5039786E0,4.684187E-1,-9.096281E-2,1.0435643E0,3.139324E-1,1.5880172E0,-1.569026E0,3.736837E0,-4.882162E-1,1.6028812E-2,8.583524E-1,-4.4971894E-2,-1.3009953E0,3.4426267E0,7.291129E-1,3.5603538E0,-1.1514212E-1,-1.8202475E0,1.1151251E0,3.0251172E-1,1.4952539E0,-2.397152E0,1.2621872E-1,1.2559058E-2,-7.145543E-2,1.1928716E-2,7.125259E-2,-2.8172769E-3,2.7961606E-1,4.9818885E-2,-9.280395E-2,7.608663E-2,3.7809607E-1,1.1777084E-1,1.7477268E-2,2.3592392E-1,3.170229E-2,-7.409715E-2,-1.532086E-1,1.9230588E-1,-3.8096625E-2,1.880704E-1,-5.0172128E-2,-1.6764687E-1,-4.740448E-2],"categories":[],"categories_nodes":[],"categories_segments":[],"categories_sizes":[],"default_left":[0,1,0,0,0,0,0,0,0,0,0,0,0,0,0,0,1,0,1,0,0,0,0,0,0,0,1,0,0,0,0,0,0,0,0,0,0,0,0,0,0,0,0,0,0,0,0,0,0,0,0],"id":24,"left_children":[1,3,5,7,9,11,13,15,17,19,-1,21,23,25,27,29,31,33,35,37,39,41,-1,43,45,-1,47,49,-1,-1,-1,-1,-1,-1,-1,-1,-1,-1,-1,-1,-1,-1,-1,-1,-1,-1,-1,-1,-1,-1,-1],"loss_changes":[4.912725E2,3.3033105E2,2.9227582E2,2.966982E2,2.3544672E2,2.3017224E2,1.800808E2,2.1704974E2,2.2947653E2,1.6831897E2,0E0,2.001768E2,2.2597345E2,8.872659E1,1.3255711E2,1.9428265E2,2.3165533E2,2.5475308E2,1.9449568E2,1.9331537E2,1.235992E2,5.4086487E1,0E0,1.22935425E2,1.5189955E2,0E0,6.63369E1,1.5780899E1,0E0,0E0,0E0,0E0,0E0,0E0,0E0,0E0,0E0,0E0,0E0,0E0,0E0,0E0,0E0,0E0,0E0,0E0,0E0,0E0,0E0,0E0,0E0],"parents":[2147483647,0,0,1,1,2,2,3,3,4,4,5,5,6,6,7,7,8,8,9,9,11,11,12,12,13,13,14,14,15,15,16,16,17,17,18,18,19,19,20,20,21,21,23,23,24,24,26,26,27,27],"right_children":[2,4,6,8,10,12,14,16,18,20,-1,22,24,26,28,30,32,34,36,38,40,42,-1,44,46,-1,48,50,-1,-1,-1,-1,-1,-1,-1,-1,-1,-1,-1,-1,-1,-1,-1,-1,-1,-1,-1,-1,-1,-1,-1],"split_conditions":[1.0479E1,9.17E1,5.7102804E0,7.213738E-1,3E0,1.1558699E1,7.698646E-1,7.684667E-2,2.1241397E-1,-7.6185265E-3,3.139324E-1,7.2180253E-1,7.7370965E-1,4.670132E0,4.2390174E-1,9.827272E0,6.68E1,4.7040096E-1,1.3963898E1,9.866667E0,3.351516E-2,1.0466666E1,-1.1514212E-1,9.148667E-2,1.0133333E1,3.0251172E-1,4.4444447E0,5.080139E0,1.2621872E-1,1.2559058E-2,-7.145543E-2,1.1928716E-2,7.125259E-2,-2.8172769E-3,2.7961606E-1,4.9818885E-2,-9.280395E-2,7.608663E-2,3.7809607E-1,1.1777084E-1,1.7477268E-2,2.3592392E-1,3.170229E-2,-7.409715E-2,-1.532086E-1,1.9230588E-1,-3.8096625E-2,1.880704E-1,-5.0172128E-2,-1.6764687E-1,-4.740448E-2],"split_indices":[55,46,14,96,16,123,82,67,49,101,0,83,76,26,93,40,46,78,123,110,104,9,0,61,9,0,115,11,0,0,0,0,0,0,0,0,0,0,0,0,0,0,0,0,0,0,0,0,0,0,0],"split_type":[0,0,0,0,0,0,0,0,0,0,0,0,0,0,0,0,0,0,0,0,0,0,0,0,0,0,0,0,0,0,0,0,0,0,0,0,0,0,0,0,0,0,0,0,0,0,0,0,0,0,0],"sum_hessian":[5.984E3,5.59E3,3.94E2,5.356E3,2.34E2,3.55E2,3.9E1,1.23E3,4.126E3,2.26E2,8E0,2.4E1,3.31E2,1.8E1,2.1E1,5.7E2,6.6E2,3.976E3,1.5E2,2.5E1,2.01E2,1.6E1,8E0,3.03E2,2.8E1,8E0,1E1,1.3E1,8E0,4.91E2,7.9E1,3.16E2,3.44E2,3.969E3,7E0,2.9E1,1.21E2,1.8E1,7E0,3.7E1,1.64E2,1.1E1,5E0,2.4E2,6.3E1,1.1E1,1.7E1,5E0,5E0,7E0,6E0],"tree_param":{"num_deleted":"0","num_feature":"124","num_nodes":"51","size_leaf_vector":"1"}},{"base_weights":[2.039189E-2,5.0457144E-1,-1.17764644E-1,1.9232413E-1,1.2556173E0,-1.7608383E-1,9.701971E-1,-3.1281984E-1,6.0464764E-1,3.246965E0,6.8967783E-1,4.0253714E-2,-4.4829E-1,5.075671E-1,3.3033552E0,6.412516E-1,-7.019825E-1,3.7141192E0,4.8507842E-1,4.556817E0,2.122214E-1,1.4623423E0,-5.9874463E-1,2.2097951E-1,-5.0329584E-1,-2.8000605E-1,-1.0730661E0,3.127614E-1,3.266726E-1,3.446432E-1,1.993407E0,1.1451057E-2,2.2134827E-1,-1.4648785E-1,-2.1748986E-2,3.053792E-1,1.0659684E-1,2.9806718E-1,2.0875875E-2,3.224934E-1,1.347857E-1,2.9198414E-1,-6.638208E-2,5.6050625E-2,2.845256E-1,-4.7783308E-2,1.8500356E-1,1.401455E-2,-1.0290726E-1,-1.1886771E-2,-9.857929E-2,-1.6023584E-2,1.4072487E-1,-1.05736814E-1,-3.6985572E-2,1.2177553E-1,-6.7985145E-4,1.3056341E-1,-4.4829078E-2],"categories":[],"categories_nodes":[],"categories_segments":[],"categories_sizes":[],"default_left":[0,0,1,0,0,0,0,0,0,0,1,0,0,0,0,0,0,0,0,0,0,1,0,0,0,0,0,0,0,0,1,0,0,0,0,0,0,0,0,0,0,0,0,0,0,0,0,0,0,0,0,0,0,0,0,0,0,0,0],"id":25,"left_children":[1,3,5,7,9,11,13,15,17,19,21,23,25,27,29,31,33,35,37,39,41,43,45,47,49,51,53,-1,55,-1,57,-1,-1,-1,-1,-1,-1,-1,-1,-1,-1,-1,-1,-1,-1,-1,-1,-1,-1,-1,-1,-1,-1,-1,-1,-1,-1,-1,-1],"loss_changes":[4.004501E2,3.1128018E2,2.9557364E2,1.9600409E2,4.3689008E2,2.6040454E2,2.537574E2,1.5751147E2,1.9036935E2,3.4041156E2,3.04595E2,2.4213017E2,2.0542795E2,2.042027E2,1.6875186E2,1.9047266E2,1.7743059E2,5.810614E1,1.8186398E2,1.9308813E2,2.4217323E2,2.6859094E2,1.7971066E2,2.5047882E2,2.3911096E2,1.9399374E2,1.4225723E2,0E0,1.3948459E2,0E0,5.6081E1,0E0,0E0,0E0,0E0,0E0,0E0,0E0,0E0,0E0,0E0,0E0,0E0,0E0,0E0,0E0,0E0,0E0,0E0,0E0,0E0,0E0,0E0,0E0,0E0,0E0,0E0,0E0,0E0],"parents":[2147483647,0,0,1,1,2,2,3,3,4,4,5,5,6,6,7,7,8,8,9,9,10,10,11,11,12,12,13,13,14,14,15,15,16,16,17,17,18,18,19,19,20,20,21,21,22,22,23,23,24,24,25,25,26,26,28,28,30,30],"right_children":[2,4,6,8,10,12,14,16,18,20,22,24,26,28,30,32,34,36,38,40,42,44,46,48,50,52,54,-1,56,-1,58,-1,-1,-1,-1,-1,-1,-1,-1,-1,-1,-1,-1,-1,-1,-1,-1,-1,-1,-1,-1,-1,-1,-1,-1,-1,-1,-1,-1],"split_conditions":[7.2202814E-1,4.274194E0,9.11E1,2.2214685E-1,7.8419425E-2,4.5607786E0,1.49E1,3.125E0,6.798616E-1,5.9238467E-2,1.18E1,5.769231E-1,1.0761232E-1,5.733E-1,-7.6185265E-3,6.3703704E0,6.212E-1,2.368E3,4.04E-2,2.3353E-1,3.3784335E0,1.5321654E1,5.875E0,6.946602E0,9.948895E0,1.0844916E-1,3.3333334E-1,3.127614E-1,2.1673186E-2,3.446432E-1,6.3703704E0,1.1451057E-2,2.2134827E-1,-1.4648785E-1,-2.1748986E-2,3.053792E-1,1.0659684E-1,2.9806718E-1,2.0875875E-2,3.224934E-1,1.347857E-1,2.9198414E-1,-6.638208E-2,5.6050625E-2,2.845256E-1,-4.7783308E-2,1.8500356E-1,1.401455E-2,-1.0290726E-1,-1.1886771E-2,-9.857929E-2,-1.6023584E-2,1.4072487E-1,-1.05736814E-1,-3.6985572E-2,1.2177553E-1,-6.7985145E-4,1.3056341E-1,-4.4829078E-2],"split_indices":[96,28,46,80,79,27,47,17,81,104,47,10,104,64,101,120,58,57,60,63,12,121,17,12,41,105,20,0,104,0,115,0,0,0,0,0,0,0,0,0,0,0,0,0,0,0,0,0,0,0,0,0,0,0,0,0,0,0,0],"split_type":[0,0,0,0,0,0,0,0,0,0,0,0,0,0,0,0,0,0,0,0,0,0,0,0,0,0,0,0,0,0,0,0,0,0,0,0,0,0,0,0,0,0,0,0,0,0,0,0,0,0,0,0,0,0,0,0,0,0,0],"sum_hessian":[5.984E3,1.328E3,4.656E3,9.39E2,3.89E2,4.42E3,2.36E2,4.22E2,5.17E2,8.5E1,3.04E2,2.463E3,1.957E3,1.98E2,3.8E1,1.22E2,3E2,1.8E1,4.99E2,5.9E1,2.6E1,1.9E2,1.14E2,1.849E3,6.14E2,1.543E3,4.14E2,5E0,1.93E2,9E0,2.9E1,1.11E2,1.1E1,3.1E1,2.69E2,6E0,1.2E1,5E0,4.94E2,2.8E1,3.1E1,5E0,2.1E1,1.77E2,1.3E1,1.06E2,8E0,1.803E3,4.6E1,5.21E2,9.3E1,1.524E3,1.9E1,9.9E1,3.15E2,2.6E1,1.67E2,2.4E1,5E0],"tree_param":{"num_deleted":"0","num_feature":"124","num_nodes":"59","size_leaf_vector":"1"}},{"base_weights":[8.615805E-3,5.886693E-2,-1.3259757E0,-3.7789455E-1,1.8931442E-1,1.6242416E0,-1.667663E0,4.9803755E-1,-5.71037E-1,1.1410407E0,1.0401771E-1,-8.3655363E-1,3.5892036E0,-2.0764713E0,7.4056655E-1,8.533595E-1,-1.8350978E0,-4.489141E-1,-1.7578117E0,1.7845851E0,-6.050948E-1,4.47294E-1,-7.511788E-2,-8.717551E-2,9.658096E-3,2.290697E-1,8.25708E-2,-2.5347557E0,-3.3563817E-1,-1.6274498E0,2.7725456E0,1.6550784E-1,2.7304424E-2,9.241633E-2,-1.2946868E-1,2.0108001E-1,-2.4252603E-2,1.1640795E-1,-1.0439588E-1,-1.608728E-1,9.859666E-2,-4.8847552E-2,1.3960607E-1,5.211894E-2,1.9943335E-3,-4.9566473E-3,2.2481301E-1,4.473167E-2,-1.3968866E-1,-1.2263389E-1,5.5925436E-2,5.1692273E-2,-1.615965E-1,2.1466827E-1,3.512774E-2],"categories":[],"categories_nodes":[],"categories_segments":[],"categories_sizes":[],"default_left":[0,0,0,0,0,0,0,1,0,0,0,0,0,1,0,0,0,0,0,0,0,0,0,0,0,0,0,0,1,0,1,0,0,0,0,0,0,0,0,0,0,0,0,0,0,0,0,0,0,0,0,0,0,0,0],"id":26,"left_children":[1,3,5,7,9,11,13,15,17,19,21,23,25,27,29,31,33,35,37,39,41,43,45,-1,-1,-1,-1,47,49,51,53,-1,-1,-1,-1,-1,-1,-1,-1,-1,-1,-1,-1,-1,-1,-1,-1,-1,-1,-1,-1,-1,-1,-1,-1],"loss_changes":[4.0106546E2,3.285103E2,2.2146024E2,2.2462393E2,3.6019208E2,1.1449131E2,1.9364972E2,2.0043124E2,1.5653165E2,4.11354E2,2.507163E2,1.0764795E1,1.680545E1,1.3209418E2,1.4416771E2,1.555814E2,9.376629E1,1.6105208E2,1.410661E2,2.564319E2,1.27610596E2,3.3878403E2,2.941119E2,0E0,0E0,0E0,0E0,1.199411E2,1.1370226E2,6.3341057E1,4.6853416E1,0E0,0E0,0E0,0E0,0E0,0E0,0E0,0E0,0E0,0E0,0E0,0E0,0E0,0E0,0E0,0E0,0E0,0E0,0E0,0E0,0E0,0E0,0E0,0E0],"parents":[2147483647,0,0,1,1,2,2,3,3,4,4,5,5,6,6,7,7,8,8,9,9,10,10,11,11,12,12,13,13,14,14,15,15,16,16,17,17,18,18,19,19,20,20,21,21,22,22,27,27,28,28,29,29,30,30],"right_children":[2,4,6,8,10,12,14,16,18,20,22,24,26,28,30,32,34,36,38,40,42,44,46,-1,-1,-1,-1,48,50,52,54,-1,-1,-1,-1,-1,-1,-1,-1,-1,-1,-1,-1,-1,-1,-1,-1,-1,-1,-1,-1,-1,-1,-1,-1],"split_conditions":[1.0862E1,7.02E1,5.370166E0,7.736E0,8E0,2.361E3,9.58092E-2,9.470589E0,3.4344446E2,3.2082745E-1,3.3327546E-2,8.061667E-2,4.7058824E-1,1E0,1.1418E1,3.7415737E-1,7E0,5.6986667E-2,3.6333334E0,2.3955638E0,2.3356879E-1,7.446981E-1,8.415841E-1,-8.717551E-2,9.658096E-3,2.290697E-1,8.25708E-2,1.8597667E-1,2.6869748E0,2.3921568E0,7.4836955E0,1.6550784E-1,2.7304424E-2,9.241633E-2,-1.2946868E-1,2.0108001E-1,-2.4252603E-2,1.1640795E-1,-1.0439588E-1,-1.608728E-1,9.859666E-2,-4.8847552E-2,1.3960607E-1,5.211894E-2,1.9943335E-3,-4.9566473E-3,2.2481301E-1,4.473167E-2,-1.3968866E-1,-1.2263389E-1,5.5925436E-2,5.1692273E-2,-1.615965E-1,2.1466827E-1,3.512774E-2],"split_indices":[55,46,118,55,72,57,108,110,90,77,108,61,10,48,121,93,2,61,8,27,80,81,82,0,0,0,0,69,122,122,118,0,0,0,0,0,0,0,0,0,0,0,0,0,0,0,0,0,0,0,0,0,0,0,0],"split_type":[0,0,0,0,0,0,0,0,0,0,0,0,0,0,0,0,0,0,0,0,0,0,0,0,0,0,0,0,0,0,0,0,0,0,0,0,0,0,0,0,0,0,0,0,0,0,0,0,0,0,0,0,0,0,0],"sum_hessian":[5.98E3,5.764E3,2.16E2,1.325E3,4.439E3,2.2E1,1.94E2,2.39E2,1.086E3,3.64E2,4.075E3,1E1,1.2E1,1.66E2,2.8E1,2.08E2,3.1E1,9.86E2,1E2,2.66E2,9.8E1,1.397E3,2.678E3,5E0,5E0,7E0,5E0,1.31E2,3.5E1,1.3E1,1.5E1,2.2E1,1.86E2,5E0,2.6E1,7E0,9.79E2,7E0,9.3E1,9E0,2.57E2,8.9E1,9E0,5.67E2,8.3E2,2.665E3,1.3E1,9E0,1.22E2,1.4E1,2.1E1,5E0,8E0,8E0,7E0],"tree_param":{"num_deleted":"0","num_feature":"124","num_nodes":"55","size_leaf_vector":"1"}},{"base_weights":[-1.4016076E-2,3.806346E-2,-9.995403E-1,1.5016538E-1,-4.790936E-1,2.8582783E0,-1.1676363E0,2.736049E-1,-4.94961E-1,-5.3281105E-1,2.9455867E0,2.2190623E-1,4.279105E-2,-1.3883123E0,1.2495438E0,1.2299121E-2,5.508122E-1,8.6190306E-2,-9.071359E-1,-3.4020373E-1,-1.3488619E0,4.5368605E0,-2.2300627E-2,4.486056E-1,-1.7499701E0,7.8085564E-2,2.4647403E-1,1.2952951E-2,-2.3839464E-2,1.6534917E-2,6.547838E-2,1.827017E-2,-7.231753E-2,-5.0283413E-2,1.5358542E-1,4.190859E-2,-2.4692819E-2,-1.0610771E-1,8.4889475E-3,9.1480486E-2,3.2356504E-1,-7.293911E-2,8.8896506E-2,-1.13854244E-1,8.71797E-5,-9.512364E-2,5.3496506E-2],"categories":[],"categories_nodes":[],"categories_segments":[],"categories_sizes":[],"default_left":[0,0,0,0,0,0,0,1,0,0,0,0,0,0,0,0,1,0,0,0,1,0,0,1,0,0,0,0,0,0,0,0,0,0,0,0,0,0,0,0,0,0,0,0,0,0,0],"id":27,"left_children":[1,3,5,7,9,11,13,15,17,19,21,-1,-1,23,25,27,29,31,33,35,37,39,-1,41,43,45,-1,-1,-1,-1,-1,-1,-1,-1,-1,-1,-1,-1,-1,-1,-1,-1,-1,-1,-1,-1,-1],"loss_changes":[3.1188617E2,