{"learner":{"attributes":{"best_iteration":"7","best_score":"0.6778948072467313","scikit_learn":"{\"_estimator_type\": \"classifier\"}"},"feature_names":["away_team_id","home_team_id","h2h_avg_total_runs","home_avg_runs_scored_10g","home_avg_runs_allowed_10g","home_avg_total_runs_10g","home_win_pct_10g","home_avg_runs_scored_30g","home_avg_runs_allowed_30g","home_avg_total_runs_30g","home_win_pct_30g","home_bullpen_era_10g","home_bullpen_era_30g","home_bullpen_era_season","home_season_avg_scored","home_season_avg_allowed","home_days_rest","away_avg_runs_scored_10g","away_avg_runs_allowed_10g","away_avg_total_runs_10g","away_win_pct_10g","away_avg_runs_scored_30g","away_avg_runs_allowed_30g","away_avg_total_runs_30g","away_win_pct_30g","away_bullpen_era_10g","away_bullpen_era_30g","away_bullpen_era_season","away_season_avg_scored","away_season_avg_allowed","away_days_rest","combined_scoring_10g","combined_allowed_10g","home_offense_vs_away_pitching_10g","away_offense_vs_home_pitching_10g","combined_scoring_30g","combined_allowed_30g","home_offense_vs_away_pitching_30g","away_offense_vs_home_pitching_30g","combined_season_scoring","combined_season_allowed","combined_bullpen_era_10g","combined_bullpen_era_30g","combined_bullpen_era_season","park_factor","league_avg_total_runs_7d","league_avg_total_runs_30d","league_avg_total_runs_season","is_dome","temp_f","wind_mph","precip_mm","humidity_pct","dew_point_f","first_pitch_local_hour","is_night_game","home_dc_attack","home_dc_defense","away_dc_attack","away_dc_defense","dc_lambda_home","dc_lambda_away","dc_expected_total","dc_home_edge","dc_fit_n_games","home_rolling_ops_10g","home_rolling_ops_30g","home_rolling_bb_pct_10g","home_rolling_bb_pct_30g","home_rolling_k_pct_10g","home_rolling_k_pct_30g","away_rolling_ops_10g","away_rolling_ops_30g","away_rolling_bb_pct_10g","away_rolling_bb_pct_30g","away_rolling_k_pct_10g","away_rolling_k_pct_30g","home_lineup_confirmed","home_lineup_batters_known","home_lineup_batters_with_sample","home_lineup_low_pa_batters","home_lineup_platoon_adv_batters","home_lineup_avg_pre_pa","home_lineup_avg_ops","home_lineup_avg_obp","home_lineup_avg_slg","home_lineup_avg_bb_pct","home_lineup_avg_k_pct","home_lineup_top3_avg_ops","home_lineup_mid3_avg_ops","home_lineup_bottom3_avg_ops","home_lineup_std_ops","away_lineup_confirmed","away_lineup_batters_known","away_lineup_batters_with_sample","away_lineup_low_pa_batters","away_lineup_platoon_adv_batters","away_lineup_avg_pre_pa","away_lineup_avg_ops","away_lineup_avg_obp","away_lineup_avg_slg","away_lineup_avg_bb_pct","away_lineup_avg_k_pct","away_lineup_top3_avg_ops","away_lineup_mid3_avg_ops","away_lineup_bottom3_avg_ops","away_lineup_std_ops","home_lineup_delta_ops_30g","home_lineup_delta_bb_pct_30g","home_lineup_delta_k_pct_30g","home_lineup_top3_delta_ops_30g","home_lineup_depth_gap_ops","away_lineup_delta_ops_30g","away_lineup_delta_bb_pct_30g","away_lineup_delta_k_pct_30g","away_lineup_top3_delta_ops_30g","away_lineup_depth_gap_ops","home_bullpen_top2_quality_score","home_bullpen_top4_quality_score","home_bullpen_top2_used_yesterday","home_bullpen_top2_b2b","home_bullpen_top4_used_yesterday","home_bullpen_top4_b2b","home_bullpen_top4_available_score","home_bullpen_top4_burned_score","home_bullpen_top4_pitches_3d","away_bullpen_top2_quality_score","away_bullpen_top4_quality_score","away_bullpen_top2_used_yesterday","away_bullpen_top2_b2b","away_bullpen_top4_used_yesterday","away_bullpen_top4_b2b","away_bullpen_top4_available_score","away_bullpen_top4_burned_score","away_bullpen_top4_pitches_3d","ump_avg_total_runs","home_pitcher_era_3g","home_pitcher_whip_3g","home_pitcher_k9_3g","home_pitcher_hr9_3g","home_pitcher_ip_3g","home_pitcher_avg_pitches_3g","home_pitcher_prev_pitches","home_pitcher_avg_bf_3g","home_pitcher_prev_bf","home_pitcher_days_rest","home_pitcher_short_rest","home_pitcher_long_rest","home_pitcher_offseason_gap","home_pitcher_short_leash_score","home_pitcher_workhorse_score","home_pitcher_opener_flag","home_pitcher_bulk_flag","away_pitcher_era_3g","away_pitcher_whip_3g","away_pitcher_k9_3g","away_pitcher_hr9_3g","away_pitcher_ip_3g","away_pitcher_avg_pitches_3g","away_pitcher_prev_pitches","away_pitcher_avg_bf_3g","away_pitcher_prev_bf","away_pitcher_days_rest","away_pitcher_short_rest","away_pitcher_long_rest","away_pitcher_offseason_gap","away_pitcher_short_leash_score","away_pitcher_workhorse_score","away_pitcher_opener_flag","away_pitcher_bulk_flag","combined_pitcher_era","combined_pitcher_whip","combined_pitcher_k9","combined_pitcher_avg_pitches_3g","combined_pitcher_prev_pitches","combined_pitcher_avg_bf_3g","combined_pitcher_short_rest_flags","combined_pitcher_offseason_gap_flags","combined_pitcher_short_leash_score","combined_pitcher_workhorse_score","combined_pitcher_opener_flags","combined_pitcher_bulk_flags","point_prediction"],"feature_types":["int","int","float","float","float","float","float","float","float","float","float","float","float","float","float","float","float","float","float","float","float","float","float","float","float","float","float","float","float","float","float","float","float","float","float","float","float","float","float","float","float","float","float","float","float","float","float","float","int","float","float","float","float","float","float","float","float","float","float","float","float","float","float","float","int","float","float","float","float","float","float","float","float","float","float","float","float","float","float","float","float","float","float","float","float","float","float","float","float","float","float","float","float","float","float","float","float","float","float","float","float","float","float","float","float","float","float","float","float","float","float","float","float","float","float","float","float","float","float","float","float","float","float","float","float","float","float","float","float","float","float","float","float","float","float","float","float","float","float","float","float","float","float","float","float","float","float","float","float","float","float","float","float","float","float","float","float","float","float","float","float","float","float","float","float","float","float","float","float","float","float","float","float","float","float","float","float","float","float","float","float","float","float"],"gradient_booster":{"model":{"cats":{"enc":[],"feature_segments":[],"sorted_idx":[]},"gbtree_model_param":{"num_parallel_tree":"1","num_trees":"28"},"iteration_indptr":[0,1,2,3,4,5,6,7,8,9,10,11,12,13,14,15,16,17,18,19,20,21,22,23,24,25,26,27,28],"tree_info":[0,0,0,0,0,0,0,0,0,0,0,0,0,0,0,0,0,0,0,0,0,0,0,0,0,0,0,0],"trees":[{"base_weights":[1.1821299E-2,7.343314E-1,-8.1293684E-1,1.3006015E0,3.8059333E-1,-4.688171E-1,-1.3636541E0,1.7472564E0,1.1360819E0,-1.3425877E-2,6.989843E-1,2.0960338E-2,-7.088341E-1,-1.1566354E0,-8.025443E-2,9.3329124E-2,4.7490273E-2,1.0774839E-2,6.2215924E-2,1.2561043E-2,-2.0051856E-2,7.5992434E-3,4.264521E-2,5.1459145E-2,-6.559562E-3,-4.3411445E-2,-4.7742645E-3,-6.296457E-2,-2.2743497E-2],"categories":[],"categories_nodes":[],"categories_segments":[],"categories_sizes":[],"default_left":[0,0,0,0,0,0,0,1,0,0,0,0,0,0,0,0,0,0,0,0,0,0,0,0,0,0,0,0,0],"id":0,"left_children":[1,3,5,7,9,11,13,15,17,19,21,23,25,27,-1,-1,-1,-1,-1,-1,-1,-1,-1,-1,-1,-1,-1,-1,-1],"loss_changes":[8.709865E2,1.5476468E2,1.2768265E2,1.7393188E1,6.070816E1,4.9923668E1,8.787903E0,3.153839E0,2.1515625E1,2.2532148E1,2.2042694E1,2.205974E1,2.744461E1,9.188416E0,0E0,0E0,0E0,0E0,0E0,0E0,0E0,0E0,0E0,0E0,0E0,0E0,0E0,0E0,0E0],"parents":[2147483647,0,0,1,1,2,2,3,3,4,4,5,5,6,6,7,7,8,8,9,9,10,10,11,11,12,12,13,13],"right_children":[2,4,6,8,10,12,14,16,18,20,22,24,26,28,-1,-1,-1,-1,-1,-1,-1,-1,-1,-1,-1,-1,-1,-1,-1],"split_conditions":[8.682318E0,7.975931E0,9.576884E0,7.3602266E0,4.137E0,-9.240294E-2,1.0330367E1,2.1176472E0,3.149E0,8.3621E0,8.493E0,1.1459385E-3,9.752E0,5.8333335E0,-8.025443E-2,9.3329124E-2,4.7490273E-2,1.0774839E-2,6.2215924E-2,1.2561043E-2,-2.0051856E-2,7.5992434E-3,4.264521E-2,5.1459145E-2,-6.559562E-3,-4.3411445E-2,-4.7742645E-3,-6.296457E-2,-2.2743497E-2],"split_indices":[182,182,182,182,61,57,182,156,61,182,62,115,62,8,0,0,0,0,0,0,0,0,0,0,0,0,0,0,0],"split_type":[0,0,0,0,0,0,0,0,0,0,0,0,0,0,0,0,0,0,0,0,0,0,0,0,0,0,0,0,0],"sum_hessian":[1.4576644E3,7.772417E2,6.8042267E2,2.9656943E2,4.8067227E2,4.2126062E2,2.5916208E2,7.432572E1,2.222437E2,2.153979E2,2.6527438E2,1.3887175E2,2.8238885E2,1.4620653E2,1.1295554E2,6.21011E1,1.2224626E1,2.420476E1,1.9803894E2,1.2811407E2,8.728383E1,5.9411682E1,2.058627E2,1.6869984E1,1.2200176E2,2.2322166E2,5.916719E1,1.2591364E2,2.029288E1],"tree_param":{"num_deleted":"0","num_feature":"183","num_nodes":"29","size_leaf_vector":"1"}},{"base_weights":[1.9208784E-3,7.4429613E-1,-7.65526E-1,1.2672439E0,3.8735956E-1,-4.274331E-1,-1.2229329E0,1.6669395E0,1.0966212E0,8.1429094E-2,6.803851E-1,-3.2886997E-2,-7.5254387E-1,-1.0365944E0,-7.778486E-2,8.7003104E-2,4.964681E-2,3.900778E-2,7.219346E-2,1.599034E-2,-1.23506235E-2,2.1489045E-2,5.1019162E-2,-1.03573045E-2,3.0792657E-2,-4.3771457E-2,-1.0821767E-2,-6.726144E-2,-3.5270464E-2],"categories":[],"categories_nodes":[],"categories_segments":[],"categories_sizes":[],"default_left":[0,0,0,0,0,0,0,1,0,0,0,0,0,0,0,0,0,0,0,0,0,0,0,0,0,0,0,0,0],"id":1,"left_children":[1,3,5,7,9,11,13,15,17,19,21,23,25,27,-1,-1,-1,-1,-1,-1,-1,-1,-1,-1,-1,-1,-1,-1,-1],"loss_changes":[8.381652E2,1.382944E2,1.1046994E2,1.6407074E1,3.986457E1,5.3562325E1,1.5233765E1,2.4830627E-1,2.1264862E1,1.752209E1,1.8262154E1,2.184915E1,1.4518356E1,1.8397842E1,0E0,0E0,0E0,0E0,0E0,0E0,0E0,0E0,0E0,0E0,0E0,0E0,0E0,0E0,0E0],"parents":[2147483647,0,0,1,1,2,2,3,3,4,4,5,5,6,6,7,7,8,8,9,9,10,10,11,11,12,12,13,13],"right_children":[2,4,6,8,10,12,14,16,18,20,22,24,26,28,-1,-1,-1,-1,-1,-1,-1,-1,-1,-1,-1,-1,-1,-1,-1],"split_conditions":[8.630256E0,7.975931E0,9.467616E0,7.4087353E0,4.185E0,-4.8321478E-2,1.035815E1,1.98E2,8.616667E0,7.4716055E-1,9.145E0,1.0625E1,9.752E0,4.92E0,-7.778486E-2,8.7003104E-2,4.964681E-2,3.900778E-2,7.219346E-2,1.599034E-2,-1.23506235E-2,2.1489045E-2,5.1019162E-2,-1.03573045E-2,3.0792657E-2,-4.3771457E-2,-1.0821767E-2,-6.726144E-2,-3.5270464E-2],"split_indices":[182,182,182,182,61,57,182,174,36,103,62,5,62,61,0,0,0,0,0,0,0,0,0,0,0,0,0,0,0],"split_type":[0,0,0,0,0,0,0,0,0,0,0,0,0,0,0,0,0,0,0,0,0,0,0,0,0,0,0,0,0],"sum_hessian":[1.4671603E3,7.4592487E2,7.212354E2,3.0029773E2,4.456271E2,4.171814E2,3.04054E2,8.4242386E1,2.1605534E2,2.1959715E2,2.2602995E2,1.8973788E2,2.2744353E2,2.0057108E2,1.034829E2,7.2875984E1,1.13664E1,1.1673647E2,9.931887E1,1.2762817E2,9.1968994E1,1.3306639E2,9.296356E1,1.5087956E2,3.8858315E1,1.836979E2,4.3745632E1,1.0033777E2,1.0023331E2],"tree_param":{"num_deleted":"0","num_feature":"183","num_nodes":"29","size_leaf_vector":"1"}},{"base_weights":[-1.0709999E-2,6.858075E-1,-7.134449E-1,1.1419281E0,3.70225E-1,-3.6243865E-1,-1.2319648E0,1.0017132E0,1.6268638E0,1.7142774E-1,8.049835E-1,-4.8598066E-1,4.7964188E-1,-9.876565E-1,-7.5095855E-2,6.9486015E-2,3.784117E-2,8.6803E-2,4.6402656E-2,2.4077108E-2,4.4674557E-4,2.9681453E-2,6.3191615E-2,-4.373723E-2,-1.2838157E-2,-1.9523021E-3,4.8374083E-2,-5.4771155E-2,-1.0427488E-2],"categories":[],"categories_nodes":[],"categories_segments":[],"categories_sizes":[],"default_left":[0,0,0,0,0,0,0,0,0,0,0,0,1,1,0,0,0,0,0,0,0,0,0,0,0,0,0,0,0],"id":2,"left_children":[1,3,5,7,9,11,13,15,17,19,21,23,25,27,-1,-1,-1,-1,-1,-1,-1,-1,-1,-1,-1,-1,-1,-1,-1],"loss_changes":[7.1839526E2,1.04935974E2,1.3178116E2,1.6624786E1,3.7455173E1,4.6117653E1,1.5919067E1,2.0116425E1,1.1132202E0,1.5211364E1,1.139827E1,3.3531464E1,1.4669297E1,1.2759186E1,0E0,0E0,0E0,0E0,0E0,0E0,0E0,0E0,0E0,0E0,0E0,0E0,0E0,0E0,0E0],"parents":[2147483647,0,0,1,1,2,2,3,3,4,4,5,5,6,6,7,7,8,8,9,9,10,10,11,11,12,12,13,13],"right_children":[2,4,6,8,10,12,14,16,18,20,22,24,26,28,-1,-1,-1,-1,-1,-1,-1,-1,-1,-1,-1,-1,-1,-1,-1],"split_conditions":[8.610403E0,7.975931E0,9.496903E0,8.925E0,9.113E0,1.0233334E1,1.0217056E1,7.475158E0,6.5E1,-3.2142857E-1,4.942E0,4.196E0,7.74E1,1.5315126E1,-7.5095855E-2,6.9486015E-2,3.784117E-2,8.6803E-2,4.6402656E-2,2.4077108E-2,4.4674557E-4,2.9681453E-2,6.3191615E-2,-4.373723E-2,-1.2838157E-2,-1.9523021E-3,4.8374083E-2,-5.4771155E-2,-1.0427488E-2],"split_indices":[182,182,182,62,62,9,182,182,125,38,61,61,49,170,0,0,0,0,0,0,0,0,0,0,0,0,0,0,0],"split_type":[0,0,0,0,0,0,0,0,0,0,0,0,0,0,0,0,0,0,0,0,0,0,0,0,0,0,0,0,0],"sum_hessian":[1.4636984E3,7.349823E2,7.2871606E2,2.98165E2,4.368173E2,4.3680774E2,2.9190833E2,2.3636568E2,6.1799335E1,3.0198196E2,1.3483534E2,3.818671E2,5.4940624E1,1.5851208E2,1.3339624E2,8.7524315E1,1.4884135E2,5.063267E1,1.1166667E1,1.0205474E2,1.9992722E2,9.575303E1,3.9082317E1,1.3922682E2,2.4264029E2,2.732146E1,2.7619165E1,1.3831197E2,2.0200115E1],"tree_param":{"num_deleted":"0","num_feature":"183","num_nodes":"29","size_leaf_vector":"1"}},{"base_weights":[-1.502174E-3,6.7362857E-1,-7.0148474E-1,1.0844709E0,3.8161847E-1,-3.9430457E-1,-1.2385869E0,1.456547E0,9.156333E-1,2.575765E-1,1.0340266E0,-7.069115E-1,-1.0556727E-1,-9.052733E-1,-1.3967031E0,4.3801457E-2,7.795484E-2,-0E0,5.129553E-2,2.0781431E-2,-9.220809E-3,9.211317E-3,5.853027E-2,-3.9741054E-2,7.5093093E-3,-1.46907335E-2,1.6542112E-2,-5.227351E-2,-0E0,-7.162558E-2,-3.5482187E-2],"categories":[],"categories_nodes":[],"categories_segments":[],"categories_sizes":[],"default_left":[0,0,0,0,0,0,0,0,0,0,0,0,0,0,0,0,0,0,0,0,0,0,0,0,0,0,0,0,0,0,0],"id":3,"left_children":[1,3,5,7,9,11,13,15,17,19,21,23,25,27,29,-1,-1,-1,-1,-1,-1,-1,-1,-1,-1,-1,-1,-1,-1,-1,-1],"loss_changes":[6.915431E2,8.822586E1,1.1725348E2,1.6209656E1,3.471113E1,4.123619E1,1.0727936E1,2.2818298E0,2.1843445E1,2.6154215E1,7.3251495E0,1.6969215E1,2.006581E1,1.1467339E1,1.7809143E0,0E0,0E0,0E0,0E0,0E0,0E0,0E0,0E0,0E0,0E0,0E0,0E0,0E0,0E0,0E0,0E0],"parents":[2147483647,0,0,1,1,2,2,3,3,4,4,5,5,6,6,7,7,8,8,9,9,10,10,11,11,12,12,13,13,14,14],"right_children":[2,4,6,8,10,12,14,16,18,20,22,24,26,28,30,-1,-1,-1,-1,-1,-1,-1,-1,-1,-1,-1,-1,-1,-1,-1,-1],"split_conditions":[8.610403E0,7.975931E0,9.576884E0,7.4087353E0,4.907E0,4.498E0,9.989565E0,9E0,3.149E0,7.373287E-1,2.0759223E-1,1.0166667E1,5.6E0,5.7777777E0,1.1241E1,4.3801457E-2,7.795484E-2,-0E0,5.129553E-2,2.0781431E-2,-9.220809E-3,9.211317E-3,5.853027E-2,-3.9741054E-2,7.5093093E-3,-1.46907335E-2,1.6542112E-2,-5.227351E-2,-0E0,-7.162558E-2,-3.5482187E-2],"split_indices":[182,182,182,182,61,61,182,134,61,98,102,9,4,8,62,0,0,0,0,0,0,0,0,0,0,0,0,0,0,0,0],"split_type":[0,0,0,0,0,0,0,0,0,0,0,0,0,0,0,0,0,0,0,0,0,0,0,0,0,0,0,0,0,0,0],"sum_hessian":[1.4593246E3,7.4274207E2,7.165825E2,3.060433E2,4.3669873E2,4.583074E2,2.5827515E2,9.039553E1,2.1564778E2,3.6953537E2,6.716337E1,2.1833432E2,2.3997307E2,8.783405E1,1.704411E2,1.6729242E1,7.366628E1,2.3522009E1,1.9212578E2,2.7262073E2,9.691464E1,1.0152996E1,5.7010376E1,1.9836716E2,1.9967175E1,1.6843121E2,7.1541855E1,7.584767E1,1.1986376E1,1.5965884E2,1.0782252E1],"tree_param":{"num_deleted":"0","num_feature":"183","num_nodes":"31","size_leaf_vector":"1"}},{"base_weights":[-1.3968942E-2,4.3671414E-2,-3.6870238E-1,2.7576962E-1,-1.9401576E-2,-4.5509028E-1,2.2301251E-2,-2.8922653E-2,3.2486525E-1,-4.8889354E-1,1.1733151E-2,-5.420711E-1,1.0430255E-1,2.6819041E-2,6.2403507E-3,-3.461627E-2,1.7173423E-2,5.0550285E-3,-6.8332083E-3,-3.3926863E-2,-7.942064E-3,2.9308176E-2,-1.2489161E-2],"categories":[],"categories_nodes":[],"categories_segments":[],"categories_sizes":[],"default_left":[0,0,0,0,0,0,0,0,0,0,0,0,0,0,0,0,0,0,0,0,0,0,0],"id":4,"left_children":[1,3,5,7,9,11,-1,-1,13,15,17,19,21,-1,-1,-1,-1,-1,-1,-1,-1,-1,-1],"loss_changes":[2.9873081E1,1.8419474E1,1.47831955E1,1.1596857E1,1.4537809E1,9.244804E0,0E0,0E0,1.0552332E1,1.1017327E1,1.2319467E1,8.062923E0,4.861231E0,0E0,0E0,0E0,0E0,0E0,0E0,0E0,0E0,0E0,0E0],"parents":[2147483647,0,0,1,1,2,2,3,3,4,4,5,5,8,8,9,9,10,10,11,11,12,12],"right_children":[2,4,6,8,10,12,-1,-1,14,16,18,20,22,-1,-1,-1,-1,-1,-1,-1,-1,-1,-1],"split_conditions":[1.119369E0,7.01E1,7.5961237E0,2.1008646E0,-2.2380525E-2,2.6399666E-1,2.2301251E-2,-2.8922653E-2,8.9E1,8.951028E-2,9.051546E0,7.829703E-2,6.694489E-2,2.6819041E-2,6.2403507E-3,-3.461627E-2,1.7173423E-2,5.0550285E-3,-6.8332083E-3,-3.3926863E-2,-7.942064E-3,2.9308176E-2,-1.2489161E-2],"split_indices":[44,49,11,25,110,70,0,0,159,86,47,115,110,0,0,0,0,0,0,0,0,0,0],"split_type":[0,0,0,0,0,0,0,0,0,0,0,0,0,0,0,0,0,0,0,0,0,0,0],"sum_hessian":[1.4542491E3,1.2520022E3,2.0224687E2,2.6676767E2,9.8523456E2,1.8387808E2,1.8368797E1,1.3105469E1,2.536622E2,5.9843975E1,9.253906E2,1.5949709E2,2.4380987E1,1.21180115E2,1.3248209E2,4.8553993E1,1.1289983E1,5.788078E2,3.4658282E2,1.16093704E2,4.340338E1,1.001117E1,1.4369818E1],"tree_param":{"num_deleted":"0","num_feature":"183","num_nodes":"23","size_leaf_vector":"1"}},{"base_weights":[1.4307119E-4,5.860292E-1,-7.098084E-1,1.0927998E0,3.3401632E-1,-4.0054435E-1,-1.1497099E0,1.4033232E0,8.7343204E-1,4.9208533E-2,5.797808E-1,-5.7636535E-1,1.845729E-1,-8.661776E-1,-1.3204061E0,5.724187E-2,8.2527824E-2,2.5991334E-2,6.049138E-2,1.95923E-2,-1.4614455E-2,4.855972E-2,1.71655E-2,-3.7227284E-2,-1.8188254E-3,2.7818803E-2,-8.96548E-3,-5.0543595E-2,-3.9355755E-3,-4.203088E-2,-6.8058096E-2],"categories":[],"categories_nodes":[],"categories_segments":[],"categories_sizes":[],"default_left":[0,0,0,0,0,0,0,0,0,0,0,0,0,0,0,0,0,0,0,0,0,0,0,0,0,0,0,0,0,0,0],"id":5,"left_children":[1,3,5,7,9,11,13,15,17,19,21,23,25,27,29,-1,-1,-1,-1,-1,-1,-1,-1,-1,-1,-1,-1,-1,-1,-1,-1],"loss_changes":[6.077655E2,1.01245026E2,8.862723E1,1.5130615E1,3.746878E1,4.0533558E1,1.0406891E1,2.4323425E0,1.7529129E1,2.9703606E1,2.5744179E1,2.7174034E1,1.2672637E1,1.19533615E1,4.998169E-1,0E0,0E0,0E0,0E0,0E0,0E0,0E0,0E0,0E0,0E0,0E0,0E0,0E0,0E0,0E0,0E0],"parents":[2147483647,0,0,1,1,2,2,3,3,4,4,5,5,6,6,7,7,8,8,9,9,10,10,11,11,12,12,13,13,14,14],"right_children":[2,4,6,8,10,12,14,16,18,20,22,24,26,28,30,-1,-1,-1,-1,-1,-1,-1,-1,-1,-1,-1,-1,-1,-1,-1,-1],"split_conditions":[8.682318E0,7.8955407E0,9.519846E0,7.475158E0,4.137E0,5.0108695E0,9.969231E0,8.266666E0,8.403E0,8.242168E0,3.1857994E-1,9.631E0,6.1376274E-2,6.296296E-1,3E0,5.724187E-2,8.2527824E-2,2.5991334E-2,6.049138E-2,1.95923E-2,-1.4614455E-2,4.855972E-2,1.71655E-2,-3.7227284E-2,-1.8188254E-3,2.7818803E-2,-8.96548E-3,-5.0543595E-2,-3.9355755E-3,-4.203088E-2,-6.8058096E-2],"split_indices":[182,182,182,182,61,15,182,9,62,182,99,62,110,24,81,0,0,0,0,0,0,0,0,0,0,0,0,0,0,0,0],"split_type":[0,0,0,0,0,0,0,0,0,0,0,0,0,0,0,0,0,0,0,0,0,0,0,0,0,0,0,0,0,0,0],"sum_hessian":[1.4572074E3,7.9870685E2,6.585005E2,2.627928E2,5.3591406E2,3.8917468E2,2.6932584E2,1.03946556E2,1.5884624E2,2.497277E2,2.8618637E2,2.9953854E2,8.963614E1,1.0621666E2,1.6310918E2,5.6717636E1,4.7228916E1,8.021381E1,7.8632416E1,1.2480097E2,1.24926735E2,1.051233E2,1.8106308E2,2.2754214E2,7.1996376E1,4.4084095E1,4.5552044E1,8.9035324E1,1.7181332E1,1.6541155E1,1.4656801E2],"tree_param":{"num_deleted":"0","num_feature":"183","num_nodes":"31","size_leaf_vector":"1"}},{"base_weights":[3.6306554E-3,5.872537E-2,-3.312847E-1,-2.327225E-3,2.964575E-1,-5.275823E-1,-0E0,1.2710322E-1,-9.821693E-2,3.44234E-1,-2.4879105E-2,-6.766388E-1,2.5289925E-2,-2.0717883E-1,5.3206736E-1,4.550614E-3,4.0956907E-2,-1.4540834E-3,-1.946505E-2,-6.12354E-4,2.2622239E-2,-1.1396821E-3,-3.8089987E-2,2.1776801E-2,-2.0165108E-2,-4.3301385E-2,-0E0,2.1782664E-3,4.6056975E-2],"categories":[],"categories_nodes":[],"categories_segments":[],"categories_sizes":[],"default_left":[0,0,0,1,0,0,1,0,1,0,0,0,0,0,0,0,0,0,0,0,0,0,0,0,0,0,0,0,0],"id":6,"left_children":[1,3,5,7,9,11,13,15,17,19,-1,21,23,25,27,-1,-1,-1,-1,-1,-1,-1,-1,-1,-1,-1,-1,-1,-1],"loss_changes":[2.6633295E1,1.8092846E1,1.3250378E1,1.23044E1,9.968843E0,1.0709942E1,8.799223E0,1.0189844E1,1.1376949E1,9.416107E0,0E0,5.4404755E0,5.424528E0,7.9483023E0,3.978106E0,0E0,0E0,0E0,0E0,0E0,0E0,0E0,0E0,0E0,0E0,0E0,0E0,0E0,0E0],"parents":[2147483647,0,0,1,1,2,2,3,3,4,4,5,5,6,6,7,7,8,8,9,9,11,11,12,12,13,13,14,14],"right_children":[2,4,6,8,10,12,14,16,18,20,-1,22,24,26,28,-1,-1,-1,-1,-1,-1,-1,-1,-1,-1,-1,-1,-1,-1],"split_conditions":[1.119369E0,9.114026E-2,1.0450332E1,3.5217392E0,1.0073395E1,2.6812E-1,1.8947369E1,1.5589265E1,8.29E1,1.6E2,-2.4879105E-2,6.35E1,8.605E-2,2.1165E-1,-8.303682E-3,4.550614E-3,4.0956907E-2,-1.4540834E-3,-1.946505E-2,-6.12354E-4,2.2622239E-2,-1.1396821E-3,-3.8089987E-2,2.1776801E-2,-2.0165108E-2,-4.3301385E-2,-0E0,2.1782664E-3,4.6056975E-2],"split_indices":[44,110,41,153,39,69,172,127,49,174,0,49,73,69,114,0,0,0,0,0,0,0,0,0,0,0,0,0,0],"split_type":[0,0,0,0,0,0,0,0,0,0,0,0,0,0,0,0,0,0,0,0,0,0,0,0,0,0,0,0,0],"sum_hessian":[1.4422231E3,1.2404169E3,2.018063E2,9.878609E2,2.5255594E2,1.2596448E2,7.584182E1,4.1924017E2,5.686207E2,2.395286E2,1.3027342E1,9.914785E1,2.6816626E1,5.5473877E1,2.0367943E1,4.0088528E2,1.8354904E1,4.6182074E2,1.06799965E2,5.576061E1,1.8376799E2,1.1988309E1,8.7159546E1,1.3923431E1,1.2893194E1,1.1886936E1,4.358694E1,1.0244004E1,1.01239395E1],"tree_param":{"num_deleted":"0","num_feature":"183","num_nodes":"29","size_leaf_vector":"1"}},{"base_weights":[1.02052875E-2,6.387459E-1,-5.6768894E-1,9.633388E-1,3.768916E-1,-1.8750972E-1,-1.0014154E0,1.2864131E0,7.8042805E-1,4.5636952E-1,-3.7299982E-1,1.8819773E-1,-4.5446676E-1,-7.591732E-1,-1.2896806E0,4.973942E-2,7.4464045E-2,4.6523686E-2,7.4872742E-3,1.7728908E-2,4.4958875E-2,8.004103E-3,-4.046106E-2,-1.2569606E-2,2.1307489E-2,1.920016E-2,-2.5849307E-2,2.0029126E-2,-4.3773063E-2,-5.2851E-2,-6.9403134E-2],"categories":[],"categories_nodes":[],"categories_segments":[],"categories_sizes":[],"default_left":[0,0,0,0,0,0,0,0,0,0,0,0,0,0,0,0,0,0,0,0,0,0,0,0,0,0,0,0,0,0,0],"id":7,"left_children":[1,3,5,7,9,11,13,15,17,19,21,23,25,27,29,-1,-1,-1,-1,-1,-1,-1,-1,-1,-1,-1,-1,-1,-1,-1,-1],"loss_changes":[5.312508E2,5.856418E1,1.25005905E2,1.5971741E1,2.3688534E1,4.1213623E1,2.2431732E1,2.9908295E0,1.8830467E1,1.5117119E1,9.312344E0,1.8121765E1,1.2994774E1,2.7528809E1,2.1432495E-1,0E0,0E0,0E0,0E0,0E0,0E0,0E0,0E0,0E0,0E0,0E0,0E0,0E0,0E0,0E0,0E0],"parents":[2147483647,0,0,1,1,2,2,3,3,4,4,5,5,6,6,7,7,8,8,9,9,10,10,11,11,12,12,13,13,14,14],"right_children":[2,4,6,8,10,12,14,16,18,20,22,24,26,28,30,-1,-1,-1,-1,-1,-1,-1,-1,-1,-1,-1,-1,-1,-1,-1,-1],"split_conditions":[8.538072E0,7.975931E0,9.295074E0,7.475158E0,1.7223342E-1,-4.8321478E-2,9.989565E0,8.066667E0,1.6633174E-1,5.8483753E0,5.621125E-2,9.033334E0,-2.0662785E-2,-2.4460068E-1,1.0330367E1,4.973942E-2,7.4464045E-2,4.6523686E-2,7.4872742E-3,1.7728908E-2,4.4958875E-2,8.004103E-3,-4.046106E-2,-1.2569606E-2,2.1307489E-2,1.920016E-2,-2.5849307E-2,2.0029126E-2,-4.3773063E-2,-5.2851E-2,-6.9403134E-2],"split_indices":[182,182,182,182,57,57,182,9,57,11,116,9,115,57,182,0,0,0,0,0,0,0,0,0,0,0,0,0,0,0,0],"split_type":[0,0,0,0,0,0,0,0,0,0,0,0,0,0,0,0,0,0,0,0,0,0,0,0,0,0,0,0,0,0,0],"sum_hessian":[1.4585383E3,6.987192E2,7.5981915E2,3.092515E2,3.8946768E2,4.0667627E2,3.5314288E2,1.0703559E2,2.0221591E2,3.530942E2,3.6373474E1,1.6886356E2,2.3781271E2,1.9621535E2,1.5692752E2,4.916027E1,5.7875317E1,1.6232854E2,3.988738E1,2.9039276E2,6.2701473E1,1.6732807E1,1.9640667E1,5.8969856E1,1.098937E2,1.5566147E1,2.2224657E2,1.7279116E1,1.7893623E2,5.422156E1,1.0270596E2],"tree_param":{"num_deleted":"0","num_feature":"183","num_nodes":"31","size_leaf_vector":"1"}},{"base_weights":[1.5905257E-2,5.8062655E-1,-6.600221E-1,9.632375E-1,3.2981E-1,-3.9871737E-1,-1.1185867E0,8.4858763E-1,7.003491E-2,2.1074407E-1,9.176028E-1,-6.874648E-1,-1.3791072E-1,-1.3017817E0,-8.695306E-1,6.1422747E-2,3.4521587E-2,2.5384573E-2,-1.1107936E-3,5.257082E-2,-0E0,-4.2467844E-2,-1.6441453E-2,7.939445E-3,-1.8655518E-2,-3.8356997E-2,-6.694235E-2,-2.835069E-2,-6.320608E-2],"categories":[],"categories_nodes":[],"categories_segments":[],"categories_sizes":[],"default_left":[0,0,0,0,0,0,0,0,0,0,0,0,0,0,0,0,0,0,0,0,0,0,0,0,0,0,0,0,0],"id":8,"left_children":[1,3,5,7,9,11,13,15,-1,17,19,21,23,25,27,-1,-1,-1,-1,-1,-1,-1,-1,-1,-1,-1,-1,-1,-1],"loss_changes":[5.542455E2,7.503671E1,7.798575E1,1.2818451E1,3.3070972E1,3.1600166E1,8.182678E0,1.3095856E1,0E0,2.8004597E1,9.8680725E0,1.08474655E1,1.59196205E1,1.5872192E-1,1.1039429E1,0E0,0E0,0E0,0E0,0E0,0E0,0E0,0E0,0E0,0E0,0E0,0E0,0E0,0E0],"parents":[2147483647,0,0,1,1,2,2,3,3,4,4,5,5,6,6,7,7,9,9,10,10,11,11,12,12,13,13,14,14],"right_children":[2,4,6,8,10,12,14,16,-1,18,20,22,24,26,28,-1,-1,-1,-1,-1,-1,-1,-1,-1,-1,-1,-1,-1,-1],"split_conditions":[8.658751E0,7.975931E0,9.576884E0,8.956E0,4.929E0,9.045E0,9.666667E0,7.3602266E0,7.003491E-2,5.943348E-2,1.6792259E-1,4.8333335E0,9.071188E0,2.0837724E-1,1.035815E1,6.1422747E-2,3.4521587E-2,2.5384573E-2,-1.1107936E-3,5.257082E-2,-0E0,-4.2467844E-2,-1.6441453E-2,7.939445E-3,-1.8655518E-2,-3.8356997E-2,-6.694235E-2,-2.835069E-2,-6.320608E-2],"split_indices":[182,182,182,62,61,62,9,182,0,116,59,8,182,102,182,0,0,0,0,0,0,0,0,0,0,0,0,0,0],"split_type":[0,0,0,0,0,0,0,0,0,0,0,0,0,0,0,0,0,0,0,0,0,0,0,0,0,0,0,0,0],"sum_hessian":[1.4480383E3,7.892318E2,6.588066E2,3.0994476E2,4.7928708E2,4.223265E2,2.3648004E2,2.5060329E2,5.934147E1,4.010965E2,7.819056E1,1.985105E2,2.2381602E2,1.3092235E2,1.055577E2,6.931632E1,1.8128696E2,1.7567215E2,2.2542436E2,6.800432E1,1.018624E1,1.34501E2,6.400949E1,9.8880135E1,1.2493589E2,1.1651195E1,1.1927115E2,6.2795628E1,4.2762074E1],"tree_param":{"num_deleted":"0","num_feature":"183","num_nodes":"29","size_leaf_vector":"1"}},{"base_weights":[-6.146587E-3,5.0434065E-1,-6.497417E-1,8.2480776E-1,1.7309727E-1,-3.6954167E-1,-1.0600085E0,1.1821856E0,6.941578E-1,4.479368E-1,-1.847535E-1,-1.3315487E-2,-6.6181344E-1,-7.7676547E-1,-1.2392445E0,6.443569E-2,3.8201254E-2,4.6643224E-2,1.6680999E-2,1.1197042E-2,4.005853E-2,1.8194886E-2,-1.6797984E-2,-1.1003955E-2,2.5352223E-2,-3.9875682E-2,-6.1042104E-3,-4.8827488E-2,-7.5837374E-3,-6.434744E-2,-3.3720355E-2],"categories":[],"categories_nodes":[],"categories_segments":[],"categories_sizes":[],"default_left":[0,0,0,0,0,0,0,1,0,0,0,0,0,1,0,0,0,0,0,0,0,0,0,0,0,0,0,0,0,0,0],"id":9,"left_children":[1,3,5,7,9,11,13,15,17,19,21,23,25,27,29,-1,-1,-1,-1,-1,-1,-1,-1,-1,-1,-1,-1,-1,-1,-1,-1],"loss_changes":[4.736814E2,8.4841064E1,7.225647E1,1.7020111E1,3.937149E1,3.965732E1,1.0743683E1,2.3373566E0,2.5271606E1,1.7322983E1,1.4676522E1,1.8959665E1,1.4979179E1,1.2663666E1,2.018921E0,0E0,0E0,0E0,0E0,0E0,0E0,0E0,0E0,0E0,0E0,0E0,0E0,0E0,0E0,0E0,0E0],"parents":[2147483647,0,0,1,1,2,2,3,3,4,4,5,5,6,6,7,7,8,8,9,9,10,10,11,11,12,12,13,13,14,14],"right_children":[2,4,6,8,10,12,14,16,18,20,22,24,26,28,30,-1,-1,-1,-1,-1,-1,-1,-1,-1,-1,-1,-1,-1,-1,-1,-1],"split_conditions":[8.682318E0,8.121839E0,9.519846E0,7.475158E0,3.6379382E-2,-4.943959E-2,9.969231E0,1.7737226E0,1.01745814E-1,9.136E0,1.8537883E-2,7.326E-1,9.752E0,1.291145E1,5.7756863E0,6.443569E-2,3.8201254E-2,4.6643224E-2,1.6680999E-2,1.1197042E-2,4.005853E-2,1.8194886E-2,-1.6797984E-2,-1.1003955E-2,2.5352223E-2,-3.9875682E-2,-6.1042104E-3,-4.8827488E-2,-7.5837374E-3,-6.434744E-2,-3.3720355E-2],"split_indices":[182,182,182,182,57,57,182,156,57,62,115,65,62,170,13,0,0,0,0,0,0,0,0,0,0,0,0,0,0,0,0],"split_type":[0,0,0,0,0,0,0,0,0,0,0,0,0,0,0,0,0,0,0,0,0,0,0,0,0,0,0,0,0,0,0],"sum_hessian":[1.4376624E3,8.0180676E2,6.3585565E2,4.057109E2,3.9609586E2,3.8036594E2,2.5548972E2,1.0389375E2,3.0181714E2,2.2406386E2,1.7203198E2,1.7267812E2,2.0768784E2,1.0358297E2,1.5190674E2,7.910055E1,2.479321E1,1.7934557E2,1.2247158E2,1.3946141E2,8.460245E1,3.6274414E1,1.3575757E2,1.2467666E2,4.8001457E1,1.6490193E2,4.2785892E1,7.740062E1,2.6182352E1,1.3739207E2,1.4514662E1],"tree_param":{"num_deleted":"0","num_feature":"183","num_nodes":"31","size_leaf_vector":"1"}},{"base_weights":[5.51455E-3,3.7214634E-1,-8.2059467E-1,7.40492E-1,6.95923E-2,-5.3487325E-1,-1.0706722E0,1.1708388E0,5.996685E-1,-2.9936334E-1,2.8291324E-1,3.5415586E-2,-6.2710786E-1,-8.279584E-1,-6.2404644E-2,6.1697103E-2,3.0412575E-2,1.4721888E-2,4.4186838E-2,3.1609365E-3,-2.2652915E-2,9.840521E-3,5.594867E-2,-4.0370807E-2,-4.3435832E-3,-2.7279167E-2,-5.8488954E-2],"categories":[],"categories_nodes":[],"categories_segments":[],"categories_sizes":[],"default_left":[0,0,0,0,0,0,0,1,0,0,0,0,1,0,0,0,0,0,0,0,0,0,0,0,0,0,0],"id":10,"left_children":[1,3,5,7,9,11,13,15,17,19,21,-1,23,25,-1,-1,-1,-1,-1,-1,-1,-1,-1,-1,-1,-1,-1],"loss_changes":[4.3052872E2,1.09493805E2,2.9748596E1,2.5127625E1,4.292184E1,2.4753433E1,7.447937E0,1.9266357E0,2.8612297E1,1.126091E1,2.41743E1,0E0,1.8685028E1,8.3990555E0,0E0,0E0,0E0,0E0,0E0,0E0,0E0,0E0,0E0,0E0,0E0,0E0,0E0],"parents":[2147483647,0,0,1,1,2,2,3,3,4,4,5,5,6,6,7,7,8,8,9,9,10,10,12,12,13,13],"right_children":[2,4,6,8,10,12,14,16,18,20,22,-1,24,26,-1,-1,-1,-1,-1,-1,-1,-1,-1,-1,-1,-1,-1],"split_conditions":[9.071188E0,8.18869E0,9.576884E0,7.475158E0,4.096E0,-2.4460068E-1,-1.2680884E-1,1.2789474E1,8.454E0,2.3227768E-2,1.0299E1,3.5415586E-2,1.1694845E1,1.035815E1,-6.2404644E-2,6.1697103E-2,3.0412575E-2,1.4721888E-2,4.4186838E-2,3.1609365E-3,-2.2652915E-2,9.840521E-3,5.594867E-2,-4.0370807E-2,-4.3435832E-3,-2.7279167E-2,-5.8488954E-2],"split_indices":[182,182,182,182,61,57,57,138,62,110,62,0,170,182,0,0,0,0,0,0,0,0,0,0,0,0,0],"split_type":[0,0,0,0,0,0,0,0,0,0,0,0,0,0,0,0,0,0,0,0,0,0,0,0,0,0,0],"sum_hessian":[1.4177393E3,9.8287506E2,4.348642E2,4.4164117E2,5.412338E2,2.0627074E2,2.2859344E2,1.04930916E2,3.3671027E2,1.9764565E2,3.435882E2,1.317425E1,1.930965E2,1.01795944E2,1.2679751E2,9.188262E1,1.3048294E1,1.6461203E2,1.7209824E2,5.8801937E1,1.388437E2,3.1396417E2,2.9624018E1,1.4375706E2,4.9339424E1,5.8909023E1,4.288692E1],"tree_param":{"num_deleted":"0","num_feature":"183","num_nodes":"27","size_leaf_vector":"1"}},{"base_weights":[1.6103698E-2,4.9841118E-1,-5.635744E-1,7.593762E-1,1.5583763E-1,-2.8619516E-1,-9.927079E-1,6.4224887E-1,1.1545459E0,-2.1548733E-2,6.323945E-1,-5.2611446E-1,1.3643487E-1,-8.149421E-1,-6.408346E-2,5.838833E-2,2.511009E-2,6.363164E-2,1.6514312E-2,-1.6604042E-2,1.0940785E-2,3.962835E-2,-1.9475548E-2,-4.7640998E-2,-1.9216739E-2,-4.123839E-3,3.7360504E-2,-4.686318E-2,-8.166627E-5],"categories":[],"categories_nodes":[],"categories_segments":[],"categories_sizes":[],"default_left":[0,0,0,0,0,0,0,0,0,0,0,0,0,1,0,0,0,0,0,0,0,0,0,0,0,0,0,0,0],"id":11,"left_children":[1,3,5,7,9,11,13,15,17,19,21,23,25,27,-1,-1,-1,-1,-1,-1,-1,-1,-1,-1,-1,-1,-1,-1,-1],"loss_changes":[3.9588086E2,6.869304E1,7.570572E1,1.8428528E1,2.8647697E1,4.0132088E1,1.0401535E1,2.3716599E1,8.302841E0,1.8626799E1,1.5726841E1,1.4232964E1,1.948542E1,1.5878044E1,0E0,0E0,0E0,0E0,0E0,0E0,0E0,0E0,0E0,0E0,0E0,0E0,0E0,0E0,0E0],"parents":[2147483647,0,0,1,1,2,2,3,3,4,4,5,5,6,6,7,7,8,8,9,9,10,10,11,11,12,12,13,13],"right_children":[2,4,6,8,10,12,14,16,18,20,22,24,26,28,-1,-1,-1,-1,-1,-1,-1,-1,-1,-1,-1,-1,-1,-1,-1],"split_conditions":[8.658751E0,8.18869E0,9.496903E0,9.007E0,9.297E0,4.9E0,1.035815E1,7.3602266E0,1.2423313E1,4.077E0,1.4657811E1,3.788E0,1.0625E1,1.5315126E1,-6.408346E-2,5.838833E-2,2.511009E-2,6.363164E-2,1.6514312E-2,-1.6604042E-2,1.0940785E-2,3.962835E-2,-1.9475548E-2,-4.7640998E-2,-1.9216739E-2,-4.123839E-3,3.7360504E-2,-4.686318E-2,-8.166627E-5],"split_indices":[182,182,182,62,62,8,182,182,138,61,123,61,5,170,0,0,0,0,0,0,0,0,0,0,0,0,0,0,0],"split_type":[0,0,0,0,0,0,0,0,0,0,0,0,0,0,0,0,0,0,0,0,0,0,0,0,0,0,0,0,0],"sum_hessian":[1.4120057E3,7.7107574E2,6.4093E2,4.3595648E2,3.351193E2,3.916068E2,2.4932318E2,3.4072345E2,9.523303E1,2.4530174E2,8.981754E1,2.4978944E2,1.4181737E2,1.5952052E2,8.980266E1,6.830571E1,2.7241772E2,8.21354E1,1.3097635E1,1.0705891E2,1.3824284E2,7.8204414E1,1.1613128E1,5.909211E1,1.9069733E2,1.05431496E2,3.6385868E1,1.3818657E2,2.1333956E1],"tree_param":{"num_deleted":"0","num_feature":"183","num_nodes":"29","size_leaf_vector":"1"}},{"base_weights":[-1.4233521E-2,3.1272376E-1,-7.331803E-1,6.334662E-1,4.144375E-2,-5.412703E-1,-1.115818E0,5.127991E-1,1.068272E0,-1.2314388E-1,4.382067E-1,-8.1656677E-1,-1.7005794E-1,-2.5050595E-2,-1.1540891E0,4.728051E-2,1.787343E-2,6.1542757E-2,2.8289575E-2,-2.4514006E-2,2.0348344E-3,4.3484725E-2,7.7328417E-3,-4.6535444E-2,-1.5323679E-2,-1.4605271E-2,5.036944E-2,-5.9625264E-2,-3.3718005E-2],"categories":[],"categories_nodes":[],"categories_segments":[],"categories_sizes":[],"default_left":[0,0,0,0,0,0,0,0,0,0,0,0,0,0,0,0,0,0,0,0,0,0,0,0,0,0,0,0,0],"id":12,"left_children":[1,3,5,7,9,11,13,15,17,19,21,23,25,-1,27,-1,-1,-1,-1,-1,-1,-1,-1,-1,-1,-1,-1,-1,-1],"loss_changes":[3.341215E2,8.479484E1,3.1094421E1,2.204419E1,3.488696E1,3.020337E1,1.9527283E0,2.2872643E1,6.0015717E0,2.2804323E1,1.869391E1,9.169273E0,1.9222807E1,0E0,5.209656E-1,0E0,0E0,0E0,0E0,0E0,0E0,0E0,0E0,0E0,0E0,0E0,0E0,0E0,0E0],"parents":[2147483647,0,0,1,1,2,2,3,3,4,4,5,5,6,6,7,7,8,8,9,9,10,10,11,11,12,12,14,14],"right_children":[2,4,6,8,10,12,14,16,18,20,22,24,26,-1,28,-1,-1,-1,-1,-1,-1,-1,-1,-1,-1,-1,-1,-1,-1],"split_conditions":[9.039684E0,8.18869E0,9.969231E0,9.007E0,9.307E0,4.851E0,9.140625E-1,7.475158E0,7.647E-1,3.894E0,7.2457004E-1,9.799E0,6.233333E0,-2.5050595E-2,5.7756863E0,4.728051E-2,1.787343E-2,6.1542757E-2,2.8289575E-2,-2.4514006E-2,2.0348344E-3,4.3484725E-2,7.7328417E-3,-4.6535444E-2,-1.5323679E-2,-1.4605271E-2,5.036944E-2,-5.9625264E-2,-3.3718005E-2],"split_indices":[182,182,182,62,62,61,137,182,65,61,98,62,8,0,13,0,0,0,0,0,0,0,0,0,0,0,0,0,0],"split_type":[0,0,0,0,0,0,0,0,0,0,0,0,0,0,0,0,0,0,0,0,0,0,0,0,0,0,0,0,0],"sum_hessian":[1.4170928E3,9.7468475E2,4.4240805E2,4.4506442E2,5.2962036E2,2.981995E2,1.4420854E2,3.5215366E2,9.291076E1,3.749546E2,1.5466577E2,1.695331E2,1.286664E2,1.04085455E1,1.338E2,8.997772E1,2.6217593E2,6.770645E1,2.5204313E1,1.1484474E2,2.6010983E2,5.9413895E1,9.5251884E1,1.3686578E2,3.266732E1,1.18098656E2,1.0567747E1,1.207426E2,1.3057402E1],"tree_param":{"num_deleted":"0","num_feature":"183","num_nodes":"29","size_leaf_vector":"1"}},{"base_weights":[4.4097025E-3,3.2484838E-1,-6.4728373E-1,6.520751E-1,8.728088E-2,-4.6404195E-1,-1.0815498E0,3.326477E-1,8.24635E-1,-3.0685428E-1,2.3138131E-1,-7.0135987E-1,-1.1503645E-1,-8.222705E-1,-6.0901005E-2,4.047476E-2,5.619554E-3,4.784313E-2,2.2419322E-2,-7.6732556E-3,-4.398566E-2,8.579369E-3,4.4950683E-2,-4.156625E-2,-1.2178342E-2,1.880701E-2,-1.36284875E-2,-5.3944547E-2,-1.9608475E-2],"categories":[],"categories_nodes":[],"categories_segments":[],"categories_sizes":[],"default_left":[0,0,0,1,0,0,0,0,0,0,0,0,0,0,0,0,0,0,0,0,0,0,0,0,0,0,0,0,0],"id":13,"left_children":[1,3,5,7,9,11,13,15,17,19,21,23,25,27,-1,-1,-1,-1,-1,-1,-1,-1,-1,-1,-1,-1,-1,-1,-1],"loss_changes":[2.951401E2,7.342254E1,3.575067E1,2.1159302E1,3.1467613E1,2.7121895E1,2.414734E0,1.469091E1,1.163002E1,1.2548013E1,1.5668873E1,1.1072296E1,1.0774192E1,4.7857323E0,0E0,0E0,0E0,0E0,0E0,0E0,0E0,0E0,0E0,0E0,0E0,0E0,0E0,0E0,0E0],"parents":[2147483647,0,0,1,1,2,2,3,3,4,4,5,5,6,6,7,7,8,8,9,9,10,10,11,11,12,12,13,13],"right_children":[2,4,6,8,10,12,14,16,18,20,22,24,26,28,-1,-1,-1,-1,-1,-1,-1,-1,-1,-1,-1,-1,-1,-1,-1],"split_conditions":[8.943015E0,8.121839E0,9.989565E0,7.3E0,4.0526314E0,4.8767123E0,1.035815E1,7.475158E0,9.273E-2,7.845847E-1,1.0266666E1,9.866667E0,1.6678436E-2,9.833333E0,-6.0901005E-2,4.047476E-2,5.619554E-3,4.784313E-2,2.2419322E-2,-7.6732556E-3,-4.398566E-2,8.579369E-3,4.4950683E-2,-4.156625E-2,-1.2178342E-2,1.880701E-2,-1.36284875E-2,-5.3944547E-2,-1.9608475E-2],"split_indices":[182,182,182,2,15,15,182,182,73,103,9,9,115,9,0,0,0,0,0,0,0,0,0,0,0,0,0,0,0],"split_type":[0,0,0,0,0,0,0,0,0,0,0,0,0,0,0,0,0,0,0,0,0,0,0,0,0,0,0,0,0],"sum_hessian":[1.4096132E3,9.4584814E2,4.6376505E2,3.96027E2,5.498211E2,3.2937888E2,1.3438615E2,1.41363E2,2.54664E2,1.4622585E2,4.0359528E2,1.9451779E2,1.348611E2,5.169229E1,8.269387E1,4.2687542E1,9.867546E1,1.8576239E2,6.89016E1,1.17617424E2,2.8608423E1,3.7300232E2,3.0592955E1,1.498947E2,4.4623085E1,3.1767508E1,1.0309359E2,3.0194672E1,2.1497622E1],"tree_param":{"num_deleted":"0","num_feature":"183","num_nodes":"29","size_leaf_vector":"1"}},{"base_weights":[-6.0541686E-3,3.075369E-1,-7.031569E-1,6.911885E-1,8.252451E-2,-5.2491647E-1,-1.0760437E0,1.0704039E0,5.853464E-1,-2.6087E-1,2.2027917E-1,-8.3151406E-1,-1.662783E-1,-1.1297503E0,-2.6066659E-2,5.736488E-2,2.8086564E-2,4.942156E-2,2.1203076E-2,-4.699751E-2,-8.148443E-3,1.8368173E-2,-1.3648701E-2,-3.2151286E-2,-5.9838068E-2,-2.7487773E-2,9.402054E-3,-4.3456357E-2,-6.3097514E-2],"categories":[],"categories_nodes":[],"categories_segments":[],"categories_sizes":[],"default_left":[0,0,0,0,0,0,0,1,0,0,0,0,1,0,0,0,0,0,0,0,0,0,0,0,0,0,0,0,0],"id":14,"left_children":[1,3,5,7,9,11,13,15,17,19,21,23,25,27,-1,-1,-1,-1,-1,-1,-1,-1,-1,-1,-1,-1,-1,-1,-1],"loss_changes":[3.0880597E2,8.380451E1,2.768628E1,1.2842346E1,2.9268274E1,3.2606834E1,2.6480255E0,1.3264236E0,1.7461403E1,1.1240262E1,3.224801E1,9.204689E0,1.9500713E1,1.6921997E0,0E0,0E0,0E0,0E0,0E0,0E0,0E0,0E0,0E0,0E0,0E0,0E0,0E0,0E0,0E0],"parents":[2147483647,0,0,1,1,2,2,3,3,4,4,5,5,6,6,7,7,8,8,9,9,10,10,11,11,12,12,13,13],"right_children":[2,4,6,8,10,12,14,16,18,20,22,24,26,28,-1,-1,-1,-1,-1,-1,-1,-1,-1,-1,-1,-1,-1,-1,-1],"split_conditions":[9.039684E0,8.071189E0,9.989565E0,7.3602266E0,3.93E0,4.813E0,5.7756863E0,2.1176472E0,9.249534E-3,3.3E0,7.935555E-1,7.255445E-2,7.74E1,1.035815E1,-2.6066659E-2,5.736488E-2,2.8086564E-2,4.942156E-2,2.1203076E-2,-4.699751E-2,-8.148443E-3,1.8368173E-2,-1.3648701E-2,-3.2151286E-2,-5.9838068E-2,-2.7487773E-2,9.402054E-3,-4.3456357E-2,-6.3097514E-2],"split_indices":[182,182,182,182,61,61,13,156,57,8,103,57,49,182,0,0,0,0,0,0,0,0,0,0,0,0,0,0,0],"split_type":[0,0,0,0,0,0,0,0,0,0,0,0,0,0,0,0,0,0,0,0,0,0,0,0,0,0,0,0,0],"sum_hessian":[1.4082793E3,9.719011E2,4.3637814E2,3.574344E2,6.1446674E2,2.9886975E2,1.3750838E2,7.3604645E1,2.8382974E2,1.7499652E2,4.3947025E2,1.5940265E2,1.394671E2,1.2315115E2,1.4357226E1,6.1416473E1,1.2188172E1,7.782691E1,2.0600284E2,1.9625004E1,1.553715E2,3.3923032E2,1.0023993E2,1.0914582E2,5.0256832E1,6.671897E1,7.274813E1,4.7052315E1,7.609884E1],"tree_param":{"num_deleted":"0","num_feature":"183","num_nodes":"29","size_leaf_vector":"1"}},{"base_weights":[1.0414839E-2,4.7973827E-1,-4.0102893E-1,7.3882544E-1,3.0552375E-1,-1.1610508E-1,-7.8032005E-1,8.765162E-1,3.6020237E-1,-4.7473934E-2,4.542688E-1,2.132618E-1,-3.4665984E-1,-5.7347935E-1,-1.0586197E0,2.2746298E-2,4.7785323E-2,-7.091922E-4,3.596498E-2,3.4692172E-2,-9.903732E-3,7.5082392E-3,3.0067597E-2,-2.7874235E-2,1.7462214E-2,-1.3170994E-2,-4.7171928E-2,-4.236904E-2,-1.3924253E-2,-5.5196244E-2,-2.7593896E-2],"categories":[],"categories_nodes":[],"categories_segments":[],"categories_sizes":[],"default_left":[0,0,0,0,0,0,0,0,0,0,0,0,0,0,0,0,0,0,0,0,0,0,0,0,0,0,0,0,0,0,0],"id":15,"left_children":[1,3,5,7,9,11,13,15,17,19,21,23,25,27,29,-1,-1,-1,-1,-1,-1,-1,-1,-1,-1,-1,-1,-1,-1,-1,-1],"loss_changes":[2.680381E2,2.8615295E1,7.95463E1,1.2618729E1,2.0690987E1,3.2438534E1,1.667984E1,5.127472E0,9.952466E0,1.3297354E1,1.202137E1,1.877613E1,1.1732609E1,1.4359924E1,1.4848633E0,0E0,0E0,0E0,0E0,0E0,0E0,0E0,0E0,0E0,0E0,0E0,0E0,0E0,0E0,0E0,0E0],"parents":[2147483647,0,0,1,1,2,2,3,3,4,4,5,5,6,6,7,7,8,8,9,9,10,10,11,11,12,12,13,13,14,14],"right_children":[2,4,6,8,10,12,14,16,18,20,22,24,26,28,30,-1,-1,-1,-1,-1,-1,-1,-1,-1,-1,-1,-1,-1,-1,-1,-1],"split_conditions":[8.491678E0,7.8955407E0,9.295074E0,1.6084921E-1,8.283688E0,-4.8321478E-2,9.989565E0,7.25E0,4.551724E0,7.185522E-1,4.1666665E0,3.549E0,1.494198E-1,9.366667E0,5.3186812E0,2.2746298E-2,4.7785323E-2,-7.091922E-4,3.596498E-2,3.4692172E-2,-9.903732E-3,7.5082392E-3,3.0067597E-2,-2.7874235E-2,1.7462214E-2,-1.3170994E-2,-4.7171928E-2,-4.236904E-2,-1.3924253E-2,-5.5196244E-2,-2.7593896E-2],"split_indices":[182,182,182,57,40,57,182,2,7,103,8,60,57,36,14,0,0,0,0,0,0,0,0,0,0,0,0,0,0,0,0],"split_type":[0,0,0,0,0,0,0,0,0,0,0,0,0,0,0,0,0,0,0,0,0,0,0,0,0,0,0,0,0,0,0],"sum_hessian":[1.3840035E3,6.465988E2,7.374047E2,2.5690573E2,3.8969308E2,4.2287793E2,3.145268E2,1.8607799E2,7.082773E1,1.1553224E2,2.7416086E2,1.7382986E2,2.4904805E2,1.8435132E2,1.3017546E2,3.1957676E1,1.5412032E2,3.53435E1,3.5484234E1,1.806528E1,9.7466965E1,9.113498E1,1.8302588E2,2.4919037E1,1.4891083E2,2.2138654E2,2.7661526E1,9.329972E1,9.1051605E1,1.1696648E2,1.3208982E1],"tree_param":{"num_deleted":"0","num_feature":"183","num_nodes":"31","size_leaf_vector":"1"}},{"base_weights":[-2.3439166E-3,2.882462E-1,-6.651082E-1,7.0973337E-1,1.0118701E-1,-4.901215E-1,-1.0471162E0,1.16178684E-1,7.885411E-1,-5.6945976E-2,3.9635307E-1,-6.9119936E-1,-8.369785E-2,-1.0888367E0,-2.2613045E-2,4.940721E-2,-1.4937013E-2,2.5746806E-2,4.6570655E-2,8.449474E-3,-1.2406136E-2,1.0640298E-2,3.885243E-2,-4.9113583E-2,-2.3150234E-2,-1.971023E-2,1.1912849E-2,-5.8490235E-2,-3.7562843E-2],"categories":[],"categories_nodes":[],"categories_segments":[],"categories_sizes":[],"default_left":[0,0,0,0,0,0,0,0,1,0,0,1,1,0,0,0,0,0,0,0,0,0,0,0,0,0,0,0,0],"id":16,"left_children":[1,3,5,7,9,11,13,15,17,19,21,23,25,27,-1,-1,-1,-1,-1,-1,-1,-1,-1,-1,-1,-1,-1,-1,-1],"loss_changes":[2.6658456E2,7.552588E1,2.6875244E1,1.343425E1,3.1330534E1,2.3718422E1,1.9445496E0,1.4193674E1,8.90593E0,1.8967104E1,1.5822876E1,1.180513E1,1.0192437E1,1.1428528E0,0E0,0E0,0E0,0E0,0E0,0E0,0E0,0E0,0E0,0E0,0E0,0E0,0E0,0E0,0E0],"parents":[2147483647,0,0,1,1,2,2,3,3,4,4,5,5,6,6,7,7,8,8,9,9,10,10,11,11,12,12,13,13],"right_children":[2,4,6,8,10,12,14,16,18,20,22,24,26,28,-1,-1,-1,-1,-1,-1,-1,-1,-1,-1,-1,-1,-1,-1,-1],"split_conditions":[9.039684E0,7.975931E0,9.989565E0,3.149E0,9.113E0,5.056E0,1.1128E1,7.3602266E0,7.3E0,5.8071293E-2,1.1851852E-1,7.38E1,7.76E1,5.6E0,-2.2613045E-2,4.940721E-2,-1.4937013E-2,2.5746806E-2,4.6570655E-2,8.449474E-3,-1.2406136E-2,1.0640298E-2,3.885243E-2,-4.9113583E-2,-2.3150234E-2,-1.971023E-2,1.1912849E-2,-5.8490235E-2,-3.7562843E-2],"split_indices":[182,182,182,61,62,61,62,182,2,116,178,49,49,8,0,0,0,0,0,0,0,0,0,0,0,0,0,0,0],"split_type":[0,0,0,0,0,0,0,0,0,0,0,0,0,0,0,0,0,0,0,0,0,0,0,0,0,0,0,0,0],"sum_hessian":[1.3798055E3,9.5980554E2,4.1999997E2,2.9298526E2,6.6682025E2,2.9154245E2,1.2845752E2,3.5218304E1,2.5776697E2,4.348104E2,2.3200986E2,1.9377763E2,9.7764824E1,1.18172356E2,1.0285167E1,1.0619672E1,2.459863E1,9.2065865E1,1.657011E2,1.9891533E2,2.3589507E2,1.5899564E2,7.301422E1,8.186707E1,1.1191056E2,4.985498E1,4.7909847E1,9.085736E1,2.7314991E1],"tree_param":{"num_deleted":"0","num_feature":"183","num_nodes":"29","size_leaf_vector":"1"}},{"base_weights":[-8.191537E-3,4.3246484E-1,-2.7458668E-2,8.4136885E-1,1.0101394E-1,3.9357986E-2,-1.2518784E-1,1.5619134E-2,6.0799796E-2,-1.6115751E-2,3.4040844E-1,3.0763778E-1,-9.3356887E-4,-1.9091408E-1,1.3018595E-1,-8.037317E-3,3.8521588E-2,-2.1674084E-2,2.073295E-2,-2.8806796E-2,1.1241882E-3,1.3241856E-2,-1.2534382E-2,-1.1439773E-2,1.9489152E-2],"categories":[],"categories_nodes":[],"categories_segments":[],"categories_sizes":[],"default_left":[0,0,0,0,0,0,0,0,0,0,0,0,0,0,0,0,0,0,0,0,0,0,0,0,0],"id":17,"left_children":[1,3,5,7,9,11,13,-1,-1,-1,15,17,19,21,23,-1,-1,-1,-1,-1,-1,-1,-1,-1,-1],"loss_changes":[1.1510115E1,7.334306E0,8.566086E0,3.862753E0,3.6577592E0,8.460614E0,9.003092E0,0E0,0E0,0E0,5.3098764E0,8.454476E0,9.253905E0,1.1710323E1,1.0424709E1,0E0,0E0,0E0,0E0,0E0,0E0,0E0,0E0,0E0,0E0],"parents":[2147483647,0,0,1,1,2,2,3,3,4,4,5,5,6,6,10,10,11,11,12,12,13,13,14,14],"right_children":[2,4,6,8,10,12,14,-1,-1,-1,16,18,20,22,24,-1,-1,-1,-1,-1,-1,-1,-1,-1,-1],"split_conditions":[6.8664975E0,8.846256E-2,5.9885304E-2,3.6E0,4.266667E0,2.0568018E0,2.5235334E-1,1.5619134E-2,6.0799796E-2,-1.6115751E-2,7E-1,7.4333334E0,1.9964789E0,6.584667E-2,4.101852E0,-8.037317E-3,3.8521588E-2,-2.1674084E-2,2.073295E-2,-2.8806796E-2,1.1241882E-3,1.3241856E-2,-1.2534382E-2,-1.1439773E-2,1.9489152E-2],"split_indices":[42,59,91,8,7,171,76,0,0,0,51,36,25,74,28,0,0,0,0,0,0,0,0,0,0],"split_type":[0,0,0,0,0,0,0,0,0,0,0,0,0,0,0,0,0,0,0,0,0,0,0,0,0],"sum_hessian":[1.3604398E3,5.4759926E1,1.3056799E3,2.2867939E1,3.1891987E1,7.749802E2,5.306997E2,1.1222686E1,1.1645253E1,1.0968264E1,2.0923723E1,1.0010802E2,6.748722E2,4.2309467E2,1.0760502E2,1.0026269E1,1.0897454E1,1.1626325E1,8.848169E1,2.4887703E1,6.499845E2,4.7873047E1,3.7522162E2,4.4934563E1,6.2670456E1],"tree_param":{"num_deleted":"0","num_feature":"183","num_nodes":"25","size_leaf_vector":"1"}},{"base_weights":[-9.026795E-3,3.909698E-1,-4.593931E-1,9.330429E-1,3.1385672E-1,-2.5654867E-1,-8.486069E-1,1.5885403E-2,1.0435444E0,5.126065E-1,1.1216552E-1,-4.199874E-1,1.7035852E-1,-6.602318E-1,-5.8342773E-2,2.6858566E-2,5.691738E-2,3.754145E-2,1.7337127E-2,2.0819865E-2,-5.693607E-3,-2.7802074E-2,7.139604E-3,-1.085279E-2,2.2930609E-2,-4.514065E-2,-1.3006096E-2],"categories":[],"categories_nodes":[],"categories_segments":[],"categories_sizes":[],"default_left":[0,0,0,0,0,0,0,0,0,0,0,1,0,0,0,0,0,0,0,0,0,0,0,0,0,0,0],"id":18,"left_children":[1,3,5,7,9,11,13,-1,15,17,19,21,23,25,-1,-1,-1,-1,-1,-1,-1,-1,-1,-1,-1,-1,-1],"loss_changes":[2.4967838E2,2.983805E1,5.0828766E1,5.1875916E0,2.5645271E1,3.0328474E1,1.1415878E1,0E0,2.051422E0,1.2069061E1,2.2405758E1,2.422633E1,1.3721746E1,1.3331902E1,0E0,0E0,0E0,0E0,0E0,0E0,0E0,0E0,0E0,0E0,0E0,0E0,0E0],"parents":[2147483647,0,0,1,1,2,2,3,3,4,4,5,5,6,6,8,8,9,9,10,10,11,11,12,12,13,13],"right_children":[2,4,6,8,10,12,14,-1,16,18,20,22,24,26,-1,-1,-1,-1,-1,-1,-1,-1,-1,-1,-1,-1,-1],"split_conditions":[8.610403E0,7.4311767E0,9.535432E0,9E0,4.522707E-2,1.0561916E0,1.035815E1,1.5885403E-2,1.2285813E1,5.775572E-2,5.001936E-2,6.853846E0,8.982142E0,9.8E0,-5.8342773E-2,2.6858566E-2,5.691738E-2,3.754145E-2,1.7337127E-2,2.0819865E-2,-5.693607E-3,-2.7802074E-2,7.139604E-3,-1.085279E-2,2.2930609E-2,-4.514065E-2,-1.3006096E-2],"split_indices":[182,182,182,134,57,44,182,0,118,116,115,136,32,9,0,0,0,0,0,0,0,0,0,0,0,0,0],"split_type":[0,0,0,0,0,0,0,0,0,0,0,0,0,0,0,0,0,0,0,0,0,0,0,0,0,0,0],"sum_hessian":[1.3819155E3,7.317899E2,6.501256E2,8.804903E1,6.4374084E2,4.29906E2,2.2021964E2,1.4860064E1,7.3188965E1,3.2218237E2,3.215585E2,3.1124768E2,1.1865831E2,1.4259412E2,7.762552E1,1.3976762E1,5.9212204E1,1.2885492E2,1.9332745E2,1.3672975E2,1.8482875E2,2.5095717E2,6.0290524E1,5.0536785E1,6.812153E1,8.689699E1,5.5697132E1],"tree_param":{"num_deleted":"0","num_feature":"183","num_nodes":"27","size_leaf_vector":"1"}},{"base_weights":[-1.2776118E-3,4.110701E-1,-3.8259456E-1,7.652275E-1,2.9674426E-1,-2.082075E-1,-8.370198E-1,-3.633165E-3,8.287071E-1,5.493053E-1,5.482621E-2,5.4603994E-2,-4.3977273E-1,-9.3316406E-1,-2.867254E-1,4.9492776E-2,2.2284938E-2,-4.266568E-4,3.1675335E-2,1.9997317E-2,-9.074731E-3,3.7267447E-2,-3.0776148E-3,-1.5245259E-2,-3.7064552E-2,-3.762899E-2,-5.7157304E-2,-3.5407957E-2,1.6916087E-2],"categories":[],"categories_nodes":[],"categories_segments":[],"categories_sizes":[],"default_left":[0,0,0,0,0,0,0,0,1,0,0,0,0,0,0,0,0,0,0,0,0,0,0,0,0,0,0,0,0],"id":19,"left_children":[1,3,5,7,9,11,13,-1,15,17,19,21,23,25,27,-1,-1,-1,-1,-1,-1,-1,-1,-1,-1,-1,-1,-1,-1],"loss_changes":[2.1476611E2,2.5894958E1,5.570024E1,8.696541E0,3.034505E1,3.1528765E1,9.585419E0,0E0,7.942032E0,1.1587524E1,2.121572E1,1.9731535E1,1.051918E1,4.1784363E0,9.069987E0,0E0,0E0,0E0,0E0,0E0,0E0,0E0,0E0,0E0,0E0,0E0,0E0,0E0,0E0],"parents":[2147483647,0,0,1,1,2,2,3,3,4,4,5,5,6,6,8,8,9,9,10,10,11,11,12,12,13,13,14,14],"right_children":[2,4,6,8,10,12,14,-1,16,18,20,22,24,26,28,-1,-1,-1,-1,-1,-1,-1,-1,-1,-1,-1,-1,-1,-1],"split_conditions":[8.508438E0,7.7039056E0,9.576884E0,6.809E0,4.522707E-2,-4.557626E-2,6.081683E0,-3.633165E-3,1.973494E1,7.749E0,5.9138164E-2,3.5970905E-3,9.100065E0,1.0292775E1,3.1854394E-1,4.9492776E-2,2.2284938E-2,-4.266568E-4,3.1675335E-2,1.9997317E-2,-9.074731E-3,3.7267447E-2,-3.0776148E-3,-1.5245259E-2,-3.7064552E-2,-3.762899E-2,-5.7157304E-2,-3.5407957E-2,1.6916087E-2],"split_indices":[182,182,182,62,57,57,12,0,172,62,116,115,182,182,84,0,0,0,0,0,0,0,0,0,0,0,0,0,0],"split_type":[0,0,0,0,0,0,0,0,0,0,0,0,0,0,0,0,0,0,0,0,0,0,0,0,0,0,0,0,0],"sum_hessian":[1.3619269E3,6.540121E2,7.079148E2,1.5639552E2,4.9761658E2,5.1401605E2,1.9389873E2,1.0771996E1,1.4562352E2,2.4180528E2,2.5581131E2,2.4107559E2,2.7294046E2,1.635664E2,3.033232E1,9.990013E1,4.5723396E1,3.1636177E1,2.1016911E2,1.03753075E2,1.5205823E2,3.3392017E1,2.0768358E2,1.9182425E2,8.111621E1,9.338012E1,7.018629E1,1.814931E1,1.218301E1],"tree_param":{"num_deleted":"0","num_feature":"183","num_nodes":"29","size_leaf_vector":"1"}},{"base_weights":[-7.0773284E-3,2.3754506E-1,-5.709197E-1,5.874258E-1,8.2246944E-2,-4.451947E-1,-5.439011E-2,4.69178E-1,1.0210543E0,-8.834586E-2,3.90264E-1,-7.1585053E-1,-1.3336048E-1,1.2789165E-2,3.5380084E-2,5.9792966E-2,1.52104E-2,1.5720686E-2,-9.570512E-3,2.6536465E-2,-6.5121613E-3,-4.010714E-2,-7.822454E-3,-2.1984968E-2,9.068194E-3],"categories":[],"categories_nodes":[],"categories_segments":[],"categories_sizes":[],"default_left":[0,0,0,0,0,0,0,0,0,0,0,0,0,0,0,0,0,0,0,0,0,0,0,0,0],"id":20,"left_children":[1,3,5,7,9,11,-1,13,15,17,19,21,23,-1,-1,-1,-1,-1,-1,-1,-1,-1,-1,-1,-1],"loss_changes":[1.868106E2,5.1065067E1,2.5362457E1,1.3587639E1,3.4628498E1,2.777842E1,0E0,1.1224964E1,6.4865227E0,1.7685751E1,1.7385807E1,8.134514E0,1.5417148E1,0E0,0E0,0E0,0E0,0E0,0E0,0E0,0E0,0E0,0E0,0E0,0E0],"parents":[2147483647,0,0,1,1,2,2,3,3,4,4,5,5,7,7,8,8,9,9,10,10,11,11,12,12],"right_children":[2,4,6,8,10,12,-1,14,16,18,20,22,24,-1,-1,-1,-1,-1,-1,-1,-1,-1,-1,-1,-1],"split_conditions":[9.039684E0,7.975931E0,1.0330367E1,4.4074073E0,9.103E0,4.843E0,-5.439011E-2,2.5057242E0,9.8137036E-2,7.1586293E-1,6.447761E0,1.0043E1,1.0512199E0,1.2789165E-2,3.5380084E-2,5.9792966E-2,1.52104E-2,1.5720686E-2,-9.570512E-3,2.6536465E-2,-6.5121613E-3,-4.010714E-2,-7.822454E-3,-2.1984968E-2,9.068194E-3],"split_indices":[182,182,182,15,62,61,0,171,74,103,25,62,44,0,0,0,0,0,0,0,0,0,0,0,0],"split_type":[0,0,0,0,0,0,0,0,0,0,0,0,0,0,0,0,0,0,0,0,0,0,0,0,0],"sum_hessian":[1.3499521E3,9.420482E2,4.079039E2,2.8749036E2,6.5455786E2,3.3140375E2,7.650014E1,2.2952539E2,5.796498E1,4.217513E2,2.3280658E2,1.756854E2,1.5571835E2,1.2375039E2,1.05774994E2,4.5302406E1,1.2662575E1,8.4703064E1,3.3704825E2,1.8360379E2,4.920278E1,1.5114471E2,2.4540684E1,7.8829994E1,7.688837E1],"tree_param":{"num_deleted":"0","num_feature":"183","num_nodes":"25","size_leaf_vector":"1"}},{"base_weights":[1.4298474E-2,6.639414E-2,-1.24791704E-1,2.3569791E-1,-4.0240465E-3,-1.7899299E-1,3.033512E-1,3.032483E-1,-2.759099E-1,-1.3347949E-1,1.05437554E-1,-2.784047E-2,-3.534699E-1,-1.005116E-1,3.811189E-2,-1.8601913E-2,1.7603515E-2,7.0227534E-3,-3.139126E-2,1.3904745E-2,-1.1316368E-2,1.602812E-2,-4.9384305E-4,-1.4749646E-2,9.0567535E-3,-2.4618633E-2,6.975599E-4,-3.2172773E-2,2.2636868E-2],"categories":[],"categories_nodes":[],"categories_segments":[],"categories_sizes":[],"default_left":[0,0,0,0,0,0,0,0,0,0,1,0,0,0,0,0,0,0,0,0,0,0,0,0,0,0,0,0,0],"id":21,"left_children":[1,3,5,7,9,11,13,15,17,19,21,23,25,27,-1,-1,-1,-1,-1,-1,-1,-1,-1,-1,-1,-1,-1,-1,-1],"loss_changes":[9.788871E0,1.1787692E1,8.613673E0,1.0199081E1,9.904365E0,8.552814E0,8.001181E0,8.750027E0,5.3348055E0,1.2376663E1,9.438295E0,1.0095139E1,7.8383865E0,7.733535E0,0E0,0E0,0E0,0E0,0E0,0E0,0E0,0E0,0E0,0E0,0E0,0E0,0E0,0E0,0E0],"parents":[2147483647,0,0,1,1,2,2,3,3,4,4,5,5,6,6,7,7,8,8,9,9,10,10,11,11,12,12,13,13],"right_children":[2,4,6,8,10,12,14,16,18,20,22,24,26,28,-1,-1,-1,-1,-1,-1,-1,-1,-1,-1,-1,-1,-1,-1,-1],"split_conditions":[9.211165E0,1.9E1,6.458733E-2,1.1808924E1,3.0288966E0,5.1724136E-1,1.2683335E1,-2.695546E-1,8.959698E0,5.8444443E1,8.3E1,4.1666665E0,7.243375E-1,9.43544E0,3.811189E-2,-1.8601913E-2,1.7603515E-2,7.0227534E-3,-3.139126E-2,1.3904745E-2,-1.1316368E-2,1.602812E-2,-4.9384305E-4,-1.4749646E-2,9.0567535E-3,-2.4618633E-2,6.975599E-4,-3.2172773E-2,2.2636868E-2],"split_indices":[46,125,112,41,124,10,132,56,46,97,158,7,90,42,0,0,0,0,0,0,0,0,0,0,0,0,0,0,0],"split_type":[0,0,0,0,0,0,0,0,0,0,0,0,0,0,0,0,0,0,0,0,0,0,0,0,0,0,0,0,0],"sum_hessian":[1.3482603E3,9.8268335E2,3.6557687E2,2.8811804E2,6.945653E2,3.2594452E2,3.9632355E1,2.5557812E2,3.2539925E1,3.1885626E2,3.7570905E2,1.7650256E2,1.4944196E2,2.1678957E1,1.79534E1,1.6063065E1,2.3951506E2,1.519526E1,1.7344666E1,5.7560165E1,2.6129608E2,1.3047534E2,2.4523372E2,7.752681E1,9.897575E1,1.08346115E2,4.109584E1,1.0959247E1,1.071971E1],"tree_param":{"num_deleted":"0","num_feature":"183","num_nodes":"29","size_leaf_vector":"1"}},{"base_weights":[2.5220022E-3,3.3558348E-1,-3.841404E-1,6.167741E-1,1.9029197E-1,-1.9463596E-1,-7.5257486E-1,5.0499046E-1,1.0517446E0,4.11334E-2,5.4939944E-1,-4.0787694E-1,9.751116E-2,-5.669677E-1,-1.0986109E0,4.3938898E-2,1.9187702E-2,2.8346075E-2,5.8227032E-2,1.927307E-2,-8.1597855E-3,4.5379423E-2,1.6046276E-2,-2.5672352E-2,5.4213065E-3,-1.259953E-2,2.0451553E-2,-1.14097055E-2,-4.3187853E-2,-5.7837915E-2,-3.0268548E-2],"categories":[],"categories_nodes":[],"categories_segments":[],"categories_sizes":[],"default_left":[0,0,0,0,0,0,0,0,0,0,0,0,0,0,0,0,0,0,0,0,0,0,0,0,0,0,0,0,0,0,0],"id":22,"left_children":[1,3,5,7,9,11,13,15,17,19,21,23,25,27,29,-1,-1,-1,-1,-1,-1,-1,-1,-1,-1,-1,-1,-1,-1,-1,-1],"loss_changes":[1.7339612E2,2.9168747E1,4.300425E1,1.0547287E1,2.5573627E1,2.5954556E1,1.1940346E1,8.102783E0,9.534378E-1,2.4234764E1,1.0665894E1,1.32902565E1,1.94049E1,1.3615845E1,2.8271484E-1,0E0,0E0,0E0,0E0,0E0,0E0,0E0,0E0,0E0,0E0,0E0,0E0,0E0,0E0,0E0,0E0],"parents":[2147483647,0,0,1,1,2,2,3,3,4,4,5,5,6,6,7,7,8,8,9,9,10,10,11,11,12,12,13,13,14,14],"right_children":[2,4,6,8,10,12,14,16,18,20,22,24,26,28,30,-1,-1,-1,-1,-1,-1,-1,-1,-1,-1,-1,-1,-1,-1,-1,-1],"split_conditions":[8.610403E0,7.8955407E0,9.519846E0,8.956E0,9.113E0,1.0246608E0,1.035815E1,4.909091E-1,8.25E0,7.388679E-1,1.3399089E1,1.05E1,9.266666E0,-5.19E-1,5.694E0,4.3938898E-2,1.9187702E-2,2.8346075E-2,5.8227032E-2,1.927307E-2,-8.1597855E-3,4.5379423E-2,1.6046276E-2,-2.5672352E-2,5.4213065E-3,-1.259953E-2,2.0451553E-2,-1.14097055E-2,-4.3187853E-2,-5.7837915E-2,-3.0268548E-2],"split_indices":[182,182,182,62,62,44,182,156,2,103,118,5,36,63,60,0,0,0,0,0,0,0,0,0,0,0,0,0,0,0,0],"split_type":[0,0,0,0,0,0,0,0,0,0,0,0,0,0,0,0,0,0,0,0,0,0,0,0,0,0,0,0,0,0,0],"sum_hessian":[1.342501E3,7.216612E2,6.208397E2,2.4317148E2,4.7848972E2,4.123478E2,2.0849194E2,1.9725931E2,4.5912174E1,3.4003787E2,1.3845183E2,2.3830153E2,1.7404628E2,1.3951413E2,6.8977806E1,4.4846172E1,1.5241313E2,1.1274991E1,3.463718E1,1.26340065E2,2.1369781E2,5.126351E1,8.7188324E1,1.9817792E2,4.012361E1,8.19004E1,9.2145874E1,6.711572E1,7.239841E1,5.89342E1,1.0043609E1],"tree_param":{"num_deleted":"0","num_feature":"183","num_nodes":"31","size_leaf_vector":"1"}},{"base_weights":[1.7990934E-2,2.387783E-1,-5.446985E-1,5.015901E-1,3.1020226E-2,-4.3048176E-1,-1.0410169E0,8.5317796E-1,3.623218E-1,-2.7358009E-2,9.8788404E-1,-2.995833E-1,-1.0177801E0,-5.6538463E-2,-3.3739902E-2,5.502184E-2,2.1343388E-2,4.4151798E-2,1.1469691E-2,-8.834838E-3,1.144471E-2,1.6055789E-2,7.528948E-2,-1.9659186E-2,1.6827224E-2,-5.8179915E-2,-2.5183035E-2],"categories":[],"categories_nodes":[],"categories_segments":[],"categories_sizes":[],"default_left":[0,0,0,0,0,0,0,0,0,0,0,1,1,0,0,0,0,0,0,0,0,0,0,0,0,0,0],"id":23,"left_children":[1,3,5,7,9,11,13,15,17,19,21,23,25,-1,-1,-1,-1,-1,-1,-1,-1,-1,-1,-1,-1,-1,-1],"loss_changes":[1.6812982E2,5.2959187E1,2.0423141E1,2.013395E1,3.072704E1,2.3241776E1,4.001541E-1,1.1380142E1,2.0899654E1,1.9818382E1,9.589293E0,1.5734604E1,2.6971054E0,0E0,0E0,0E0,0E0,0E0,0E0,0E0,0E0,0E0,0E0,0E0,0E0,0E0,0E0],"parents":[2147483647,0,0,1,1,2,2,3,3,4,4,5,5,6,6,7,7,8,8,9,9,10,10,11,11,12,12],"right_children":[2,4,6,8,10,12,14,16,18,20,22,24,26,-1,-1,-1,-1,-1,-1,-1,-1,-1,-1,-1,-1,-1,-1],"split_conditions":[9.071188E0,8.18869E0,1.035815E1,7.3475814E-1,5.5666666E0,6.684262E-2,1.0147701E1,1.8986301E1,7.4087353E0,9.136E0,1.02E1,1.4895432E1,6.18E1,-5.6538463E-2,-3.3739902E-2,5.502184E-2,2.1343388E-2,4.4151798E-2,1.1469691E-2,-8.834838E-3,1.144471E-2,1.6055789E-2,7.528948E-2,-1.9659186E-2,1.6827224E-2,-5.8179915E-2,-2.5183035E-2],"split_indices":[182,182,182,103,8,57,43,172,182,62,36,170,53,0,0,0,0,0,0,0,0,0,0,0,0,0,0],"split_type":[0,0,0,0,0,0,0,0,0,0,0,0,0,0,0,0,0,0,0,0,0,0,0,0,0,0,0],"sum_hessian":[1.3497228E3,9.7044684E2,3.7927597E2,4.267815E2,5.4366534E2,3.11686E2,6.758997E1,1.1777237E2,3.0900912E2,5.140377E2,2.9627626E1,2.5762637E2,5.4059635E1,5.0493587E1,1.709639E1,7.2241005E1,4.5531364E1,6.024052E1,2.487686E2,3.2565424E2,1.883835E2,1.4537634E1,1.50899935E1,2.255212E2,3.210517E1,3.984339E1,1.4216245E1],"tree_param":{"num_deleted":"0","num_feature":"183","num_nodes":"27","size_leaf_vector":"1"}},{"base_weights":[-1.064633E-2,-2.2429336E-2,6.485511E-1,4.6599174E-1,-3.466628E-2,4.8250604E-2,8.74824E-3,-3.8537432E-3,3.82955E-2,-1.8360633E-1,3.0101142E-3,1.5761976E-3,-2.2474525E-2,4.0505053E-3,-5.619572E-3],"categories":[],"categories_nodes":[],"categories_segments":[],"categories_sizes":[],"default_left":[0,0,0,1,0,0,0,0,0,0,0,0,0,0,0],"id":24,"left_children":[1,3,5,7,9,-1,-1,-1,-1,11,13,-1,-1,-1,-1],"loss_changes":[1.0288305E1,7.809643E0,2.9183235E0,5.4510384E0,7.252491E0,0E0,0E0,0E0,0E0,1.5023665E1,9.25718E0,0E0,0E0,0E0,0E0],"parents":[2147483647,0,0,1,1,2,2,3,3,4,4,9,9,10,10],"right_children":[2,4,6,8,10,-1,-1,-1,-1,12,14,-1,-1,-1,-1],"split_conditions":[1.2303E-1,1.2583333E1,1.1E0,8.019802E-1,1.634E3,4.8250604E-2,8.74824E-3,-3.8537432E-3,3.82955E-2,5.861788E-2,7.3083013E-1,1.5761976E-3,-2.2474525E-2,4.0505053E-3,-5.619572E-3],"split_indices":[73,54,51,139,64,0,0,0,0,91,98,0,0,0,0],"split_type":[0,0,0,0,0,0,0,0,0,0,0,0,0,0,0],"sum_hessian":[1.3349381E3,1.3136915E3,2.1246593E1,2.9896772E1,1.2837948E3,1.1238876E1,1.0007716E1,1.0928161E1,1.896861E1,2.5869586E2,1.0250989E3,1.4355464E2,1.1514121E2,6.130602E2,4.120387E2],"tree_param":{"num_deleted":"0","num_feature":"183","num_nodes":"15","size_leaf_vector":"1"}},{"base_weights":[-2.4798963E-2,2.940974E-1,-4.2511475E-1,5.67139E-1,1.5922032E-1,-2.5011292E-1,-7.5230974E-1,2.156398E-1,7.0961565E-1,4.0449914E-1,-3.0357698E-2,-4.457981E-1,6.3558154E-2,-8.1141555E-1,-0E0,2.341575E-2,-1.7628342E-2,3.991711E-2,1.0596573E-2,2.89251E-2,5.5170287E-3,-6.618265E-3,3.5635743E-2,-2.574843E-2,2.2327516E-3,-2.761655E-2,1.0594089E-2,-3.2531757E-2,-5.7366785E-2],"categories":[],"categories_nodes":[],"categories_segments":[],"categories_sizes":[],"default_left":[0,0,0,0,0,0,0,0,0,0,0,1,0,0,0,0,0,0,0,0,0,0,0,0,0,0,0,0,0],"id":25,"left_children":[1,3,5,7,9,11,13,15,17,19,21,23,25,27,-1,-1,-1,-1,-1,-1,-1,-1,-1,-1,-1,-1,-1,-1,-1],"loss_changes":[1.7102428E2,2.7124176E1,3.344419E1,1.1787918E1,2.3451035E1,2.4102365E1,9.036949E0,1.097718E1,7.1072083E0,1.09712105E1,2.1649496E1,8.320019E0,1.3994753E1,8.436615E0,0E0,0E0,0E0,0E0,0E0,0E0,0E0,0E0,0E0,0E0,0E0,0E0,0E0,0E0,0E0],"parents":[2147483647,0,0,1,1,2,2,3,3,4,4,5,5,6,6,7,7,8,8,9,9,10,10,11,11,12,12,13,13],"right_children":[2,4,6,8,10,12,14,16,18,20,22,24,26,28,-1,-1,-1,-1,-1,-1,-1,-1,-1,-1,-1,-1,-1,-1,-1],"split_conditions":[8.644605E0,7.8955407E0,9.496903E0,9.870968E-1,5.943348E-2,9.666667E0,1.1072E1,9.177E-2,9.453554E-2,8.400581E0,9.689E0,1.3924761E1,4.162791E0,1.035815E1,-0E0,2.341575E-2,-1.7628342E-2,3.991711E-2,1.0596573E-2,2.89251E-2,5.5170287E-3,-6.618265E-3,3.5635743E-2,-2.574843E-2,2.2327516E-3,-2.761655E-2,1.0594089E-2,-3.2531757E-2,-5.7366785E-2],"split_indices":[182,182,182,137,116,5,62,73,86,182,62,170,15,182,0,0,0,0,0,0,0,0,0,0,0,0,0,0,0],"split_type":[0,0,0,0,0,0,0,0,0,0,0,0,0,0,0,0,0,0,0,0,0,0,0,0,0,0,0,0,0],"sum_hessian":[1.3355298E3,7.4337744E2,5.921523E2,2.431858E2,5.0019162E2,3.8850085E2,2.0365144E2,7.199649E1,1.7118932E2,2.175325E2,2.8265912E2,2.3911992E2,1.4938094E2,1.8850792E2,1.5143524E1,5.0322304E1,2.1674185E1,1.4392113E2,2.726818E1,1.3503967E2,8.249283E1,2.50222E2,3.243712E1,2.0983403E2,2.928588E1,2.7673845E1,1.2170709E2,1.3186359E2,5.6644344E1],"tree_param":{"num_deleted":"0","num_feature":"183","num_nodes":"29","size_leaf_vector":"1"}},{"base_weights":[2.6395176E-2,2.389631E-1,-4.9117884E-1,4.614358E-1,5.7798866E-2,-3.4051517E-1,-8.872282E-1,3.3767673E-1,7.142621E-1,-7.504487E-3,1.0057429E0,-6.418189E-1,-8.146349E-2,-9.41452E-1,-1.70031E-2,4.9946114E-2,1.3379835E-2,4.12956E-2,-2.296155E-3,-5.0945054E-3,2.1726204E-2,7.281067E-2,2.9821387E-2,-2.059207E-2,-5.3305518E-2,-1.2439449E-2,2.4564195E-2,-2.138627E-2,-4.985342E-2],"categories":[],"categories_nodes":[],"categories_segments":[],"categories_sizes":[],"default_left":[0,0,0,0,0,1,0,0,0,0,0,0,0,0,0,0,0,0,0,0,0,0,0,0,0,0,0,0,0],"id":26,"left_children":[1,3,5,7,9,11,13,15,17,19,21,23,25,27,-1,-1,-1,-1,-1,-1,-1,-1,-1,-1,-1,-1,-1,-1,-1],"loss_changes":[1.4639839E2,3.787744E1,2.2259926E1,1.2535675E1,3.258533E1,2.1931309E1,2.2221909E0,1.2565483E1,1.1826912E1,2.0507212E1,4.105625E0,1.1582058E1,1.5093274E1,1.552887E0,0E0,0E0,0E0,0E0,0E0,0E0,0E0,0E0,0E0,0E0,0E0,0E0,0E0,0E0,0E0],"parents":[2147483647,0,0,1,1,2,2,3,3,4,4,5,5,6,6,7,7,8,8,9,9,10,10,11,11,12,12,13,13],"right_children":[2,4,6,8,10,12,14,16,18,20,22,24,26,28,-1,-1,-1,-1,-1,-1,-1,-1,-1,-1,-1,-1,-1,-1,-1],"split_conditions":[9.039684E0,8.18869E0,9.989565E0,8.966666E0,1.0299E1,7.57E1,5.3186812E0,7.1303554E0,9.389706E0,4.965E0,6.896722E-1,7.5572636E-3,5.338E0,3E0,-1.70031E-2,4.9946114E-2,1.3379835E-2,4.12956E-2,-2.296155E-3,-5.0945054E-3,2.1726204E-2,7.281067E-2,2.9821387E-2,-2.059207E-2,-5.3305518E-2,-1.2439449E-2,2.4564195E-2,-2.138627E-2,-4.985342E-2],"split_indices":[182,182,182,36,62,49,14,182,46,61,105,57,61,81,0,0,0,0,0,0,0,0,0,0,0,0,0,0,0],"split_type":[0,0,0,0,0,0,0,0,0,0,0,0,0,0,0,0,0,0,0,0,0,0,0,0,0,0,0,0,0],"sum_hessian":[1.3269817E3,9.416915E2,3.852902E2,4.207749E2,5.209166E2,2.821719E2,1.03118286E2,2.8616083E2,1.3461407E2,4.890027E2,3.1913948E1,1.2872469E2,1.5344722E2,9.2176895E1,1.0941391E1,2.4608019E1,2.615528E2,1.17453606E2,1.7160471E1,4.0460046E2,8.440222E1,1.2525289E1,1.9388659E1,8.6339195E1,4.238549E1,1.1989957E2,3.3547665E1,1.1053487E1,8.1123405E1],"tree_param":{"num_deleted":"0","num_feature":"183","num_nodes":"29","size_leaf_vector":"1"}},{"base_weights":[-8.254219E-3,2.0551927E-1,-4.760211E-1,6.003895E-1,1.0797619E-1,-3.7697133E-1,-9.910689E-1,6.661385E-1,-0E0,-1.1633925E-1,2.5926816E-1,-6.0442686E-1,-1.11957885E-1,-5.2990694E-2,-2.4546532E-2,3.7787233E-2,8.64455E-3,-0E0,-3.2590702E-2,2.47427E-2,4.3206797E-3,-4.430335E-2,-1.7768454E-2,3.5255957E-2,-1.0665259E-2],"categories":[],"categories_nodes":[],"categories_segments":[],"categories_sizes":[],"default_left":[0,0,0,0,0,0,0,0,0,0,0,1,0,0,0,0,0,0,0,0,0,0,0,0,0],"id":27,"left_children":[1,3,5,7,9,11,13,15,-1,17,19,21,23,-1,-1,-1,-1,-1,-1,-1,-1,-1,-1,-1,-1],"loss_changes":[1.3433423E2,3.5218525E1,2.04814E1,7.0840454E0,2.5261158E1,2.124427E1,9.3323517E-1,6.7815094E0,0E0,1.8725788E1,1.78837E1,1.2539391E1,1.4095518E1,0E0,0E0,0E0,0E0,0E0,0E0,0E0,0E0,0E0,0E0,0E0,0E0],"parents":[2147483647,0,0,1,1,2,2,3,3,4,4,5,5,6,6,7,7,9,9,10,10,11,11,12,12],"right_children":[2,4,6,8,10,12,14,16,-1,18,20,22,24,-1,-1,-1,-1,-1,-1,-1,-1,-1,-1,-1,-1],"split_conditions":[8.919796E0,7.760925E0,1.0330367E1,1.5090998E1,8.539E0,4.843E0,1.21819E0,1.08398624E-1,-0E0,4.170043E-1,4.0560183E-1,7.57E1,7.204742E-1,-5.2990694E-2,-2.4546532E-2,3.7787233E-2,8.64455E-3,-0E0,-3.2590702E-2,2.47427E-2,4.3206797E-3,-4.430335E-2,-1.7768454E-2,3.5255957E-2,-1.0665259E-2],"split_indices":[182,182,182,127,62,61,44,110,0,100,100,49,103,0,0,0,0,0,0,0,0,0,0,0,0],"split_type":[0,0,0,0,0,0,0,0,0,0,0,0,0,0,0,0,0,0,0,0,0,0,0,0,0],"sum_hessian":[1.3388962E3,9.194112E2,4.194851E2,1.7967935E2,7.397318E2,3.5505582E2,6.4429276E1,1.6154951E2,1.812983E1,2.976123E2,4.421195E2,1.8928247E2,1.6577336E2,5.4324318E1,1.0104954E1,1.3546951E2,2.6080002E1,2.4599252E2,5.16198E1,1.8504138E2,2.5707812E2,8.605321E1,1.0322926E2,1.676038E1,1.4901297E2],"tree_param":{"num_deleted":"0","num_feature":"183","num_nodes":"25","size_leaf_vector":"1"}}]},"name":"gbtree"},"learner_model_param":{"base_score":"[4.257875E-1]","boost_from_average":"1","num_class":"0","num_feature":"183","num_target":"1"},"objective":{"name":"binary:logistic","reg_loss_param":{"scale_pos_weight":"1"}}},"version":[3,2,0]}