{"learner":{"attributes":{"best_iteration":"12","best_score":"0.6500205730774868","scikit_learn":"{\"_estimator_type\": \"classifier\"}"},"feature_names":["away_team_id","home_team_id","h2h_avg_total_runs","home_avg_runs_scored_10g","home_avg_runs_allowed_10g","home_avg_total_runs_10g","home_win_pct_10g","home_avg_runs_scored_30g","home_avg_runs_allowed_30g","home_avg_total_runs_30g","home_win_pct_30g","home_bullpen_era_10g","home_bullpen_era_30g","home_bullpen_era_season","home_season_avg_scored","home_season_avg_allowed","home_days_rest","away_avg_runs_scored_10g","away_avg_runs_allowed_10g","away_avg_total_runs_10g","away_win_pct_10g","away_avg_runs_scored_30g","away_avg_runs_allowed_30g","away_avg_total_runs_30g","away_win_pct_30g","away_bullpen_era_10g","away_bullpen_era_30g","away_bullpen_era_season","away_season_avg_scored","away_season_avg_allowed","away_days_rest","combined_scoring_10g","combined_allowed_10g","home_offense_vs_away_pitching_10g","away_offense_vs_home_pitching_10g","combined_scoring_30g","combined_allowed_30g","home_offense_vs_away_pitching_30g","away_offense_vs_home_pitching_30g","combined_season_scoring","combined_season_allowed","combined_bullpen_era_10g","combined_bullpen_era_30g","combined_bullpen_era_season","park_factor","league_avg_total_runs_7d","league_avg_total_runs_30d","league_avg_total_runs_season","is_dome","temp_f","wind_mph","precip_mm","humidity_pct","dew_point_f","first_pitch_local_hour","is_night_game","home_dc_attack","home_dc_defense","away_dc_attack","away_dc_defense","dc_lambda_home","dc_lambda_away","dc_expected_total","dc_home_edge","dc_fit_n_games","home_rolling_ops_10g","home_rolling_ops_30g","home_rolling_bb_pct_10g","home_rolling_bb_pct_30g","home_rolling_k_pct_10g","home_rolling_k_pct_30g","away_rolling_ops_10g","away_rolling_ops_30g","away_rolling_bb_pct_10g","away_rolling_bb_pct_30g","away_rolling_k_pct_10g","away_rolling_k_pct_30g","home_lineup_confirmed","home_lineup_batters_known","home_lineup_batters_with_sample","home_lineup_low_pa_batters","home_lineup_platoon_adv_batters","home_lineup_avg_pre_pa","home_lineup_avg_ops","home_lineup_avg_obp","home_lineup_avg_slg","home_lineup_avg_bb_pct","home_lineup_avg_k_pct","home_lineup_top3_avg_ops","home_lineup_mid3_avg_ops","home_lineup_bottom3_avg_ops","home_lineup_std_ops","away_lineup_confirmed","away_lineup_batters_known","away_lineup_batters_with_sample","away_lineup_low_pa_batters","away_lineup_platoon_adv_batters","away_lineup_avg_pre_pa","away_lineup_avg_ops","away_lineup_avg_obp","away_lineup_avg_slg","away_lineup_avg_bb_pct","away_lineup_avg_k_pct","away_lineup_top3_avg_ops","away_lineup_mid3_avg_ops","away_lineup_bottom3_avg_ops","away_lineup_std_ops","home_lineup_delta_ops_30g","home_lineup_delta_bb_pct_30g","home_lineup_delta_k_pct_30g","home_lineup_top3_delta_ops_30g","home_lineup_depth_gap_ops","away_lineup_delta_ops_30g","away_lineup_delta_bb_pct_30g","away_lineup_delta_k_pct_30g","away_lineup_top3_delta_ops_30g","away_lineup_depth_gap_ops","home_bullpen_top2_quality_score","home_bullpen_top4_quality_score","home_bullpen_top2_used_yesterday","home_bullpen_top2_b2b","home_bullpen_top4_used_yesterday","home_bullpen_top4_b2b","home_bullpen_top4_available_score","home_bullpen_top4_burned_score","home_bullpen_top4_pitches_3d","away_bullpen_top2_quality_score","away_bullpen_top4_quality_score","away_bullpen_top2_used_yesterday","away_bullpen_top2_b2b","away_bullpen_top4_used_yesterday","away_bullpen_top4_b2b","away_bullpen_top4_available_score","away_bullpen_top4_burned_score","away_bullpen_top4_pitches_3d","ump_avg_total_runs","home_pitcher_era_3g","home_pitcher_whip_3g","home_pitcher_k9_3g","home_pitcher_hr9_3g","home_pitcher_ip_3g","home_pitcher_avg_pitches_3g","home_pitcher_prev_pitches","home_pitcher_avg_bf_3g","home_pitcher_prev_bf","home_pitcher_days_rest","home_pitcher_short_rest","home_pitcher_long_rest","home_pitcher_offseason_gap","home_pitcher_short_leash_score","home_pitcher_workhorse_score","home_pitcher_opener_flag","home_pitcher_bulk_flag","away_pitcher_era_3g","away_pitcher_whip_3g","away_pitcher_k9_3g","away_pitcher_hr9_3g","away_pitcher_ip_3g","away_pitcher_avg_pitches_3g","away_pitcher_prev_pitches","away_pitcher_avg_bf_3g","away_pitcher_prev_bf","away_pitcher_days_rest","away_pitcher_short_rest","away_pitcher_long_rest","away_pitcher_offseason_gap","away_pitcher_short_leash_score","away_pitcher_workhorse_score","away_pitcher_opener_flag","away_pitcher_bulk_flag","combined_pitcher_era","combined_pitcher_whip","combined_pitcher_k9","combined_pitcher_avg_pitches_3g","combined_pitcher_prev_pitches","combined_pitcher_avg_bf_3g","combined_pitcher_short_rest_flags","combined_pitcher_offseason_gap_flags","combined_pitcher_short_leash_score","combined_pitcher_workhorse_score","combined_pitcher_opener_flags","combined_pitcher_bulk_flags","point_prediction"],"feature_types":["int","int","float","float","float","float","float","float","float","float","float","float","float","float","float","float","float","float","float","float","float","float","float","float","float","float","float","float","float","float","float","float","float","float","float","float","float","float","float","float","float","float","float","float","float","float","float","float","int","float","float","float","float","float","float","float","float","float","float","float","float","float","float","float","int","float","float","float","float","float","float","float","float","float","float","float","float","float","float","float","float","float","float","float","float","float","float","float","float","float","float","float","float","float","float","float","float","float","float","float","float","float","float","float","float","float","float","float","float","float","float","float","float","float","float","float","float","float","float","float","float","float","float","float","float","float","float","float","float","float","float","float","float","float","float","float","float","float","float","float","float","float","float","float","float","float","float","float","float","float","float","float","float","float","float","float","float","float","float","float","float","float","float","float","float","float","float","float","float","float","float","float","float","float","float","float","float","float","float","float","float","float","float"],"gradient_booster":{"model":{"cats":{"enc":[],"feature_segments":[],"sorted_idx":[]},"gbtree_model_param":{"num_parallel_tree":"1","num_trees":"33"},"iteration_indptr":[0,1,2,3,4,5,6,7,8,9,10,11,12,13,14,15,16,17,18,19,20,21,22,23,24,25,26,27,28,29,30,31,32,33],"tree_info":[0,0,0,0,0,0,0,0,0,0,0,0,0,0,0,0,0,0,0,0,0,0,0,0,0,0,0,0,0,0,0,0,0],"trees":[{"base_weights":[-1.8133713E-3,-6.105576E-1,1.1745414E0,-1.1533959E0,-2.4810839E-1,8.094922E-1,2.123742E0,-1.3686428E0,-9.7772455E-1,-6.7814976E-1,-3.3228293E-2,1.4537469E0,4.9592942E-1,1.0885813E-1,6.206124E-2,-3.4546137E-2,-7.01315E-2,-1.7761594E-2,-5.3577434E-2,-4.4568125E-2,-1.4156932E-2,-1.4665629E-2,1.9638937E-2,4.5834906E-2,8.3784886E-2,7.851459E-3,4.6776347E-2],"categories":[],"categories_nodes":[],"categories_segments":[],"categories_sizes":[],"default_left":[0,0,0,0,0,0,0,0,0,0,0,0,0,0,0,0,0,0,0,0,0,0,0,0,0,0,0],"id":0,"left_children":[1,3,5,7,9,11,13,15,17,19,21,23,25,-1,-1,-1,-1,-1,-1,-1,-1,-1,-1,-1,-1,-1,-1],"loss_changes":[1.02117584E3,1.840823E2,1.6445892E2,1.1055176E1,5.215103E1,6.9795E1,2.1362305E-1,1.4034119E0,1.1469589E1,1.511927E1,4.232332E1,1.0096832E1,3.5501072E1,0E0,0E0,0E0,0E0,0E0,0E0,0E0,0E0,0E0,0E0,0E0,0E0,0E0,0E0],"parents":[2147483647,0,0,1,1,2,2,3,3,4,4,5,5,6,6,7,7,8,8,9,9,10,10,11,11,12,12],"right_children":[2,4,6,8,10,12,14,16,18,20,22,24,26,-1,-1,-1,-1,-1,-1,-1,-1,-1,-1,-1,-1,-1,-1],"split_conditions":[9.039684E0,8.112209E0,1.0185959E1,7.7039056E0,-4.6831124E-2,8.871E0,1.1128E1,1.13E2,7.549E0,8.707304E0,8.594541E0,-6.73519E-2,9.535432E0,1.0885813E-1,6.206124E-2,-3.4546137E-2,-7.01315E-2,-1.7761594E-2,-5.3577434E-2,-4.4568125E-2,-1.4156932E-2,-1.4665629E-2,1.9638937E-2,4.5834906E-2,8.3784886E-2,7.851459E-3,4.6776347E-2],"split_indices":[182,182,182,182,57,62,62,1,62,182,182,57,182,0,0,0,0,0,0,0,0,0,0,0,0,0,0],"split_type":[0,0,0,0,0,0,0,0,0,0,0,0,0,0,0,0,0,0,0,0,0,0,0,0,0,0,0],"sum_hessian":[1.4221805E3,9.3794257E2,4.842379E2,3.7355496E2,5.6438763E2,3.5256335E2,1.3167455E2,1.6125362E2,2.1230135E2,1.863004E2,3.7808725E2,1.1282982E2,2.3973355E2,1.2117875E2,1.0495797E1,1.0018716E1,1.512349E2,2.9340523E1,1.8296083E2,1.1903188E2,6.726852E1,2.3543982E2,1.4264743E2,3.625821E1,7.657161E1,1.3716098E2,1.0257256E2],"tree_param":{"num_deleted":"0","num_feature":"183","num_nodes":"27","size_leaf_vector":"1"}},{"base_weights":[5.1615317E-3,-6.18879E-1,1.0686866E0,-1.1171972E0,-2.5839844E-1,7.655853E-1,1.9786886E0,-7.3281236E-2,-1.0133175E0,-7.107219E-1,-3.8513377E-2,1.1254631E0,2.9807562E-1,6.646042E-2,1.0307437E-1,-4.3218736E-2,-6.5060854E-2,-4.473908E-2,-1.478509E-2,-1.1642505E-2,2.2821704E-2,3.579925E-2,7.320707E-2,2.5511935E-2,-1.3230319E-2],"categories":[],"categories_nodes":[],"categories_segments":[],"categories_sizes":[],"default_left":[0,0,0,0,0,0,0,0,0,0,0,0,0,0,0,0,0,0,0,0,0,0,0,0,0],"id":1,"left_children":[1,3,5,7,9,11,13,-1,15,17,19,21,23,-1,-1,-1,-1,-1,-1,-1,-1,-1,-1,-1,-1],"loss_changes":[9.5264764E2,1.6161053E2,1.4284369E2,1.024411E1,5.2271996E1,6.661977E1,8.97522E-1,0E0,1.0126648E1,1.238504E1,3.4549007E1,2.8807251E1,2.1528358E1,0E0,0E0,0E0,0E0,0E0,0E0,0E0,0E0,0E0,0E0,0E0,0E0],"parents":[2147483647,0,0,1,1,2,2,3,3,4,4,5,5,6,6,8,8,9,9,10,10,11,11,12,12],"right_children":[2,4,6,8,10,12,14,-1,16,18,20,22,24,-1,-1,-1,-1,-1,-1,-1,-1,-1,-1,-1,-1],"split_conditions":[8.919796E0,8.121839E0,1.0217056E1,7.4087353E0,-4.6831124E-2,4.863E0,1.0330367E1,-7.3281236E-2,9E0,8.707304E0,8.650762E0,9.315826E0,1.0233334E1,6.646042E-2,1.0307437E-1,-4.3218736E-2,-6.5060854E-2,-4.473908E-2,-1.478509E-2,-1.1642505E-2,2.2821704E-2,3.579925E-2,7.320707E-2,2.5511935E-2,-1.3230319E-2],"split_indices":[182,182,182,182,57,61,182,0,36,182,182,182,9,0,0,0,0,0,0,0,0,0,0,0,0],"split_type":[0,0,0,0,0,0,0,0,0,0,0,0,0,0,0,0,0,0,0,0,0,0,0,0,0],"sum_hessian":[1.4312676E3,9.0241125E2,5.288563E2,3.767918E2,5.2561945E2,3.9964566E2,1.2921063E2,8.007281E1,2.96719E2,1.7017665E2,3.554428E2,2.2398492E2,1.7566074E2,1.8739439E1,1.104712E2,2.0128502E2,9.543398E1,1.1595652E2,5.4220127E1,2.5627994E2,9.916287E1,1.0448105E2,1.19503876E2,1.27955925E2,4.7704815E1],"tree_param":{"num_deleted":"0","num_feature":"183","num_nodes":"25","size_leaf_vector":"1"}},{"base_weights":[-3.7321965E-3,-7.5305426E-1,7.8247267E-1,-1.1481128E0,-5.053296E-1,3.360675E-1,1.5320415E0,-6.990727E-2,-1.0454367E0,-3.3839944E-1,-8.568591E-1,6.8829226E-1,-1.0253836E-1,1.0823367E0,1.898702E0,-2.8153688E-2,-5.6387063E-2,4.1091267E-2,-1.9368425E-2,-2.9608134E-2,-5.5098463E-2,4.8188534E-2,1.7972028E-2,1.4973873E-2,-2.1738995E-2,7.948607E-2,2.8676385E-2,8.0122754E-2,1.05558574E-1],"categories":[],"categories_nodes":[],"categories_segments":[],"categories_sizes":[],"default_left":[0,0,0,0,0,0,0,0,0,0,0,0,0,0,0,0,0,0,0,0,0,0,0,0,0,0,0,0,0],"id":2,"left_children":[1,3,5,7,9,11,13,-1,15,17,19,21,23,25,27,-1,-1,-1,-1,-1,-1,-1,-1,-1,-1,-1,-1,-1,-1],"loss_changes":[8.43775E2,7.0289825E1,2.3242609E2,3.7964478E0,2.5861694E1,6.83416E1,3.8182312E1,0E0,6.631439E0,1.8274551E1,7.7443085E0,2.1231339E1,2.6702991E1,2.9167297E1,1.3275452E0,0E0,0E0,0E0,0E0,0E0,0E0,0E0,0E0,0E0,0E0,0E0,0E0,0E0,0E0],"parents":[2147483647,0,0,1,1,2,2,3,3,4,4,5,5,6,6,8,8,9,9,10,10,11,11,12,12,13,13,14,14],"right_children":[2,4,6,8,10,12,14,-1,16,18,20,22,24,26,28,-1,-1,-1,-1,-1,-1,-1,-1,-1,-1,-1,-1,-1,-1],"split_conditions":[8.658751E0,7.975931E0,9.619775E0,7.3903403E0,9.122E0,1.0223297E0,1.0217056E1,-6.990727E-2,7.7E0,-1.7667529E-1,4.39823E0,4.445E0,9.233334E0,4.92E0,1.0841627E1,-2.8153688E-2,-5.6387063E-2,4.1091267E-2,-1.9368425E-2,-2.9608134E-2,-5.5098463E-2,4.8188534E-2,1.7972028E-2,1.4973873E-2,-2.1738995E-2,7.948607E-2,2.8676385E-2,8.0122754E-2,1.05558574E-1],"split_indices":[182,182,182,182,62,44,182,0,9,59,15,61,36,61,182,0,0,0,0,0,0,0,0,0,0,0,0,0,0],"split_type":[0,0,0,0,0,0,0,0,0,0,0,0,0,0,0,0,0,0,0,0,0,0,0,0,0,0,0,0,0],"sum_hessian":[1.4282714E3,7.314624E2,6.9680896E2,2.787884E2,4.52674E2,4.387032E2,2.581058E2,7.324444E1,2.0554395E2,3.099723E2,1.4270172E2,2.4293243E2,1.9577075E2,1.197199E2,1.3838591E2,3.2599613E1,1.7294434E2,1.1109341E1,2.9886298E2,7.2286606E1,7.0415115E1,1.297617E2,1.1317072E2,8.8400475E1,1.0737027E2,5.761966E1,6.2100246E1,6.532645E1,7.3059456E1],"tree_param":{"num_deleted":"0","num_feature":"183","num_nodes":"29","size_leaf_vector":"1"}},{"base_weights":[8.441117E-3,-5.5055493E-1,1.0383856E0,-1.060119E0,-2.255044E-1,7.084988E-1,1.7417072E0,-6.712875E-2,-9.6659523E-1,1.5037806E-1,-4.3359366E-1,1.2050943E0,3.9016867E-1,9.015017E-2,3.8724884E-2,-2.3740334E-2,-5.1609028E-2,-7.311364E-3,2.896708E-2,-3.3724736E-2,-8.164737E-3,6.666551E-2,1.5987456E-2,6.725716E-3,3.908482E-2],"categories":[],"categories_nodes":[],"categories_segments":[],"categories_sizes":[],"default_left":[0,0,0,0,0,0,0,0,0,0,0,0,0,0,0,0,0,0,0,0,0,0,0,0,0],"id":3,"left_children":[1,3,5,7,9,11,13,-1,15,17,19,21,23,-1,-1,-1,-1,-1,-1,-1,-1,-1,-1,-1,-1],"loss_changes":[8.2142474E2,1.5240863E2,1.1351288E2,6.4344482E0,4.455792E1,5.3322968E1,6.101166E0,0E0,7.672455E0,2.6120384E1,2.3444038E1,1.399057E1,2.0987751E1,0E0,0E0,0E0,0E0,0E0,0E0,0E0,0E0,0E0,0E0,0E0,0E0],"parents":[2147483647,0,0,1,1,2,2,3,3,4,4,5,5,6,6,8,8,9,9,10,10,11,11,12,12],"right_children":[2,4,6,8,10,12,14,-1,16,18,20,22,24,-1,-1,-1,-1,-1,-1,-1,-1,-1,-1,-1,-1],"split_conditions":[9.039684E0,8.102636E0,1.012606E1,7.4087353E0,4.044E0,9.094E0,1.0812048E1,-6.712875E-2,7.437E0,8.560907E0,7.328967E-1,5.3333335E0,9.562365E0,9.015017E-2,3.8724884E-2,-2.3740334E-2,-5.1609028E-2,-7.311364E-3,2.896708E-2,-3.3724736E-2,-8.164737E-3,6.666551E-2,1.5987456E-2,6.725716E-3,3.908482E-2],"split_indices":[182,182,182,182,61,62,40,0,62,182,98,8,182,0,0,0,0,0,0,0,0,0,0,0,0],"split_type":[0,0,0,0,0,0,0,0,0,0,0,0,0,0,0,0,0,0,0,0,0,0,0,0,0],"sum_hessian":[1.4225857E3,9.2259155E2,4.9999414E2,3.573131E2,5.6527844E2,3.432805E2,1.5671367E2,8.170431E1,2.756088E2,2.0128337E2,3.639951E2,1.3167212E2,2.1160837E2,1.4555424E2,1.1159412E1,3.4728344E1,2.4088046E2,1.1950443E2,8.177893E1,1.9049117E2,1.735039E2,1.1393429E2,1.7737831E1,1.2995204E2,8.1656334E1],"tree_param":{"num_deleted":"0","num_feature":"183","num_nodes":"25","size_leaf_vector":"1"}},{"base_weights":[8.296048E-3,-7.212276E-2,2.746929E-1,-2.057255E-1,2.8430803E-2,-2.4748733E-3,4.761736E-1,-1.391022E-1,-6.3934696E-1,4.7790638E-1,-2.2005688E-2,5.0658035E-1,-1.3538812E-1,7.899634E-2,6.447076E-1,-2.025317E-3,-2.3493392E-2,-8.540197E-4,-3.7938707E-2,3.411208E-2,-5.169914E-3,-4.1856146E-3,1.3874625E-2,-2.3030224E-3,4.3324843E-2,-1.7089028E-2,1.8101169E-2,-2.1693453E-2,1.4850579E-2,2.6842197E-2,6.989097E-2],"categories":[],"categories_nodes":[],"categories_segments":[],"categories_sizes":[],"default_left":[1,0,0,0,0,0,0,0,0,0,1,0,0,1,0,0,0,0,0,0,0,0,0,0,0,0,0,0,0,0,0],"id":4,"left_children":[1,3,5,7,9,11,13,15,17,19,21,23,25,27,29,-1,-1,-1,-1,-1,-1,-1,-1,-1,-1,-1,-1,-1,-1,-1,-1],"loss_changes":[3.0479137E1,1.4703213E1,1.8526703E1,1.3232332E1,1.424391E1,9.568457E0,1.2574043E1,1.32307825E1,4.3955307E0,7.7851944E0,1.0393781E1,6.051355E0,1.1874199E1,6.9047403E0,8.9843445E0,0E0,0E0,0E0,0E0,0E0,0E0,0E0,0E0,0E0,0E0,0E0,0E0,0E0,0E0,0E0,0E0],"parents":[2147483647,0,0,1,1,2,2,3,3,4,4,5,5,6,6,7,7,8,8,9,9,10,10,11,11,12,12,13,13,14,14],"right_children":[2,4,6,8,10,12,14,16,18,20,22,24,26,28,30,-1,-1,-1,-1,-1,-1,-1,-1,-1,-1,-1,-1,-1,-1,-1,-1],"split_conditions":[8.25E1,8.780121E0,4.475138E0,3.252694E-1,7.073353E-1,1.7133333E2,7.0975864E-1,9.114026E-2,7.771022E0,9.924E-2,9.9E1,1.1868132E0,5.6511626E0,3.135484E0,2.4373299E-1,-2.025317E-3,-2.3493392E-2,-8.540197E-4,-3.7938707E-2,3.411208E-2,-5.169914E-3,-4.1856146E-3,1.3874625E-2,-2.3030224E-3,4.3324843E-2,-1.7089028E-2,1.8101169E-2,-2.1693453E-2,1.4850579E-2,2.6842197E-2,6.989097E-2],"split_indices":[49,47,12,84,103,82,89,110,123,67,159,154,136,136,87,0,0,0,0,0,0,0,0,0,0,0,0,0,0,0,0],"split_type":[0,0,0,0,0,0,0,0,0,0,0,0,0,0,0,0,0,0,0,0,0,0,0,0,0,0,0,0,0,0,0],"sum_hessian":[1.4169681E3,1.0889485E3,3.2801962E2,4.6758215E2,6.2136633E2,1.3848918E2,1.8953043E2,4.0799847E2,5.9583664E1,6.1379993E1,5.599864E2,2.7197151E1,1.1129204E2,5.7692654E1,1.3183777E2,3.165035E2,9.149497E1,1.0231881E1,4.9351784E1,4.541343E1,1.5966564E1,4.6606934E2,9.391704E1,1.1195368E1,1.6001783E1,7.938177E1,3.1910265E1,1.6344898E1,4.134775E1,1.1854982E2,1.3287952E1],"tree_param":{"num_deleted":"0","num_feature":"183","num_nodes":"31","size_leaf_vector":"1"}},{"base_weights":[6.7254696E-3,-4.592673E-1,1.0707372E0,-8.1044585E-1,1.0597657E-2,7.2917175E-1,1.5483038E0,-1.0732574E0,-5.5462986E-1,-4.1519606E-1,2.854202E-1,1.169274E0,2.77621E-1,1.3432515E0,9.0957165E-2,-5.9236147E-2,-4.2331267E-2,-3.2392386E-2,9.803033E-3,-4.5861324E-4,-3.5897754E-2,2.0572612E-2,-3.8971018E-2,3.0343665E-2,7.3398225E-2,7.2508873E-3,6.690076E-2,7.926839E-2,4.7283996E-2],"categories":[],"categories_nodes":[],"categories_segments":[],"categories_sizes":[],"default_left":[0,0,0,0,0,0,0,0,0,0,0,0,0,0,0,0,0,0,0,0,0,0,0,0,0,0,0,0,0],"id":5,"left_children":[1,3,5,7,9,11,13,15,17,19,21,23,25,27,-1,-1,-1,-1,-1,-1,-1,-1,-1,-1,-1,-1,-1,-1,-1],"loss_changes":[7.058814E2,1.634963E2,6.8024445E1,3.6583588E1,4.9952827E1,5.010524E1,4.410492E0,4.585205E0,2.0756477E1,2.0403473E1,3.5435196E1,1.951149E1,1.7541992E1,7.066971E0,0E0,0E0,0E0,0E0,0E0,0E0,0E0,0E0,0E0,0E0,0E0,0E0,0E0,0E0,0E0],"parents":[2147483647,0,0,1,1,2,2,3,3,4,4,5,5,6,6,7,7,8,8,9,9,10,10,11,11,12,12,13,13],"right_children":[2,4,6,8,10,12,14,16,18,20,22,24,26,28,-1,-1,-1,-1,-1,-1,-1,-1,-1,-1,-1,-1,-1,-1,-1],"split_conditions":[9.1764345E0,8.423934E0,9.969231E0,7.975931E0,-4.557626E-2,9.345E0,1.0841627E1,8.73E1,1.6959876E-1,8.935E0,1.0024E1,-7.82833E-2,7.3418945E-2,5.17E0,9.0957165E-2,-5.9236147E-2,-4.2331267E-2,-3.2392386E-2,9.803033E-3,-4.5861324E-4,-3.5897754E-2,2.0572612E-2,-3.8971018E-2,3.0343665E-2,7.3398225E-2,7.2508873E-3,6.690076E-2,7.926839E-2,4.7283996E-2],"split_indices":[182,182,182,182,57,62,182,49,57,62,62,57,57,61,0,0,0,0,0,0,0,0,0,0,0,0,0,0,0],"split_type":[0,0,0,0,0,0,0,0,0,0,0,0,0,0,0,0,0,0,0,0,0,0,0,0,0,0,0,0,0],"sum_hessian":[1.4194292E3,9.877742E2,4.316551E2,5.646951E2,4.2307898E2,2.5485211E2,1.76803E2,2.750011E2,2.8969403E2,1.6527007E2,2.5780893E2,1.2722799E2,1.2762412E2,1.0782579E2,6.8977196E1,1.7807848E2,9.692263E1,2.5817526E2,3.1518793E1,7.175803E1,9.351204E1,2.3178986E2,2.6019073E1,4.64677E1,8.0760284E1,1.1562698E2,1.1997133E1,6.298834E1,4.4837456E1],"tree_param":{"num_deleted":"0","num_feature":"183","num_nodes":"29","size_leaf_vector":"1"}},{"base_weights":[-4.446809E-3,-5.566677E-2,2.8924552E-1,-1.4044262E-1,8.412905E-2,3.9815673E-1,-2.7704662E-1,-3.894164E-1,-4.789827E-2,3.0715856E-1,-3.244117E-2,-7.189173E-2,5.238107E-1,-3.347148E-2,1.2378683E-2,1.536788E-2,-2.455998E-2,-9.2129223E-4,-4.0129874E-2,-2.3375513E-4,2.6319413E-2,3.869152E-2,-4.0144026E-3,8.19403E-3,-3.1449016E-2,4.227863E-2,1.31527735E-2],"categories":[],"categories_nodes":[],"categories_segments":[],"categories_sizes":[],"default_left":[0,0,0,1,0,0,0,0,0,0,0,1,0,0,0,0,0,0,0,0,0,0,0,0,0,0,0],"id":6,"left_children":[1,3,5,7,9,11,13,15,17,19,21,23,25,-1,-1,-1,-1,-1,-1,-1,-1,-1,-1,-1,-1,-1,-1],"loss_changes":[2.1143848E1,1.4255502E1,1.3111298E1,1.7123558E1,1.1860809E1,1.0565716E1,7.524542E0,1.466354E1,1.2008691E1,1.0800508E1,1.1517966E1,5.364488E0,1.1039085E1,0E0,0E0,0E0,0E0,0E0,0E0,0E0,0E0,0E0,0E0,0E0,0E0,0E0,0E0],"parents":[2147483647,0,0,1,1,2,2,3,3,4,4,5,5,6,6,7,7,8,8,9,9,10,10,11,11,12,12],"right_children":[2,4,6,8,10,12,14,16,18,20,22,24,26,-1,-1,-1,-1,-1,-1,-1,-1,-1,-1,-1,-1,-1,-1],"split_conditions":[1.119369E0,9.054606E0,4.2864162E-1,2.1533308E0,9E0,6.72E1,-4.387667E-3,-1.4453602E-1,7.4356353E-1,2.2335398E-1,7E0,1.08E1,7.875E0,-3.347148E-2,1.2378683E-2,1.536788E-2,-2.455998E-2,-9.2129223E-4,-4.0129874E-2,-2.3375513E-4,2.6319413E-2,3.869152E-2,-4.0144026E-3,8.19403E-3,-3.1449016E-2,4.227863E-2,1.31527735E-2],"split_indices":[44,47,85,171,94,49,58,59,90,102,19,155,138,0,0,0,0,0,0,0,0,0,0,0,0,0,0],"split_type":[0,0,0,0,0,0,0,0,0,0,0,0,0,0,0,0,0,0,0,0,0,0,0,0,0,0,0],"sum_hessian":[1.4045338E3,1.1979186E3,2.0661519E2,7.465889E2,4.513297E2,1.7408212E2,3.2533073E1,1.9998601E2,5.466029E2,1.543889E2,2.9694083E2,3.6564625E1,1.375175E2,1.8514538E1,1.4018535E1,2.4724676E1,1.7526134E2,5.2828613E2,1.8316734E1,6.41651E1,9.022379E1,1.4700217E1,2.822406E2,2.6431055E1,1.0133568E1,5.9206448E1,7.831105E1],"tree_param":{"num_deleted":"0","num_feature":"183","num_nodes":"27","size_leaf_vector":"1"}},{"base_weights":[-4.2738663E-3,-5.2732956E-1,8.540575E-1,-9.435586E-1,-2.4365333E-1,5.357304E-1,1.4443101E0,-6.270223E-2,-8.4883076E-1,-3.3053458E-1,6.6227967E-1,8.7620384E-1,9.275919E-2,2.5223464E-2,1.4984378E0,-5.0706297E-2,-2.9599562E-2,-2.6013508E-2,-4.4627595E-3,4.8638035E-2,2.0790996E-3,5.4214936E-2,1.9428922E-2,-3.7147198E-2,1.2523949E-2,4.1199103E-2,7.770732E-2],"categories":[],"categories_nodes":[],"categories_segments":[],"categories_sizes":[],"default_left":[0,0,0,0,0,0,0,0,0,0,0,0,0,0,0,0,0,0,0,0,0,0,0,0,0,0,0],"id":7,"left_children":[1,3,5,7,9,11,13,-1,15,17,19,21,23,-1,25,-1,-1,-1,-1,-1,-1,-1,-1,-1,-1,-1,-1],"loss_changes":[6.3904376E2,1.0375864E2,9.930817E1,7.9674377E0,4.201499E1,5.295523E1,7.620941E0,0E0,1.0393707E1,2.1957066E1,8.728483E0,1.9093262E1,2.0849867E1,0E0,3.5751953E0,0E0,0E0,0E0,0E0,0E0,0E0,0E0,0E0,0E0,0E0,0E0,0E0],"parents":[2147483647,0,0,1,1,2,2,3,3,4,4,5,5,6,6,8,8,9,9,10,10,11,11,12,12,14,14],"right_children":[2,4,6,8,10,12,14,-1,16,18,20,22,24,-1,26,-1,-1,-1,-1,-1,-1,-1,-1,-1,-1,-1,-1],"split_conditions":[8.919796E0,8.112209E0,9.938749E0,7.4087353E0,1.6397826E-1,4.811966E0,-2.7137634E-1,-6.270223E-2,1.3518518E-1,8.560907E0,8.692307E0,1.0291332E0,2.846842E-3,2.5223464E-2,-4.9948208E-2,-5.0706297E-2,-2.9599562E-2,-2.6013508E-2,-4.4627595E-3,4.8638035E-2,2.0790996E-3,5.4214936E-2,1.9428922E-2,-3.7147198E-2,1.2523949E-2,4.1199103E-2,7.770732E-2],"split_indices":[182,182,182,182,57,15,57,0,167,182,9,44,115,0,107,0,0,0,0,0,0,0,0,0,0,0,0],"split_type":[0,0,0,0,0,0,0,0,0,0,0,0,0,0,0,0,0,0,0,0,0,0,0,0,0,0,0],"sum_hessian":[1.4195414E3,8.826627E2,5.368786E2,3.555777E2,5.27085E2,3.514782E2,1.8540042E2,7.690867E1,2.7866904E2,4.8232034E2,4.4764683E1,1.9736974E2,1.5410847E2,1.1421368E1,1.7397905E2,1.6548898E2,1.1318004E2,2.682412E2,2.1407913E2,2.8867935E1,1.5896746E1,1.363323E2,6.1037426E1,2.3087353E1,1.3102112E2,1.5957406E1,1.5802165E2],"tree_param":{"num_deleted":"0","num_feature":"183","num_nodes":"27","size_leaf_vector":"1"}},{"base_weights":[-9.3156425E-3,-6.6092175E-1,6.6247964E-1,-1.0070074E0,-4.4876924E-1,3.259596E-1,1.2430508E0,-7.969588E-1,-1.1173623E0,-7.636319E-1,-2.0720735E-1,6.204569E-1,-6.3288525E-2,9.089135E-1,1.5429938E0,-1.274471E-2,-4.668273E-2,-5.7424802E-2,-2.871728E-2,-1.705536E-2,-4.644743E-2,-1.5520123E-2,1.8977169E-2,3.7073836E-2,-1.4875846E-2,6.5743723E-3,-2.7059732E-2,6.794402E-2,2.6145188E-2,8.041477E-2,3.4314584E-2],"categories":[],"categories_nodes":[],"categories_segments":[],"categories_sizes":[],"default_left":[0,0,0,1,0,0,0,0,0,0,0,0,0,0,0,0,0,0,0,0,0,0,0,0,0,0,0,0,0,0,0],"id":8,"left_children":[1,3,5,7,9,11,13,15,17,19,21,23,25,27,29,-1,-1,-1,-1,-1,-1,-1,-1,-1,-1,-1,-1,-1,-1,-1,-1],"loss_changes":[6.178219E2,5.1419037E1,1.3461826E2,4.10318E0,3.3580658E1,5.0945377E1,2.2162811E1,6.7494354E0,1.2380371E0,1.2627144E1,1.57672825E1,2.8585342E1,1.811765E1,1.9973267E1,4.644043E0,0E0,0E0,0E0,0E0,0E0,0E0,0E0,0E0,0E0,0E0,0E0,0E0,0E0,0E0,0E0,0E0],"parents":[2147483647,0,0,1,1,2,2,3,3,4,4,5,5,6,6,7,7,8,8,9,9,10,10,11,11,12,12,13,13,14,14],"right_children":[2,4,6,8,10,12,14,16,18,20,22,24,26,28,30,-1,-1,-1,-1,-1,-1,-1,-1,-1,-1,-1,-1,-1,-1,-1,-1],"split_conditions":[8.658751E0,7.975931E0,9.619775E0,7.25E0,5.43247E-3,1.0241593E0,1.0217056E1,8.888889E-1,1.12E1,8.512E0,1.7545247E-1,1.0043E1,1.0447338E1,4.834E0,5.879032E0,-1.274471E-2,-4.668273E-2,-5.7424802E-2,-2.871728E-2,-1.705536E-2,-4.644743E-2,-1.5520123E-2,1.8977169E-2,3.7073836E-2,-1.4875846E-2,6.5743723E-3,-2.7059732E-2,6.794402E-2,2.6145188E-2,8.041477E-2,3.4314584E-2],"split_indices":[182,182,182,2,57,44,182,137,31,62,57,62,42,61,13,0,0,0,0,0,0,0,0,0,0,0,0,0,0,0,0],"split_type":[0,0,0,0,0,0,0,0,0,0,0,0,0,0,0,0,0,0,0,0,0,0,0,0,0,0,0,0,0,0,0],"sum_hessian":[1.4073713E3,7.1458826E2,6.92783E2,2.6836572E2,4.4622253E2,4.407663E2,2.5201671E2,9.871954E1,1.696462E2,1.9148369E2,2.5473885E2,2.5053922E2,1.902271E2,1.2334142E2,1.2867528E2,2.1329657E1,7.7389885E1,1.5798952E2,1.1656674E1,5.5913548E1,1.3557014E2,2.1772855E2,3.7010303E1,2.2188916E2,2.8650047E1,1.3587924E2,5.434786E1,5.4385788E1,6.8955635E1,1.1771449E2,1.0960792E1],"tree_param":{"num_deleted":"0","num_feature":"183","num_nodes":"31","size_leaf_vector":"1"}},{"base_weights":[-1.6397811E-2,-6.3662344E-1,6.057627E-1,-9.4516504E-1,-3.8423586E-1,2.8659385E-1,1.1630324E0,-6.1666083E-2,-8.4878874E-1,-8.2530254E-1,-2.2213367E-1,4.4352153E-1,-4.876749E-1,8.3977157E-1,1.4272786E0,-5.021894E-2,-3.1207561E-2,-5.6232284E-3,-4.556239E-2,-3.1057047E-3,-2.9976046E-2,2.283206E-3,3.5631254E-2,-1.2557258E-2,-4.9224626E-2,6.0667243E-2,2.0273937E-2,7.4322954E-2,4.1063886E-2],"categories":[],"categories_nodes":[],"categories_segments":[],"categories_sizes":[],"default_left":[0,0,0,0,0,0,0,0,0,0,0,0,0,0,0,0,0,0,0,0,0,0,0,0,0,0,0,0,0],"id":9,"left_children":[1,3,5,7,9,11,13,-1,15,17,19,21,23,25,27,-1,-1,-1,-1,-1,-1,-1,-1,-1,-1,-1,-1,-1,-1],"loss_changes":[5.4037476E2,5.3627472E1,1.2336136E2,6.2064514E0,2.7274864E1,5.477261E1,1.8816528E1,0E0,6.8835144E0,5.938591E0,1.7180267E1,3.973796E1,8.203165E0,1.8045212E1,1.9873962E0,0E0,0E0,0E0,0E0,0E0,0E0,0E0,0E0,0E0,0E0,0E0,0E0,0E0,0E0],"parents":[2147483647,0,0,1,1,2,2,3,3,4,4,5,5,6,6,8,8,9,9,10,10,11,11,12,12,13,13,14,14],"right_children":[2,4,6,8,10,12,14,-1,16,18,20,22,24,26,28,-1,-1,-1,-1,-1,-1,-1,-1,-1,-1,-1,-1,-1,-1],"split_conditions":[8.650762E0,8.059062E0,9.619775E0,7.4087353E0,-4.6831124E-2,1.0043E1,1.0185959E1,-6.1666083E-2,1.01745814E-1,-2.3522416E-1,9.113E0,-6.0016487E-2,1.073E1,4.981E0,1.0862E1,-5.021894E-2,-3.1207561E-2,-5.6232284E-3,-4.556239E-2,-3.1057047E-3,-2.9976046E-2,2.283206E-3,3.5631254E-2,-1.2557258E-2,-4.9224626E-2,6.0667243E-2,2.0273937E-2,7.4322954E-2,4.1063886E-2],"split_indices":[182,182,182,182,57,62,182,0,57,56,62,57,62,61,62,0,0,0,0,0,0,0,0,0,0,0,0,0,0],"split_type":[0,0,0,0,0,0,0,0,0,0,0,0,0,0,0,0,0,0,0,0,0,0,0,0,0,0,0,0,0],"sum_hessian":[1.3963555E3,6.9940283E2,6.969527E2,3.1186652E2,3.875363E2,4.4530026E2,2.5165242E2,7.173027E1,2.4013625E2,1.0162011E2,2.859162E2,3.7118225E2,7.411802E1,1.1728583E2,1.343666E2,1.3724446E2,1.0289179E2,1.1680998E1,8.993911E1,2.0278888E2,8.3127304E1,1.5100734E2,2.201749E2,5.252499E1,2.1593025E1,6.0874313E1,5.6411514E1,1.19464226E2,1.490237E1],"tree_param":{"num_deleted":"0","num_feature":"183","num_nodes":"29","size_leaf_vector":"1"}},{"base_weights":[1.5562626E-4,-4.3657997E-1,8.204746E-1,-8.677444E-1,-1.8954107E-1,6.006052E-1,1.3861412E0,-6.1487436E-2,-7.7278507E-1,1.4293249E-1,-3.7534162E-1,9.4588417E-1,2.7802485E-1,7.4940436E-2,9.9138725E-1,-2.3825847E-2,-4.911322E-2,1.5702527E-2,-1.6768988E-2,-1.50812315E-2,-5.8448773E-2,5.6233954E-2,2.100615E-2,3.6768373E-2,1.2577929E-3,6.0845114E-2,1.6667588E-2],"categories":[],"categories_nodes":[],"categories_segments":[],"categories_sizes":[],"default_left":[0,0,0,0,0,0,0,0,0,0,0,0,1,0,0,0,0,0,0,0,0,0,0,0,0,0,0],"id":10,"left_children":[1,3,5,7,9,11,13,-1,15,17,19,21,23,-1,25,-1,-1,-1,-1,-1,-1,-1,-1,-1,-1,-1,-1],"loss_changes":[4.9476584E2,9.5419846E1,5.7622528E1,8.950302E0,3.5711082E1,3.814016E1,2.4248047E0,0E0,1.5225525E1,1.7182957E1,2.0658344E1,1.4501663E1,2.1060566E1,0E0,4.1808243E0,0E0,0E0,0E0,0E0,0E0,0E0,0E0,0E0,0E0,0E0,0E0,0E0],"parents":[2147483647,0,0,1,1,2,2,3,3,4,4,5,5,6,6,8,8,9,9,10,10,11,11,12,12,14,14],"right_children":[2,4,6,8,10,12,14,-1,16,18,20,22,24,-1,26,-1,-1,-1,-1,-1,-1,-1,-1,-1,-1,-1,-1],"split_conditions":[9.071188E0,8.102636E0,1.0217056E1,7.3602266E0,4.044E0,9.261E0,1.1E1,-6.1487436E-2,8.257E0,1.0166134E0,1.0299E1,4.824E0,7.12E1,7.4940436E-2,8.951E-2,-2.3825847E-2,-4.911322E-2,1.5702527E-2,-1.6768988E-2,-1.50812315E-2,-5.8448773E-2,5.6233954E-2,2.100615E-2,3.6768373E-2,1.2577929E-3,6.0845114E-2,1.6667588E-2],"split_indices":[182,182,182,182,61,62,32,0,62,44,62,61,49,0,74,0,0,0,0,0,0,0,0,0,0,0,0],"split_type":[0,0,0,0,0,0,0,0,0,0,0,0,0,0,0,0,0,0,0,0,0,0,0,0,0,0,0],"sum_hessian":[1.3768009E3,8.989136E2,4.7788736E2,3.2530835E2,5.736052E2,3.4735193E2,1.3053543E2,6.2196377E1,2.6311197E2,2.054162E2,3.6818903E2,1.6560718E2,1.8174475E2,9.680566E1,3.372977E1,1.12088585E2,1.5102339E2,1.5210503E2,5.331118E1,3.396524E2,2.8536623E1,1.2159712E2,4.401006E1,6.3069386E1,1.18675354E2,2.3629269E1,1.0100503E1],"tree_param":{"num_deleted":"0","num_feature":"183","num_nodes":"27","size_leaf_vector":"1"}},{"base_weights":[-2.4842976E-2,-6.175977E-1,5.4375315E-1,-9.138687E-1,-3.476839E-1,1.9906248E-1,1.0556281E0,-1.0377347E0,-6.924778E-1,-4.5805043E-1,4.1191697E-1,4.377738E-1,-2.51126E-1,8.072987E-1,1.3895606E0,-2.542995E-2,-5.314855E-2,-5.027628E-2,-1.6270941E-2,-9.898585E-3,-3.301228E-2,3.272333E-2,-1.6708093E-2,3.1293195E-2,-4.6360525E-3,-5.4117218E-3,-4.123741E-2,5.611648E-2,2.0895964E-2,4.171195E-2,7.186991E-2],"categories":[],"categories_nodes":[],"categories_segments":[],"categories_sizes":[],"default_left":[0,0,0,0,0,0,0,0,0,0,0,0,0,0,0,0,0,0,0,0,0,0,0,0,0,0,0,0,0,0,0],"id":11,"left_children":[1,3,5,7,9,11,13,15,17,19,21,23,25,27,29,-1,-1,-1,-1,-1,-1,-1,-1,-1,-1,-1,-1,-1,-1,-1,-1],"loss_changes":[4.6319586E2,5.2928314E1,1.2306561E2,6.9712524E0,3.020924E1,4.558487E1,2.066159E1,1.2766876E0,1.2997276E1,1.5962418E1,8.817049E0,2.7827496E1,1.1694936E1,1.9186035E1,2.541046E-1,0E0,0E0,0E0,0E0,0E0,0E0,0E0,0E0,0E0,0E0,0E0,0E0,0E0,0E0,0E0,0E0],"parents":[2147483647,0,0,1,1,2,2,3,3,4,4,5,5,6,6,7,7,8,8,9,9,10,10,11,11,12,12,13,13,14,14],"right_children":[2,4,6,8,10,12,14,16,18,20,22,24,26,28,30,-1,-1,-1,-1,-1,-1,-1,-1,-1,-1,-1,-1,-1,-1,-1,-1],"split_conditions":[8.650762E0,8.102636E0,9.535432E0,1.5185185E-1,1.46E2,9.449E0,1.0330367E1,3.1E0,7.760925E0,8.7E0,8.966666E0,4.8679247E0,1.05E1,4.981E0,3E0,-2.542995E-2,-5.314855E-2,-5.027628E-2,-1.6270941E-2,-9.898585E-3,-3.301228E-2,3.272333E-2,-1.6708093E-2,3.1293195E-2,-4.6360525E-3,-5.4117218E-3,-4.123741E-2,5.611648E-2,2.0895964E-2,4.171195E-2,7.186991E-2],"split_indices":[182,182,182,167,1,62,182,8,182,36,9,15,9,61,81,0,0,0,0,0,0,0,0,0,0,0,0,0,0,0,0],"split_type":[0,0,0,0,0,0,0,0,0,0,0,0,0,0,0,0,0,0,0,0,0,0,0,0,0,0,0,0,0,0,0],"sum_hessian":[1.3702766E3,6.7097375E2,6.9930286E2,3.1724124E2,3.5373254E2,4.1978973E2,2.795131E2,1.9811812E2,1.1912311E2,3.0978018E2,4.3952366E1,2.7465436E2,1.4513538E2,1.645668E2,1.1494629E2,1.1305483E1,1.8681264E2,6.212006E1,5.7003048E1,1.3765948E2,1.721207E2,3.3556747E1,1.039562E1,2.0277628E2,7.187809E1,1.18373985E2,2.676139E1,8.860323E1,7.596357E1,1.2373047E1,1.0257324E2],"tree_param":{"num_deleted":"0","num_feature":"183","num_nodes":"31","size_leaf_vector":"1"}},{"base_weights":[5.793545E-3,-5.517718E-1,5.577897E-1,-8.509035E-1,-3.301564E-1,2.6715505E-1,1.0213705E0,-5.8282226E-2,-7.593994E-1,-1.3879107E-1,-6.5864253E-1,4.6133953E-1,-2.2913471E-1,7.8576225E-1,1.313324E0,-2.9816804E-2,-5.3813953E-2,-1.8806105E-2,7.999088E-3,-2.3565931E-2,-4.8727717E-2,4.888414E-2,1.7002506E-2,1.5566009E-3,-3.407615E-2,5.6701183E-2,2.2483384E-2,6.821985E-2,3.535522E-2],"categories":[],"categories_nodes":[],"categories_segments":[],"categories_sizes":[],"default_left":[0,0,0,0,0,0,0,0,0,0,0,0,0,0,0,0,0,0,0,0,0,0,0,0,0,0,0,0,0],"id":12,"left_children":[1,3,5,7,9,11,13,-1,15,17,19,21,23,25,27,-1,-1,-1,-1,-1,-1,-1,-1,-1,-1,-1,-1,-1,-1],"loss_changes":[4.236208E2,4.4583923E1,9.240776E1,6.1875153E0,2.4606613E1,4.1524734E1,1.5787262E1,0E0,1.0300644E1,1.8153522E1,7.3837852E0,1.8406525E1,1.4474848E1,1.6495956E1,1.2249756E0,0E0,0E0,0E0,0E0,0E0,0E0,0E0,0E0,0E0,0E0,0E0,0E0,0E0,0E0],"parents":[2147483647,0,0,1,1,2,2,3,3,4,4,5,5,6,6,8,8,9,9,10,10,11,11,12,12,13,13,14,14],"right_children":[2,4,6,8,10,12,14,-1,16,18,20,22,24,26,28,-1,-1,-1,-1,-1,-1,-1,-1,-1,-1,-1,-1,-1,-1],"split_conditions":[8.658751E0,8.047633E0,9.576884E0,7.3602266E0,9.031E0,9.7E0,1.0330367E1,-5.8282226E-2,8.784E0,7.5664866E-1,4.824E0,3.796E0,1.0625E1,4.92E0,5.7756863E0,-2.9816804E-2,-5.3813953E-2,-1.8806105E-2,7.999088E-3,-2.3565931E-2,-4.8727717E-2,4.888414E-2,1.7002506E-2,1.5566009E-3,-3.407615E-2,5.6701183E-2,2.2483384E-2,6.821985E-2,3.535522E-2],"split_indices":[182,182,182,182,62,9,182,0,62,103,61,61,5,61,13,0,0,0,0,0,0,0,0,0,0,0,0,0,0],"split_type":[0,0,0,0,0,0,0,0,0,0,0,0,0,0,0,0,0,0,0,0,0,0,0,0,0,0,0,0,0],"sum_hessian":[1.3723986E3,6.825752E2,6.8982336E2,2.87684E2,3.9489117E2,4.26205E2,2.636184E2,5.9018517E1,2.2866548E2,2.5170813E2,1.4318306E2,3.0673276E2,1.1947222E2,1.5035158E2,1.1326682E2,1.5519734E2,7.346815E1,1.4036246E2,1.11345665E2,9.341085E1,4.9772213E1,5.534636E1,2.513864E2,7.6741684E1,4.2730537E1,7.1215126E1,7.913646E1,1.0185451E2,1.1412311E1],"tree_param":{"num_deleted":"0","num_feature":"183","num_nodes":"29","size_leaf_vector":"1"}},{"base_weights":[-9.077575E-3,-3.578583E-1,7.4862134E-1,-7.3709595E-1,-1.1177144E-1,5.6027645E-1,1.2897921E0,-1.0792414E0,-6.3558674E-1,8.2907304E-2,-4.5807686E-1,9.82794E-1,2.7468064E-1,1.3529818E0,2.8283736E-2,-3.2458942E-2,-5.9616573E-2,-2.0844653E-2,-4.3793008E-2,1.5700182E-2,-7.4931653E-3,-3.4419127E-2,-1.0068058E-2,5.5010315E-2,4.0149167E-3,2.586548E-2,-4.145966E-3,7.013979E-2,3.864255E-2],"categories":[],"categories_nodes":[],"categories_segments":[],"categories_sizes":[],"default_left":[0,0,0,0,0,0,0,0,0,0,0,0,0,0,0,0,0,0,0,0,0,0,0,0,0,0,0,0,0],"id":13,"left_children":[1,3,5,7,9,11,13,15,17,19,21,23,25,27,-1,-1,-1,-1,-1,-1,-1,-1,-1,-1,-1,-1,-1,-1,-1],"loss_changes":[3.6115466E2,8.703473E1,4.2084305E1,1.1057114E1,3.8608913E1,3.8222336E1,3.090744E0,2.0145721E0,1.4192711E1,1.9840971E1,1.1721451E1,1.3292519E1,1.7175987E1,2.551117E-1,0E0,0E0,0E0,0E0,0E0,0E0,0E0,0E0,0E0,0E0,0E0,0E0,0E0,0E0,0E0],"parents":[2147483647,0,0,1,1,2,2,3,3,4,4,5,5,6,6,7,7,8,8,9,9,10,10,11,11,12,12,13,13],"right_children":[2,4,6,8,10,12,14,16,18,20,22,24,26,28,-1,-1,-1,-1,-1,-1,-1,-1,-1,-1,-1,-1,-1,-1,-1],"split_conditions":[9.1764345E0,8.18869E0,1.0330367E1,7.475158E0,4.5925927E0,4.5766425E0,5.353535E0,3.133592E-1,8.7E0,3.2736134E-2,8.707304E0,1.0633333E1,9.166667E0,5.718807E0,2.8283736E-2,-3.2458942E-2,-5.9616573E-2,-2.0844653E-2,-4.3793008E-2,1.5700182E-2,-7.4931653E-3,-3.4419127E-2,-1.0068058E-2,5.5010315E-2,4.0149167E-3,2.586548E-2,-4.145966E-3,7.013979E-2,3.864255E-2],"split_indices":[182,182,182,182,15,15,29,84,36,56,182,35,35,13,0,0,0,0,0,0,0,0,0,0,0,0,0,0,0],"split_type":[0,0,0,0,0,0,0,0,0,0,0,0,0,0,0,0,0,0,0,0,0,0,0,0,0,0,0,0,0],"sum_hessian":[1.3628766E3,9.341788E2,4.286978E2,3.6574146E2,5.684373E2,3.2131128E2,1.0738654E2,7.882409E1,2.8691736E2,3.6448337E2,2.0395398E2,1.27339424E2,1.9397185E2,9.691611E1,1.0470443E1,1.9587055E1,5.9237034E1,1.535033E2,1.3341408E2,1.829804E2,1.8150298E2,1.0532363E2,9.863035E1,1.1209625E2,1.5243173E1,1.1536417E2,7.860768E1,8.632295E1,1.0593148E1],"tree_param":{"num_deleted":"0","num_feature":"183","num_nodes":"29","size_leaf_vector":"1"}},{"base_weights":[5.550286E-3,-4.0085799E-1,6.3781905E-1,-7.8208536E-1,-1.711575E-1,4.3455032E-1,1.1558551E0,-1.1390163E0,-6.9402385E-1,-2.44344E-1,6.1999536E-1,1.1886289E-1,7.454341E-1,2.4352415E-2,1.2221866E0,-3.0172715E-2,-6.136278E-2,-5.1884104E-2,-2.8100658E-2,-5.680626E-3,-3.2680348E-2,2.3990783E-3,4.9050845E-2,2.1361716E-2,-1.531331E-2,4.621782E-2,1.1668408E-2,6.491994E-2,3.745353E-2],"categories":[],"categories_nodes":[],"categories_segments":[],"categories_sizes":[],"default_left":[0,0,0,0,0,0,0,0,0,0,0,0,0,0,1,0,0,0,0,0,0,0,0,0,0,0,0,0,0],"id":14,"left_children":[1,3,5,7,9,11,13,15,17,19,21,23,25,-1,27,-1,-1,-1,-1,-1,-1,-1,-1,-1,-1,-1,-1,-1,-1],"loss_changes":[3.5113187E2,7.235695E1,5.4990616E1,7.8514404E0,3.0439373E1,3.7686073E1,5.0876465E0,8.9956665E-1,1.011071E1,2.5340055E1,8.892656E0,2.5849138E1,1.7163345E1,0E0,2.4828796E0,0E0,0E0,0E0,0E0,0E0,0E0,0E0,0E0,0E0,0E0,0E0,0E0,0E0,0E0],"parents":[2147483647,0,0,1,1,2,2,3,3,4,4,5,5,6,6,7,7,8,8,9,9,10,10,11,11,12,12,14,14],"right_children":[2,4,6,8,10,12,14,16,18,20,22,24,26,-1,28,-1,-1,-1,-1,-1,-1,-1,-1,-1,-1,-1,-1,-1,-1],"split_conditions":[8.919796E0,8.112209E0,1.012606E1,7.3602266E0,1.6959876E-1,-6.15049E-2,-2.5444013E-1,3.989716E-2,4.2635296E-3,9.403E0,8.4E1,9.033334E0,9.735E0,2.4352415E-2,9.08E1,-3.0172715E-2,-6.136278E-2,-5.1884104E-2,-2.8100658E-2,-5.680626E-3,-3.2680348E-2,2.3990783E-3,4.9050845E-2,2.1361716E-2,-1.531331E-2,4.621782E-2,1.1668408E-2,6.491994E-2,3.745353E-2],"split_indices":[182,182,182,182,57,57,57,91,57,62,141,35,62,0,49,0,0,0,0,0,0,0,0,0,0,0,0,0,0],"split_type":[0,0,0,0,0,0,0,0,0,0,0,0,0,0,0,0,0,0,0,0,0,0,0,0,0,0,0,0,0],"sum_hessian":[1.3623141E3,8.295278E2,5.3278625E2,3.0975534E2,5.1977246E2,3.855619E2,1.4722437E2,5.6125942E1,2.536294E2,4.7725824E2,4.2514214E1,1.9299393E2,1.9256798E2,1.5061632E1,1.3216273E2,1.0477546E1,4.5648396E1,6.6160416E1,1.8746898E2,3.6402203E2,1.1323621E2,1.7541191E1,2.4973022E1,1.12124146E2,8.086978E1,1.4122226E2,5.134571E1,1.1045807E2,2.1704662E1],"tree_param":{"num_deleted":"0","num_feature":"183","num_nodes":"29","size_leaf_vector":"1"}},{"base_weights":[-7.297089E-3,-3.098468E-1,7.583614E-1,-6.120615E-1,1.7610917E-2,5.611784E-1,1.2323871E0,-8.7957215E-1,-4.2082408E-1,3.007843E-1,-3.7031177E-1,4.5209545E-1,1.1761243E0,1.2859622E0,3.205065E-2,-5.2019298E-2,-3.3674028E-2,-1.2872306E-2,-3.6315255E-2,-1.024239E-2,2.3898905E-2,-4.1241344E-2,-1.14468485E-2,3.129083E-2,-1.06313055E-4,6.8301685E-2,2.510776E-2,6.655371E-2,3.6724534E-2],"categories":[],"categories_nodes":[],"categories_segments":[],"categories_sizes":[],"default_left":[0,0,0,0,0,0,0,0,0,0,0,0,1,0,0,0,0,0,0,0,0,0,0,0,0,0,0,0,0],"id":15,"left_children":[1,3,5,7,9,11,13,15,17,19,21,23,25,27,-1,-1,-1,-1,-1,-1,-1,-1,-1,-1,-1,-1,-1,-1,-1],"loss_changes":[3.1044226E2,9.524331E1,3.3729553E1,2.4585587E1,5.1054077E1,1.6855408E1,1.4357452E0,5.0904846E0,1.4198097E1,2.4347586E1,1.1999935E1,1.863356E1,3.303997E0,7.258606E-2,0E0,0E0,0E0,0E0,0E0,0E0,0E0,0E0,0E0,0E0,0E0,0E0,0E0,0E0,0E0],"parents":[2147483647,0,0,1,1,2,2,3,3,4,4,5,5,6,6,7,7,8,8,9,9,10,10,11,11,12,12,13,13],"right_children":[2,4,6,8,10,12,14,16,18,20,22,24,26,28,-1,-1,-1,-1,-1,-1,-1,-1,-1,-1,-1,-1,-1,-1,-1],"split_conditions":[9.281164E0,8.423934E0,1.0330367E1,7.9099755E0,1.0166134E0,8.113032E-2,5.7756863E0,6.1E1,4.5333333E0,-4.943959E-2,7.235036E-1,4.8333335E0,7.5E1,5.353535E0,3.205065E-2,-5.2019298E-2,-3.3674028E-2,-1.2872306E-2,-3.6315255E-2,-1.024239E-2,2.3898905E-2,-4.1241344E-2,-1.14468485E-2,3.129083E-2,-1.06313055E-4,6.8301685E-2,2.510776E-2,6.655371E-2,3.6724534E-2],"split_indices":[182,182,182,182,44,57,13,53,8,57,103,7,52,29,0,0,0,0,0,0,0,0,0,0,0,0,0,0,0],"split_type":[0,0,0,0,0,0,0,0,0,0,0,0,0,0,0,0,0,0,0,0,0,0,0,0,0,0,0,0,0],"sum_hessian":[1.3364949E3,9.589987E2,3.7749615E2,4.981357E2,4.6086304E2,2.6998053E2,1.0751563E2,2.0421996E2,2.9391574E2,2.6695657E2,1.9390645E2,2.3252872E2,3.74518E1,9.612041E1,1.1395228E1,1.09618004E2,9.460196E1,1.943261E2,9.958965E1,6.890152E1,1.9805505E2,4.337476E1,1.505317E2,1.6797134E2,6.455738E1,2.7384905E1,1.00668955E1,8.5903244E1,1.0217162E1],"tree_param":{"num_deleted":"0","num_feature":"183","num_nodes":"29","size_leaf_vector":"1"}},{"base_weights":[8.416847E-3,-3.1694663E-1,7.1468776E-1,-7.684798E-1,-1.1288631E-1,5.13939E-1,1.1811477E0,-5.6691825E-2,-6.769296E-1,3.3324897E-1,-2.3866153E-1,7.215604E-1,6.227865E-2,1.2241269E0,3.1564932E-2,-2.9787663E-3,-3.8962122E-2,4.156815E-2,6.5156743E-3,-8.6917905E-3,-4.1234158E-2,-8.062584E-3,4.1749522E-2,3.3280905E-2,-9.244728E-3,6.305645E-2,3.5094928E-2],"categories":[],"categories_nodes":[],"categories_segments":[],"categories_sizes":[],"default_left":[0,0,0,0,0,0,0,0,0,0,0,0,0,0,0,0,0,0,0,0,0,0,0,0,0,0,0],"id":16,"left_children":[1,3,5,7,9,11,13,-1,15,17,19,21,23,25,-1,-1,-1,-1,-1,-1,-1,-1,-1,-1,-1,-1,-1],"loss_changes":[3.068619E2,8.384959E1,3.7891968E1,7.5950317E0,3.5605293E1,2.7729576E1,1.0349884E0,0E0,1.4413811E1,1.3690572E1,1.8301212E1,2.0821182E1,1.47249565E1,2.7893066E-2,0E0,0E0,0E0,0E0,0E0,0E0,0E0,0E0,0E0,0E0,0E0,0E0,0E0],"parents":[2147483647,0,0,1,1,2,2,3,3,4,4,5,5,6,6,8,8,9,9,10,10,11,11,12,12,13,13],"right_children":[2,4,6,8,10,12,14,-1,16,18,20,22,24,26,-1,-1,-1,-1,-1,-1,-1,-1,-1,-1,-1,-1,-1],"split_conditions":[9.1764345E0,8.0874405E0,1.0217056E1,7.3602266E0,8.173E0,9.868E0,1.1072E1,-5.6691825E-2,7.494E0,2.7931035E0,1.017E1,7.5E0,2.5454545E0,4.1049382E-1,3.1564932E-2,-2.9787663E-3,-3.8962122E-2,4.156815E-2,6.5156743E-3,-8.6917905E-3,-4.1234158E-2,-8.062584E-3,4.1749522E-2,3.3280905E-2,-9.244728E-3,6.305645E-2,3.5094928E-2],"split_indices":[182,182,182,182,62,62,62,0,62,136,62,50,171,167,0,0,0,0,0,0,0,0,0,0,0,0,0],"split_type":[0,0,0,0,0,0,0,0,0,0,0,0,0,0,0,0,0,0,0,0,0,0,0,0,0,0,0],"sum_hessian":[1.3310562E3,9.1182E2,4.1923615E2,2.817866E2,6.3003345E2,2.9633557E2,1.2290056E2,5.146135E1,2.3032524E2,1.3748244E2,4.9255103E2,2.0189128E2,9.444429E1,1.113783E2,1.1522254E1,3.3472416E1,1.9685281E2,3.7719463E1,9.976297E1,4.461342E2,4.6416824E1,2.2690153E1,1.7920113E2,2.6698261E1,6.774603E1,1.01008644E2,1.036966E1],"tree_param":{"num_deleted":"0","num_feature":"183","num_nodes":"27","size_leaf_vector":"1"}},{"base_weights":[1.1426461E-2,4.847106E-2,-1.7777044E-1,-1.8170774E-2,1.5339419E-1,-5.5492026E-1,-7.401641E-2,-1.8049055E-3,-3.7081193E-2,-2.9851076E-1,1.9597974E-1,-1.5355211E-1,-4.9980577E-2,2.6122025E-1,-2.3842326E-1,8.323154E-3,-3.5535586E-3,1.1475365E-2,-3.6281414E-2,-8.96361E-3,1.2743498E-2,1.2830001E-2,-3.2907836E-2,-3.4058287E-3,4.4751156E-2,-2.0759597E-2,6.7852535E-3],"categories":[],"categories_nodes":[],"categories_segments":[],"categories_sizes":[],"default_left":[0,0,0,0,0,0,0,0,0,0,0,0,0,0,0,0,0,0,0,0,0,0,0,0,0,0,0],"id":17,"left_children":[1,3,5,7,9,11,13,15,-1,17,19,21,-1,23,25,-1,-1,-1,-1,-1,-1,-1,-1,-1,-1,-1,-1],"loss_changes":[9.190926E0,7.724954E0,8.184305E0,7.821855E0,8.346718E0,7.5918245E0,9.540256E0,7.7063494E0,0E0,8.846235E0,8.799997E0,5.910708E0,0E0,1.2142356E1,7.848384E0,0E0,0E0,0E0,0E0,0E0,0E0,0E0,0E0,0E0,0E0,0E0,0E0],"parents":[2147483647,0,0,1,1,2,2,3,3,4,4,5,5,6,6,7,7,9,9,10,10,11,11,13,13,14,14],"right_children":[2,4,6,8,10,12,14,16,-1,18,20,22,-1,24,26,-1,-1,-1,-1,-1,-1,-1,-1,-1,-1,-1,-1],"split_conditions":[3.3155554E2,8.997322E0,-4.557626E-2,1.2303E-1,7.9333334E0,1.2E0,3.3333335E-2,1.2620703E1,-3.7081193E-2,8.093794E0,3.7372117E0,4.8333335E0,-4.9980577E-2,3.1714666E-1,6E0,8.323154E-3,-3.5535586E-3,1.1475365E-2,-3.6281414E-2,-8.96361E-3,1.2743498E-2,1.2830001E-2,-3.2907836E-2,-3.4058287E-3,4.4751156E-2,-2.0759597E-2,6.7852535E-3],"split_indices":[82,47,57,73,9,51,38,118,0,41,12,21,0,99,96,0,0,0,0,0,0,0,0,0,0,0,0],"split_type":[0,0,0,0,0,0,0,0,0,0,0,0,0,0,0,0,0,0,0,0,0,0,0,0,0,0,0],"sum_hessian":[1.310586E3,1.0981198E3,2.1246626E2,6.714172E2,4.2670258E2,4.354695E1,1.6891931E2,6.587955E2,1.2621751E1,3.5308098E1,3.913945E2,2.4538979E1,1.900797E1,5.4794796E1,1.1412451E2,1.9044794E2,4.683475E2,1.5993464E1,1.9314632E1,5.2076363E1,3.393181E2,1.3859959E1,1.067902E1,3.7025234E1,1.7769564E1,7.771886E1,3.640566E1],"tree_param":{"num_deleted":"0","num_feature":"183","num_nodes":"27","size_leaf_vector":"1"}},{"base_weights":[1.3382067E-2,-4.808175E-1,4.2974168E-1,-7.629547E-1,-3.2002917E-1,2.670093E-1,1.1039641E0,-5.379952E-2,-6.3211864E-1,-7.7716047E-1,-1.815028E-1,3.9827698E-1,-2.3134288E-1,1.1931976E0,5.900096E-1,-4.125114E-2,-1.9562779E-2,-4.4254553E-2,-1.9862098E-3,-1.9134693E-2,5.3191455E-3,-2.9694305E-3,2.5222247E-2,-2.7779732E-2,5.2590785E-3,6.162987E-2,3.258137E-2,-0E0,5.0510462E-2],"categories":[],"categories_nodes":[],"categories_segments":[],"categories_sizes":[],"default_left":[0,0,0,0,0,0,0,0,1,0,0,0,0,0,0,0,0,0,0,0,0,0,0,0,0,0,0,0,0],"id":18,"left_children":[1,3,5,7,9,11,13,-1,15,17,19,21,23,25,27,-1,-1,-1,-1,-1,-1,-1,-1,-1,-1,-1,-1,-1,-1],"loss_changes":[2.751254E2,2.7022736E1,7.878125E1,7.3078613E0,2.4427708E1,3.8659832E1,4.6681366E0,0E0,6.565811E0,6.9482536E0,1.7786652E1,2.2800354E1,1.3679137E1,5.180969E-1,6.191904E0,0E0,0E0,0E0,0E0,0E0,0E0,0E0,0E0,0E0,0E0,0E0,0E0,0E0,0E0],"parents":[2147483647,0,0,1,1,2,2,3,3,4,4,5,5,6,6,8,8,9,9,10,10,11,11,12,12,13,13,14,14],"right_children":[2,4,6,8,10,12,14,-1,16,18,20,22,24,26,28,-1,-1,-1,-1,-1,-1,-1,-1,-1,-1,-1,-1,-1,-1],"split_conditions":[8.610403E0,7.975931E0,1.012606E1,7.4087353E0,-5.051463E-2,1E1,1.05E1,-5.379952E-2,5.4074073E0,2.523E3,7.774172E-2,-1.6384553E-2,9.363473E0,9.301055E-2,4.4367366E-2,-4.125114E-2,-1.9562779E-2,-4.4254553E-2,-1.9862098E-3,-1.9134693E-2,5.3191455E-3,-2.9694305E-3,2.5222247E-2,-2.7779732E-2,5.2590785E-3,6.162987E-2,3.258137E-2,-0E0,5.0510462E-2],"split_indices":[182,182,182,182,57,9,9,0,157,64,116,112,182,101,59,0,0,0,0,0,0,0,0,0,0,0,0,0,0],"split_type":[0,0,0,0,0,0,0,0,0,0,0,0,0,0,0,0,0,0,0,0,0,0,0,0,0,0,0,0,0],"sum_hessian":[1.3331284E3,6.092212E2,7.239073E2,2.1798543E2,3.9123575E2,5.856433E2,1.3826396E2,5.954433E1,1.584411E2,8.850587E1,3.027299E2,4.6417972E2,1.2146359E2,1.1522594E2,2.3038029E1,8.482496E1,7.361614E1,7.662014E1,1.188573E1,1.782174E2,1.24512474E2,8.721473E1,3.7696497E2,6.1499382E1,5.996421E1,1.04688515E2,1.0537426E1,1.0429898E1,1.260813E1],"tree_param":{"num_deleted":"0","num_feature":"183","num_nodes":"29","size_leaf_vector":"1"}},{"base_weights":[7.108752E-3,-4.7043085E-1,4.030025E-1,-7.94971E-1,-3.0644614E-1,1.7060187E-1,8.708361E-1,-8.5097665E-1,-9.657482E-3,-8.223647E-1,-1.6865267E-1,4.1123292E-1,-1.5877925E-1,9.562593E-1,1.8507202E-1,-4.8713706E-2,-2.8749196E-2,-4.6255577E-2,-1.18531985E-2,-1.9475615E-2,5.720533E-3,2.7247297E-3,2.9186869E-2,2.2059376E-3,-2.9915003E-2,3.725745E-2,5.8567613E-2,3.3182528E-2,-1.165695E-2],"categories":[],"categories_nodes":[],"categories_segments":[],"categories_sizes":[],"default_left":[0,0,0,0,0,0,0,0,0,0,0,0,0,0,0,0,0,0,0,0,0,0,0,0,0,0,0,0,0],"id":19,"left_children":[1,3,5,7,9,11,13,15,-1,17,19,21,23,25,27,-1,-1,-1,-1,-1,-1,-1,-1,-1,-1,-1,-1,-1,-1],"loss_changes":[2.4838475E2,3.0975327E1,7.7620575E1,6.141838E0,2.790026E1,3.845179E1,1.3343002E1,4.7088623E0,0E0,4.33926E0,2.001456E1,1.7035027E1,1.8438793E1,7.435898E0,6.2138762E0,0E0,0E0,0E0,0E0,0E0,0E0,0E0,0E0,0E0,0E0,0E0,0E0,0E0,0E0],"parents":[2147483647,0,0,1,1,2,2,3,3,4,4,5,5,6,6,7,7,9,9,10,10,11,11,12,12,13,13,14,14],"right_children":[2,4,6,8,10,12,14,16,-1,18,20,22,24,26,28,-1,-1,-1,-1,-1,-1,-1,-1,-1,-1,-1,-1,-1,-1],"split_conditions":[8.594541E0,7.9364343E0,9.619775E0,1.5450224E-1,-5.051463E-2,9.261E0,1.0862E1,6.384165E-2,-9.657482E-3,2.52E3,7.395204E-2,-6.73519E-2,1.0285714E1,1.0249239E1,5.4E0,-4.8713706E-2,-2.8749196E-2,-4.6255577E-2,-1.18531985E-2,-1.9475615E-2,5.720533E-3,2.7247297E-3,2.9186869E-2,2.2059376E-3,-2.9915003E-2,3.725745E-2,5.8567613E-2,3.3182528E-2,-1.165695E-2],"split_indices":[182,182,182,116,57,62,62,91,0,64,116,57,5,182,4,0,0,0,0,0,0,0,0,0,0,0,0,0,0],"split_type":[0,0,0,0,0,0,0,0,0,0,0,0,0,0,0,0,0,0,0,0,0,0,0,0,0,0,0,0,0],"sum_hessian":[1.3098889E3,5.9332263E2,7.165663E2,1.9616988E2,3.9715274E2,4.8085434E2,2.3571196E2,1.7840695E2,1.7762913E1,8.131396E1,3.1583878E2,2.7792502E2,2.0292932E2,2.0864166E2,2.7070297E1,1.1931788E2,5.9089077E1,6.789283E1,1.3421132E1,1.7738719E2,1.3845158E2,9.182422E1,1.8610078E2,1.3975691E2,6.3172417E1,1.1027094E2,9.837073E1,1.2299672E1,1.4770626E1],"tree_param":{"num_deleted":"0","num_feature":"183","num_nodes":"29","size_leaf_vector":"1"}},{"base_weights":[2.7145778E-3,-2.5780675E-1,6.6943365E-1,-6.340843E-1,-7.293065E-2,9.4639134E-1,3.984095E-1,-8.39013E-1,-4.6640915E-1,1.709365E-1,-3.0430013E-1,1.0287194E0,8.03062E-3,1.3430215E-1,9.721064E-1,-4.5575526E-2,-1.7240291E-2,-4.6205036E-2,-1.5841054E-2,2.27297E-2,-2.4111946E-3,-1.0519952E-2,-3.8297497E-2,5.7619818E-2,3.5699047E-2,1.6185535E-2,-1.8328281E-2,2.8974593E-2,5.9033554E-2],"categories":[],"categories_nodes":[],"categories_segments":[],"categories_sizes":[],"default_left":[0,0,0,0,0,0,0,1,0,0,0,1,0,0,0,0,0,0,0,0,0,0,0,0,0,0,0,0,0],"id":20,"left_children":[1,3,5,7,9,11,13,15,17,19,21,23,-1,25,27,-1,-1,-1,-1,-1,-1,-1,-1,-1,-1,-1,-1,-1,-1],"loss_changes":[2.2646027E2,6.4943146E1,2.6479507E1,9.541679E0,3.57263E1,1.1037079E1,2.8154612E1,3.9781647E0,1.111145E1,1.9272236E1,1.3565266E1,4.2786713E0,0E0,1.274954E1,3.1125488E0,0E0,0E0,0E0,0E0,0E0,0E0,0E0,0E0,0E0,0E0,0E0,0E0,0E0,0E0],"parents":[2147483647,0,0,1,1,2,2,3,3,4,4,5,5,6,6,7,7,8,8,9,9,10,10,11,11,13,13,14,14],"right_children":[2,4,6,8,10,12,14,16,18,20,22,24,-1,26,28,-1,-1,-1,-1,-1,-1,-1,-1,-1,-1,-1,-1,-1,-1],"split_conditions":[9.295074E0,8.158906E0,4.863E0,6.386358E-2,9.8220795E-1,1.035E1,1.0330367E1,1.9166667E2,7.475158E0,4.068E0,5.136646E0,7.3E1,8.03062E-3,1.0233334E1,1.0841627E1,-4.5575526E-2,-1.7240291E-2,-4.6205036E-2,-1.5841054E-2,2.27297E-2,-2.4111946E-3,-1.0519952E-2,-3.8297497E-2,5.7619818E-2,3.5699047E-2,1.6185535E-2,-1.8328281E-2,2.8974593E-2,5.9033554E-2],"split_indices":[182,182,61,116,44,62,182,173,182,61,15,52,0,9,182,0,0,0,0,0,0,0,0,0,0,0,0,0,0],"split_type":[0,0,0,0,0,0,0,0,0,0,0,0,0,0,0,0,0,0,0,0,0,0,0,0,0,0,0,0,0],"sum_hessian":[1.2993234E3,9.349264E2,3.6439697E2,3.0606076E2,6.288656E2,1.7739575E2,1.8700122E2,1.335899E2,1.7247087E2,3.059974E2,3.228682E2,1.5978212E2,1.7613642E1,1.2998027E2,5.7020954E1,1.1467433E2,1.8915567E1,3.9603764E1,1.3286711E2,1.3283466E2,1.7316277E2,2.7107532E2,5.1792885E1,1.1043012E2,4.9351994E1,9.511733E1,3.4862938E1,2.2736431E1,3.4284523E1],"tree_param":{"num_deleted":"0","num_feature":"183","num_nodes":"29","size_leaf_vector":"1"}},{"base_weights":[-9.291989E-3,2.1612011E-4,-4.8957262E-2,6.493195E-2,-9.5626734E-2,1.0036972E-1,-1.9614467E-1,-1.7996597E-1,1.6377561E-1,2.0128869E-2,2.8659152E-3,-1.7042724E-2,3.116398E-2,-1.9209301E-2,-4.005029E-3,-7.0354976E-3,2.3481356E-2],"categories":[],"categories_nodes":[],"categories_segments":[],"categories_sizes":[],"default_left":[0,0,0,0,0,0,0,0,0,0,0,0,0,0,0,0,0],"id":21,"left_children":[1,3,-1,5,7,9,11,13,15,-1,-1,-1,-1,-1,-1,-1,-1],"loss_changes":[1.2126191E1,7.963861E0,0E0,7.128276E0,1.136598E1,8.68885E0,1.1256601E1,7.8288813E0,1.2047076E1,0E0,0E0,0E0,0E0,0E0,0E0,0E0,0E0],"parents":[2147483647,0,0,1,1,3,3,4,4,5,5,6,6,7,7,8,8],"right_children":[2,4,-1,6,8,10,12,14,16,-1,-1,-1,-1,-1,-1,-1,-1],"split_conditions":[1.1607E1,3.0036442E-2,-4.8957262E-2,2.7739725E0,7.869043E-1,6.946906E-1,7.520994E-1,1.18E2,3.2567415E-1,2.0128869E-2,2.8659152E-3,-1.7042724E-2,3.116398E-2,-1.9209301E-2,-4.005029E-3,-7.0354976E-3,2.3481356E-2],"split_indices":[62,56,0,156,103,98,89,0,84,0,0,0,0,0,0,0,0],"split_type":[0,0,0,0,0,0,0,0,0,0,0,0,0,0,0,0,0],"sum_hessian":[1.291718E3,1.2809534E3,1.0764689E1,7.6627466E2,5.146787E2,6.7645215E2,8.9822464E1,3.8944293E2,1.2523577E2,8.1687E1,5.947652E2,7.7540924E1,1.2281541E1,1.25370155E2,2.6407278E2,6.297148E1,6.2264286E1],"tree_param":{"num_deleted":"0","num_feature":"183","num_nodes":"17","size_leaf_vector":"1"}},{"base_weights":[4.337411E-4,-4.19644E-1,3.9505324E-1,-7.4459285E-1,-2.581497E-1,2.7250078E-1,1.0774685E0,-1.071908E0,-6.2270826E-1,-1.0974615E-1,-5.976542E-1,4.583456E-1,-5.347956E-2,1.1847941E0,6.07088E-1,-5.813068E-2,-2.8447896E-2,-4.1273583E-2,-1.7521076E-2,3.5261777E-3,-1.8741295E-2,-1.511354E-2,-4.540098E-2,3.2364447E-2,8.829506E-3,-2.4985947E-2,5.6871413E-3,6.457488E-2,4.0837098E-2,4.6515814E-3,4.9314257E-2],"categories":[],"categories_nodes":[],"categories_segments":[],"categories_sizes":[],"default_left":[0,0,0,0,0,0,0,0,0,1,0,0,0,1,0,0,0,0,0,0,0,0,0,0,0,0,0,0,0,0,0],"id":22,"left_children":[1,3,5,7,9,11,13,15,17,19,21,23,25,27,29,-1,-1,-1,-1,-1,-1,-1,-1,-1,-1,-1,-1,-1,-1,-1,-1],"loss_changes":[2.1442044E2,3.2281464E1,5.4942406E1,6.5624466E0,2.0981468E1,3.457394E1,3.284462E0,7.3950195E-1,7.779789E0,1.427724E1,1.0893208E1,1.8915787E1,1.5700384E1,5.9111786E-1,4.1126804E0,0E0,0E0,0E0,0E0,0E0,0E0,0E0,0E0,0E0,0E0,0E0,0E0,0E0,0E0,0E0,0E0],"parents":[2147483647,0,0,1,1,2,2,3,3,4,4,5,5,6,6,7,7,8,8,9,9,10,10,11,11,12,12,13,13,14,14],"right_children":[2,4,6,8,10,12,14,16,18,20,22,24,26,28,30,-1,-1,-1,-1,-1,-1,-1,-1,-1,-1,-1,-1,-1,-1,-1,-1],"split_conditions":[8.667821E0,7.975931E0,1.0330367E1,7.037037E-2,9.122E0,4.883721E0,1.11E1,6.387179E-2,7.713903E0,4.402174E0,4.339286E0,9.255E0,-4.2189173E-3,8.74E1,-5.4597986E-5,-5.813068E-2,-2.8447896E-2,-4.1273583E-2,-1.7521076E-2,3.5261777E-3,-1.8741295E-2,-1.511354E-2,-4.540098E-2,3.2364447E-2,8.829506E-3,-2.4985947E-2,5.6871413E-3,6.457488E-2,4.0837098E-2,4.6515814E-3,4.9314257E-2],"split_indices":[182,182,182,179,62,15,32,112,182,136,136,62,112,49,113,0,0,0,0,0,0,0,0,0,0,0,0,0,0,0,0],"split_type":[0,0,0,0,0,0,0,0,0,0,0,0,0,0,0,0,0,0,0,0,0,0,0,0,0,0,0,0,0,0,0],"sum_hessian":[1.2895043E3,6.2429755E2,6.652067E2,2.0445206E2,4.198455E2,5.665532E2,9.865353E1,5.0800358E1,1.5365169E2,2.943955E2,1.2544998E2,3.6071005E2,2.0584317E2,7.750631E1,2.1147215E1,4.0479214E1,1.0321143E1,8.5319305E1,6.833238E1,1.7565398E2,1.1874154E2,6.662927E1,5.8820713E1,2.1393927E2,1.4677078E2,5.5352417E1,1.5049074E2,5.5774956E1,2.1731356E1,1.0258476E1,1.0888739E1],"tree_param":{"num_deleted":"0","num_feature":"183","num_nodes":"31","size_leaf_vector":"1"}},{"base_weights":[-4.3068714E-3,-2.4609116E-1,6.1672693E-1,-5.0421506E-1,1.569079E-2,4.9209994E-1,6.1124723E-2,-7.33056E-1,-3.640772E-1,2.2307456E-1,-3.5363197E-1,8.1721014E-1,1.9471505E-1,-1.7781695E-2,-4.2100295E-2,-2.3279458E-3,-2.670278E-2,4.7682106E-2,6.9782133E-3,-1.0329037E-2,-5.116951E-2,4.5864288E-2,-7.365601E-5,-9.99879E-3,2.1861633E-2],"categories":[],"categories_nodes":[],"categories_segments":[],"categories_sizes":[],"default_left":[0,0,0,0,0,0,0,0,0,0,1,0,0,0,0,0,0,0,0,0,0,0,0,0,0],"id":23,"left_children":[1,3,5,7,9,11,-1,13,15,17,19,21,23,-1,-1,-1,-1,-1,-1,-1,-1,-1,-1,-1,-1],"loss_changes":[1.9467383E2,6.320774E1,2.587497E1,1.433844E1,3.5757103E1,2.8954369E1,0E0,6.407608E0,1.5830093E1,1.7784336E1,1.584672E1,1.2040779E1,1.5744898E1,0E0,0E0,0E0,0E0,0E0,0E0,0E0,0E0,0E0,0E0,0E0,0E0],"parents":[2147483647,0,0,1,1,2,2,3,3,4,4,5,5,7,7,8,8,9,9,10,10,11,11,12,12],"right_children":[2,4,6,8,10,12,-1,14,16,18,20,22,24,-1,-1,-1,-1,-1,-1,-1,-1,-1,-1,-1,-1],"split_conditions":[9.281164E0,8.423934E0,1.0841627E1,7.8955407E0,1.0241593E0,4.824E0,6.1124723E-2,9.3292683E-1,4.0526314E0,7.736E0,8.6E1,1.0195E1,4.0533885E-1,-1.7781695E-2,-4.2100295E-2,-2.3279458E-3,-2.670278E-2,4.7682106E-2,6.9782133E-3,-1.0329037E-2,-5.116951E-2,4.5864288E-2,-7.365601E-5,-9.99879E-3,2.1861633E-2],"split_indices":[182,182,182,182,44,61,0,137,15,62,49,62,100,0,0,0,0,0,0,0,0,0,0,0,0],"split_type":[0,0,0,0,0,0,0,0,0,0,0,0,0,0,0,0,0,0,0,0,0,0,0,0,0],"sum_hessian":[1.2929475E3,9.317306E2,3.6121692E2,4.6859515E2,4.631354E2,3.0286264E2,5.8354282E1,1.7421625E2,2.943789E2,2.9744583E2,1.6568959E2,1.4269528E2,1.6016734E2,4.134699E1,1.3286926E2,1.0394149E2,1.9043741E2,2.8129402E1,2.693164E2,1.382509E2,2.7438694E1,1.2715528E2,1.5540008E1,6.0778362E1,9.9388985E1],"tree_param":{"num_deleted":"0","num_feature":"183","num_nodes":"25","size_leaf_vector":"1"}},{"base_weights":[-3.775945E-3,-5.352264E-1,8.330655E-3,-7.316974E-3,-4.3632194E-2,-4.5614626E-2,1.2591468E-1,1.3545962E-2,-2.5796807E-1,-2.0356604E-1,1.7731321E-1,5.3136884E-3,-6.9312314E-3,2.4770863E-2,-1.6801005E-2,1.8507015E-2,-2.3598893E-2,2.8756706E-2,6.077895E-3],"categories":[],"categories_nodes":[],"categories_segments":[],"categories_sizes":[],"default_left":[0,0,0,0,0,0,0,0,0,0,0,0,0,0,0,0,0,0,0],"id":24,"left_children":[1,3,5,-1,-1,7,9,11,13,15,17,-1,-1,-1,-1,-1,-1,-1,-1],"loss_changes":[8.362728E0,3.3398476E0,7.9884133E0,0E0,0E0,1.0868042E1,6.7799664E0,9.537338E0,1.1377371E1,8.66972E0,7.362157E0,0E0,0E0,0E0,0E0,0E0,0E0,0E0,0E0],"parents":[2147483647,0,0,1,1,2,2,5,5,6,6,7,7,8,8,9,9,10,10],"right_children":[2,4,6,-1,-1,8,10,12,14,16,18,-1,-1,-1,-1,-1,-1,-1,-1],"split_conditions":[1.2333333E1,8.992665E0,2.459E3,-7.316974E-3,-4.3632194E-2,4.965517E0,3.5620053E0,2.377E3,1.9298667E-1,3.1488386E-1,4.02439E0,5.3136884E-3,-6.9312314E-3,2.4770863E-2,-1.6801005E-2,1.8507015E-2,-2.3598893E-2,2.8756706E-2,6.077895E-3],"split_indices":[54,46,64,0,0,21,12,64,76,99,15,0,0,0,0,0,0,0,0],"split_type":[0,0,0,0,0,0,0,0,0,0,0,0,0,0,0,0,0,0,0],"sum_hessian":[1.2799951E3,2.6952366E1,1.2530427E3,1.4128667E1,1.2823699E1,8.586389E2,3.9440375E2,6.722767E2,1.8636226E2,5.189948E1,3.4250427E2,4.1891876E2,2.5335793E2,1.6250433E1,1.7011183E2,1.6063038E1,3.583644E1,3.937083E1,3.0313345E2],"tree_param":{"num_deleted":"0","num_feature":"183","num_nodes":"19","size_leaf_vector":"1"}},{"base_weights":[5.7772133E-3,-4.0564796E-1,3.8014132E-1,-7.0344627E-1,-2.8202048E-1,1.701401E-1,7.1836185E-1,-3.242327E-1,-8.365568E-1,-9.640688E-2,-5.3362525E-1,3.6863798E-1,-1.3336182E-1,5.6927574E-1,1.1208416E0,-2.824747E-2,2.5426278E-2,-4.7266904E-2,-2.2799885E-2,-3.0889967E-2,1.6500835E-3,-2.999456E-2,8.692256E-3,1.1900215E-2,4.563519E-2,-8.332591E-4,-4.008696E-2,4.3935485E-2,1.565048E-2,6.0329404E-2,2.821964E-2],"categories":[],"categories_nodes":[],"categories_segments":[],"categories_sizes":[],"default_left":[0,0,0,1,0,0,0,0,0,0,0,0,0,0,0,0,0,0,0,0,0,0,0,0,0,0,0,0,0,0,0],"id":25,"left_children":[1,3,5,7,9,11,13,15,17,19,21,23,25,27,29,-1,-1,-1,-1,-1,-1,-1,-1,-1,-1,-1,-1,-1,-1,-1,-1],"loss_changes":[1.9726494E2,2.1862E1,4.722502E1,8.165825E0,2.0078186E1,2.525834E1,1.3745895E1,1.0543555E1,4.216263E0,1.7236975E1,8.905907E0,1.7313526E1,1.2749286E1,1.437476E1,1.4693985E0,0E0,0E0,0E0,0E0,0E0,0E0,0E0,0E0,0E0,0E0,0E0,0E0,0E0,0E0,0E0,0E0],"parents":[2147483647,0,0,1,1,2,2,3,3,4,4,5,5,6,6,7,7,8,8,9,9,10,10,11,11,12,12,13,13,14,14],"right_children":[2,4,6,8,10,12,14,16,18,20,22,24,26,28,30,-1,-1,-1,-1,-1,-1,-1,-1,-1,-1,-1,-1,-1,-1,-1,-1],"split_conditions":[8.658751E0,7.9099755E0,9.535432E0,9.230769E-1,9.8220795E-1,9.355E0,1.069754E1,2.5709E-1,6.655141E-2,1.9048447E-2,9.165495E-2,4.1512543E-1,1.0621E1,4.851E0,1.2153246E1,-2.824747E-2,2.5426278E-2,-4.7266904E-2,-2.2799885E-2,-3.0889967E-2,1.6500835E-3,-2.999456E-2,8.692256E-3,1.1900215E-2,4.563519E-2,-8.332591E-4,-4.008696E-2,4.3935485E-2,1.565048E-2,6.0329404E-2,2.821964E-2],"split_indices":[182,182,182,137,44,62,182,75,91,115,86,100,62,61,41,0,0,0,0,0,0,0,0,0,0,0,0,0,0,0,0],"split_type":[0,0,0,0,0,0,0,0,0,0,0,0,0,0,0,0,0,0,0,0,0,0,0,0,0,0,0,0,0,0,0],"sum_hessian":[1.2767821E3,6.0794775E2,6.6883435E2,1.7511841E2,4.3282935E2,4.1485077E2,2.5398357E2,4.7674488E1,1.2744392E2,2.5112839E2,1.8170096E2,2.5095175E2,1.6389902E2,1.8921906E2,6.476453E1,3.76692E1,1.000529E1,9.639586E1,3.1048056E1,4.8742054E1,2.0238634E2,1.666759E2,1.5025058E1,2.0497778E2,4.5973965E1,1.4153632E2,2.2362707E1,8.316343E1,1.0605562E2,5.378095E1,1.0983574E1],"tree_param":{"num_deleted":"0","num_feature":"183","num_nodes":"31","size_leaf_vector":"1"}},{"base_weights":[-2.3358766E-2,-3.1622496E-1,4.1998047E-1,-5.997074E-1,-1.6780218E-1,2.6248553E-1,9.024223E-1,-5.2344657E-2,-5.1263416E-1,-3.260826E-1,8.774565E-2,1.699517E-2,5.110891E-1,6.6268975E-1,1.1133937E0,-4.7596317E-2,-1.9736677E-2,-3.2389004E-2,-7.877226E-3,2.2514341E-2,-3.722851E-3,7.652962E-3,-2.0564953E-2,3.4029838E-2,1.0714649E-3,-2.7562461E-3,4.2346135E-2,5.9011098E-2,3.2210335E-2],"categories":[],"categories_nodes":[],"categories_segments":[],"categories_sizes":[],"default_left":[0,0,0,0,0,0,0,0,0,0,1,0,0,0,1,0,0,0,0,0,0,0,0,0,0,0,0,0,0],"id":26,"left_children":[1,3,5,7,9,11,13,-1,15,17,19,21,23,25,27,-1,-1,-1,-1,-1,-1,-1,-1,-1,-1,-1,-1,-1,-1],"loss_changes":[1.6498125E2,3.1852242E1,3.768795E1,8.809013E0,2.0557669E1,2.3317472E1,4.4016647E0,0E0,1.0551338E1,1.6613785E1,1.1579482E1,1.148021E1,1.563031E1,8.592077E0,6.3583374E-2,0E0,0E0,0E0,0E0,0E0,0E0,0E0,0E0,0E0,0E0,0E0,0E0,0E0,0E0],"parents":[2147483647,0,0,1,1,2,2,3,3,4,4,5,5,6,6,8,8,9,9,10,10,11,11,12,12,13,13,14,14],"right_children":[2,4,6,8,10,12,14,-1,16,18,20,22,24,26,28,-1,-1,-1,-1,-1,-1,-1,-1,-1,-1,-1,-1,-1,-1],"split_conditions":[8.919796E0,8.102636E0,1.012606E1,-3.518826E-2,5.426972E-2,-6.15049E-2,1.069754E1,-5.2344657E-2,7.4087353E0,4.523253E-2,2.6703296E0,7.4465215E-1,9.735E0,3.6748583E0,1.89E2,-4.7596317E-2,-1.9736677E-2,-3.2389004E-2,-7.877226E-3,2.2514341E-2,-3.722851E-3,7.652962E-3,-2.0564953E-2,3.4029838E-2,1.0714649E-3,-2.7562461E-3,4.2346135E-2,5.9011098E-2,3.2210335E-2],"split_indices":[182,182,182,57,57,57,182,0,182,116,136,72,62,26,174,0,0,0,0,0,0,0,0,0,0,0,0,0,0],"split_type":[0,0,0,0,0,0,0,0,0,0,0,0,0,0,0,0,0,0,0,0,0,0,0,0,0,0,0,0,0],"sum_hessian":[1.2667736E3,7.6346173E2,5.0331186E2,2.5980823E2,5.0365347E2,3.8208234E2,1.2122951E2,3.8375973E1,2.2143225E2,3.1115927E2,1.9249423E2,1.9372478E2,1.8835756E2,6.106733E1,6.0162178E1,4.3501907E1,1.7793034E2,1.0461031E2,2.0654895E2,5.87847E1,1.3370953E2,1.4834843E2,4.537634E1,1.390379E2,4.931966E1,1.2536843E1,4.8530487E1,4.963524E1,1.0526941E1],"tree_param":{"num_deleted":"0","num_feature":"183","num_nodes":"29","size_leaf_vector":"1"}},{"base_weights":[1.9715105E-3,-2.4374826E-1,5.110764E-1,-5.483161E-1,-7.138784E-2,3.6798495E-1,1.0064043E0,-8.234964E-1,-4.0336347E-1,2.1958774E-1,-2.2702463E-1,7.2569E-1,1.5657772E-1,2.3215631E-2,1.0710332E0,-4.4178065E-2,-1.0964184E-2,-3.4024895E-3,-3.1431366E-2,1.7975537E-2,-1.0652337E-2,-2.6325995E-2,1.0077906E-3,2.430623E-2,5.3638738E-2,2.6034642E-2,-7.1984E-4,5.709341E-2,2.4552159E-2],"categories":[],"categories_nodes":[],"categories_segments":[],"categories_sizes":[],"default_left":[0,0,0,0,0,0,0,0,0,0,0,0,1,0,1,0,0,0,0,0,0,0,0,0,0,0,0,0,0],"id":27,"left_children":[1,3,5,7,9,11,13,15,17,19,21,23,25,-1,27,-1,-1,-1,-1,-1,-1,-1,-1,-1,-1,-1,-1,-1,-1],"loss_changes":[1.6045987E2,4.5184574E1,2.8588257E1,1.1525002E1,2.522821E1,2.436443E1,1.9267883E0,3.2083588E0,1.5530048E1,1.1921711E1,2.6989428E1,8.686737E0,1.3112696E1,0E0,1.8581619E0,0E0,0E0,0E0,0E0,0E0,0E0,0E0,0E0,0E0,0E0,0E0,0E0,0E0,0E0],"parents":[2147483647,0,0,1,1,2,2,3,3,4,4,5,5,6,6,7,7,8,8,9,9,10,10,11,11,12,12,14,14],"right_children":[2,4,6,8,10,12,14,16,18,20,22,24,26,-1,28,-1,-1,-1,-1,-1,-1,-1,-1,-1,-1,-1,-1,-1,-1],"split_conditions":[9.150062E0,8.18869E0,1.0330367E1,7.7039056E0,4.044E0,9.083E0,-2.0285955E-1,1.2173472E-1,8.286E0,1.015934E0,7.5620234E-1,4.447901E0,7.12E1,2.3215631E-2,1.01E2,-4.4178065E-2,-1.0964184E-2,-3.4024895E-3,-3.1431366E-2,1.7975537E-2,-1.0652337E-2,-2.6325995E-2,1.0077906E-3,2.430623E-2,5.3638738E-2,2.6034642E-2,-7.1984E-4,5.709341E-2,2.4552159E-2],"split_indices":[182,182,182,182,61,62,59,110,62,44,103,27,49,0,159,0,0,0,0,0,0,0,0,0,0,0,0,0,0],"split_type":[0,0,0,0,0,0,0,0,0,0,0,0,0,0,0,0,0,0,0,0,0,0,0,0,0,0,0,0,0],"sum_hessian":[1.2782632E3,8.625854E2,4.156778E2,3.097398E2,5.528456E2,3.2552808E2,9.01497E1,1.0315907E2,2.0658073E2,1.9192307E2,3.6092255E2,1.18764656E2,2.0676343E2,1.1676158E1,7.847354E1,9.2689156E1,1.0469915E1,8.4416145E1,1.221646E2,1.4562517E2,4.629789E1,1.6253569E2,1.9838686E2,7.344722E1,4.5317436E1,6.513272E1,1.416307E2,6.789861E1,1.0574925E1],"tree_param":{"num_deleted":"0","num_feature":"183","num_nodes":"29","size_leaf_vector":"1"}},{"base_weights":[-1.2817825E-2,-1.6531089E-1,3.7523184E-2,3.0900362E-1,-2.1677668E-1,1.0205549E-1,-9.861196E-2,-5.912769E-4,4.1612994E-2,1.7329073E-2,-2.5799716E-1,-1.23586856E-1,1.7989123E-1,-1.9858304E-2,-4.4317678E-1,-1.6669981E-2,6.2439977E-3,-1.2585725E-2,1.6291201E-2,-8.219113E-3,1.1778301E-2,2.1896434E-3,-3.194054E-2,-3.8085666E-2,-4.5694457E-3],"categories":[],"categories_nodes":[],"categories_segments":[],"categories_sizes":[],"default_left":[0,0,0,0,0,0,0,0,0,0,1,0,1,0,0,0,0,0,0,0,0,0,0,0,0],"id":28,"left_children":[1,3,5,7,9,11,13,-1,-1,-1,15,17,19,21,23,-1,-1,-1,-1,-1,-1,-1,-1,-1,-1],"loss_changes":[9.6596575E0,7.7421923E0,8.304679E0,5.3922997E0,6.742236E0,1.132563E1,8.118974E0,0E0,0E0,0E0,7.791559E0,9.656258E0,9.264762E0,1.0000899E1,5.948761E0,0E0,0E0,0E0,0E0,0E0,0E0,0E0,0E0,0E0,0E0],"parents":[2147483647,0,0,1,1,2,2,3,3,4,4,5,5,6,6,10,10,11,11,12,12,13,13,14,14],"right_children":[2,4,6,8,10,12,14,-1,-1,-1,16,18,20,22,24,-1,-1,-1,-1,-1,-1,-1,-1,-1,-1],"split_conditions":[4.445587E-2,3.503876E0,9.433333E0,1.1308518E-3,3.2189693E-2,8.1E0,3.4133334E2,-5.912769E-4,4.1612994E-2,1.7329073E-2,1E2,6E1,1.1746704E1,1.05E1,4.2389488E-1,-1.6669981E-2,6.2439977E-3,-1.2585725E-2,1.6291201E-2,-8.219113E-3,1.1778301E-2,2.1896434E-3,-3.194054E-2,-3.8085666E-2,-4.5694457E-3],"split_indices":[106,15,23,108,91,23,82,0,0,0,159,134,172,9,85,0,0,0,0,0,0,0,0,0,0],"split_type":[0,0,0,0,0,0,0,0,0,0,0,0,0,0,0,0,0,0,0,0,0,0,0,0,0],"sum_hessian":[1.2513707E3,3.1042776E2,9.40943E2,2.9026073E1,2.8140167E2,6.3968304E2,3.0125995E2,1.8968382E1,1.005769E1,1.784513E1,2.6355655E2,1.6310469E2,4.7657837E2,2.4740811E2,5.3851833E1,2.2084494E2,4.271162E1,1.2795063E2,3.515406E1,6.529839E1,4.1127997E2,2.2573009E2,2.1678024E1,2.6740145E1,2.7111689E1],"tree_param":{"num_deleted":"0","num_feature":"183","num_nodes":"25","size_leaf_vector":"1"}},{"base_weights":[1.18305115E-2,-4.395556E-1,2.6148576E-1,-9.819808E-1,-3.740114E-1,1.155278E-1,6.666235E-1,-2.5688753E-2,-5.4363888E-2,-4.4095016E-1,2.1529977E-1,-1.8813294E-1,2.9938218E-1,9.572445E-1,4.1724348E-1,-3.1822168E-3,-2.7212655E-2,3.716011E-2,-1.3591065E-2,-4.895255E-2,-4.6132044E-3,2.1281863E-2,-3.5863803E-3,5.2141916E-2,1.9470206E-2,1.0991189E-2,4.8253145E-2],"categories":[],"categories_nodes":[],"categories_segments":[],"categories_sizes":[],"default_left":[0,0,0,0,0,0,0,0,0,0,0,0,1,1,0,0,0,0,0,0,0,0,0,0,0,0,0],"id":29,"left_children":[1,3,5,7,9,11,13,-1,-1,15,17,19,21,23,25,-1,-1,-1,-1,-1,-1,-1,-1,-1,-1,-1,-1],"loss_changes":[1.413127E2,1.4865631E1,4.7459866E1,8.583908E-1,1.6087017E1,3.3446518E1,1.4376228E1,0E0,0E0,1.3911736E1,1.1306017E1,1.6729025E1,1.7600685E1,3.5931778E0,1.217012E1,0E0,0E0,0E0,0E0,0E0,0E0,0E0,0E0,0E0,0E0,0E0,0E0],"parents":[2147483647,0,0,1,1,2,2,3,3,4,4,5,5,6,6,9,9,10,10,11,11,12,12,13,13,14,14],"right_children":[2,4,6,8,10,12,14,-1,-1,16,18,20,22,24,26,-1,-1,-1,-1,-1,-1,-1,-1,-1,-1,-1,-1],"split_conditions":[8.423934E0,7.3903403E0,9.656621E0,3.375E0,9.610504E-2,-6.0016487E-2,4.929E0,-2.5688753E-2,-5.4363888E-2,3.577E0,4.4761553E-2,-1.0648917E-2,8.23E1,6.82E1,1.0841627E1,-3.1822168E-3,-2.7212655E-2,3.716011E-2,-1.3591065E-2,-4.895255E-2,-4.6132044E-3,2.1281863E-2,-3.5863803E-3,5.2141916E-2,1.9470206E-2,1.0991189E-2,4.8253145E-2],"split_indices":[182,182,182,3,86,57,61,0,0,61,56,115,49,53,182,0,0,0,0,0,0,0,0,0,0,0,0],"split_type":[0,0,0,0,0,0,0,0,0,0,0,0,0,0,0,0,0,0,0,0,0,0,0,0,0,0,0],"sum_hessian":[1.2502611E3,4.4441663E2,8.058444E2,4.456811E1,3.9984854E2,5.946686E2,2.1117581E2,1.0690497E1,3.3877617E1,3.5982013E2,4.0028408E1,2.2383688E2,3.7083173E2,9.453185E1,1.1664395E2,7.84513E1,2.8136884E2,1.8902536E1,2.112587E1,2.1981178E1,2.0185571E2,2.7687967E2,9.395204E1,8.038914E1,1.414272E1,8.807255E1,2.85714E1],"tree_param":{"num_deleted":"0","num_feature":"183","num_nodes":"27","size_leaf_vector":"1"}},{"base_weights":[-7.664819E-3,-2.6703906E-1,3.8462323E-1,-4.2945406E-1,-4.0136505E-2,1.7085847E-1,6.787032E-1,1.6373932E-2,-4.656326E-1,-4.263904E-1,1.5622127E-1,4.4094124E-1,-1.1139323E-1,7.734309E-1,7.1400486E-2,-3.33225E-2,-1.6170867E-2,-8.00525E-3,-3.523987E-2,-6.934713E-3,2.0418357E-2,6.381345E-3,3.8422223E-2,6.562616E-3,-2.996324E-2,4.523309E-3,4.311533E-2,-1.748315E-2,3.898115E-2],"categories":[],"categories_nodes":[],"categories_segments":[],"categories_sizes":[],"default_left":[0,0,0,0,0,0,0,0,0,0,0,0,0,0,0,0,0,0,0,0,0,0,0,0,0,0,0,0,0],"id":30,"left_children":[1,3,5,7,9,11,13,-1,15,17,19,21,23,25,27,-1,-1,-1,-1,-1,-1,-1,-1,-1,-1,-1,-1,-1,-1],"loss_changes":[1.284161E2,2.7885315E1,3.1164291E1,1.2445335E1,2.4445372E1,2.2563946E1,1.1818497E1,0E0,1.1457771E1,7.658121E0,1.6018625E1,1.5110996E1,1.7406233E1,1.0666031E1,9.835096E0,0E0,0E0,0E0,0E0,0E0,0E0,0E0,0E0,0E0,0E0,0E0,0E0,0E0,0E0],"parents":[2147483647,0,0,1,1,2,2,3,3,4,4,5,5,6,6,8,8,9,9,10,10,11,11,12,12,13,13,14,14],"right_children":[2,4,6,8,10,12,14,-1,16,18,20,22,24,26,28,-1,-1,-1,-1,-1,-1,-1,-1,-1,-1,-1,-1,-1,-1],"split_conditions":[8.919796E0,8.423934E0,9.656621E0,3.1E0,-4.8321478E-2,1.0229481E0,2.7739725E0,1.6373932E-2,5.9883706E-2,-3.186118E-2,1.2447123E-2,4.2620398E-2,1.0447338E1,-2.4460068E-1,1.0330367E1,-3.33225E-2,-1.6170867E-2,-8.00525E-3,-3.523987E-2,-6.934713E-3,2.0418357E-2,6.381345E-3,3.8422223E-2,6.562616E-3,-2.996324E-2,4.523309E-3,4.311533E-2,-1.748315E-2,3.898115E-2],"split_indices":[182,182,182,8,57,44,156,0,116,56,107,115,42,57,182,0,0,0,0,0,0,0,0,0,0,0,0,0,0],"split_type":[0,0,0,0,0,0,0,0,0,0,0,0,0,0,0,0,0,0,0,0,0,0,0,0,0,0,0,0,0],"sum_hessian":[1.2582942E3,7.5816E2,5.0013422E2,4.403175E2,3.1784247E2,2.9183984E2,2.0829437E2,1.9098759E1,4.2121875E2,1.06676155E2,2.111663E2,1.4892229E2,1.4291756E2,1.7943022E2,2.8864143E1,1.7099033E2,2.5022844E2,5.6502373E1,5.017378E1,9.737776E1,1.1378854E2,7.7842415E1,7.1079865E1,9.614922E1,4.6768337E1,2.1384806E1,1.5804543E2,1.855983E1,1.0304315E1],"tree_param":{"num_deleted":"0","num_feature":"183","num_nodes":"29","size_leaf_vector":"1"}},{"base_weights":[-1.8543004E-4,-3.1916565E-1,2.7606285E-1,-7.2995424E-1,-2.3146927E-1,1.1918718E-1,6.5132535E-1,-8.812531E-3,-7.994464E-1,-1.0063633E-1,-5.818788E-1,3.3431643E-1,-1.5942687E-1,4.9576494E-1,5.3810842E-2,-1.5603318E-2,-4.4910595E-2,-1.2460243E-2,8.766689E-3,6.751633E-3,-3.2754704E-2,2.402153E-2,1.0662742E-3,-1.2226681E-2,2.8881038E-2,5.0452924E-3,3.540055E-2],"categories":[],"categories_nodes":[],"categories_segments":[],"categories_sizes":[],"default_left":[0,0,0,0,0,0,0,0,0,0,0,1,0,0,0,0,0,0,0,0,0,0,0,0,0,0,0],"id":31,"left_children":[1,3,5,7,9,11,13,-1,15,17,19,21,23,25,-1,-1,-1,-1,-1,-1,-1,-1,-1,-1,-1,-1,-1],"loss_changes":[1.10186905E2,2.0386795E1,3.911695E1,3.4023361E0,2.183511E1,2.861879E1,1.1613831E1,0E0,3.466507E0,1.4602314E1,7.1125717E0,1.2188078E1,1.326074E1,1.2096565E1,0E0,0E0,0E0,0E0,0E0,0E0,0E0,0E0,0E0,0E0,0E0,0E0,0E0],"parents":[2147483647,0,0,1,1,2,2,3,3,4,4,5,5,6,6,8,8,9,9,10,10,11,11,12,12,13,13],"right_children":[2,4,6,8,10,12,14,-1,16,18,20,22,24,26,-1,-1,-1,-1,-1,-1,-1,-1,-1,-1,-1,-1,-1],"split_conditions":[8.644605E0,7.7039056E0,9.699188E0,1.9E1,9.113E0,1.0241593E0,1.0841627E1,-8.812531E-3,2.1154222E-1,9.522777E-2,3E0,5.4E0,6.155007E-1,-1.5564588E-1,5.3810842E-2,-1.5603318E-2,-4.4910595E-2,-1.2460243E-2,8.766689E-3,6.751633E-3,-3.2754704E-2,2.402153E-2,1.0662742E-3,-1.2226681E-2,2.8881038E-2,5.0452924E-3,3.540055E-2],"split_indices":[182,182,182,161,62,44,182,0,102,57,96,136,179,57,0,0,0,0,0,0,0,0,0,0,0,0,0],"split_type":[0,0,0,0,0,0,0,0,0,0,0,0,0,0,0,0,0,0,0,0,0,0,0,0,0,0,0],"sum_hessian":[1.2463533E3,5.7863007E2,6.677232E2,9.881791E1,4.7981216E2,4.731109E2,1.9461229E2,1.21287E1,8.668921E1,3.5165817E2,1.28154E2,2.6715085E2,2.0596007E2,1.4597319E2,4.863909E1,1.635015E1,7.0339066E1,2.2919157E2,1.224666E2,1.14655075E1,1.1668849E2,1.8096274E2,8.61881E1,1.8608112E2,1.9878948E1,5.2393776E1,9.3579414E1],"tree_param":{"num_deleted":"0","num_feature":"183","num_nodes":"27","size_leaf_vector":"1"}},{"base_weights":[-4.287741E-3,-2.4406542E-1,3.8948032E-1,-5.1158774E-1,-8.308871E-2,3.1043243E-1,1.0526747E0,-6.5621966E-1,-2.677128E-1,-4.3905714E-1,8.8075995E-2,5.666707E-1,1.2960276E-1,5.84678E-2,2.4597527E-2,-3.5445165E-2,1.7925481E-3,2.9206727E-2,-1.8708074E-2,1.8818108E-2,-2.5810564E-2,1.1771571E-2,-1.4505127E-2,3.1868543E-2,-2.193531E-2,2.0885896E-2,-5.162456E-3],"categories":[],"categories_nodes":[],"categories_segments":[],"categories_sizes":[],"default_left":[0,0,0,0,0,1,0,0,0,0,0,0,0,0,0,0,0,0,0,0,0,0,0,0,0,0,0],"id":32,"left_children":[1,3,5,7,9,11,13,15,17,19,21,23,25,-1,-1,-1,-1,-1,-1,-1,-1,-1,-1,-1,-1,-1,-1],"loss_changes":[1.1628509E2,3.2782494E1,2.3500175E1,9.583504E0,2.9458694E1,1.9147968E1,1.6914101E0,6.6828384E0,1.0433172E1,1.0288893E1,1.8300808E1,1.285878E1,1.6850317E1,0E0,0E0,0E0,0E0,0E0,0E0,0E0,0E0,0E0,0E0,0E0,0E0,0E0,0E0],"parents":[2147483647,0,0,1,1,2,2,3,3,4,4,5,5,6,6,7,7,8,8,9,9,10,10,11,11,12,12],"right_children":[2,4,6,8,10,12,14,16,18,20,22,24,26,-1,-1,-1,-1,-1,-1,-1,-1,-1,-1,-1,-1,-1,-1],"split_conditions":[9.039684E0,8.18869E0,1.0841627E1,2.03E1,-4.4018574E-2,7.45E1,6.3116884E0,1.5450224E-1,7.4666667E0,8.019E0,1.0131645E0,1.1128E1,9.261E0,5.84678E-2,2.4597527E-2,-3.5445165E-2,1.7925481E-3,2.9206727E-2,-1.8708074E-2,1.8818108E-2,-2.5810564E-2,1.1771571E-2,-1.4505127E-2,3.1868543E-2,-2.193531E-2,2.0885896E-2,-5.162456E-3],"split_indices":[182,182,182,50,57,49,11,116,9,62,44,62,62,0,0,0,0,0,0,0,0,0,0,0,0,0,0],"split_type":[0,0,0,0,0,0,0,0,0,0,0,0,0,0,0,0,0,0,0,0,0,0,0,0,0,0,0],"sum_hessian":[1.2279089E3,7.639712E2,4.6393768E2,2.8490228E2,4.790689E2,4.174218E2,4.651586E1,1.762024E2,1.0869989E2,1.5492084E2,3.2414807E2,1.7047823E2,2.469436E2,3.6411434E1,1.0104426E1,1.6396124E2,1.2241151E1,1.0868864E1,9.783103E1,1.2496864E1,1.4242397E2,2.3418343E2,8.996466E1,1.6014734E2,1.0330887E1,1.1004833E2,1.3689526E2],"tree_param":{"num_deleted":"0","num_feature":"183","num_nodes":"27","size_leaf_vector":"1"}}]},"name":"gbtree"},"learner_model_param":{"base_score":"[3.9295247E-1]","boost_from_average":"1","num_class":"0","num_feature":"183","num_target":"1"},"objective":{"name":"binary:logistic","reg_loss_param":{"scale_pos_weight":"1"}}},"version":[3,2,0]}